-0.3292911821057961 -0.07648956202180435 0.4396960371026879 -0.07967435159354108 -0.07258105578271035 -0.08425048029428528 -0.4092632301918091 0.40579579333065174 -0.1523143883680692 0.3815271376480729 
-0.21024870432518517 0.409465310031896 0.14492006900028032 -0.4964224832418521 0.009792258141924859 -0.4815401172129039 0.29118181637771723 -0.20831992655079123 0.37534219514200673 0.37858579218299493 
0.4373865936369149 -0.12581949935115389 -0.4961314245660957 0.37598273955542183 -0.04476165664100684 0.18431517252986862 0.49749950635804363 -0.10946438395781133 -0.28250696888850524 0.3007682642993438 
0.4655880934263019 0.3672921028788858 0.3630447603054675 -0.160412669311374 0.41694101999215705 -0.45704767545807623 -0.1705426515492312 0.08852745366011361 -0.27525546292698877 -0.08843233104473425 
0.3779477348330905 0.025090270027851136 0.13772964798926324 -0.08309382144196786 0.1844597912031366 -0.03403142760552469 0.4878751427336433 0.418511900602746 0.3253506315790521 -0.14169656247565143 
-0.17204463257011904 -0.30569387111421376 -0.35265642179956647 0.14210538382219473 -0.2785022405306832 -0.3853511430531198 -0.4212144668305412 0.18838681459574502 -0.19677769984555715 -0.3489010202879598 
0.41287850012800775 -0.45100185169185647 -0.47020660109394696 0.06768185639654978 -0.02656127959195609 -0.35814466896962416 0.24872232955012497 -0.01670635350120986 -0.14013127262501046 0.03919188468693602 
0.32751602435673455 -0.009058286225876344 -0.33958875315399706 0.2266637757110136 0.10567627219342002 -0.3271589857903763 -0.3786137444287666 -0.44241918176257156 -0.1410894459459826 -0.34004361278051876 
0.2649953674498259 0.13923366653219071 -0.20207589739587084 -0.1495987235573505 0.3594108546985795 -0.4427694907281967 0.3634204743043863 0.02317355966626522 0.46224859808825103 -0.33104667788125663 
-0.27555474374542366 0.36202952217169815 -0.017841684738636343 0.17868850447815976 0.43896623858141526 0.33886722147802484 0.33314608359882536 0.3446821283587558 -0.30640967717479406 -0.0031888548144187734 
0.29237758173233974 -0.037684659642543195 0.40357567700507124 -0.07974031781492996 0.11459316291390331 -0.2822092137490876 -0.2751944204665375 0.0824782229068095 0.3048986636164913 0.11316646522224993 
0.20614776358847742 0.32089001085446955 0.20657872705018454 0.42626803489053844 -0.10636867365017588 0.40603800009530155 -0.27828789938658727 -0.4120430834513519 0.18713088374258624 -0.45773945089914836 
-0.4502487341077981 0.43442586706233466 0.14575537607034061 -0.33355504060538754 0.3028615965492536 -0.4763602700691356 0.23989692706843724 0.09579222059895953 -0.2633018525802032 -0.40726597816327026 
0.25590301123683623 -0.08365249753249726 0.12143060600948685 -0.22287070196840164 0.17359248948848138 0.0011204226666495787 0.4702101817721849 -0.0876849808707838 0.3573447534235483 -0.3000594476849755 
-0.05909519128153895 -0.4042989791439283 0.3282482042728414 0.052762305735671755 0.23181193184226268 0.19863124332591076 -0.282197287011023 -0.15604441518631595 0.20319087561738525 -0.31240149700414144 
-0.25707213400839746 -0.06281294508443214 0.2738395918257611 -0.06110487513213103 -0.31246247208660916 0.10881881146899053 0.3655735883465796 0.21237954231278489 0.427698091277519 0.032320091226733405 
0.29834743931127805 -0.4122663487740892 -0.00460361585071889 0.15700929709143085 -0.4251079486402357 0.4605320539503289 -0.459799678008738 -0.028487260347244248 0.43612412354225205 -0.35436146817002856 
-0.1813960452581438 -0.4543520793423027 -0.08278369413241893 0.24189133060498902 -0.48239422688743494 0.3040084231491049 0.38910011581187565 0.17473343464924662 0.3020770854229965 -0.29965134241059743 
-0.2686941179497555 0.25238986490143833 0.46473533211506735 -0.16606337571551655 -0.15057258674134466 -0.3536109249052355 0.45304480316543894 0.07736308426152727 -0.275868885551224 -0.061329230274516644 
0.3491249599941454 0.469866068532687 -0.44148699171186756 0.2652179698214264 -0.4132453383348732 -0.028950081751036527 -0.12326105676076438 -0.3699035678594219 -0.19618180907639637 -0.3330518451755585 
-0.3807128670679145 0.1639796435517259 -0.25095324563066534 -0.32629978054808506 0.3787439592441768 -0.04231674952260378 -0.4113329071762023 -0.20631808398628415 -0.07501242569610944 0.11392781092554638 
-0.20842331531001335 -0.05524998654554414 0.07972633342935409 -0.1705059172283675 0.010922578011904327 0.0053319446499093814 -0.1822584750532239 -0.354869238917496 0.025468816569196306 -0.00358879187383343 
0.195817738917197 0.4820192337877939 -0.14410435771625107 0.4560302910389308 0.34022576504475055 -0.27870401730650496 -0.3708193296466479 0.45275230405082734 0.2597564517796622 0.3770777056616993 
-0.3715293176317739 -0.06840628316949737 -0.3063129946286134 0.36363060732520214 0.23636033103516196 -0.010739909832944594 -0.4473070601923451 -0.03623051275461542 0.1562518666066961 0.23508764639083635 
-0.23439681950433955 -0.13173143270681054 0.37947750285198034 -0.39008653987358344 -0.49397279252398263 -0.424989459868094 -0.14487555359413007 -0.09283232979321143 -0.15973291846422455 -0.4882038721562736 
-0.28499006426119866 -0.2311992431792662 -0.1884408160504656 -0.02181848278594023 0.20801155863347442 0.11323047157186594 -0.1444262487204826 -0.11059348154338466 0.20596614819688452 -0.20668821196529574 
0.22823323608443713 0.3494213725656107 0.2576081159325647 -0.22059512566200223 -0.1807074384245041 0.2802155242748411 -0.3124740886939247 0.3159357493121946 0.32375829443653314 -0.3089025874108908 
0.16387323664402853 0.30941447320151005 0.24810550757252547 -0.3157313046019091 0.49157958980514027 -0.3283034528303874 -0.36061539282478194 -0.03801722414446351 0.1270618948917367 0.46434319250773193 
-0.25730710051817673 0.4257718785837703 0.05594772301179407 0.46825633406163236 0.016118542859269835 0.4396727500188231 0.22707757779601034 0.23733488486538035 0.062147531953859914 0.46707613887449695 
-0.30593797653687604 -0.2142811549097814 0.07065664323819909 0.08477090577990376 -0.02007298965053017 -0.19474179620355436 0.31099890662531193 -0.17205185760365405 -0.04911105491991108 -0.28683615294887443 
0.05932011606705445 -0.07362311903355445 -0.33794200268654295 -0.11063180301115028 0.10212835695995548 -0.24534229885381875 0.22087733401292808 0.17894346279437234 -0.38172893404399344 -0.2615937640906326 
-0.29663795383387526 0.10699554890379559 -0.19114329690698917 -0.46658672465913675 -0.44628882758987576 0.2817723147922194 0.11829176500131833 -0.4737255707508734 -0.3003774701122599 0.1462950310637886 
0.2694854273638113 0.0926768435740235 -0.17635125799675921 -0.4203579204722053 -0.3775918058362021 -0.40652431446982273 -0.15480971541770372 -0.15391566535759138 -0.4424272327216925 -0.21111035584164517 
-0.3117705065782407 0.04359222523453998 -0.31536110362897574 0.20758805120793655 -0.16333300906095516 -0.48719573001289407 -0.31877406734688474 0.02013957950091727 0.012129821470369673 -0.36663221463005224 
0.47815078209137174 0.13523610333065894 -0.4516213556850235 0.056632081390807554 0.3246905233076558 -0.43769816095652714 -0.318051004970067 -0.29800430551540125 -0.008897257908390799 -0.43445765324976626 
0.030419350683154378 -0.22122147353251997 -0.00448116165616641 -0.22781607250388003 -0.01229338682207537 -0.31368923016203165 0.278458670873199 0.19159871197024214 -0.3699524330365892 -0.10799938999153502 
0.1905978032025123 0.05220643782940482 -0.003167424580742706 -0.20953724633669457 0.008050852356616622 0.46948919693586844 0.2872153582564413 0.10636068872996074 0.4443181682833319 0.22115043537821433 
-0.40356887611219516 -0.38056467193030497 -0.2108249494615031 0.32439514683038906 0.30501236581470936 -0.13773660279579025 0.37216595118628626 -0.3144966784861508 0.1296000273659147 -0.030391072734456515 
0.021998815484472578 -0.17668579226774495 0.14580546805313166 0.04280187879456754 0.07301759009709019 -0.44406611322460854 -0.19841392989854256 0.23339796851895322 0.25606368428083603 -0.4160755592530919 
0.05385564216844074 0.2474440491806954 -0.4965801227676966 0.10342802703599085 0.2815583846562789 0.12499414027471079 0.2961632268921478 -0.06087550909368489 -0.4448070881873527 -0.040909333133307024 
-0.3128638973866644 0.19961645099337555 0.1757806651057331 -0.3157530574619378 -0.4561224505073046 0.12678148371487885 0.13553108955517512 0.1865361096217708 -0.12676050056295685 -0.36417455722172054 
0.2979634496458736 -0.23428729183693497 0.31304595934976753 0.024217580887610057 -0.35299688237729554 0.41436334067363323 0.006035235047527121 0.46538203032183056 -0.08742200678427947 0.46990303938537215 
0.10745875400393468 0.19696660738889737 0.24449855918910524 -0.057695939538281005 0.1200924336576138 -0.23629522026221228 0.37691267332202094 0.22376474505400268 0.0990495929551406 0.2813318228787949 
-0.09761562101938004 -0.05390434556965784 -0.4763328455503376 0.45071166321821776 -0.14234661738130638 0.46742137098635017 0.29486955616083 -0.029723564060325502 -0.18760976980744581 -0.1581343430026031 
-0.11620215154291691 0.07007570660843765 0.04776917180334406 0.15420872927594853 0.13112417619155936 0.12217770322216781 0.21343964725295406 -0.21392432254520366 -0.42364565548391864 -0.3301395323431566 
0.059484097194137275 -0.4789652798570804 0.4825547644171557 -0.23802394457894915 0.4542081602638507 0.3930553216717938 -0.0856782538720191 0.17906580523629012 -0.0808829493605221 -0.16390463213111162 
0.32544517650784 -0.005749319184138124 0.33918976790845756 0.002157958499809598 0.11760037147802549 -0.07538431494115949 0.33957026535346424 0.08097796790331435 -0.45746465492604294 0.09775234518523634 
0.05905303052405764 0.07656909571790871 0.13760323020972287 0.18331920488686426 -0.30375194073727285 -0.22581736661632512 -0.39187723801836505 0.3209251992047115 0.25606781034703363 -0.4342010165504445 
-0.3000681213720128 -0.08666412304285098 0.38218711295464936 0.3930937565546415 0.1416332456185957 0.1479485533026611 0.025384196301262874 0.3138905302647559 0.1784123033923356 0.05967662629248649 
-0.03182070007980731 0.10143215923861992 -0.43205780200082045 0.054829856994054293 -0.09705530750960945 -0.15462628968604175 0.16377189144023285 0.0782716394749442 -0.15633158166460637 -0.26078042549733327 
0.3727275156194546 0.025080287349789843 0.14081090229140114 0.11099798629207758 -0.15976130338241556 -0.4268635594011029 0.2642023412636527 0.2822867179618933 -0.30886436537704576 0.34450399735678694 
-0.17931389241503326 0.02527354659940495 -0.46665560396740136 0.19116727682396817 -0.018778788183438144 0.2283558085534052 0.218041658121076 0.4446325256841306 -0.39358519634336253 -0.1221467981272677 
0.04221207955479267 0.16909716789420826 -0.12003639006267164 -0.38327076319485653 -0.3218149165184113 -0.18566464844477248 0.18624062655725726 -0.04921446191222245 -0.3803898909868284 0.1771439032093416 
0.30127160791718144 -0.36138466270877456 0.34446223389147457 0.24913802918604588 -0.2943962739939121 -0.07632891055014512 -0.28694656361548665 0.35388113964873147 -0.026924141002141577 0.04512271742898888 
0.34265665123723 -0.04222089844376842 -0.2587409272209099 -0.10124735763606485 -0.16976652403524095 -0.32313616842017434 -0.2726577752335769 -0.19004580383311254 -0.2691112740277928 0.29553696720285316 
-0.3825033282905429 0.1279706364889186 0.1420577931545699 0.0635394368243839 0.42826106334377145 -0.2461682921391073 -0.4079340672271702 0.1438581158704052 0.11524523629807626 -0.22598451802758035 
-0.3134189449706608 -0.15302404134911107 -0.2125395915984034 0.08768351546119202 -0.37238537272170424 0.20581775024463234 -0.12515984550001968 0.2874073341877943 0.2871080955427884 -0.4790619186980689 
-0.00797559312167384 0.0816247679318759 -0.009225100624524196 -0.2630556190328466 0.043237622059431824 0.23163524192725593 -0.4522490496836341 -0.1011572503023902 0.3210980889666114 0.31676278327830376 
0.3477397586985823 0.48093921099277404 -0.03354448781061892 -0.3616134543510624 -0.46027963631370716 0.08112541357084069 0.17685975628649586 0.22685836777632418 0.4049197082210625 -0.1701781109641125 
-0.021977283593092145 0.22489776372891213 0.04163370491685958 -0.12445185488542176 0.20564259080806502 -0.11312573779460289 0.3906139890598733 0.4780338877521054 -0.41578207979883774 0.055458431911895256 
0.44712011662678164 -0.43501912725141434 0.43498606263254735 0.25544203313037317 0.22937003665732836 0.09003045310216795 -0.4031206975237479 0.47909897744945074 -0.2969957413574851 0.16718700714098755 
-0.39760101493517186 0.3282787459031371 0.39731194717293705 -0.24910726927843663 0.014566204401979865 0.4254939217560687 -0.10864994107879467 -0.4188551861490545 0.10161526447292424 -0.09041544883564279 
-0.3032804386943496 0.2194910678969717 -0.297145899847315 0.39111160483064544 0.3186453206671107 0.2644355479573711 0.2221234110564193 -0.04154753063751837 0.43813922514925596 0.25373091070844545 
0.17454419083857575 -0.30235808846174983 0.2254089772637815 0.3362297869964027 -0.39224861298937197 -0.2826783235664222 -0.2316923956666631 -0.4725876082040087 0.02056869333948519 -0.14526709757293532 
0.4795017770906129 0.2504032234417223 0.11008782095558733 0.07950538889464231 0.13216967810776237 -0.0917650238445985 -0.20762678759933806 0.1090679111317675 -0.1335780858254284 0.43331291346618106 
0.4625208298405168 -0.09717511753802621 0.10727220766673984 0.11647841688419025 0.38655757317433337 -0.48818596661001024 -0.16013333758280668 -0.4692342724934505 0.45067593167826103 0.22638057108388343 
0.09881403633839314 0.03389118711680994 0.23255585436614123 0.08647372618530735 -0.1541584184982826 0.1587095895879288 -0.4949660896592528 -0.40250844616053383 -0.36636571503210147 0.18231760281709664 
-0.1658623675304619 -0.07082974422111776 -0.41640193835218764 0.3021794073918309 -0.10848959365738797 -0.03416503362536061 0.241419807570724 0.14159518264673254 0.46551093137808364 0.3233985715821851 
-0.18331899371324378 -0.24297159331566598 -0.0742222106297703 -0.14818382075127812 0.16141318665084126 -0.07374702471006467 0.07280871649537601 0.20127272461252377 -0.40263255782373264 0.25897663052729136 
-0.11288866764754779 -0.25379866367504533 0.3629023426878112 -0.4094572493695512 -0.3182602072889925 -0.4666987787807071 0.01777750585056259 0.1945073243395774 -0.4424596454109968 -0.05195688088395789 
-0.382226702042065 -0.4186663116965008 -0.13781441971617003 0.47872131906396276 -0.14906080057813365 0.0381428256703209 -0.43791416035722364 0.2979314909884365 -0.38659288296069405 -0.39159787525733647 
0.05052385896891609 0.37842367839346247 -0.3049122090657599 -0.0893688657634758 -0.06413423079331504 -0.486399774819942 0.3442021841863441 0.05164777455527636 -0.21953906792223676 -0.07750122952925187 
0.48448151305627885 -0.09742567339839803 -0.40615079073526417 0.08492070976485178 0.27000348812416197 0.17476717523303797 0.1231532635552205 0.0744358527051826 0.48001442786296245 0.058030102805947226 
-0.3709591259542875 -0.06468584610615935 -0.02028033533359186 -0.335083878791263 -0.11260008689718415 -0.4159938119820007 0.10290819344959456 0.1626178155905731 -0.3851231609893061 0.30661354688504316 
0.3484094155528755 0.26789206723374925 0.3806870235976424 0.1708615936569593 0.22476341386360343 -0.269340050850027 0.33761309111988713 -0.42559345335402043 0.42611837428548427 -0.4616322619039954 
-0.21813433651526482 -0.2891204723911045 -0.22274777385925115 -0.16410917726165852 -0.3655120771038697 -0.04910935844944497 -0.4532523426206819 -0.025292725169630437 0.4262441666333915 0.007286013891092513 
-0.20526676938539423 -0.3197369982224413 0.263439508353255 0.28227166539649595 0.3952355070834489 0.05789620659520367 -0.4461237351152153 -0.021412332975742854 0.2530701277132231 0.04538355686953055 
-0.01984002721953282 0.3977370915215128 0.021333047921391568 -0.03588354829283402 0.3218262973423551 0.3453440052093225 0.3179349513449936 0.021110571404902467 0.2482671081864235 -0.28296473233924546 
0.03825568976579541 -0.029502549256485433 0.1311927841817484 0.14781142426954708 -0.13412220892114612 -0.3441580884891342 0.25837488993196944 0.07369181645805045 0.4944911178408251 -0.176424984816412 
-0.4303286266396976 -0.3235100749773958 0.39144357284588427 0.42302675588762484 0.18184441574179155 -0.039105376016174476 0.157045350212776 -0.4100112364692904 -0.47956123162218134 -0.35239598170180964 
-0.33638242569940724 -0.3515681081743378 -0.16500394245449812 -0.3429216792027804 0.1944080341303731 -0.2410503088666962 0.2381386529192001 -0.29445122639402654 -0.2551191817363435 0.2926932973051114 
0.17956435048086095 -0.06176007622554347 0.4975181414003339 -0.3839910084843766 0.4427508256499193 -0.415667273757945 0.2361565211955058 -0.266315006882366 0.3351768639950714 0.3340165804938964 
0.12701155453461 0.15765934016075023 -0.26787498451968417 -0.4899516668327142 -0.13907104381063862 0.44323573706617436 0.029638199397239107 0.13455680872833387 -0.374968422804983 0.06630006403007305 
-0.13603953609018382 -0.3235982404991674 -0.2481840702151482 -0.29727480599430056 -0.33719961885032423 -0.39478362599934635 0.17988354029670361 -0.4849028679095777 -0.29198753090440643 -0.12466723208127573 
0.05287603092514548 -0.24790912351338357 0.40980101721913864 0.11611024990746932 -0.11818484430564391 -0.17773030439312798 -0.08069265666479086 -0.3852435742544533 -0.29906784316747104 0.016776841563463485 
0.039450294610004155 0.1435516328035027 -0.4417965911670193 0.22433388250438668 -0.3668531182497947 0.30545739457843635 0.4991922282562057 0.30715552048695227 0.3735481928510531 0.3504096269146836 
-0.07357049927387083 0.28783550750110054 -0.26731645200896736 0.3491685097809619 -0.15355134897868916 0.13495410642621297 -0.4370868768811058 0.20241626599892326 0.05272308512882529 -0.2708972773086268 
0.48984792923569687 0.20986466055520048 -0.264862437007211 -0.45878366695306316 -0.39409676579132713 -0.17254498338623625 0.3552568716838014 -0.33844993088427 -0.3695907434794238 -0.199697000073234 
-0.11846077778254982 0.08033141926955623 -0.21478836971200366 0.07486098952560072 -0.3602268983213738 -0.459935127960553 0.12395056502753443 -0.23415854352400667 0.10140079142469138 -0.145339009318587 
-0.0512831614977336 -0.018235107439026566 -0.09397711476405446 0.32200756713675904 0.2495396852465549 0.4975658544437167 0.294262613878878 -0.255704597250231 -0.18983042979832154 0.10351162943745262 
-0.08670008597500434 -0.3856431220492922 -0.26212274034159144 -0.04324233380108988 -0.35023042896000367 0.22647073079502666 -0.30450269987740886 0.4151848402671432 -0.2566505138374504 -0.17346853092148873 
0.040703102516451706 -0.3572667375098256 -0.0607517182505507 0.42917776991462386 0.41050761043597683 -0.25873140625586477 -0.15106551594867512 -0.4015811014050745 0.02824197071219592 0.28608591705853526 
0.005831904760955964 0.3134939298373627 0.15577195065552962 -0.07952230192772658 0.32633914496646554 0.023143516515220064 -0.3345296759259323 0.09936200472824519 -0.18358656900670067 0.12916976277940928 
-0.33552948555102 0.16278753517077593 0.4000922278852238 0.4341043339759143 0.467985031325291 -0.3327974771068186 -0.3112912122593714 -0.461998953465376 -0.011019929390293393 0.30569493736813524 
0.358190453623357 -0.2241859743528407 -0.21174467562117216 -0.1920188852547876 -0.443288710582431 0.049517676582722214 -0.3880143943056108 -0.07325866850320106 0.4261040080378802 -0.1719292915469015 
0.23303947128537117 -0.0110300448698748 0.3878181237754985 -0.33647912195620655 -0.19210300281439696 -0.48067081468867756 0.31784469478704813 -0.19700670596435488 -0.23725292436844625 0.12706477423503082 
0.11491069873988569 -0.13600035891461237 0.43035246130418814 0.18886330151745956 0.4523785795612689 0.08445182707001131 0.27352852485843293 -0.14289985097515578 -0.3033301557211483 0.3589579278636016 
-0.4484106836725389 -0.42375193860989346 0.07366395814498339 0.12942440407954903 -0.287127288635751 -0.4002135655106972 0.1694068823395687 0.21068368126424597 -0.37053611250551055 -0.03422830611901151 
-0.23740384505291268 -0.1991888911678199 0.029494317893521527 0.011299442266377469 -0.19630758392057712 0.2509910568656517 0.1279015190375884 -0.21559067960548406 0.07914027493257214 -0.3487627928335114 
-0.49170808226364904 -0.3534457091423939 -0.2709365583533768 -0.07403297985209212 -0.23344194996531475 -0.0504246331550392 0.3229331995261234 -0.07262388071386205 0.2911580247777952 -0.08180550225170113 
-0.3599095227250074 -0.03524648569674671 -0.17452615371842084 -0.22764282487023224 -0.3493638792162912 0.3143236002574018 0.1344225748891904 -0.3166721803954682 0.44708572272955316 -0.4831033240514623 
0.18050199074790174 0.373260726007114 0.038318658533733396 -0.31044536232430986 -0.2962890635516202 0.0400396649907202 -0.015266316902677546 -0.34720595667584286 -0.004708670064964893 -0.18250017877520452 
-0.17284380994007986 0.40599393844231446 -0.04300238889424468 0.16571581674768476 0.1419252774105132 0.3717712417309582 0.2456062990747584 0.4268600019670026 -0.1592787939405027 -0.12626840442623877 
0.41663711746384824 0.2792054151348732 0.026076948052940474 -0.48768069314364726 -0.49823591807415224 -0.02483163479845296 0.3121503149982682 0.45991484423761964 0.38115313683098506 0.05885545458891073 
0.025215754183923855 0.20902389977314095 -0.35502897934318045 -0.27559931834602613 0.10946789586066052 -0.023652479710825847 0.3775671380452644 0.09844819968755969 -0.11888811682589617 -0.2092823735836531 
0.44333891352843036 -0.4915431496687499 -0.002652254255151587 0.2743281677557121 0.4050478958054977 0.233072661412552 0.1367398240577805 0.26438682708027395 0.16336291469844544 0.3216361901790121 
-0.07640598712631219 -0.2837418224254429 -0.22933696245101798 -0.18303858735949585 -0.42865065357645016 -0.22063610772110775 -0.357357886553455 0.11884361124564247 -0.43137743969411746 -0.4564487457908324 
-0.43198618275408773 0.2853238765047986 0.4864275660007491 -0.2836633581248812 0.4996239036448523 -0.21544205012967732 -0.3537758522243307 0.410375391283635 0.09953460132758685 -0.4177923130673933 
-0.044166513767353366 0.29570569716223116 0.40615363055388487 0.4775938753467809 -0.3061095199121102 -0.39724151850343437 -0.20676205525674995 0.28641886011916573 0.4033859767189215 -0.15017871405457017 
-0.4013893071753616 -0.19131154858579502 0.34098459145312776 -0.2874108184610613 0.4146869137260789 -0.4824675418001291 0.12118680878636645 0.1536308200887223 0.05341222170815618 -0.442056411336313 
0.2930367408496466 -0.21395613329572116 -0.3750244443851021 -0.04597513613809412 -0.4080402983802204 0.4582680969792744 0.002665776123613184 -0.11084416370988348 -0.4795530772816433 0.21597113945354418 
0.18549904565226238 -0.4544413159457008 -0.2713133062618257 0.12211591885982209 -0.2842478169631505 0.268064503408733 0.38987542884786996 -0.1022348188915152 0.3602945526665212 -0.24854796516251787 
0.394823217931365 -0.016127011068132302 -0.27738032877226204 -0.45845041928200736 -0.27339718837497007 0.4182590309562616 0.31673415239282676 0.38736287535394553 -0.1816270216247774 -0.12784359120632383 
-0.09542896860465011 -0.115189465315652 0.046139931999334194 0.2971691638954671 -0.4246488939878157 0.41222009080700794 -0.23689604411340626 -0.10382883489298189 0.12832427267646862 -0.42644260712346704 
0.4433702246475999 -0.4493773032245011 -0.1904193536010086 0.23743241711238672 -0.42981315879814996 0.41197766928635426 0.3491287543955751 -0.2117547105175036 -0.122495411984191 0.09629806556820375 
-0.45380347739906235 0.3904062291067494 0.43353696146974563 -0.19111117993920412 0.3587176282003045 -0.09261646054070871 -0.15886927374932291 -0.2302888780780682 -0.4327752643856436 -0.38559594761226057 
-0.4778588734975846 -0.48947250375965945 -0.39612203409653124 -0.0030490308573939418 -0.3483622097178607 -0.02882276953339913 0.06411538070277245 -0.26322581262969746 -0.18734935376029072 -0.16492374498947615 
-0.2485801820324216 0.45294819178663537 -0.14670198159057435 0.21298087583565273 -0.15504576951258653 -0.112416344188905 -0.25447840420659384 -0.39075022199146137 -0.07467447420110662 0.00411845900342922 
0.4682860969920506 0.08628426229375374 0.14549493680452608 -0.09931526827406933 0.06798382539566172 -0.3194778689223968 -0.2081397577857077 -0.46813176894216724 0.08491788944432477 0.4173056624274821 
-0.15520652189231587 -0.020752725597370625 0.4771196798595272 -0.2778606125967894 -0.08157459206891393 0.41441861269941893 0.021389753323612037 -0.36770078614530843 0.13622572295934932 -0.04221270320242421 
-0.07366597826656196 -0.024550878865501002 0.08193595217854832 0.35221914766481266 0.053299326301140204 -0.3991327890175633 -0.045330315764193 -0.2572765270717089 -0.29150363370468 -0.17592162827376467 
0.4525027492144513 -0.11834512733734959 0.4432295148956493 0.47713604687676525 -0.2893665089480699 -0.23650717033638868 -0.3209630315626316 0.34449058027627344 -0.17179853607616846 0.034078295337925835 
0.2606767530231999 0.3083273961666485 0.13211040716073574 -0.4837433365778979 0.23227737901450662 0.22745346317242954 0.34670916182107725 -0.15280287002725867 0.2306044819324634 0.4302554140657421 
0.2649422730114729 -0.4677719759621499 -0.10572251792906606 -0.2850513254990785 0.34958964526921155 -0.31415065633849193 -0.4010962842090593 -0.08071834580704129 -0.0675277244618866 0.3526521117780669 
-0.35452041732816986 0.4470546637367715 0.3250092712170728 -0.42080327330277834 -0.24695863118005112 -0.37974136326226227 0.20526880284159565 0.3424706690013244 0.3364313853912769 0.3633337515316729 
0.10466389189329917 0.03136798111331418 -0.4138222164392723 -0.4800064762181674 -0.3182989431303078 0.42470180929840406 -0.19013136565086375 0.05325521009933043 -0.259301378396243 0.012582921097319733 
-0.1569649772114019 0.48576294508221074 -0.36985181129156564 0.06756628364819406 -0.4075610357246954 0.20018478241790627 -0.2615983999374599 0.08778886117723883 -0.06420346235692398 -0.36158945711440504 
0.2936228754581226 0.10639178289280771 0.2693479942644035 0.013472776926872543 -0.42954729710545936 -0.11015960898392985 -0.03167986043067439 -0.12044199659223942 -0.09240927667175425 0.23232605999752198 
-0.09479071924544957 -0.20682877590803694 -0.3514910863678975 0.39425388838687436 -0.04305499960243797 0.34246141921959794 0.23176675120046586 0.22989065766422212 0.12437890062295032 0.02191188133823907 
0.17790724078853137 -0.29743194887977376 0.48617422817617806 -0.21395637648681642 -0.35332990657516994 0.295405972609888 -0.2859438159255977 -0.3715239429872985 -0.42873339624167095 0.2913415686284224 
0.28751422737294385 0.20163428833580843 0.11571834746172172 0.018319404825905883 -0.13656802828750692 0.3175875704898832 0.3467698318972493 -0.06618077875112116 0.4797518620688317 0.1519487332390087 
-0.43635733211819216 -0.1425327439254852 0.4021652374667338 0.11046013945682343 -0.3130927622150569 -0.24870218141626876 0.4589511448488759 -0.3881635011769319 0.4720049503801106 0.1943023569061706 
-0.3485301831561355 0.49063036992982445 0.08346270785761556 0.1012229298019448 -0.32354990996499144 0.33033168215590347 -0.2574017405294786 0.29511792999194286 -0.24890795507632257 -0.20039229290538174 
-0.25547625093827886 0.259047913938493 -0.206860359770201 -0.016464708665323458 0.12951182116514515 -0.23570048740746263 -0.42453909799344713 -0.2231275445328823 -0.3107031555019488 0.10088644902607369 
-0.051694732436869284 -0.3621382720722456 -0.20935812413417554 0.3206358259376685 -0.3977082678966193 0.38875320411463976 -0.29349097228398124 0.2439896285096652 0.13131300214855424 0.29318004944613196 
-0.24057042878879997 -0.02127995074107636 0.3469247521954484 0.34071502620509386 -0.3978226807998618 0.3520791888578412 -0.10557905637323539 -0.4746182891999945 0.3876070038421412 -0.03252735297983134 
0.22567982723690427 -0.08241065096023115 0.4125269123567614 -0.4374322196410464 -0.10500261009524692 0.49790563805528987 0.05973304431432047 -0.032182934472398395 -0.03849162134991291 0.046277124607533526 
-0.49216025490751025 0.2426977928620382 0.005427138156981259 -0.1382478528187504 -0.2697002066495552 -0.4984605897893989 -0.10477576343754247 -0.27454358711708093 -0.2369856780594206 -0.4683700907791257 
-0.021013198375516184 0.31351698578713283 0.08419122170452997 -0.4466363492765222 -0.18440604664186444 0.21682543421119482 0.22061826636456794 0.37551248841911866 -0.0900291760618811 -0.16902360785921167 
0.37127493868828 -0.24172688501801542 0.17156857505729317 -0.35758720840122804 -0.07778515182494838 0.0125632715099111 -0.023650898442903023 -0.14424500664046225 0.2159086192802152 -0.26388986034033945 
-0.22006236603443274 -0.1175144756287263 -0.16625545899425698 0.11519454960077591 0.20323765017984874 -0.05739282370403709 -0.047857674559745544 0.40548458610379945 0.3916866960050678 -0.08141316442135993 
0.04074326456667632 0.04621298154341191 0.23546344178519807 -0.35515634384866823 0.2853976480533662 0.35902267941418686 -0.2696601256303417 0.01623426636831382 -0.36082195375427895 -0.06387467278093695 
0.3575048705126439 -0.3445656989775814 0.33140534470925065 -0.3680123529458037 -0.13443154334842933 0.39180986913323124 -0.0023183251801148774 -0.46141845515061297 0.24908878777520305 0.47331840842321704 
0.3331824518957307 0.44630292183339304 0.035346736707062565 0.25817351773411523 0.31696766944343724 0.07098615314506174 0.21472563186884086 0.1144537527576247 -0.3931698331667971 -0.23799039830192537 
0.27993675720172617 0.3935305266231839 -0.33779349662502345 0.4973095227888854 -0.12453617656005933 -0.36286424375321014 -0.48306609778907883 -0.28181086766542784 -0.49901741528342103 -0.3719149475551021 
-0.10585540812500471 -0.03987014349542084 -0.43885551731173567 -0.49888221808776734 -0.46765355602598424 0.2953827187572252 -0.1910040797869078 -0.10698973632365572 0.17474711039593316 0.3189375743621111 
-0.10856193565005523 0.0300641171852688 -0.3368641238076604 -0.21846160536704617 0.27251400201441534 -0.2737332555676971 -0.02685376554734553 0.0017331541433946995 0.2839439588873839 0.49686653498514033 
-0.17052084899401854 -0.12648272213391898 0.43221110491205195 0.37980024465745876 -0.2523245722889075 -0.37305044517668706 0.3776341716428593 -0.3986439917130393 -0.03671723348713929 0.49619018706448736 
0.19324497253485473 -0.0773499732360281 -0.27022828013971967 0.10273066787069385 -0.39007726812026045 0.35994069598987766 -0.10668824903178908 -0.3288443368769838 -0.04088078908188486 -0.015500699083521141 
0.48552683177350964 0.16059705108405709 0.43564159329082397 -0.3232986485765319 0.31460818519336664 0.017111129338751807 0.120343241179935 0.034198499833834495 0.18066836681752096 -0.46947007971981913 
-0.07379525504706719 0.11547557677657072 0.3929805286188859 -0.2860922201913252 0.2611708019897513 0.33779329509160505 -0.27524748558866785 0.214505093134564 -0.2627586237363507 -0.35753790286168574 
-0.19465499678883302 0.012321056184187107 -0.3023018994526958 -0.009412050667574778 0.22034946234186803 -0.4344923257726827 -0.3170203118205306 0.3588762762698714 0.26670029325700806 -0.3784323472897022 
0.21060348937600892 -0.33222427989628367 0.39300273296999855 0.12905909363717183 0.40566230604997167 0.4931881297530806 -0.15548331140459948 -0.4433997683788705 0.08580913434967097 -0.01183257618005873 
-0.07225651662804344 0.45428754890746115 -0.12172522539144925 0.17247422899782083 -0.3886787652551915 0.2772114072177245 -0.17365351579872035 -0.36445062362000913 -0.1120583523485843 0.33157309764831333 
-0.27113176802463945 -0.2575856282253276 0.43625969714025836 0.20097789012716782 0.1487065359240426 -0.36779815871138033 -0.3577257165356358 0.16379883057852151 -0.37524232382221523 -0.3445350880563539 
-0.03358297041163605 -0.07792364248041306 0.12695628163030204 0.40910956689097633 -0.024406768039944793 0.42823915620449216 0.20487673477956603 0.19673913975777646 0.09867728081447802 -0.2819979772615677 
-0.4020975569627965 -0.43260455328840186 0.30947269904932717 0.4361166045879965 0.298570760905844 -0.4328731189161551 0.4929042939339702 0.17622143286769454 0.19058382699069465 0.47550834061452973 
0.20821842761932174 -0.1531418260504548 0.4191088458802673 0.09318374417192854 -0.07277545749624437 0.022790445339721077 -0.4066263608352766 0.0966969028892235 -0.40388058121682047 -0.35591699246127917 
-0.22980342078798888 -0.41667803375079504 -0.45380684748773015 0.48496884505206284 -0.07802727573123736 -0.30869998460537496 0.36172367061806443 -0.46964823858338434 0.25377033241338065 0.09983344503190161 
0.3026246104262046 -0.23013705202221435 0.30157543497898087 0.28838545579926245 0.27491900423880766 -0.05229006513055168 0.21735463661551024 -0.33372315962440646 0.1438691246958158 0.49112694493251985 
0.026488807353543087 0.07126804725025704 0.39260046801226334 0.1810554868456048 -0.07073614485406732 -0.32024054218239106 -0.2566838219099784 0.1257549647820333 -0.08951312839276881 0.07143828620972315 
0.3787052481986338 0.25136277916717564 0.019929251648951762 0.04764564276955363 -0.1720936946816759 -0.16700560531323616 -0.3088190973342634 -0.18456695503123877 0.4143965097696334 -0.44420662892608576 
0.3776327666713002 0.3182224045642944 0.40243235763929497 0.21741226530374413 -0.3983128810001483 -0.18082073637887364 -0.37582231571438507 0.4617255642896564 0.23692892366898266 0.32485409597296067 
0.42141172849690967 -0.13185441128035802 0.472872954534877 0.07434213114922894 0.1937177270612752 0.3117335137417664 0.44803579737817567 0.11315690464920591 -0.29068947378700927 -0.24363296764774645 
-0.020536848634851612 -0.07879114333093573 -0.3948304912974232 -0.45345272586756913 0.16547668157292017 0.17072469154364667 0.17990099641369095 -0.17700272892040847 -0.10671283685254662 -0.047360596173143366 
-0.3342382038107249 -0.09697485861525235 0.4442532773937712 0.22893743193462035 -0.3444663205928239 0.3386950357554557 0.4569486326154997 -0.15638470315540298 0.2554465788037573 -0.10583058670672862 
0.48183197221491414 0.15638317571998883 -0.1628948343938168 -0.13184356866137492 0.24119869385952708 0.25091786375667857 -0.03061720242239052 0.028216801742092623 0.4942244102135219 -0.2865745691833581 
0.22550298636667787 -0.07924568817343791 0.09929410868238497 0.17746706258771094 0.08103771946655658 0.4738349113927558 0.4644434552222869 0.18744632751888357 0.045308868414737136 -0.38045048381123403 
0.0816213692779778 0.44585235287126757 -0.498312754106808 0.12845581603941758 0.2516159332934149 0.17829774333383586 0.4715414347474638 -0.029295210256431115 0.4238684247439114 0.17558648258816256 
-0.33790359568128003 0.296778140082968 -0.2009666326862759 0.053490932409557934 -0.2897802484565881 -0.43466724441074334 -0.02797526100884984 0.4086139285954957 0.492161215625581 0.4364689370918394 
0.429421934636946 -0.15734380912649382 -0.2664710842729606 -0.20419060616734253 -0.3425085953822583 0.27760473396519036 -0.07570658305981781 -0.321903696485353 0.4657129420292545 -0.40919601118388005 
-0.2796309843325573 -0.0814161357651394 -0.11441765931561443 0.36156544305035965 -0.40367117710433165 0.07632442929431738 -0.3344050181611028 0.43991836262968187 -0.49693151170746597 -0.4544836539159568 
-0.049302259834641315 0.12329800435809724 -0.3202589044633992 -0.2005980287052127 0.20812916054350217 -0.04158571099011854 -0.42895659373540695 0.3957748873772603 -0.15854872069969006 -0.4267617250081974 
0.00894184742651094 -0.28602479457923224 0.22070846672838595 0.48798990138545373 0.4321838302570621 0.3903226167462117 0.04903212796057044 -0.4457950852147513 -0.06255150201709447 0.07225699980384814 
0.08464272180350096 -0.47259488637886893 0.382748305493102 0.4210264368687098 0.2420830273863288 0.2915904454525351 -0.4032991700475653 0.25858325119995107 0.007650173061767296 0.4227177129249561 
-0.013451937731130403 0.37641873906537704 -0.07862422011787529 0.10352519582090869 0.4833080758327316 -0.19761249340355336 -0.39846277545950903 -0.11649178886628941 -0.18579796312506314 0.25614299705297705 
0.41756537957410544 0.415545886118853 -0.44949289882597576 0.11462546432800114 0.4533471790240986 0.09462470257202349 0.2432437287464322 0.45611483170797085 -0.1546960276456929 0.47429963944165376 
0.22961347731412562 -0.34531966253021096 -0.07174025257978744 0.44297905491181655 0.36986164355467055 -0.4435703642202976 -0.12300411843401349 0.40481503180580924 0.05724634575602905 0.48478048323450185 
-0.30747801721954293 0.12892556946894185 0.3330540474982122 0.19404791082254835 0.4494750887209388 -0.49412875541402135 -0.1658913940286052 0.4189605121097789 -0.30530747814210757 0.1817533703084433 
-0.39802031435143104 -0.14771011042582483 -0.23311375065936224 -0.07200340453029486 0.49110327668509024 0.22359700479101274 -0.4065202457804381 -0.35117605083205994 0.027285435477655162 -0.3508296796222421 
0.21305067046503467 0.12862772779044818 0.08856789770019602 -0.4234497779904912 -0.1295441460398854 -0.02211517990323919 -0.2928076378423089 0.4566049049189145 0.03659823306330523 -0.25103933268106493 
-0.3755924831551628 -0.2580568635233744 0.11592706306699019 -0.13790919232212762 -0.03087872657947721 -0.06748041374982172 -0.07785312784510501 -0.19297490657140992 -0.4230919528561362 0.1676087622619452 
0.2262424669569314 0.06726404939010311 0.01763900959906839 0.29789385799879575 -0.1891894095754254 0.35151295175866815 0.3580109038751904 0.4622372523871301 -0.49917838601859066 0.010924019910867333 
0.0495069019139831 -0.059230536905974684 -0.4166828065432422 -0.02910734156670003 0.1028305948551097 0.45925398582267474 -0.12281710095423792 0.11261888888488958 -0.1133874771304566 0.17925560075566072 
0.4690174599802742 -0.19765961196147286 0.4711958383362611 0.32445980919540607 -0.20774655688076038 0.18508925918881292 0.42756588615035884 -0.2344379228648198 0.29406630194950034 -0.0649807888722056 
0.38699621713870036 -0.08553517424270629 0.40824223231856505 0.385795872888674 0.46874148065323473 -0.03690850400049572 -0.06794215608012444 0.35223793853642726 -0.10888495974470536 -0.15705331914341447 
0.1913572259904629 0.49834211585329113 -0.304452487887368 0.27862164917727794 -0.4296047924882924 -0.1929796138785027 -0.4662700488346866 -0.03823485375623581 0.08164814532169995 -0.4366769800207444 
-0.10529685164182212 0.18160970234656337 -0.34432356876860815 0.2756166415361222 -0.018237516911337348 0.21396354267140716 -0.2577441171299114 0.1281314822318661 -0.311694418753069 0.39264907511353797 
-0.3686222340706322 -0.11651257336578702 -0.23274227956497995 0.06568887017566971 -0.3736499566206788 -0.3647462950685014 0.34046781306756213 -0.4268895455011119 -0.16888439519941856 0.44829289124555505 
0.352475557252965 -0.025938419620753383 -0.1499645256853006 -0.28141586309450184 0.43730839186328896 0.49799810155181756 0.14076825095387413 0.0344170585771062 -0.06252569784857498 -0.4019737283923357 
0.10950961685759175 0.4272920912984379 0.4910745771654299 0.044052763548490415 0.2927387740054874 0.1635590717158839 -0.3140313952137259 -0.2907854384662757 0.1307512303218814 -0.353229359964204 
-0.23081999587777657 -0.4248675367464655 -0.09435969971586522 -0.42407729264151584 0.29524222241640397 0.009851559702982793 0.3900224771924268 0.23619941684151535 -0.10106187365089692 -0.4430976936619272 
-0.36731515345820187 -0.313464745911461 0.08589748986339552 0.3147368742801192 0.09346494410054018 -0.34774758690776675 0.04877276625539406 0.4828646007846511 0.03205707901060295 0.13122691585335255 
0.037222212544788635 -0.19566825326756643 -0.34592870463613545 0.0784819141209071 -0.26331311818973224 0.4437606007358822 0.02255413005167295 0.046802337149921325 0.44395567455172125 0.30598316683394 
0.154313618693391 0.3299101743426861 -0.43322900973836964 -0.07762482393224446 0.03777277227993092 -0.020064969408031597 0.12023472731009899 -0.18968328183151417 -0.4672901904822897 0.05235968824310966 
0.4445323652213621 -0.3542246300328553 0.2421252686752604 -0.43068364447773844 0.32650131551993666 -0.32017107544101986 0.48260922489059344 -0.013946456157224674 0.07182615705793882 -0.4229856232375395 
0.4219650719041259 0.3955901040133273 -0.15484724391067817 0.25671060173199967 0.301478543650063 0.31301703605352194 -0.22783005210937501 0.3783321928596254 0.4151035796033584 -0.35639603705878076 
-0.11928420851848431 -0.17306750126508252 0.1789698610071735 0.3578118253745941 -0.05277707162082679 -0.07211605595890658 0.19199929021355466 0.47150913944345363 -0.28967405074152264 0.14762429383056785 
-0.3379486790666889 0.1611338714978986 -0.2847893958938096 -0.277972552546103 -0.04809941153445885 0.23123930668705928 0.2602933111957145 -0.005221673755861134 0.28548218786436275 -0.3041937440925352 
-0.46792314795454326 0.24520091468689742 -0.1527765917501963 -0.06509958197182464 0.0345358884756195 0.4383093445541455 -0.39408660130195783 -0.25530148207700787 -0.15385592154883587 -0.3605775786815556 
0.1994448455101383 -0.38839790799626916 0.07066196710451356 -0.19849862256930872 0.12789484840221144 -0.2898967319046927 0.08706302298987945 0.25544216109333095 0.3197944978826499 0.44926234720463476 
-0.15051734268653671 -0.4881269403330646 -0.1399294231296433 -0.12589827424464362 -0.46016670427367357 -0.08242128477052213 0.29802392571851855 -0.134083215648217 0.3337358248235751 0.3004928097796181 
0.4898434158158592 -0.1205508393086071 -0.09532390507275901 -0.015729294809477934 0.3725364358947536 -0.09493680258781168 -0.4381972952089418 0.4567747823426268 0.4147898088558063 0.4505118037995993 
-0.4064599790689565 -0.4636250523339668 -0.25484229028877337 -0.4004267003275942 0.4721984582691491 0.0957870732858419 0.11910659454398043 -0.37621402428519524 0.06402162031209657 0.27524268126120954 
-0.046171171922309906 0.19870243484785022 -0.11538209505303998 -0.3548964888948196 -0.36662921412126415 0.007531273938019223 -0.25851831265400094 -0.037395455946476974 0.16650298269887565 0.40272875797950347 
-0.18668238995403819 0.008229953422528857 0.06589339843792419 -0.15995141018081238 0.3301384876181098 0.4842961173873227 0.009527061382929691 -2.469383295876648E-4 -0.46138419499668004 0.11163674221644959 
0.44394902376824996 -0.13386550956191978 -0.43608049552354355 -0.13014502416581175 -0.20621079008323673 -0.45080949855452523 0.11229108885479644 -0.2075718298928716 0.35316186490509094 0.30124307201784994 
-0.302147387599098 -0.14997942559769595 0.2519138790085417 0.006485373435175079 0.22266133779237407 0.23368057376354223 0.11333004240887301 0.4028866634519802 0.29077798741708183 -0.21583181140587226 
0.14978551089495462 0.43358044403592566 -0.40487590981572097 0.4044800185750249 0.4789688803434543 0.41880637482044436 0.08016215781588265 0.03970821604388042 0.3856819345292355 0.18967181338432093 
0.353939543959916 0.211691004390696 0.10285486882389949 -0.0685558548527172 -2.0459155057050982E-4 0.1554821223893601 0.4402990486306677 0.2467806409346075 0.021037530504939617 0.3204873427334435 
0.0 -0.13175288708793365 -0.35884640831293635 0.3711860644381224 0.29094773485167336 -0.47532683053790636 0.0776296392218796 -0.14932346156562182 -0.49370323296611196 -0.30266410348777595 
-0.29079416602623964 0.35485374895401056 0.1532044834856756 0.3896600256045134 0.2644077749451563 0.40584878884154885 0.4522381979107558 -0.421932265151424 0.2734492879320154 0.21042952287117944 
-0.33670319936829896 -0.2881938933958015 0.04611040432229074 0.14238204530754395 -0.4302108872660879 0.4860261720885978 -0.13504784182067042 0.09746314150288349 0.36450482708484877 0.125082560354295 
-0.005749802544260932 -0.006382394438517749 -0.004447030758778341 -0.005866422989267159 -0.0047401798151794385 -0.00509346616526021 -0.007802350215837933 0.38499169902530117 
0.006208914941208049 0.004398417248003052 0.0016999214731529234 0.0055793970610281424 0.0020067539532584956 0.002425672046974554 0.00917589768346292 -0.031803519964966775 
-0.007706690924607083 -0.009988612598655333 -0.007365111106272805 -0.008197695404908221 -0.007642310304318702 -0.008115993002294663 -0.009129783640366023 0.3086854616935212 
-0.01942350933454987 -0.025825661601047312 -0.03967982888758742 -0.021690788235064175 -0.03779888999501315 -0.03554534210540616 -0.0023970100154578106 0.31500484493419934 
-0.007374068730390342 -0.00411998718795767 -0.004269491194187663 -0.006650464132695574 -0.004456671328671939 -0.00438947540554079 -0.009706293289307744 0.06308848611115125 
-0.029443361608190485 -0.030671534394825388 -0.0234063296947633 -0.029506257041780958 -0.024227656311619817 -0.02543045757968264 -0.0347245976858891 -0.1907826045837725 
-0.045768819063061975 -0.04007406693672727 -0.03359256329583946 -0.043801789566964074 -0.034380520271496816 -0.0354115537395853 -0.05479817904691227 -0.28236011843272324 
-0.013856921762654933 -0.012715730359036516 -0.012374730616512087 -0.0135006068051329 -0.012381495330704885 -0.012411753581828553 -0.014532626697147758 -0.052616418350172944 
-0.010293669839535504 -0.007351879878932702 -0.012794702006466359 -0.009873693650996052 -0.012397126002432679 -0.011478785263035671 -0.00823546711151219 -0.007209485588284159 
-0.2824700417290704 -0.31806817810991805 -0.3518598643380707 0.5022057502099317 0.1267617531666091 
-0.17536421011195943 -0.24279052050803132 0.2729787250394539 0.08136947751224008 -0.4890030360448995 
-0.12024964332410826 0.19308123099483804 0.3086830006160232 -0.06727201133913463 -0.15215252555381054 
0.4400494880731433 0.2985896718277504 0.18836270757249737 -0.24116398149320464 0.2825412017128891 
0.12119150333388565 -0.3294770917795496 0.09240613940307668 -0.2451831474726131 0.3900677517176805 
-0.23565392110642805 0.2854883018841236 -0.618865469941174 -0.1484304681108481 0.2749928408867274 
0.05285708364014799 -0.08662075068451945 -0.09146483762044504 -0.08111909991638568 0.17010161900720588 
-0.3680076821223716 0.2142277473467247 -0.30283827662881746 
0.41110315298480127 0.20357989034265583 -0.02185266340335379 
0.14779290510396015 -0.02288692725575406 0.1555073139984514 
-0.39088156444852884 -0.5949151361526184 0.2135283169888904 
5.693397111202784 -0.08604463791098438 
5.980514575384334 0.2030087768457135 

