<<<<<<< HEAD
-0.11557746486410436 -0.07777640211161052 0.23130869515620378 -0.35902700265993737 0.19666159727178822 0.1451018646203397 0.2568055255699786 0.0880049151760588 -0.257650250225564 
-0.44537790886334216 0.008541500175288319 0.1517435871616971 -0.44325831325476495 -0.06573825442948833 -0.20113891709435405 0.41443903831243123 0.4026916786924515 -0.2487297829308035 
0.4325009952037686 -0.09160292369326961 0.025748843381157904 -0.32692799235692205 -0.3913069554029619 0.4072777142755025 -0.34805554627061674 -0.14216672752336845 0.46831773469561566 
0.2783152917793005 0.34182704267913067 0.14568684405164678 0.39624710161669574 0.41306886526751596 -0.372221937877919 0.19215038853272148 -0.23188432397913383 0.05997560340068575 
0.45636666034636075 -0.46843900224852764 0.1911112584890543 0.2188939809988415 -0.16652018516921874 -0.46411108877731355 -0.07002238989585241 -0.3740123329328564 -0.27281071188915695 
0.24308190843306798 -0.36772643412968375 0.2567147450134938 -0.27820529953094797 0.06913095721935958 0.17103422755218112 -0.2946484614910341 -0.3637923340108893 0.4893371580136845 
0.4083315131799815 -0.23860606289791142 -0.17918106526661737 -0.123201723245428 -0.05016704399137717 -0.0036568925097382188 0.1292169906128453 -0.18007662961154813 -0.4916906991585712 
0.19879712239793879 -0.37539696614544193 0.4058217822758867 0.3231427231010565 0.05143331275374463 -0.07452615195725942 0.15270296334684985 0.19323936442584455 -0.4696190886796221 
-0.2788793301875664 -0.49803799890403555 0.07235122030275598 0.12564716960641897 0.3947188593105292 0.0394148115587567 -0.15133580110646172 0.1306743382139125 -0.11974065473639861 
-0.09481342014331984 -0.11538954300442172 -0.0702308922966508 -0.15070031800166106 0.17304518128283952 0.1282148924798432 0.42405974634432164 0.07448940669389015 0.3325112703786236 
0.1238872173095108 0.4798007775852736 0.34905001651203094 0.3908652117683735 0.048422515277189326 -0.44274108501298093 -0.34513245449610286 -0.4727896317440884 -0.022925351390511106 
0.4840773839429926 0.3665815211280077 -0.3229589120635852 -0.055081160884226876 -0.32606866964114267 0.15503091065872032 -0.09669679486969995 0.01032091620217046 -0.04055090095493519 
-0.08935560377114549 -0.08127670892987626 0.4501822581229291 -0.392209716025374 0.4458383029850579 -0.33577728184141353 0.42073157781638093 0.017933636653481022 -0.04478689777695588 
0.4195210199460989 -0.09701456128230879 0.06064343940910122 0.2133145374939388 -0.4754276078665135 -0.4813983056136999 0.015246234390048907 0.271953500555291 0.42426823619174503 
-0.15029897709393425 -0.41823614348029614 -0.017445757353424685 0.41387773933300676 0.22533390600800962 -0.49738661435152565 0.013727472520854711 0.1589872549371809 -0.4523787941716527 
-0.085002131758535 0.1602415480200513 -0.20876117137466443 -0.3778011304219143 -0.3267235576449946 -0.353208568049754 0.13995661021819072 -0.3695519744859389 -0.469983910418004 
-0.1815584953927576 0.44978982773859677 -0.16490579497153401 0.2450915116290111 0.07934503234679535 -0.2442110402634644 0.346110074037153 0.4041136633555221 0.1923198754721973 
-0.060128026635060006 -0.20954176509243172 -0.029368418618155312 0.08408603005812332 0.3764255572684505 0.027062251960173866 0.37096602973425663 0.11444747627150242 -0.01017391052949268 
-0.37250520911824003 0.21619767788497568 0.36242789463661296 0.4929535416153825 -0.29677528515566454 -0.39725326606189526 -0.14165501934345803 -0.44668886446402745 -0.19813485906084394 
0.3011446401684501 -0.15196368576555996 -0.35784785429529864 0.017717045118316177 0.04201297054511055 0.11392495866304342 0.3620547188346791 0.16600375045410254 -0.4610717676757201 
0.09734052408658767 0.11967420139430962 -0.14445571762956633 -0.1502342412767549 0.0674869960475929 0.1129420897259773 -0.43878643418412977 0.171279722468201 -0.13532368626744107 
-0.26423087445473126 0.3453907932029979 0.18609043941536796 -0.1910777024009368 -0.33165024476354044 -0.2933026375834352 -0.3630859391614636 0.20971646966685864 0.11745369586114252 
0.14467823373385102 -0.11021585709119841 -0.46121586352529986 -0.10137007556710664 0.42068159821041806 -0.13382186403710938 -0.2651549752187805 0.3110368244099182 0.16804401056700224 
-0.12662365749555593 0.2978800384987472 0.0456521071240642 0.4587885174273407 -0.45695498959658676 -0.1998683550166488 -0.3110955489373106 0.16939639645981663 0.29994850941750884 
0.19204239874948237 -0.2636918535494479 -0.49518679357677586 -0.47413915402064166 -0.18643752779887768 0.41447127885502355 -0.16229749465701215 -0.1418404416804755 0.33473356093357787 
0.02488676103049703 0.09906163682251468 -0.13174970668219677 -0.055816551316851926 -0.030795204497635842 0.3166654691852715 -0.2981169236980611 -0.01985853172220975 0.09322409328721215 
-0.46059398204406377 0.13158700347719432 -0.1441875805470455 0.49562874265964385 0.3084469543039824 -0.12913751922142136 -0.4305776588800152 0.4875362576703143 0.040213680013400754 
-0.06956471763626038 0.3089765519177512 -0.0397884855906363 0.17159151607542344 0.25879064299969234 -0.3372532194978549 0.020840422649133772 -0.31569433164604865 -0.0976309833059068 
-0.27126909989759374 0.39004628148986475 -0.3266914056298741 0.4452200258372794 -0.02019499956126858 -0.2801295723593471 -0.046898498639225794 -0.4564253999704885 0.08601464505907652 
-0.3127712972723432 0.3062689392397093 -0.04229038825588727 0.02142807245077849 0.4453931781780931 -0.1298938692779048 -0.3983564966528167 -0.3097987512949846 -0.22516124058478948 
0.33007124682849953 -0.219385069683522 -0.005019047905679752 0.06483242397942646 0.042895414964964296 -0.03303871427085836 -0.2595014465498833 0.07843276036259306 -0.052464435931283804 
0.17692736450549018 0.0161839103032122 0.3061056640330341 0.1387564505965484 0.25409881629432873 -0.2661446296594826 -0.40304805839435687 0.2759795923096542 0.13956906725875096 
-0.18998179366983603 -0.3284191048815055 -0.4208610698810946 -0.4853876237056478 0.07703059553039915 0.06695371594964694 0.023634053558899137 0.03854971979127264 0.3833727070624392 
0.04105900003378804 0.4880736999085046 -0.22734140123698154 -0.499518848060846 -0.02592799621820796 0.03135364436677479 0.28039123229943475 0.3920873267489394 -0.15731150060251675 
0.1797149330956278 0.32483062406753804 0.12172514608333795 0.4156127673865857 0.08977948026173943 0.04622692379070015 0.1750498056506118 -0.07928142494410173 -0.2798378872133426 
-0.004378250873544931 0.2558362016644553 0.06819111314228832 -0.3078904814849729 0.4249811104795066 -0.3219982014915522 0.4789966791818705 0.3487179203894183 -0.21007740153509358 
0.32072553126534886 -0.2356839087168704 -0.36736680258162224 -0.49196436802852095 -0.26028909690028057 -0.2708829233206155 -0.20626142543812886 -0.36604149534580244 0.43486780459378604 
0.4318294607478126 -0.38881358522529796 0.2617894011485684 0.4631644731168518 0.12212655302430275 -0.23176741111554777 0.14607285063481656 -0.4448729010454636 0.4001048691740352 
0.2536830912361069 0.24451724620694615 -0.35555825121797 0.29269344889093474 0.18036432241300204 -0.3712370800911574 0.25233919155420403 0.32691332067876466 0.20887988077338115 
0.48393436172825444 0.4819204102022582 0.09464627604643305 -0.15598135861013118 -0.27662549371022915 0.47230653147417634 0.249861612451993 0.23152977472246883 0.08187252547733459 
0.0384739751192642 0.35678835153423005 -0.2754171945001932 0.4188613747102934 -0.12013805024972357 -0.4836904393503544 0.4120813330553825 0.3624744648622593 0.17931592999212698 
0.23789441405586387 0.005101859695351707 0.3560159812382504 -0.36634248755029597 -0.4043273108372121 -0.036920628722530324 -0.3696875969100819 -0.04185264865685401 0.30979571172647036 
-0.4920360495479009 -0.38142240404464456 -0.31066523855163 0.02801626880402941 0.22242376954326182 -0.14516262988133777 -0.32573619055271363 -0.252540288622196 0.25727145259779594 
0.4526240654855561 -0.021267498069951873 0.01284714952027266 -0.21635773035427963 -0.15243493742790448 0.07327811013003971 0.2549706280114219 0.21705458634599195 -0.39434630589624053 
0.06278841856335082 0.3920096829546358 -0.08666620018876181 -0.2515949015141621 0.41411491262319333 -0.39368284445610713 0.49048349263454694 0.2267631151333347 0.10579088054363162 
0.03059175328360575 -0.3340616505825942 -0.11246075011432421 0.3749336525834809 -0.07010652921320637 -0.4847649037775462 -0.4806723162828117 0.2686369864878211 -0.15025260008323593 
0.3559898814118355 0.33925552142066295 0.02063590508115265 0.11562006316670992 0.040170955613271775 -0.4124093871518907 -0.13124672357547673 0.015342236249656471 0.29800829709847043 
-0.2658561109824119 0.30461343039892275 -0.02640976883999402 -0.08151754838963043 0.16856697396124842 -0.09566471147274902 0.03632775317637882 -0.025813140886711605 0.14606009739379378 
-0.17260668688018355 0.023148745793513448 0.0024595359240175974 0.19066895533778427 -0.20943785803603265 -0.22324902767723032 0.04003125861917933 0.12026390408946874 -0.17516385322827044 
0.041309110781773684 -0.32496077972782644 0.350458402765089 0.40544262898461514 -0.3646944697437986 -0.17189336431564228 0.1591377292721442 -0.3914561690305849 -0.25058490736246386 
-0.19670987574745258 0.14893337097857628 -0.2070513227551628 0.39633062137995845 0.26004870162118743 0.23189228523902883 -0.06886692511725723 0.2669534644162086 0.14898924007605097 
0.07875427074628805 0.12109283685092198 -0.4938361713858702 0.3269952797003606 0.12466506291352952 -9.692060076662568E-4 0.21142362898038158 -0.4785526558020755 -0.09618363752685655 
-0.2573942053147905 -0.22124570807725452 -0.4514054454216615 -0.30258159427621767 0.10544781433638317 -0.4268291953251985 0.2077390872767767 0.2225747697817756 0.45587030972667075 
-0.21555768915569018 0.07074617548964335 0.3640428916973497 0.10618701905570926 -0.25591127012944237 0.4654942893553783 -0.2434719736606007 0.3137675942776369 0.42581180873372115 
0.31223157059713325 0.3620726573023607 0.21094218007748589 0.32909826379505425 0.11340621092312297 0.0552666646637624 -0.42190732362757566 0.45452159841053497 0.3203896250024305 
-0.3715811616453343 -0.18725617418846452 -0.38069185441966347 -0.49538629326639017 -0.4405070131625066 -0.3328051497647828 -0.06697778780231056 0.24599401275441113 0.34752721762889927 
0.32820829084209346 -0.14423586751585016 0.4181129510808709 0.21341816078545028 0.19449941478682597 -0.10493608432931523 -0.40251149327872293 0.48836642585637724 0.2712462761371761 
-0.3373073176412483 -0.3466447683742335 0.06794328123328208 0.44556699333220084 -0.2910973542504083 0.18473640020192827 -0.10334684917383019 0.03288705830788352 0.2791457216968233 
0.3631871039731015 -0.43396997508825286 -0.108653179307169 -0.10288997855489534 -0.0875596731107473 -0.24127984262010715 0.0898747881984806 0.46795223964640587 0.4102889496055667 
0.4516677551918371 -0.4147199698544106 0.4168933408765676 -0.16661124537791672 -0.49656621091660214 -0.3853071838260915 0.23088355479801137 0.2822685199477033 0.49384295158440916 
-0.4580907108207496 -0.3451675644204929 0.12168544698901884 0.45856700023506203 -0.2903271952394634 -0.2910619825124233 0.350565263296834 0.4669174393097677 0.444651047398238 
-0.36006106935785 -0.12388201804365528 -0.1719657909857527 -0.2621558139728025 -0.10334835575887802 -0.49167785594597013 0.0788213167226377 0.2803866934307695 0.228944804040203 
-0.08617832626268562 -0.1936058529104986 0.473180955330313 0.049340990997165934 0.47238089255308635 -0.21153254932125853 -0.25147130209356594 0.26772599487504734 -0.03560463294536376 
-0.10297284704773824 0.04290135135957229 -0.0878158566654319 0.2845571043479359 -0.2962070168569919 -0.457781804177432 -0.017232396292662155 -0.0753751534835988 -0.2496070721665572 
-0.1155227274530598 0.15004665933307537 -0.20264873118249882 0.0018349202913012785 -0.15068986248147254 0.10657687427541485 0.08397063573109731 0.08877507480879698 0.1900092852492613 
-0.39304184297027367 0.17925221300364091 -0.4377545812309521 -0.32919778429194 0.490950060206263 0.4809760108383354 -0.4660810459595084 -0.4393763211135361 0.2741460766245868 
-0.27521101161287 -0.24434668863256825 -0.1956359669349944 0.21199968638339106 -0.1992481086777773 0.4039684818567969 -0.1564523604875303 0.0955329277971596 -0.495512395439062 
-0.42172182031546923 -0.40937746845198875 0.42084827132646296 0.4736944998392316 -0.20389125810654685 0.3745189150444256 -0.010396976704281524 -0.36011125073554373 -0.4257971023661282 
-0.23014002340386364 0.44389469987209085 -0.11440783664513865 -0.47867955421945485 0.09818637890348958 -0.28345483437689567 0.2387827869792306 0.23671146745784177 0.04678091226180592 
-0.11344023300396588 -0.14072236839132501 -0.29234774521831564 0.289157366103888 0.46957750404806897 0.27581834691320195 -0.16990242708046888 0.21100404513686022 -0.2555832085064266 
-0.18201806497527762 0.13841755866287153 -0.15365175930246022 0.31936063388493185 -0.046359348987019655 -0.1766489188876199 -0.08906431079500376 -0.22438599337718168 0.29054626984564247 
-0.3582781054388081 0.38329453799754354 -0.10959447965091196 0.32971594498522117 0.37712780580249383 0.42868061771764043 -0.36150569394724885 -0.3313519854361616 0.09772693902904495 
-0.4129231351836602 -0.10161795674035312 0.24399808610907792 -0.42459046722499927 0.05364687227016163 -0.45168058270078326 0.37619698544841196 -0.11994221498471647 -0.43148147883776566 
0.4272350205682238 -0.1674062225193269 0.3432600000789291 -0.09749942365886011 0.4570040437377558 -0.1389413016570783 -0.20224048108465198 0.17631164502828478 0.07501315680787668 
0.16258256952678618 0.24208345366236517 0.2831272513175348 0.009766592891075954 0.06926018573910764 -0.14579082384757824 0.4977276872550431 0.34731813951965695 -0.2268521721439435 
-0.4162080891233756 -0.04974444439139958 -0.21739734952175283 0.31183518845571034 0.38938972372104486 0.018568563615740552 -0.07272085651374616 0.15817512356102748 -0.44471279155118537 
-0.14960006257919078 -0.4455124428469034 -0.3155353043893785 0.4219320810999849 0.16501486480011363 -0.29904026513779813 0.475473969367847 0.2946644665904241 0.20377851667740354 
-0.38178592394446664 0.4500691232242726 0.2573312393699363 0.20002731498326376 -0.33289685716471196 0.017779499307983615 0.11054281487331274 0.020862053355486077 0.38377166456547174 
0.04450845531978387 -0.3212566532403851 -0.30304244581805295 0.11012204899302047 0.23069020157328568 0.28592984017738654 0.4012107126050405 -0.22182654985820593 -0.3844535037032476 
0.28676909774950154 0.06302480016313394 -0.3347607132881111 0.31269771363287824 0.15802607172791217 0.21225468508846868 0.1956373267784699 0.25523556589478025 -0.19536923665662131 
-0.16468558704682812 0.15468572740314923 -0.31753463703206986 0.4153755686459787 -0.004325305097797827 0.0020270707946010713 0.3358778078753626 0.41514802827356145 -0.2780452983544459 
0.3238615745695096 -0.1514884704419901 -0.19623102281587146 0.1990391464229696 -0.1525397424310434 -0.39028047430537527 0.44591963747383745 -0.38887186188334266 -0.1436329182638726 
0.46645379076874727 -0.3176947651706272 0.08035365186763344 0.2909887214735728 -0.017465559375954287 -0.030883021289083157 0.02057344400732375 0.29680945910268064 -0.3810293972226477 
0.1210183256985159 -0.11682054005881848 0.49125799043969764 0.1212527102747506 0.13229537436260708 -0.28976554519067277 -0.23970843970317346 -0.39636355806719437 0.4814751228469757 
0.1299770563530075 -0.032947765377223104 0.3057912230028993 0.2866300362479589 0.4307123540744704 -0.4425107145608339 -0.23621341350743397 -0.3282493302380439 0.13133100209064852 
-0.31836963661236317 0.18524214771278547 0.2289824490470208 0.03017735294870627 0.11422340365873707 0.14756821464124947 -0.4828127429638738 0.05871248139679264 -0.04523973543402149 
0.34857541099736467 0.12420348801493208 0.39239601316825856 -0.18556772321626458 0.03033354474770944 -0.06165662917881831 0.17843555828349733 -0.043643380958338196 -0.12998841805607197 
-0.07592027056800887 -0.07146933130025424 -0.3545482240576431 -0.41446844779506 -0.12246127250359096 0.09446369548581757 -0.21437063342771945 0.2392216635590838 0.3493290434275902 
-0.40463302720207095 -0.22549144757650785 0.2392546668120683 0.1654020448463358 0.09772248253472349 0.38964845706818385 0.33650954843444625 -0.2489482437437016 -0.3373740711944584 
0.4353329172792645 0.4935961729295705 -0.23117285421560319 -0.030424984907206132 -0.17476868496306808 0.3631336301566155 0.41804356852153457 -0.2979833226620221 -0.24620239722214787 
0.25397521555587843 0.11174424608237732 -0.16288383719479016 -0.38194047686772825 -0.11307594921083786 0.1463765983814963 -0.4793137731860516 0.39148863783684285 -0.054414828190584075 
0.41011240212217104 -0.0720581227631063 0.22293054901859366 0.4133513830262081 0.13765478838685086 0.011722511733586516 0.1361147074031105 -0.04587823802699398 0.21253927722562127 
0.32204984420353955 -0.16094892635598335 0.14220327949938005 -0.45765026048894863 0.14436667509246992 -0.18233898815737692 0.17594738229100892 -0.412065238627474 0.04852777362841365 
0.08427808040919105 -0.17997464277569664 0.21462347179310415 -0.4334086606873464 0.17919403355907637 -0.2871524953150911 -0.34839562810542424 0.12468547477047898 0.28221388334535635 
-0.1515175005088718 0.49504425711003575 -0.4572992304702437 -0.41877651232491653 -0.0034641732566145222 0.37118903701053474 0.3852871813190747 0.3660614996579016 0.058796582414931686 
0.08760168822276138 0.19860913482365605 -0.3314724265778318 -0.12193594559450993 -0.156142892165958 0.1995399985292231 -0.34685356700974135 -0.18758254334899938 0.34742736058059964 
0.29745335982770005 0.37834797443665114 0.4672927101203207 0.4861551932687658 0.4234950933549877 -0.005988704883884255 0.33808285621471323 -0.45437260191663864 0.01819677975456624 
-0.08113941695335847 -0.24242063700812289 -0.17207603110390735 0.18551776052527613 0.04998932496420205 0.46542377433837845 -0.07236700187941891 0.4598795175789775 -0.40317155109871194 
0.3208402788117166 -0.14831494491881725 0.3524824863306104 -0.2968366704588209 0.16527153709829823 -0.36852467605563255 -0.15582761498872855 -0.37665684200449756 -0.3918581209624863 
0.06890537617289394 -0.22565064086790354 -0.14738406570646612 -0.4431772354328768 -0.21760910265630073 -0.36111006457061656 0.2765606432524067 -0.3590217326095375 -0.225454673008594 
-0.34522179086856397 0.10087773452923687 0.2918183980707011 0.33016396123767267 0.07511956726079383 0.05033813190561909 0.1283910119639513 0.17129668909246987 -0.3545635684675583 
0.08447939190225218 0.475893393086423 0.44561171928636967 -0.21937765676509968 -0.3323220150255306 0.29508743406586657 0.3049169135747535 -0.48834293810258733 0.45251396210685757 
-0.46274731733243957 -0.45738096610443935 -0.49783782187179326 0.08788512662367887 -0.04428619224620822 0.0020656905674721893 0.46710303547708965 -0.2528842712471401 -0.29716948988050207 
0.24212854186797506 0.1394194255012382 -0.1136560844418587 -0.37956062889182607 0.2520503551095462 -0.4749057932318719 -0.3102380735737863 -0.007911480254482628 -0.15550711916393722 
-0.4368547745230701 -0.364178985316688 -0.332992081718832 -0.27611382378265603 0.4642530387250663 -0.37269675207348507 -0.1113905414811227 0.126594531243563 -0.0597872143795678 
0.16820035705099812 -0.13558741720640854 0.3600776988726452 0.25612564963943574 0.14162976455503962 0.0996425704028423 -0.46985953380029544 -0.4617780504805019 -0.154443570955068 
-0.21664926242010774 0.23852786373071433 0.052433866342669666 0.07687828110466921 0.06375670916095644 0.05753692770883845 0.23231318787249244 0.21947236370669232 -0.12138526598773092 
0.14398041117844695 0.07961521761461776 0.48808749365504966 0.11675785487624502 0.44175136513713265 0.1868472996279642 -0.2924913297244184 0.27857492111611026 -0.45959744468720043 
0.03830644939909644 0.2652070835830377 0.476026903559447 0.40656723439874454 0.43460717404965754 0.16572926420638157 -0.4330886994927602 -0.11428631966137393 -0.1445724819399754 
0.43636715314468255 0.45343400528302846 0.08363814983071294 0.32617759577709937 0.4861908249042681 0.0917499527893334 0.4802665159649073 -0.11347852808377934 0.40431400937892714 
-0.4430138974679573 -0.09725230926398398 0.07215977903176651 -0.40169824943996313 -0.412639625124845 0.29048699878391593 -0.08399262154591158 -0.3800810524415644 0.3913634003162032 
-0.47831909992137955 -0.14912361792903017 -0.49704292739895184 0.14357024394958728 0.4390791197501076 -0.4469981956861875 0.44666583977205654 -0.48249866222215076 -0.38788605132667986 
0.2042236209842344 0.21835542777768935 -0.19194634931944066 0.3032008529845739 -0.1296345533452521 0.22002400850097503 -0.31862590168602545 -0.4320719305905819 -0.30567337118491533 
-0.23359558685214177 0.3566491609336506 0.412017696989846 0.384631264911232 -0.2443873398403612 0.07213628010106266 0.45235404858653194 0.04365415011179097 -0.4213794215585407 
0.016863830552864223 -0.41496024786247054 -0.2755300111618152 -0.18993694701029207 -0.4802215563340664 -0.24964640503158408 0.23124914157308096 -0.04956961148200134 0.17971958461740967 
0.002648783557174905 -0.4146503873719525 0.24848462212405154 -0.20754670004762155 -0.25735635733491957 0.26773118262785556 0.42277810492546164 0.38509812298989243 0.1502215285649896 
-0.18195503293473914 -0.07755854772412596 0.4036283523843317 -0.4322298307805764 -0.37827278553914845 0.21994728435200994 0.11574056240007535 -0.17274460771300815 -0.2513463408751293 
-0.4876548653945183 -0.4107783255810271 0.28863739874413985 -0.47961331731335743 0.12250174612113651 0.18505810353947683 -0.3370971721318846 0.07777447843203966 -0.16182947512035595 
0.3648766435410886 -0.47010111047126535 -0.40336250957478903 0.40425247555381216 -0.24608982071986718 -0.17067928371478103 -0.04349514943830324 0.3924003426185094 -0.17646781346778573 
-0.49738327386030234 -0.3941611704690967 -0.2878433493756075 0.2615057689957586 -0.10575909940552164 0.08691323542942941 0.09910515069677284 0.08344467734085437 0.48259500995985916 
0.18448722967277587 0.018055012864658604 -0.19441510610781843 0.00416806297124539 -0.055357046104700935 -0.44693520334491244 -0.4531822779876663 0.058793771332434464 -0.12636778660689152 
0.0211540009107567 -0.24296417813691107 -0.1603884461417342 0.4713035270962015 0.2428375199122903 0.3791961731702551 -0.2817699588518352 -0.12034242353287239 -0.3698414825298739 
-0.35589515968423135 0.03375687729260424 -0.1656940107232886 -0.4883166946766676 0.3697804222436005 -0.4162284282582922 0.2950845103273626 0.4039620982804646 -0.408645718054919 
-0.004016461415284334 0.1017982213811286 0.2602471582822635 -0.4171825465075172 0.37123019080484676 -0.24794669141800452 0.07980025698027449 -0.1514744200560486 0.3316352638938137 
-0.0696434796924944 -0.35509079780987296 0.4602248197852947 -0.11783946104700715 -0.2688608632168523 -0.4322264565049584 0.19446322389313686 0.29944894769568964 -0.38690988581195174 
0.2757072660365322 0.2856036889041341 -0.4012292500305463 -0.0018412211621825492 0.04064651454168122 0.2512560426412703 -0.001951461147192468 0.08581408608802732 -0.33226130844859136 
0.16979742580505663 0.19735111493658797 -0.10837567649484736 -0.002171255926626592 -0.006248038910585341 0.2229100648206369 -0.2610523525444076 -0.05005275625745331 -0.03184834155563976 
0.04662708811264249 0.4334999667652909 0.4324442585319346 -0.010397305555964853 0.1852041909645632 0.1327938570139766 0.08520159350510614 -0.2103675658415166 0.0074428322255829515 
0.48591842249467454 0.4803956364885573 0.15499423627998 -0.46607765684201574 -0.03614339860918758 0.10557151688901945 0.007958466362783412 0.10018165359213549 0.4265129458697202 
0.18032889676974606 0.06121996905582472 0.37269293219696353 -0.12014825471066704 0.11670819775408503 -0.06509627162050835 -0.1436706168276809 0.0650214246808467 0.2234056605184367 
0.07725188834472152 0.2126936560479843 -0.008931754855562413 0.07523456233183945 -0.43407315135447155 0.42058729983684384 -0.22618141976835693 -0.17821150477970604 -0.11653296980656946 
0.05306621729850114 0.17573554547252834 -0.4069475279917413 0.05828318413086109 -0.2800597727254369 0.0550327404557619 0.07474606770620518 0.14168458542209472 0.030239856509923557 
-0.4729462850402312 0.2724722185586391 -0.14822362360462205 0.26608691490741543 0.016903323783868274 0.4612840663150255 0.35667058911175664 0.327569748270088 -0.4604576341738086 
0.32607151322715744 -0.4076949489518745 0.407638103272044 0.48203520582058434 0.3382083031607608 0.21426592986250126 0.28669654888614327 -0.11763538765537307 0.48518924251910733 
0.26836126387120307 0.09848919797101663 -0.2997935126566278 -0.4274737974426006 -0.06870575330574225 -0.08796652220896939 -0.14271755267199027 0.4509611597465685 0.22063686846222497 
0.4987732283243158 -0.11161454429631668 -0.312907174224742 0.4024057934492704 0.2097870502411322 -0.11110022988770862 0.3918030459658275 -0.0651059564208053 -0.02519920124281716 
0.07061359341844475 0.14840794365586085 0.17901374171072382 0.05291770181723732 -0.3551509500322563 0.24124798035608497 -0.221743703397268 0.31439322314504914 -0.059589655924176754 
-0.324529953511108 -0.43452118416798147 -0.4865533020221189 -0.36642159764173265 -0.19995614282520446 0.08907590562801682 0.22401460392790162 -0.281643920438595 -0.30140610046420935 
0.3676988279487292 -0.1464845574826642 0.37739469690303773 -0.10358262044275812 0.2805345263833223 0.42410984342693836 0.22750977594085742 0.34709758575759275 0.07925926733806221 
-0.3833966080872062 -0.49158048828699075 0.10841089826368899 -0.13186712566656345 -0.09094573278052309 -0.3406828956022725 -0.40523445272595937 -0.4596988977840871 -0.48968888590388204 
0.3851136945176382 -0.19780189042511698 -0.4187743357275364 0.18812146702535926 -0.24733423506258645 0.4419937384749182 0.3542621495020145 0.02211433355624781 0.0770273378037657 
0.4902850623956243 -0.031241455221252212 -0.4261248005769904 0.3587438214100269 0.26352299252870015 -0.4023517772026558 -0.04050455084642757 -0.18456922808016984 -0.23649720575901234 
0.1593625616359 -0.16560782118361406 -0.3856423058001741 -0.2993327418981432 -0.3920095933463045 0.35585895514822774 0.25748336101560554 0.30069757677833986 -0.31403698574745864 
-0.22427852568888684 0.1963657255961323 -0.27305739313177413 -0.11485562319305709 0.4336365291173099 0.16159610065141017 -0.28997490194969355 -0.4649412765275187 -0.4290130608608951 
0.3798838475335423 -0.23399671135781552 0.39108858384048195 -0.43401159647252263 0.3216442878569189 0.2057551357465469 -0.16917213299721245 -0.0974607906955921 -0.12708066622843173 
-0.009208676689102857 -0.21662310042459354 0.42850728382683334 -0.14231347675615624 0.37449259416407166 -0.18578329367472857 0.23356299228441968 -0.3499108114467375 0.18280563072789258 
0.36740258090681 -0.21766917367446703 0.21084642771132744 -0.4652787866451986 0.027167636990327093 -0.2244537057820768 0.2580790569554149 -0.2196030283235918 -0.19737070805619705 
-0.41993088990763816 0.44001301297334716 0.44357645639945187 -0.13785753852444727 -0.03198232850746319 0.31549938033322766 -0.005004769944024101 -0.1520542215976879 0.33595331730240385 
-0.3319836805850287 0.3547535629314801 -0.1129025568320342 -0.4630420609038133 0.17979443620289826 0.12417481021178933 -0.31869967001097355 -0.04838824921075746 -0.2250656575368455 
-0.3185430008213075 -0.3939338028855701 0.4482922353806862 0.003861142427209252 0.44046488072600176 -0.42122874035289426 0.4388797832164236 -0.3138124742972138 -0.2317020144497537 
-0.43449321016540876 0.3228690320642189 -0.34496654868793164 0.2848103950526879 -0.011770382641597688 0.23104941213620644 -0.14692285260251803 -0.47395439066967326 -0.033430709894541666 
0.12933217538532926 0.2190886993890372 0.24359025523716837 0.28275049403268393 0.023965335725298353 -0.226576233112875 -0.06686149101996364 0.19343983753811678 0.22129228646489174 
0.06193223768069267 -0.4619011752270865 -0.2710708593708132 0.33837321601501735 -0.3500379052254514 -0.3421370569174158 -0.08208231307744884 0.03520359933808481 -0.3283834333371731 
0.005397119583821386 0.45525804197415165 0.2449267687340978 -0.46585171798998526 0.3051035673316348 -0.30961839936513014 0.015352870186645884 -0.24664898985231265 0.2994399055368291 
0.45572132688186184 -0.05674021383416317 -0.44696367293799455 0.04157332119377588 0.17730123496961991 -0.417634003350825 0.30015865149116316 0.19138481540581465 -0.08623730870425816 
0.13652929255354285 0.06687932061150037 -0.3965714684218745 0.45545067500245107 0.2116393011147315 -0.38816381363149266 0.09798992975858534 0.3817831490018082 0.39283616942398214 
-0.1448877506900007 -0.05982453621931694 0.02297950307549379 -0.06189886077076634 0.4848734974778891 0.2170059868419747 -0.3986752506218718 -0.06507043787850764 -0.32162784000515143 
-0.0012253270943936023 0.4374981904322621 -0.14628954775622305 0.045988791680880325 -0.10153056503115421 -9.033711133555888E-4 -0.45039900485947115 -0.18578754194380454 0.40184934877811496 
-0.2586661696062027 0.41409831931515273 -0.048064215435794866 0.13080263404305337 0.14399957302392086 -0.44182500816295156 0.4141670593927427 0.02390400010062177 0.08411272693137961 
-0.3792411323826357 -0.07176087689085653 0.2706273824732599 -0.2996945818157327 0.03950182063269414 -0.22017903151504958 -0.28054056010120565 0.20282553665255976 0.3951957677377731 
-0.13048581872436948 0.39519823257385056 -0.33785258200226664 -0.25314078455375066 -0.09445639448011345 -0.29298927651704687 -0.3304680972610684 -0.2885695438501643 -0.025972305141074625 
-0.0936385496711224 -0.09552207405182989 0.4101688042250323 -0.11445931231342821 0.3627140382244105 0.06686037570994374 0.30327845379709706 -0.36484468172817475 0.26494631358527565 
0.3356495709879156 0.364933907046187 0.03288144206143562 0.42770874188674046 -0.49854010355050016 0.01280015354839692 0.06239235354346284 -0.015505313492333528 0.18677631520720472 
-0.3006953909761063 -0.1918428883350768 -0.11701896690067626 0.11555937397712446 0.0963319016665729 -0.14542591563505003 0.26323519928254546 0.22303048831847283 0.3606767322395509 
-0.09457301178351507 -0.004324616342068377 -0.49320870187568333 0.054504155832549084 -0.002038310198576143 -0.11679161931390025 -0.08796793864621577 -0.08676948492659264 0.09310835785208305 
0.29075979155659826 0.2164357780368371 -0.19734749238580918 0.011850207753661302 0.25544891604125963 -0.16551348489412498 -0.11218432469124262 -0.3425334439214551 0.4519515581302531 
-0.3037586733568387 0.2480281507561395 0.2143547090533332 -0.25986883788860515 -0.12777242683837664 -0.08441117815062849 -0.45363868293678067 0.4058093278373959 0.4139783722279128 
-0.40978609644502795 0.33103095110938763 -0.3794154987618098 -0.04117929942698173 0.08680954124398887 -0.4390942449057015 0.0928979972047369 0.007882152526633712 -0.08884802818487181 
-0.08101326095514083 0.36008433099498527 0.42788419680798595 0.22620150383815096 0.19269418566200303 -0.3200672991503336 -0.34985913927800005 -0.1288101934808905 0.32914027069217455 
0.020325428125305245 0.2442837020697587 0.026284684779207645 -0.045744987762716294 0.2168078329019607 0.029585512493321753 -0.4224496455338973 0.17928161142986399 -0.029516494610390187 
-0.3466436131664009 0.23008509684883804 0.3003850873639142 -0.00758220397167253 -0.38626227612559694 -0.05836721965895009 -0.4394060745939622 0.2657714393196665 0.03332129189007815 
0.3046281079971742 0.48802146866682306 0.0931753395236522 0.10037162320244153 0.09155007022702422 0.45029000563450905 0.32439648669247334 -0.013967948509184036 0.29662183741042003 
-0.02769282044178456 -0.08186591818500044 0.21874619867175038 -0.34369038262532137 0.05302116909317567 -0.2181755612680829 -0.04877218131462857 -0.18826336406917266 0.18650705170652537 
-0.3453789286083494 0.2906642675220813 -0.011956777406632813 0.043714141266931184 -0.3487426785772645 -0.12056059224384585 0.30888706270453314 -0.19657019543566556 -0.03171402594335093 
0.2115144652328781 -0.3613073675705534 -0.06550751782534425 0.16923073250599852 -0.251293966744213 0.15092250543715424 -0.17398713629661167 0.41147306088810354 -0.23854777531359794 
-0.3424431238669935 0.03833872221493961 -0.04476320975867154 -0.0397402276874963 0.10313281887973869 0.10472590188949593 0.30382207071565837 0.4068762852320902 -0.4738924232674018 
-0.247846426394424 0.3642795966183586 -0.10166683303908775 0.22097507677090522 0.12944965679950626 0.08900445677650581 0.002356843176119394 -0.2035211973069847 0.13186806537651052 
0.16126881012303962 0.1892468919980318 0.3184278044071921 0.1934858528509542 0.42150097959764254 0.05317160795705478 -0.24996268489926876 -0.017734339404720578 -0.10384205983135053 
0.4449332552992231 0.4583788988261527 0.2773548779041197 0.4873272526262944 0.4486059723891035 -0.3575603498078238 -0.0658305040205347 -0.3912664978104987 -0.47394780467640274 
0.15645349201551195 0.2500373328797334 0.3126131355999825 -0.1738263270074395 0.35158231685255237 0.231652078246688 -0.25803870467008483 -0.3901443603989272 0.23968798648466294 
0.23531557606085152 0.06394241081480356 -0.023085992768062225 0.49485124342656517 0.20192297223742817 0.3927961428921247 -0.4020433122350109 -0.4485434739376032 0.24087162599129242 
-0.4056409678358299 -0.048077830054123694 0.3320768801286419 -0.3694490118532443 0.2793610967053656 -0.3508401072956219 -0.05594375698414411 0.3977978204106405 -0.2610539382683862 
-0.21973161909143746 0.02060109884459238 -0.48532288929458145 0.05340267654781172 -0.127491261678647 0.2503573282877647 0.40817602144350273 0.11388363596396645 -0.04153716480667424 
0.03886202094080349 -0.08312556822279815 -0.1630718765681325 0.46570677373223324 0.17592433300215538 0.048382323276568884 0.42289215816490544 0.12162206632174966 -0.15509663064166124 
-0.1076887825456938 0.11193117082925541 -0.16593163916317 0.3030150237071231 -0.17422735724077165 -0.475032948115402 -0.44350681982572804 0.0862142595411951 -0.2881263830131856 
0.3421122455911818 0.4751556366555445 -0.3521372996840719 0.1364062609200022 -0.2326887951097929 0.46649254057282263 -0.07269414588726208 -0.14609619064813306 -0.04450021109546487 
-0.33574241969652197 0.4626486195899465 -0.4785367900753932 0.3373714606447331 0.14891446299122124 0.3114309970152389 0.48721045987706657 -0.4331215325216312 0.2258678679575915 
0.22357069389510642 -0.12998859627324888 -0.36211466086697996 0.49446690708582 0.22285330418060378 0.4180071560638622 -0.4310691017536037 -0.07368281038072189 -0.0035856742356503712 
-0.3342194829260047 -0.061155737993987325 0.46928991076662574 0.26607177429315176 -0.2765646402506966 0.47099905166052347 0.27271688239173786 -0.37896772929592715 -0.3744016751447431 
-0.18972040945803514 0.48961321260900326 0.12840709123872618 -0.4556717474429246 -0.38562864663588314 -0.24663034906793235 0.4061392323148958 0.3271457390424898 0.0897775204276845 
-0.15079069548490442 -0.25764380410893906 -0.2401287556335976 0.14300210380544953 -0.1951960011705436 0.2758276723827787 -0.32631279856313944 0.3886294622334834 -0.3902018695429367 
0.21412096355355614 -0.4831840088636936 0.3585691536236367 0.04058829803159114 -0.44078881178865315 0.2934321851842061 0.3905236610122743 -0.3854403044369794 -0.16528233843506623 
-0.16409621132864027 -0.16122373189701278 -0.47291908109501235 -0.13539858913977676 0.22118450052300087 0.44668476585286765 -0.4650891613693269 -0.2599268946566854 -0.23184544463293533 
-0.0521936803062405 0.141272742932123 -0.27037502227409704 0.45993526948832697 0.22136733378591034 0.11070240997779446 0.036513807397575704 -0.1763219471680375 -0.382168280456493 
0.2958781304537964 -0.011313370012482005 0.2700561532763671 0.3916095839917483 -0.006006899736035298 0.4580545963740752 -0.35433694176429453 -0.4695119890298355 -0.4331693568921473 
0.04918469778138357 0.2837487640481372 -0.3448463525210259 -0.14344377075206727 -0.12810727500387864 0.15220120433541928 0.0772173710971844 0.008339869044177828 -0.48211450698674985 
-0.20759311787011725 -0.4495613494653157 -0.32872434184135835 0.19851383220556373 -0.3813985531012515 -0.27261219797915304 0.1906655537095523 -0.13113764141790651 -0.19545276097449782 
-0.15742741345743494 0.327587052687889 -0.437184154580891 0.422851540199787 -0.3169055328425916 0.24576510861079037 0.09440610999120347 -0.2780342371300968 0.47918979875756695 
-0.008879093848176534 -0.2573425510209406 0.42688271127428323 -0.05045056157205152 0.4559711553351673 -0.46968716581275927 -0.26822519913050413 0.37009963375251986 -0.1322965321271372 
0.2312368098303056 0.21629380185161318 0.1999661534663918 0.17085485686159685 0.29695541652457236 0.2619781632046624 0.49463291676209165 0.28187172555891205 0.4797074025701088 
-0.32880877488789384 0.06384457283707956 0.087431715793302 0.047544976762394886 0.09824001703047192 0.09059271015969506 0.2300589220075958 0.1364366770565687 -0.40919928438543185 
-0.28243638788115033 0.17886577780995772 -0.03501148206327187 0.009503707640676762 -0.07128516344840641 -0.1813933866486489 0.34931423935895645 0.3445074654117519 -0.09381309410277217 
-0.19317125139330582 0.19874900626769265 -0.019882816368231193 -0.07345458996522802 0.2467598013251593 0.44751540099452136 -0.2280193082461578 -0.22461182695212 -0.1973300150303191 
0.18311417849357303 0.3961207380536875 -0.39435928445820867 0.2448010201128925 -0.4308732551167942 -0.1949611058784223 0.14240256072789859 -0.4474460646890941 -0.47171981696662846 
-0.2166461905608208 0.1459963743453906 0.1274800518150856 0.0510395555142974 -0.46608796774640504 0.08490994588542755 0.37172104246593407 0.4256565823373518 -0.05496318453127769 
0.04161157523030956 -0.12710490105995553 -0.3524822605952872 -0.30944291592470996 -0.02324322713012672 -0.29697162139654476 -0.24120134853607622 -0.4035156913223972 -0.38890504077219445 
-0.11301803869876914 -0.10615377509602952 -0.22831703067537568 0.3494224283049512 -0.07507359496998423 0.3613734033848234 -0.15539431226762834 -0.13278190611746699 0.3637674406036079 
0.18146616195174425 0.2741411860234614 0.20813657534462093 -0.1959720148222871 0.11356561133306153 0.10984993994778713 0.49932316220016115 0.4015430358141455 0.36100324611918233 
-0.23466154893633406 -0.31844645466829247 -0.12257411290394626 -0.18167000207472128 0.3382502387895402 -0.027509324414471847 0.2851153090613635 -0.060404639119987835 -0.238672434603319 
0.13389008231939148 0.29991516450607847 0.04889574961426879 -0.39877489699813773 -0.0026261417285510236 -0.40571069446592145 0.1889257059804227 -0.3647672421570881 0.11843287375149303 
-0.05872351862540426 0.40892995088640227 0.43079194855589675 -0.12539430118751027 0.04874095263881317 -0.2696321929805766 0.028665690756729534 -0.19867827682252293 -0.23122322348278868 
-0.10323422361525203 0.48784971770619046 0.4676850851758284 0.24943490384242306 0.4136485666580887 0.48878855292677614 -0.26548488132693016 -0.19995652525097163 0.31510190871275245 
0.41118642380176673 -0.19175188413893807 -0.273255778154024 -0.44456426978235575 0.3036802813863547 0.10684394108370554 0.16146836542021903 -0.08242057011879089 -0.055131934828860696 
-0.42989236167135947 0.48159116434051075 0.23275728665494383 -0.43125485598632674 0.387710022806256 -0.4421129591027672 -0.2663575321111381 
0.1322962667702979 -0.478089716740584 -0.25976429443492477 0.267907602928355 -0.19247864597163553 0.3364985703781607 -0.45543550658871224 
0.6971620552364437 -0.7417430826534013 -0.5566176429108747 0.5630580272518236 -0.6655628057148074 0.47908035944130517 -0.15073224255380202 
1.4039826894515175 -1.2541780611767341 -1.2213470596084486 1.4031848509893674 -1.1649957664105257 1.570185610495284 0.21133097182110683 
0.6326802569071175 -0.6369981493315999 -0.6327287326734237 0.6961924110405722 -0.7786951245836731 0.7739997840203041 0.22136981443691517 
2.3579467445471147 -2.0257445707250676 -2.5509927176377807 2.3149266693130874 -2.5319239487319836 2.2112963866986037 -0.378096595761235 
-1.7750263919889575 1.73159224309839 1.9172441459715883 -1.9021252610743375 1.8797177296593452 -1.9561726058065045 -0.4995663452147472 
-0.21780512270539854 -0.4008284317269165 -0.3490187365347695 0.2724465354307753 -0.12335116739533872 0.19913354161581126 -0.2135820960093654 
1.2411326777603136 -1.1140686172767822 0.6180553967679678 1.4685336112769716 0.11248180701685107 
-0.518389824695698 0.3357604333260279 -0.7160285672305209 -0.9101357497252439 -0.150701697621213 
-1.5003403250381016 1.3888055752278172 -0.8972070640328402 -1.1315797479831966 0.3801380782067252 
1.0225916797477776 -1.5070883521233693 1.308734357912212 1.1607054987253609 -0.3039197806630264 
-1.6844944296637725 1.7221627694274289 -1.9407825077094336 -1.6106353664322626 0.4813204508865395 
1.3445167450940971 -1.1564312501905931 1.595679780467441 0.9478136687548833 -0.36277770355527006 
0.950734767635566 -1.2649228491646802 0.25916231978348114 
-1.8880364187519871 1.6321358195236353 0.35939567431581954 
0.78144452938572 -0.801822435883988 0.027626152550797478 
1.0917807229501932 -0.9286589338923829 -0.2268683140729909 
5.086367482327492 -0.023876680765476888 
4.6302410562368745 -0.22426295152640996 
=======
0.36933298346302856 -0.13838926369150029 -0.260229278485708 -0.06882595735146291 -0.418443696042876 0.17137273871945846 -0.3952122015971343 -0.3705370407934261 0.142329731732309 -0.2533511834173414 
0.3494375170761995 0.18376082937910443 0.38489367211898806 0.09396028484383279 0.3847853193661308 0.0034087987190188906 -0.36742940454874606 -0.4790796116313466 0.4360651513860072 0.20780057597616286 
-0.12825212098635674 -0.42699254790951247 -0.0192140177837824 0.11820024774603921 -0.11602061654158624 0.022054924660936615 0.012122713160308662 -0.3685685723942891 -0.435102141820227 -0.2952935667049822 
-0.04071378700273798 -0.055904100692017455 0.4046993820548228 -0.048532806941045004 -0.453235877357962 0.36648847094471904 0.00828275860261618 -0.30438466223276595 0.4807681498580707 -0.3578685292230951 
0.09269629979873195 -0.39387974328434494 0.11391939579848531 0.2718614920983401 -0.3846353735627176 -0.250152850530424 -0.3418512808762997 -0.16934253665122334 -0.44136089573543624 0.35571056617084484 
0.0909840565366552 0.1609079024121426 0.42453498463632744 0.22707156898038106 -0.36815773770694993 -0.37242735505937097 -0.32191030185553904 0.22855699702163523 -0.4473619077195017 0.3287020398623949 
0.21859575308312262 0.059611238429007174 0.13096843899518795 0.2690346405641205 0.45503322026111603 0.2194744255087675 -0.2456746248573244 0.0249022213454958 -0.2846536139306798 -0.33308675863251513 
-0.45976380411073403 0.3554286050279123 -0.4712203568012292 0.1829136746193063 0.34992513029990235 -0.4519833582091273 -0.2136918757966354 -0.14432236246398322 -0.25796468952609053 0.025375701604587797 
-0.09373147982369945 0.4246486388513433 0.23814635145278817 -0.1131504971309788 -0.08938336590867668 0.4439236637166827 0.25326675427635015 -0.39143776514536466 -0.24819257379060122 0.3552921594708691 
0.18217693124373513 0.08490856407655678 0.32111453637401677 -0.40272463191675434 0.42644307891338384 -0.4418290995270937 0.3162761771537781 -0.18107831062554203 -0.40288198836695943 -0.2464446276899187 
-0.4503253441225358 0.11574774882567307 -0.2654100869677678 -0.2863047388796095 0.3378271854118876 -0.03990394138239883 0.14973562758056747 0.40967929565551053 0.32878568072514114 0.15931450135559677 
0.4094802579111254 0.1949188440514963 0.49611402844448005 -0.25745538930966694 0.06506021608835766 -0.43632294291108087 0.056431146125450304 0.1505388695544182 -0.04726775495540769 0.4778400067525771 
-0.247921180162469 0.482810102556371 0.2843657584777455 -0.2664818139896059 0.28129325831954954 -0.15745133188261973 0.28930222975778974 0.45332389934666995 -0.34466987621028644 0.012126139348514475 
-0.13094073048262278 -0.189321238690213 -0.08468748834415785 -0.20936322971036336 -0.4170961977815284 -0.48073738217387807 -0.04885776626106997 0.3298110806289072 0.2950124832320814 0.45372342430160006 
0.13063457702336667 -0.2842315068739122 -0.017115372856168487 0.007025033330262054 0.06910745913555694 -0.13854093755296293 -0.46813355844158433 0.43531819169009023 0.14797579459000576 0.49827676478908367 
-0.17790807546118215 0.49297736917805424 0.3254725316535484 -0.3147902035674016 0.051840694115802055 0.11845420336401735 0.37343810087723817 -0.20997338222553075 0.035257958870773765 -0.2041441902927884 
-0.07880994785926532 0.3393780509264077 0.16257795682010812 0.48766443599322185 -0.4091948372983927 0.4833302427573618 -0.18256328590455373 -0.28922760110577717 0.0677168719104253 0.07472442323243678 
0.30855575134407354 0.41101422503161433 0.16635054056405152 -0.47510635224076236 -0.2079766023892975 -0.21936439033568078 -0.1774099012923458 -0.3353516100494597 0.2355961935264005 0.058646948095927964 
0.47318943795043134 -0.18692356700080381 0.20788730235248454 -0.3442335083114558 0.46681227077488796 0.13658495390029723 0.16300516216126837 -0.346333699079317 -0.007794969512247452 0.16674565907575556 
-0.06484997971337247 -0.15750785634459552 -0.4939232753733368 0.03788625457515482 0.3578721131276372 -0.018864054835990407 -0.20341907603115938 -0.39599467370737107 0.2791397376767498 -0.10850273864792948 
-0.3721352329868034 0.09946909555884431 -0.2439382818639646 0.33097841375019244 0.37697057872777195 0.419082629039349 -0.11794689380706003 0.3267152914757687 0.19644552022024397 0.41051012092170747 
-0.4755711014739976 -0.19944605873512278 0.014335510149137809 -0.20434804085219294 0.23185591943034956 -0.1344594539926377 0.11780982021725206 0.46746924385161437 -0.2912122148086318 0.1327008443184794 
0.1574827973196442 -0.05512152966391404 -0.452046261274874 -0.2688579603420387 0.15656967010042933 -0.2892766498902455 0.3621669275751829 -0.48498142612084805 -0.48766601472339743 0.006461842384526961 
0.06316385429899107 0.10766102361874652 0.0368539652411084 0.412090738004951 -0.20211915677278025 0.016174639807760016 -0.20004418399573043 0.20096200500134442 -0.028480266929523212 0.03907270245336825 
-0.09076771684133211 0.02652822061923199 -0.13805001500329173 -0.4149832841392679 0.3903846873680742 -0.028312323910432924 -0.438560787495745 0.32249408501136223 0.015697700397547254 0.37128155314398503 
0.36940022318159993 -0.2117287330457316 0.2692755955126568 0.10442933281158773 0.30378773339760445 0.19671853815832863 -0.3652601740694075 0.24577101420188052 0.09897260095425675 -0.2873902687157063 
0.04440727364924313 0.06331743291019587 -0.08563209177164677 -0.12324098344694001 -0.36146035333238125 0.35549291577259945 -0.009224667897202332 -0.29313631894797887 -0.05092570979114108 0.031087527034120654 
-0.339633468301173 0.23518045531097675 0.24431694990833297 -0.3467815242832204 0.44140879195740934 -0.10982987895061491 0.04939781183632708 0.3920334297042424 0.430290322649559 0.18100332113579853 
-0.20813801462627257 0.460771431013244 -0.15890514785733167 -0.39817167349753146 0.1125859953672288 -0.3540706181366545 0.33692177964877557 -0.46304101987783775 -0.37071751816762355 -0.015334584078006697 
-0.2526579821696616 0.21864926766847192 -0.15682478492612706 -0.0087970238574 -0.12717368722845834 0.4658784382268619 0.43899704765639525 0.08888243103395954 0.3396772636482722 0.015578806517513533 
0.444283737522963 0.06563959152312748 -0.1120582119945791 -0.25300437329851955 -0.4139932814759938 0.4380737179926496 0.049976272789042486 -0.004623459990745982 -0.2890913445497627 -0.4171000330351904 
-0.09121809243314283 0.4529464979114467 0.3204752569203765 0.37446434349693214 -0.4870772703952303 -0.13686957523622878 0.11229765574186923 -0.14686800404317968 -0.4312153554784842 -0.17175475460468148 
-0.08335001099458494 0.14174242739048504 0.23112863100209513 -0.42861033886629474 -0.42957341060990717 0.425957931977785 0.16933690912363353 0.42001860811552005 0.08015422308444797 0.31921468352560867 
-0.40055387463726666 0.11169615774161645 -0.1083855293330932 0.3441183475903692 -0.3589933421829644 -0.23822004726605406 0.20568234234646332 -0.42049081414482203 0.18300283685297225 0.4782962572774512 
0.058306716921129986 -0.25394579147844687 0.4245139575889936 0.16102410131424072 0.3171292196028749 0.13310693158289277 0.39349132540858756 -0.020186083662012466 -0.16194179591140467 -0.19429198942737658 
0.04097186644229567 0.39142405439178174 -0.22781533328811532 0.47298295736340523 -0.0417556950175898 0.32466658051890296 0.41674734420152915 0.24782551207349146 0.3709287544354126 0.34041126971716906 
0.06342478248822969 0.28263893055977274 -0.17337323047008313 0.15600491028842978 0.013052141588711708 -0.07296083381243601 -0.08825699198748405 -0.08707971846419538 0.297930889431653 -0.3791921700112154 
0.40827622463698665 -0.038042274486886685 -0.3187799773516664 0.20901458461609645 -0.46717841438895913 -0.25792076124702656 0.18746766230356304 -0.2538876226087128 0.28772230092506246 -0.4630365938789761 
-0.24083795429214372 0.14194112955767657 0.4982535684342245 -0.49237262218499067 -0.3687484513328473 0.19495828854347574 -0.19008292620226686 0.41996891560726124 -0.3310966619931458 -0.3433518333625565 
-0.22362999698703934 -0.08715899879462119 0.22334086835360667 -0.02405635983217369 0.18120720920178113 -0.014722307682316194 0.02642058238398537 0.2836279042983372 -0.09423881310501969 -0.3792512535817356 
0.26667855040863697 -0.0059344070770107615 -0.019720762385030177 0.11182795519531197 0.26789802072445756 0.125246300214918 -0.06271714945210805 -0.29958206762467954 0.12581919995577806 0.06800575918073892 
0.22360945591322579 -0.39331784516472457 0.24943310222294002 0.071423146486567 0.2215822750553842 0.3840926265871506 3.712076615236537E-4 0.15377541861639688 0.3799490068208492 -0.19149074190621385 
-0.4727767490311303 0.49706273221422015 0.06167558262628303 0.1859653615862107 0.4511857954044116 -0.36199822653672475 -0.021623611894949324 0.04684088766965089 0.27526457543529714 -0.07048382713429491 
-0.4998921570072008 -0.31663683371557083 0.2613235096674631 -0.1858632182663149 -0.2955523493541994 -0.11711727076768008 0.047594299852025124 0.424356723077447 -0.23977338568053486 -0.48887052429620104 
0.46383010841014705 -0.09513073893184332 0.12897638108009868 0.30766224986673163 -0.15789225250523364 -0.36225065143787305 0.11110073306245316 0.36998306902097233 -0.3816473862904032 0.2440222410996703 
0.46397395911964945 0.32329420746417215 0.1729813354961075 -0.1663041038781975 0.1756151874676095 0.09963539820843437 -0.33137299345932814 0.48121611543351495 -0.009717956319981957 -0.41685505732465433 
0.10873268688148752 0.31443671275297735 -0.04872622261181203 0.11744730075109755 -0.037131313838120406 -0.07742068964074844 0.05142788967896128 0.016676985208940898 0.48294947589817017 0.012290611636676219 
0.0632402684507486 -0.22659334011343346 0.26909716302617115 0.37078756528778123 -0.24176561741321578 -0.38524495195172637 -0.26528250605777004 0.23121377522969155 0.019149676194977205 0.422208072903141 
-0.13257413818553632 0.07771304284109704 -0.2012845552595196 -0.19880536410451288 0.085780215253204 -0.2236406483109743 0.48522090230595527 0.2632157854700038 0.051348749380065395 -0.32703545014776714 
-0.0022115155623316785 0.06633463198853373 0.011460163416913138 -0.040081314977017723 -0.14679830453703935 0.24909118350165715 -0.3799454177545324 0.18160007975240788 -0.4786650632971443 -0.2115849178501602 
0.21237393316301212 0.22152551051783886 -0.3823223865912533 -0.3861338324137177 0.19380034687864933 0.4942931438673953 -0.13085975363292401 0.4185413539473595 -0.45602810879590916 0.35150451031896957 
0.3332758023011859 -0.17875655929023693 0.4343750524688085 -0.0967663076818186 0.05124437960633377 0.4550159717833092 -0.3890662226964676 -0.4447547298572937 0.1712951730936798 -0.016094749628113303 
-0.49731496035326994 -0.43295457267593096 -0.4077655544520995 -0.11718056754884221 -0.016548450306080764 -0.15301704995857857 0.345294066677702 0.05461150406775317 0.3354920915295796 0.018000272350390478 
0.25801014901144914 0.004021160415130565 0.24243070348377205 -0.4887330141303985 -0.07483337754457242 0.33986883648380906 -0.42666416908970617 0.07481152422750048 -0.3504459491251596 -0.16509814480125917 
0.3106413093168644 -0.37960093268182904 -0.1907606928457357 0.13695174854721426 0.2216711162766528 -0.22571304912788615 0.058236977151938096 0.4955686062034437 -0.22315009593564816 -0.15387849200084103 
-0.12608148692256504 -0.45494317701675013 0.3772523302621391 0.18512284764759968 0.22719079914142637 0.2678438410794094 0.16996371178195502 0.053837454613642866 -0.4295791013307363 -0.2486282301811712 
-0.39820462992878614 0.2171205906657755 -0.0867209476061227 0.24720943081544866 0.39021825965721146 0.4176439985309992 0.48811734333641155 0.3428400010130108 -0.22505137001591125 -0.21089330738376455 
0.39419699845785094 -0.23541257254798065 -0.2455602296785131 0.04445959955949175 -0.3459780415642826 0.4444026143124542 -0.49139546200773665 -0.03116215272830969 0.3152324986725288 0.003738168988479007 
0.3624133132953752 0.3455269224891311 -0.41204262345282394 -0.2655017752576141 0.45458243748100646 -0.051828024294066743 -0.479781478343299 0.4900575924669637 -0.25861149327588984 -0.35642752616490725 
0.3829276193816785 -0.3613972452009806 0.08771447286759981 -0.03321330668231315 -0.2387909215552999 0.3765544674523136 -0.02424671721496019 -0.24609579358214595 0.3302295950786933 0.25158977821619555 
-0.2036345138216411 -0.45227366264318847 0.43140922065458986 -0.29721069106595843 -0.22109233561401953 -0.4722716623526946 -0.14116524378848783 -0.21030698571788542 0.36241826309828407 -0.3419410185032863 
-0.28410893299744666 0.05255579362847207 0.2143684018126274 -0.40403324968732723 -0.1914280679976652 -0.3771479332321659 0.1627552472350663 -0.34207563891740245 -0.19537361820992039 0.2860860885297595 
0.02313566443519821 -0.1981440539259759 0.3066427841084306 0.18822278837656325 -0.32573161849373544 0.15125442617203866 0.06236749931454155 0.27256156388842623 -0.23564649214958278 0.06060919612867843 
-0.23299916757357297 0.3356334020283329 0.114427726004804 0.10144718522720553 0.2999075872163409 -0.2012903934378687 0.2262947676766327 -0.36557719290577195 -0.21787420915139544 -0.09423235186963874 
0.2994404292952235 -0.17472425716027884 -0.45874845647568874 0.07926844550156842 -0.185298026281696 0.06110785600884683 -0.07327610135207219 -0.4081437543901125 0.052031648719558454 -0.2716867683996067 
-0.06877121881712212 -0.4548993319367016 -0.12448443098299722 0.22462881167949633 -0.2571140498272103 0.3856580029150194 -0.2591222922851564 -0.10484486828712702 -0.3219207977267531 -0.16526302616603272 
0.15902057301974892 0.3058299417932868 0.42623399910084125 0.1585115314842389 -0.21627607236327018 -0.10227971803950198 0.17554350395341034 0.1651314481547438 -0.11755719798152997 -0.398368875811721 
-0.017411910244403694 0.17823918846275677 0.19621732523365143 0.43491178505273964 -0.30101075501088825 -0.492590686565442 0.09802613626869416 0.45097407345769536 -0.12531562828520637 -0.3873157317784155 
-0.4815137816147341 -0.333081194513299 0.3201035988337222 0.2433888651240711 0.3236221183046195 -0.244199733992302 0.4284755702345957 0.32066268947790344 -0.2985025099568508 0.35744100684247226 
-0.06531556180399278 0.22865833437212035 -0.3571771869348763 -0.16465801547536563 -0.4814547195226849 0.48111053284872873 -0.21477709521304633 0.1871163956797921 -0.4519392111875554 0.43798936188482696 
-0.26833155468414405 -0.3979925554030558 0.3021673784417145 -0.1387913616164579 0.45064598044265514 -0.14856580770505212 0.21267385777881676 -0.38113200362753596 -0.48103888993957444 0.29714152130517524 
0.021541591900475887 -0.2257345087519771 -0.22235983902441825 -0.19358634803244001 0.2623499647303833 -0.3710752096544345 0.4372154381264758 0.2749431651851709 0.14373659129911076 0.02813961255513142 
-0.20924999082831064 -0.22466961009904418 -0.26220329211477444 0.3830448693924674 0.471277952203915 -0.4271791608866353 0.35787191959238995 0.41498285487902753 -0.3750935739099014 0.3797712005410032 
0.1478533728651038 -0.41406035544268704 0.46164609237864085 0.25646711767330566 0.1990698900045651 -0.45691438171759746 0.39310714641377753 -0.4917011425781147 -0.038972852723582196 -0.3240390380056761 
0.3695179833373553 -0.22206610768893986 0.31870876323887964 0.06160548325025472 0.08809400096912601 0.28600795127891077 0.4718461415150301 -0.34406055852624295 0.4606047940047372 -0.16501077301893108 
-0.3294915104151639 -0.42103967148524757 0.10005769635244577 -0.24174693368767264 -0.0634394521904551 -0.26317222443639154 -0.3852638417084586 0.47003721073255145 0.1319800815795552 -0.17433272629798002 
0.18240201271598422 -0.34816931238164106 0.12272319873712167 -0.03006946010319622 0.21829055986895607 0.3968820680048788 0.33077023794782157 -0.1375913436534768 -0.05240191230485025 -0.173104210505855 
-0.33281913532300134 0.29350168122871356 0.34648158923204153 -0.20638220887438152 -0.3045680507989753 0.3841063161486644 0.22516048636391062 0.2828948180077716 -0.11299275403800002 -0.33050902707559193 
0.1925313873717146 0.04992442911980144 1.5295148874960862E-4 0.4207854630764887 -0.1362241779424771 -0.1682043922418639 -0.06209065062951136 0.23622047792062117 -0.04923737609764167 0.2070524239839877 
-0.07702736757664363 -0.013990739373919814 -0.1903842006870473 -0.19810356949642471 0.4646380482568486 -0.34722731121855066 -0.3893599368057996 0.0787761657865802 0.38701912881143097 0.47366558710606466 
-0.4571346530914081 0.3854944697148408 0.1379344638088923 0.0608711390235932 0.3687932079185694 0.29159804598925687 -0.2957022360951679 -0.14611306510255562 0.20449734717518142 0.4936956132575445 
-0.2774569215110132 0.3400350137691387 -0.383948918994245 -0.267515707890321 -0.20843824800806943 -0.031114932983627552 -0.0046746179318170045 0.23164665547178231 -0.42917687771025315 -0.4182110363163831 
-0.29347952103861286 0.14241361725118595 -0.02220309346236715 0.4794812791723858 -0.3206346460269991 0.3574709440372922 -0.3135107453802032 -0.041290685018786744 -0.034261085996746043 -0.15597960769727293 
0.17285133184684964 0.2631137450886706 0.2735375283931647 0.3381890024761075 -0.246986969703614 0.41408794651008995 -0.35506644438726853 -0.15838700564486652 0.4167412458641352 0.31410338187274744 
0.2557401321643572 -0.1340947096590661 -0.2287839541995117 -0.15200496584972634 -0.22158263338899775 -0.21815084910431304 0.07916447287770068 0.4469589159920273 -0.12667411701895592 -0.052457762939562946 
0.20058642563452544 -0.27447783549492977 0.15115366239785 -0.4866508357049132 0.22875261217949694 0.35350302622687757 0.38401242741639774 -0.06859708734465275 -0.2511503433029463 0.2829867126446539 
-0.16647961467924444 0.2335282922563916 -0.05840670521029789 -0.18539959938215456 0.3112582196844633 0.08384365756108314 0.20432497602913635 -0.24212118548056016 -0.0096945654292101 0.4609298020393833 
-0.4314463241416635 0.11726915909658198 0.04613503439209754 -0.42066231540648946 -0.04440122566784299 0.31833259621168863 -0.0790359917030985 0.32133957924916123 0.23093643329131186 -0.022043200807920993 
0.3777281612418891 0.017211101953411245 0.09304604924844606 -0.3820978512726565 -0.46183041109226075 -0.11403610904119876 0.06399956177466848 -0.47723811446623376 -0.2159042195926032 -0.17166736892340295 
0.23673125904576253 0.15142429047615935 -0.2583104791979741 -0.45004873408872925 -0.022128893915564052 0.12538296091804413 -0.43418126209473384 0.18503802864098973 0.485219960874293 -0.1622511628898755 
0.39461664013327 -0.3104601691998836 -0.04460960147264548 0.1535755643836736 0.1541716459908553 0.27757076220908306 0.1298321595541172 -0.4948822869369247 -0.14101202709494276 0.08611157946417625 
0.15640647501331362 -0.0751011584868202 0.17594717610244426 0.07031998607001155 0.028868877721670128 0.20497451108059683 0.2978220876625782 -0.1445655106872623 0.3480655251773891 0.42253313159458894 
0.10696411920336824 -0.098862864208356 -0.21365686593652822 -0.47001478431507915 0.20060590300979675 -0.12962623934928064 0.4306182671191733 -0.4280506313398541 -0.40370906051388133 -0.46298767039204414 
0.1297465796953341 0.36205167451217024 -0.16073727751756806 -0.08464615427106437 0.07827857318605547 0.1292118971031675 -0.20678411942450758 -0.4506079334845463 0.1313829570635744 -0.27390089283863117 
-0.38836778495023105 0.06085195459315673 -0.23533532304759652 0.4816958443634828 0.25899489570941436 0.12241902922429648 0.16779974318515212 -0.3245813531033004 0.47949416592953764 -0.0037953326958805045 
-0.3076459431466949 -0.08799974349815431 0.29540869200251363 -0.34262428719411764 -0.23815073173686907 0.384346391106942 -0.04183348517680163 0.30900873448297395 0.3960834681858507 0.12583834031944674 
-0.22783998128995253 -0.2133871414540981 -0.2980896935840682 -0.12593997708120064 0.3647097968285157 -0.05060255011484016 0.039125062474425154 0.0946859358865213 -0.2148573986440383 -0.33975610024543534 
0.082801720129423 0.0472745916267554 0.28176846588385707 0.3674736248031353 -0.32762970311901374 -0.48603044431439824 -0.27238700679628747 -0.3811130719657778 0.16291919242321606 -0.042381865643440264 
0.44408080621916535 0.062180674660821666 -0.02434771791584378 0.42757533030024897 -0.3937037085517773 -0.38426488891538846 0.18212626326176362 0.4894690469999482 -0.4953114401314469 -0.4701070704434276 
0.2508384277702962 -0.18054024272944647 -0.31554263041279207 0.0012371674034923341 -0.46506879660947154 -0.12596409081056192 0.3878774616294056 -0.14899368596091722 -0.31377577957509617 0.2231441220374658 
-0.216031314891046 -0.46633125299348743 -0.05651937824714548 -0.2825386937276432 0.18588004049094142 0.4028109027538166 0.16175950827976682 -0.3501269370858495 -0.1715942448387624 -0.27112362432185866 
-0.47509874228857807 0.4667309267476484 -0.19362818813811034 0.4369264599914674 0.11463868689775558 0.38621923096281174 0.4592019479343362 -0.08752521047423789 -0.10247876579047288 0.4891688746275885 
-0.1722078027315077 -0.4904179251047428 0.2347857355675943 0.4619149115959562 -0.1931066081498216 -0.4122206304971713 -0.27949820158702243 0.1913008402664026 0.2695214374135222 0.003021454844004623 
0.009765624650365567 -0.16130811922229438 -0.2505144167646447 -0.017245504777402942 0.31141119104628934 -0.14713389362918083 0.23394470860765348 0.226314847206738 0.3886532303146002 -0.3790890785623292 
0.2399728447473295 -0.11074065853618109 0.23627142509481847 0.10175980176655519 -0.37256540329483223 -0.16614097467408762 0.08439097132790374 -0.16123794309383854 -0.4649581796492065 0.15787240607649067 
0.016609607635934 0.20568644669099156 0.4172834589302983 -0.45015362401976855 0.28416660981577646 -0.39518316987430313 0.4069902112675775 0.46157558488388395 0.34804487604350676 -0.39369364135177254 
0.13161652225238907 0.43698471044865017 -0.21265796422519334 -0.30528596437512234 -0.3291076962244933 0.19157976029178791 0.47494217254688764 0.3716558359369003 -0.4406825650393107 0.19774857565623682 
-0.15953506826369024 -0.1472402661793134 -0.39095784199651784 -0.40142761607493926 -0.38433578103870514 0.4926225314247702 -0.1430029767605907 0.24644372477637222 0.18889387659727153 0.3732233644172094 
0.12470595644412086 -0.4573310470528037 -0.4170470769786365 0.1992574328693536 -0.47996302315556005 -0.4596343346690014 0.11456873286060609 -0.2418893530941877 -0.29278535789844995 0.4653491658568085 
-0.0060287273390288165 -0.2772958454465514 -0.07526067255892765 0.40833384730584676 0.4794571221707449 -0.49780502682394 -0.45957182636766225 0.4466592923382885 -0.28546267034929373 0.17852758983418848 
0.398613242538441 -0.13511744911661483 0.044208468308117976 0.30608824101272925 0.3366025795512184 0.4609619229401486 0.43208125227621985 0.49722235370298173 0.025830169943382164 0.14838965633080936 
-0.41845307338139437 0.26813252801439913 -0.272308868590985 0.1945141637717298 -0.4981433619061365 -0.4223170170014088 -0.3551211368799879 0.47142483993355444 -0.44606590955434533 -0.14410615471838362 
0.29611088506964256 0.03815592627952735 0.4609377199438818 0.0894164947340621 -0.25454887878796084 0.22159804323552268 0.3750332331253924 -0.291960905261367 -0.42299439548021056 0.11838917612813271 
-0.1454667035243703 -0.4007208564801178 0.22158999018095282 0.10118985633405442 -0.4754940909427937 -0.43262226979296203 -0.3859631983741 0.48012959008137157 0.2691488186063742 -0.05148185009256101 
0.1881311917618783 -0.05615513634348657 0.035672277529352536 -0.10415096997155904 -0.09926632469594343 -0.21558817981523626 -0.28287207704991835 0.05590003946947786 0.31746944473385175 0.19660909377761338 
0.1255667253207008 -0.027763421787921905 -0.21056663685758048 0.1343296427815286 -0.2328953675279225 -0.4272935088985007 0.4036806314708221 0.3055930463874499 -0.013080660355107687 -0.4766089518309865 
-0.30015700325302175 -0.10750781578731583 0.06489728443797882 0.06537917789860592 0.11103121349981127 0.49354163913504323 0.01159524704227577 0.1897423123141 -0.2907457935595278 -0.39672244711247384 
0.1393758902005252 -0.34840518053329883 0.11390608000053926 -0.33240827955709285 -0.03497738434494291 0.37588272410601276 0.35644218498342384 0.38316504722329203 -0.3621664228892235 0.2655516384499095 
0.08518615101655802 0.4454992286249295 -0.11885938621529091 0.28700203701297433 -0.25872040913130767 0.39242723188739614 0.38539392885601154 -0.02175159711978447 0.2401068522569748 -0.4613833193440161 
-0.30260131903937804 0.20195602304132332 0.2520974530125556 0.25146311889626494 -0.08701496902701056 0.04853761220964237 0.39262893972100343 -0.020097741187729 -0.10066166263618415 0.28374932236977013 
-0.49717635203362864 -0.4849461720394559 0.34841182177206853 -0.3692664309532899 -0.2686474250424147 -0.06475781564080896 -0.305711209022851 0.4782142514503638 0.31193049307363696 -0.4321783726454185 
-0.18494231791928328 0.3145571254254933 -0.22799369944432768 0.0863670877121997 0.48370742674480993 0.30166670461604284 -0.19477708668441218 -0.44582593502391654 -0.267253158309834 -0.07680201280994814 
0.19354191353496197 -0.1763560624124192 -0.34630325741366763 -0.43167984615052235 -0.025502310360547842 0.20601406852210624 -0.3347015013391593 0.24527592573829526 -0.48513353845041796 -0.26297526224251333 
-0.04677132501310921 0.358239470348941 0.2741061331315935 -0.3185024767183946 -0.3906958227837509 -0.37351774990536424 -0.1807571710389061 0.14343320374889068 -0.020392217848433147 -0.22338471802672577 
0.08745040225701406 -0.2218806966717486 -0.13134042944174318 -0.40331732751134874 -0.016610108175849292 -0.36112931974512985 -0.4592956160924635 0.3051406572569093 0.14544532323971315 0.13340936147128313 
-0.09061822406475917 -0.04173723605307933 0.1183137609952446 -0.08647755545736513 -0.08651105992264607 -0.20372928168169468 0.22897675781981797 0.2765197717917194 -0.16075625800925286 0.011497453450219908 
0.1789012041665884 0.3181459621005265 0.2683991464868928 0.41114729372772707 -0.2626120909245946 -0.35601576673584645 0.40675658985499497 -0.1572743147931478 -0.05069365864752973 -0.07997806566540089 
-0.2209295433635854 0.051968863480433836 -0.044975561818422105 -0.07706888544403301 -0.3359685284553442 -0.14888857317601722 -0.1388375875647141 0.03674962260061876 0.1869620222883851 0.08958794439411022 
0.09787035648941644 0.33503142184431445 -0.3119479928871409 -0.060227626104251475 0.35164912270271764 0.48616777266983247 -0.15959145506632788 0.4371165927597013 0.47230493249802497 -0.27553708869625027 
0.004888733146857116 0.047057730054526514 -0.28155255306034754 0.040682124725442304 0.47762987492755427 0.27032143495700445 0.32801295808189945 -0.43682866677592747 -0.3886134779010866 -0.05624409118476481 
-0.3213872369152425 -0.1757189062415404 0.273229364347232 -0.054410329726018225 0.23707879981134927 0.2367107074140996 -0.261143512995767 0.47201382683169213 0.08839774152988844 -0.3594795808046445 
-0.08228795704752845 -0.08375311705355992 0.08129579741724324 0.2239430133539123 -0.2466963783558569 -0.3482511341370975 -0.46894375894814044 0.46975861449534606 -0.2504456539926083 -0.30199161667147756 
-0.020277558933812334 0.03387936611463804 -0.16327886808520287 0.33033476328636957 -0.270340712722536 -0.3760761111101434 0.20935612806889348 0.18434493756240267 -0.2614839077147153 0.012943247772831845 
0.34398307353806 0.30134253080804085 -0.008045399261891517 0.2970942602432942 0.13560656483987643 -0.13745561040921195 -0.3449240143236163 0.38593758966703373 -0.020133666168765108 0.06811801138327267 
0.14430081747017764 -0.49982822292316587 -0.3284048683218439 -0.2687496894478967 -0.24147341826722213 0.14399659559853417 0.19073326719848382 -0.32202298246376904 -0.3382923468493446 -0.3820677516406187 
-0.19700138734128525 -0.029741096269519374 -0.18142762540109236 -0.3571963233591714 0.415406133819312 0.3027993556183094 -0.04898671961601364 0.07673179398818697 -0.20432408262393298 -0.33664446893157474 
-0.29524445453901094 0.02435682724404986 0.08976486726380539 0.4918030591725907 -0.0057698522220340775 -0.13884878031749326 0.053201473119857345 0.1249720223590578 -0.07185217382054909 -0.17443744747146372 
-0.45040086575452387 0.27228006888970835 -0.19090945232245682 -0.13214009080760603 0.1636687088401515 -0.3685540531387127 0.4475075689703243 0.38693966900324583 0.22624592166876278 -0.47592536983192935 
0.43382307923793817 0.3349798128629189 0.1552948381197916 -0.3923365966644131 0.0719334239993743 -0.07528581453927852 -0.22045576741977146 0.3035854445981263 0.3931913807611852 -0.16476845416912822 
0.23035806268950798 -0.43013399094517213 0.0420459559722427 0.3795866086360582 0.06263780580554001 0.04307319656092368 -0.14717372947307883 -0.42885674314936983 0.49699861976999327 0.37540412807558154 
-0.3782718827033472 0.40545291763448243 0.06315725461675392 -0.1989456204980673 -0.08111736721137164 -0.03939614365684707 0.46841484693069557 -0.41978325634713776 -0.21754371112044402 0.1113601568342214 
0.21531281488347542 -0.010437113391810637 -0.2099477894821069 -0.24895845966373786 0.34898557599082913 -0.04518012647730907 0.3122527390800458 0.41997845006281653 -0.27257087959584014 0.2540604171096027 
-0.28103630627804843 0.15050935535236953 0.3768497986843591 0.4595845066301584 -0.068708929680112 0.15587015478556254 -0.1805471692073295 0.43177715548190154 -0.009998831940459696 -0.2860415496608345 
-0.25752454049315754 0.23008523732104824 0.24618554112539348 0.2268377877408717 0.01496508840990829 -0.23573612837038915 0.37057227532741577 -0.027019231849992775 -0.14725203171140389 0.37330105986243856 
-0.37500411474344986 -0.4883684027765641 -0.1177708098686272 -0.21006340614727015 -0.2571425141813103 0.047302157945649626 -0.03988982384663908 -0.3745505677448826 0.3249786870604917 0.31729854010985803 
-0.13119461661475595 -0.40760466204837276 -0.1269286948658782 -0.27369280836251875 0.42628472778190185 0.17223478163058692 0.4551165845279318 -0.48054663253572893 0.12426388005700073 0.3302979623174416 
-0.47473277477055165 -0.24112302878228997 0.14011027286939182 0.18229308918671472 -0.39454361845861596 -0.25124652003893144 0.4555269471633008 0.2245703864933407 0.37671716032350344 0.33982130695421053 
-0.14097725973133945 -0.1453868318387399 0.2252878250815341 0.2368585475349072 -0.19062797529209152 0.42873456342889393 0.4418969464822118 0.0311861882170289 0.49371271812390294 0.030716518666496606 
0.08219373399981478 0.18515633842827006 -0.07337353114792633 0.4581354056600083 -0.037890900011374073 -0.3932818719200696 -0.39450950633578497 -0.32762341104900583 0.38400294455090367 -0.23046422560150903 
0.06258553553601942 0.10384777996520156 -0.03222614547945779 -0.44223354007381777 -0.3641101369832216 -0.24434103816666763 0.3956774372960319 0.1444887839143989 -0.08181522362135052 0.007044956995176266 
-0.02957994777451911 0.2489048170246655 -0.36195817487519444 0.38206337783019695 -0.36683519490298233 0.0598218881480983 0.17645802240787845 0.3196098911967894 0.4914070502755924 -0.03844680631952491 
-0.47065026048335645 0.1575493297904652 -0.0337527892549252 -0.04674116917827953 0.2888123137132086 0.12677011403135385 0.3844085399894428 0.3138817071673944 0.13499680124082958 0.14022598409554288 
0.21241822491231066 -0.3677841352825014 0.4056509878258616 -0.4424618253980894 0.1586902224142045 -0.20472269741579108 -0.458182535132441 -0.09251197832347413 0.053818804728670844 -0.09196973169647893 
-0.4041239758522338 -0.24126182027859067 -0.23978815742556892 0.40365476571140535 -0.46793621736993274 -0.4566214810131033 0.35926342369263553 -0.20407597434151825 -0.2501987329833567 0.15840024087656634 
-0.48241458547776594 -0.37610682574848686 0.11659805763839004 -0.40303991779827786 0.2433881124073244 0.14398348901694213 -0.18999269564647425 -0.30569631440685807 0.20992053427581336 0.23567914507905308 
0.43704296350351624 0.31247555594773513 0.44495086205677037 -0.19556360167512254 0.22466972133749896 -0.06654946481639878 0.4635881582957416 -0.3109620740730368 -0.44357955065198784 -0.31792042801066733 
-0.1436833954005643 -0.28949243858523654 -0.2321085610012229 0.2582504714613516 -0.06506586053327434 0.03583400951043336 -0.09218921729319218 0.12192210271268045 0.2861571694396663 0.4721343829254582 
0.12157111794521991 -0.45480174948986574 -0.014026258227945898 -0.3444781508715601 0.4205626544134512 -0.177634737518786 -0.21260203883242046 0.3538234934220724 -0.1366619534592376 0.011825285281664821 
-0.1899018202407069 0.26342868902003946 -0.4064140561553172 0.07311485698085385 0.13244249573556266 -0.2520702661036912 -0.24491460310668478 0.1577063029560375 0.2148248882721785 -0.06014985933022321 
0.035258284685471986 0.1140474244393237 0.26770595106600714 -0.4933612454469565 0.4766329012699576 -0.024697625845109372 -0.48137772202537565 0.16824004895268962 0.23947647079382262 0.31251470842214646 
-0.1705109591781887 -0.2540654051776603 0.19905002018369644 -0.1435782659680882 0.26884052567960104 0.12077592751377542 -0.3826156435824475 -0.2820939397794545 0.05322359830227541 -0.015166891378106229 
-0.3578289056461318 -0.12992055353847998 -0.26222033090113284 -0.3204189770153355 0.05430805937435401 0.2942505987751167 -0.3418792156848506 -0.2668369139031552 -0.4891663215556724 0.3375372642950769 
0.4039259217269551 -0.06811557100660215 -0.48856981149743395 0.3816401849440466 -0.46074638853873895 -0.10882436961185837 0.4543711986042115 -0.11969509173118031 -0.12461203823686628 0.12740048093340495 
0.4417337773340946 0.18725436005690332 0.34910455712145494 -0.42573618798024715 -0.056108756525868886 0.366884065378802 -0.037436045677441965 0.3362085022702941 0.03974775705562161 0.35676856633309983 
0.3006099799340115 0.22607300299372035 -0.288129093645937 0.43403626225181147 -0.14292900621489935 0.29541439412286974 -0.4053751928282683 -0.07307289542013973 -0.22626776128785475 0.1332839057327626 
-0.35140002589426944 -0.4916440782218703 -0.37603220741169896 0.18287528045802248 0.466083051857646 0.21006155815291983 -0.4424090768840512 -0.2946509708632836 0.3000038349711631 -0.496070144607348 
0.4643021766530592 0.3062681418423594 0.4527427011855152 0.4113366675860137 -0.18981559949781457 0.1324640830001378 0.36137684872615994 -0.3781355379826712 0.4550146384316014 -0.054215731511588094 
-0.4276110214479095 0.02950418370670782 0.06773299140874878 0.2850554826416076 -0.18844243293739193 -0.07253822570726243 -0.27677115533532703 -0.16126988463900083 -0.4763073355402776 0.3419464526766288 
-0.11432502935338762 -0.03193484067941943 -0.41792268497181795 -0.36917420552489844 0.2619608937298685 0.04431647203797173 0.348919217998896 -0.4752093443455817 -0.05665345000610489 -0.10668590073967932 
-0.09418706717849246 0.24668010416437003 -0.15572196659645998 0.17691658224497764 0.06715818616386349 0.2088753149584367 -0.30562265506133146 -0.016774364510590667 -0.2603247292722968 0.05917831689954789 
-0.25706153744516036 0.24607493949395975 0.29760355687577733 -0.47765012233116744 -0.10516768989821912 -0.13081010703137408 -0.09413539842916696 -0.4325116943671752 0.21254338207975332 -0.4084522411765227 
0.142416937208239 -0.0793110636080605 -0.4088684212689043 -0.3021493578163136 -0.15377586631375006 -0.1620682631342114 -0.05876767000218397 -0.34834355871137357 -0.15129570535394588 0.35490236751319315 
0.3997793175582911 -0.3914043289020024 0.13422291544923226 -0.061540074584340965 -0.07104656459405845 -0.4467647676356711 0.01913785229946341 -0.42127774624246406 0.16093298025555502 0.4955321467127467 
0.13909938141812073 -0.11875252546039738 0.4993394399475426 -0.23854552713384924 0.3907541068726411 -0.35445155492179303 0.29784410803622197 -0.0827721101360277 0.4866968534800995 -0.25081535167016134 
0.40222103953498767 0.2778004721890668 0.4514595528581481 -0.10406671058324202 0.46420188927333605 0.26750029527425634 0.21152210549679495 -0.06794982792440518 0.21380868555621513 0.12449349932587905 
0.4137749401951011 -0.013612426380291032 0.31141103646211776 -0.4294664253804782 -0.25544158340345247 -0.3518546893529242 0.49157406302742124 0.10362479480583653 0.31534987983074325 -0.23971189080286515 
0.45783463360677334 -0.4863938783161974 0.13136410985182134 0.17717058532137686 0.39086242217554845 0.06929440448896718 0.26577830404821157 0.011668965955694444 -0.007966018255797125 -0.4192912555823032 
0.12498817285195762 0.4801265229978873 -0.2997326242067394 0.2010303881793828 0.10924685677050727 0.44267706386287675 0.09203586471704783 0.40033548101698024 0.04823391965683688 0.13201953745279682 
-0.4972011156352847 0.01677125614713182 0.02254674305520743 0.36547355248026714 -0.40734074454194735 -0.3292721285030361 -0.4301979403263434 -0.25684576027729833 -0.08012393634343717 0.11369262610611475 
-0.18201923718736523 -0.05063761877339423 -0.41706792883730415 0.2758541858122351 -0.2111556509907746 0.29479338902563135 -0.35482394913745907 -0.12484078386984088 -0.029303427947914518 0.06392702042186238 
0.3656297070394242 0.45540471096536206 0.2724593761044962 0.06496680366123642 0.2253698561909402 -0.367916215547041 -0.3600225279942618 0.018956848131809978 0.3609663369940521 0.14208439698852826 
-0.05933887178748176 0.07021049545252045 0.2947768606664033 0.01697384106132982 0.20402194079819713 -0.24805575527929302 -0.21352981805355953 -0.17051574518568113 -0.05664777419734568 0.1990170864005365 
0.2209689093870727 0.4989478239838735 0.07774317075839088 0.2639338430763446 0.19507435253420624 -0.41618761876347055 -0.0761672230739493 0.46277906168707594 -0.1316445848606076 0.3380015428327614 
-0.1668800323971915 0.35450496896448935 0.20345408692196498 0.0627662200440603 0.3133759563142421 0.04000589534502563 0.4367806823818984 0.4468065452478258 -0.10836992657887845 -0.043331347578247414 
-0.0073581957936557085 -0.3451727301951095 -0.44859807565244914 0.03959626745529543 -0.41783537936885673 -0.10167870924294375 0.30829732184723624 -0.37753942007995767 0.4129513827311363 0.10225933329313408 
0.37578098949948957 0.15894680407076522 0.2762182137232835 0.06749682495559328 0.41688370969856536 -0.03998911607610889 -0.22475731107794272 0.22109145198094993 -0.4222024227602399 -0.3373214934279133 
0.11226499594086026 -0.35464237754952155 0.355757935027597 0.07287235564065331 -0.339442316000906 -0.41863267160653994 -0.13369406864620026 0.35776196637966384 0.014199581103336745 0.013739388330801239 
-0.25602880470409406 0.30238825325634555 0.33015933534158126 0.2609417464491005 -0.2643910159984013 0.4908229713109028 -0.4443851989152724 -0.28103519301453184 0.027071996780360097 -0.1761192375340952 
-0.4319953326854269 0.0361058894411066 0.4815918047614781 -0.2565906314609452 0.34612855201094783 0.03273849903700998 0.26219082107573355 -0.10255832352859473 0.0376831857822304 -0.37767774795292963 
-0.2393596130212825 -0.2489993958217701 0.19194139051015513 -0.16145756401602407 0.36192616883547857 -0.17589383400750325 0.48585172054414316 -0.17164903593411318 0.3358776510512993 -0.17845869636019585 
-0.012343373530774415 0.3318131999802001 0.06656304268170676 -0.09180859237171901 0.3741972849987628 -0.26295182988503774 -0.0947526887860497 -0.2207200522936511 -0.4536063210018467 0.2721820626720053 
0.16415518826045394 -0.023419364358916894 -0.22804112939000887 0.2761183053387428 0.15597732899055516 0.10969400101772375 -0.17477378891248352 -0.22394043890572501 -0.2719975242517535 0.2557346313704961 
-0.40896033627760997 -0.20789902158333828 0.43995396495457084 -0.16871732542466622 0.25297617473925105 -0.1121547758285083 0.3910544502133998 -0.3427888368059102 0.49574084817022157 0.4908742199651773 
-0.28546240682602786 -0.22999135829371276 0.11739509579135554 0.41804434389151035 -0.07322864881832192 -0.22752579502135217 0.06914819065313826 -0.1420451253227739 -0.35664806181913 0.1621700008521645 
0.2187638568766419 -0.2134273988396428 -0.3440259008036721 0.12777394512722484 0.06820265428011896 0.42187775373272984 0.001577354949948706 -0.2385165008496699 0.2469421065704802 -0.1404701332888838 
0.4492140803355328 0.49987866165724615 -0.15051345727172583 0.47393448228567536 -0.21971989770149414 -0.12383936945253615 -0.41110132017248224 0.01772459057222353 0.3441942935325294 0.3434401385166149 
0.29775599573502465 -0.392446259482208 -0.36569174745601496 0.01175743614872915 -0.4762458198859325 -0.05476999638931668 0.04777314614684791 -0.36922654729610915 -0.16074849026637072 0.1906036020963462 
-0.4317141474443429 0.04557973230096046 0.012367100885563365 -0.1237469992368595 -0.15791831967904535 -0.34516734906268853 0.3718173714057894 0.13389760147085372 0.005236478225239205 0.10842457176154985 
-0.46150548984409456 0.2885976819789664 -0.33571376172292255 -0.4038365192851521 0.19386155130144034 -0.4308144010753223 -0.3676325675853399 -0.400560612220069 -0.2914411230262275 0.2820040107063596 
0.37952705851584867 -0.09538567056838354 0.26418711666280636 0.29991091835412087 -0.3314541747366929 0.009880215039206441 -0.43294804820598654 0.12964340948342346 -0.48343543479761253 -0.20341314322819715 
0.37472649453599427 0.1380146553276259 0.4479977496600609 0.4815499678982408 -0.16539278749603004 -0.2589476440377474 -0.014335538900357325 0.41860730267806867 0.06820983057171837 0.4900686676505961 
0.4647619919281296 0.2756981326288621 -0.47422811504961004 0.02478509112283389 -0.4517474108775017 0.477999918862692 0.3827986330373979 -0.19398150383426327 0.27242919995534487 -0.4218368255365408 
-0.3464899279214738 0.3890669425890474 0.0578714104799396 0.3914436477244433 -0.24428395570023087 -0.24618266686633983 -0.11630186491755357 0.31653887458658636 -0.022531992020338953 -0.1312707518562959 
-0.2580312558961845 0.25219345938254767 -0.33209504834800585 0.2332323231765555 -0.4357201072708853 -0.0848541095647174 0.0030327697929726227 -0.38329256549103097 0.044050354561176674 0.16674728442721676 
-0.13825489161894444 -0.40789542510001187 0.1656816659162148 0.16358961288068563 -0.3117843052740147 -0.2516167709614725 -0.2042723484530875 -0.23825975632925434 0.21386069301625665 -0.34165606279236826 
0.39140107822504067 -0.37531424478332165 -0.4346082021133846 -0.22294767158015683 -0.2618085451456834 -0.08815295455656569 -0.404950649005255 0.4509399556768997 -0.3589376302206183 0.25753497849614726 
0.23492637113582815 0.12879894161712124 -0.3373565321000851 -0.010526158063606128 0.2993640945308145 -0.3167298103298496 0.32702585767197057 0.1815275038528521 0.4377199617963724 0.47505813627255455 
-0.31078351924459047 0.18702113784181607 -0.12562057470012755 0.42198702987794945 -0.1919983808549911 -0.2429407079790331 0.16370326160389415 -0.12885240793902086 0.4539145359811415 -0.28750148619845595 
0.43467245222679485 -0.4852353783478415 0.3341990201120053 0.4087408822513242 -0.4966873497495201 -0.060950183124610424 0.22310427937960153 -0.09072724953605782 -0.20944896790876866 -0.3498134206600819 
-0.35145702972460413 -0.1331199389455101 0.19897833368886486 -0.4172740698504609 0.2050891536464845 -0.3992694596570038 -0.025940644937705093 0.1630563875489346 0.13848835606383003 -0.24698019685301242 
0.10365547137006736 -0.02575735711022009 -0.4217030060638548 0.21063691879422664 -0.005707183389317749 -0.05158883289543925 -0.3170359979698323 -0.3146873971232639 0.0034305082541669085 -0.20100657303633795 
0.005612839781142354 0.45997077266469855 -0.09594678369114973 0.09752044085875888 -0.4110229766617951 0.32951249694298845 -0.4887669612882367 -0.001704951267971544 -0.34561200823069227 -0.3089813005072567 
-0.4901245381343795 0.11915097199220592 0.2624093297611044 0.07136602334670505 -0.011314827713327369 0.49764101836566943 -0.008343431375519295 0.11950830014319391 0.307457124379643 -0.14062104020765653 
-0.49329665203979306 0.23408323875276682 -0.2978212362682217 -0.34185406720373557 -0.12858231281879767 -0.4343692643122882 0.4747739209924897 0.48323080710966126 
-0.04785978704986911 -0.05391605544535648 -0.004874709528476384 -0.03448020475370876 -0.05988939565159149 0.01311814420406042 -0.018634842464747513 0.1314339158383736 
-0.017804407014019072 0.0015252462529151986 -0.017324921616682042 -0.0016239072572689051 -0.005237392771429596 -0.008825507230281972 0.03001204057670896 0.11555835954532556 
-0.002377674571208136 0.007392192534091755 0.026481272979635397 -0.011696517923958174 0.026404667984722945 0.011765583431829565 -0.01369081354004056 -0.23516886453755104 
0.06517320031196473 0.06582380145833237 -0.15375049142733302 0.06308015419813919 0.0548305791995625 -0.18527619713992874 -0.017087626985405918 0.2879038375160248 
-0.009448245288030893 -0.0073214462056434264 0.023566879396863437 -0.023640341588622778 -0.004667508992506356 0.025173732059032658 -0.0011632438210435793 0.262855355750524 
0.3235003749962805 -0.16882169723741575 0.013600271612528837 -0.346868928339325 -0.22637119230793765 0.1089959819572057 -0.3692571287275451 -0.3812893699152017 
0.0016089841367847094 0.005314094153608926 0.0035286677755171298 -6.958483891641199E-4 0.008766747691521476 0.002830012988195404 -0.001305577457416696 0.22175668377878166 
-0.10186804428502032 -0.11400781264680522 0.037114184120943 -0.08825586907542754 -0.101164739495641 0.043477211926512105 -0.08302280924474625 0.42993746373737574 
-0.31167734714026335 0.1895501707911819 0.21622523985062847 -0.12609251323232323 0.06363206580587638 0.19170860471634749 0.2987995650330375 0.22860828834658475 
-0.488221735700338 0.16660935018340944 -0.4752991118702682 0.29657832710531434 -0.11249464647655608 -0.22441702377373599 0.1619892974385651 -0.18906835396458954 
0.3379595125440948 -0.19564993072955592 -0.18886889808414403 0.20903618576036 0.29290771396272997 -0.3432973214732881 -0.5538413995789067 -0.2838047876862019 
0.03178660998107779 -0.3086710960344195 -0.3323688717727896 -0.2490855999086306 0.2789865125045183 -0.02081049242760877 -0.5000724985917906 -0.11066641738901484 
-0.09327104173511216 0.21852043860489417 0.21114067471828415 0.15678260502492533 -0.3499305138475689 0.26889276889741015 0.20609469891858329 0.2749347004232514 
-0.13400403629795438 -0.24504806446803826 0.2958410587234355 -0.08393208333433323 -0.3553332324290181 -0.45243923408035813 -0.07776383982270973 -0.1909873803435459 
0.4604464094070729 -0.02678478202598351 0.07701802501048716 -0.401936169167506 -0.015059038611072656 0.3828729597695284 0.2703271063576464 -0.07817254598752299 
1.3796454888615342 -0.049067316938636196 
1.5720871789788968 0.383006086434147 
1.7407567299672984 0.33024939046626145 
1.8654137785197216 -0.08496594455257156 
1.4123392828189645 0.47354284098432975 
1.5193685763021851 -0.08773485351996435 
1.0317372764436896 -0.09849106955597742 
>>>>>>> c05483b5b49a642e569cdb66f71c6b35bae15789

