0.36933298346302856 -0.13838926369150029 -0.260229278485708 -0.06882595735146291 -0.418443696042876 0.17137273871945846 -0.3952122015971343 -0.3705370407934261 0.142329731732309 -0.2533511834173414 
0.3494375170761995 0.18376082937910443 0.38489367211898806 0.09396028484383279 0.3847853193661308 0.0034087987190188906 -0.36742940454874606 -0.4790796116313466 0.4360651513860072 0.20780057597616286 
-0.12825212098635674 -0.42699254790951247 -0.0192140177837824 0.11820024774603921 -0.11602061654158624 0.022054924660936615 0.012122713160308662 -0.3685685723942891 -0.435102141820227 -0.2952935667049822 
-0.04071378700273798 -0.055904100692017455 0.4046993820548228 -0.048532806941045004 -0.453235877357962 0.36648847094471904 0.00828275860261618 -0.30438466223276595 0.4807681498580707 -0.3578685292230951 
0.09269629979873195 -0.39387974328434494 0.11391939579848531 0.2718614920983401 -0.3846353735627176 -0.250152850530424 -0.3418512808762997 -0.16934253665122334 -0.44136089573543624 0.35571056617084484 
0.0909840565366552 0.1609079024121426 0.42453498463632744 0.22707156898038106 -0.36815773770694993 -0.37242735505937097 -0.32191030185553904 0.22855699702163523 -0.4473619077195017 0.3287020398623949 
0.21859575308312262 0.059611238429007174 0.13096843899518795 0.2690346405641205 0.45503322026111603 0.2194744255087675 -0.2456746248573244 0.0249022213454958 -0.2846536139306798 -0.33308675863251513 
-0.45976380411073403 0.3554286050279123 -0.4712203568012292 0.1829136746193063 0.34992513029990235 -0.4519833582091273 -0.2136918757966354 -0.14432236246398322 -0.25796468952609053 0.025375701604587797 
-0.09373147982369945 0.4246486388513433 0.23814635145278817 -0.1131504971309788 -0.08938336590867668 0.4439236637166827 0.25326675427635015 -0.39143776514536466 -0.24819257379060122 0.3552921594708691 
0.18217693124373513 0.08490856407655678 0.32111453637401677 -0.40272463191675434 0.42644307891338384 -0.4418290995270937 0.3162761771537781 -0.18107831062554203 -0.40288198836695943 -0.2464446276899187 
-0.4503253441225358 0.11574774882567307 -0.2654100869677678 -0.2863047388796095 0.3378271854118876 -0.03990394138239883 0.14973562758056747 0.40967929565551053 0.32878568072514114 0.15931450135559677 
0.4094802579111254 0.1949188440514963 0.49611402844448005 -0.25745538930966694 0.06506021608835766 -0.43632294291108087 0.056431146125450304 0.1505388695544182 -0.04726775495540769 0.4778400067525771 
-0.247921180162469 0.482810102556371 0.2843657584777455 -0.2664818139896059 0.28129325831954954 -0.15745133188261973 0.28930222975778974 0.45332389934666995 -0.34466987621028644 0.012126139348514475 
-0.13094073048262278 -0.189321238690213 -0.08468748834415785 -0.20936322971036336 -0.4170961977815284 -0.48073738217387807 -0.04885776626106997 0.3298110806289072 0.2950124832320814 0.45372342430160006 
0.13063457702336667 -0.2842315068739122 -0.017115372856168487 0.007025033330262054 0.06910745913555694 -0.13854093755296293 -0.46813355844158433 0.43531819169009023 0.14797579459000576 0.49827676478908367 
-0.17790807546118215 0.49297736917805424 0.3254725316535484 -0.3147902035674016 0.051840694115802055 0.11845420336401735 0.37343810087723817 -0.20997338222553075 0.035257958870773765 -0.2041441902927884 
-0.07880994785926532 0.3393780509264077 0.16257795682010812 0.48766443599322185 -0.4091948372983927 0.4833302427573618 -0.18256328590455373 -0.28922760110577717 0.0677168719104253 0.07472442323243678 
0.30855575134407354 0.41101422503161433 0.16635054056405152 -0.47510635224076236 -0.2079766023892975 -0.21936439033568078 -0.1774099012923458 -0.3353516100494597 0.2355961935264005 0.058646948095927964 
0.47318943795043134 -0.18692356700080381 0.20788730235248454 -0.3442335083114558 0.46681227077488796 0.13658495390029723 0.16300516216126837 -0.346333699079317 -0.007794969512247452 0.16674565907575556 
-0.06484997971337247 -0.15750785634459552 -0.4939232753733368 0.03788625457515482 0.3578721131276372 -0.018864054835990407 -0.20341907603115938 -0.39599467370737107 0.2791397376767498 -0.10850273864792948 
-0.3721352329868034 0.09946909555884431 -0.2439382818639646 0.33097841375019244 0.37697057872777195 0.419082629039349 -0.11794689380706003 0.3267152914757687 0.19644552022024397 0.41051012092170747 
-0.4755711014739976 -0.19944605873512278 0.014335510149137809 -0.20434804085219294 0.23185591943034956 -0.1344594539926377 0.11780982021725206 0.46746924385161437 -0.2912122148086318 0.1327008443184794 
0.1574827973196442 -0.05512152966391404 -0.452046261274874 -0.2688579603420387 0.15656967010042933 -0.2892766498902455 0.3621669275751829 -0.48498142612084805 -0.48766601472339743 0.006461842384526961 
0.06316385429899107 0.10766102361874652 0.0368539652411084 0.412090738004951 -0.20211915677278025 0.016174639807760016 -0.20004418399573043 0.20096200500134442 -0.028480266929523212 0.03907270245336825 
-0.09076771684133211 0.02652822061923199 -0.13805001500329173 -0.4149832841392679 0.3903846873680742 -0.028312323910432924 -0.438560787495745 0.32249408501136223 0.015697700397547254 0.37128155314398503 
0.36940022318159993 -0.2117287330457316 0.2692755955126568 0.10442933281158773 0.30378773339760445 0.19671853815832863 -0.3652601740694075 0.24577101420188052 0.09897260095425675 -0.2873902687157063 
0.04440727364924313 0.06331743291019587 -0.08563209177164677 -0.12324098344694001 -0.36146035333238125 0.35549291577259945 -0.009224667897202332 -0.29313631894797887 -0.05092570979114108 0.031087527034120654 
-0.339633468301173 0.23518045531097675 0.24431694990833297 -0.3467815242832204 0.44140879195740934 -0.10982987895061491 0.04939781183632708 0.3920334297042424 0.430290322649559 0.18100332113579853 
-0.20813801462627257 0.460771431013244 -0.15890514785733167 -0.39817167349753146 0.1125859953672288 -0.3540706181366545 0.33692177964877557 -0.46304101987783775 -0.37071751816762355 -0.015334584078006697 
-0.2526579821696616 0.21864926766847192 -0.15682478492612706 -0.0087970238574 -0.12717368722845834 0.4658784382268619 0.43899704765639525 0.08888243103395954 0.3396772636482722 0.015578806517513533 
0.444283737522963 0.06563959152312748 -0.1120582119945791 -0.25300437329851955 -0.4139932814759938 0.4380737179926496 0.049976272789042486 -0.004623459990745982 -0.2890913445497627 -0.4171000330351904 
-0.09121809243314283 0.4529464979114467 0.3204752569203765 0.37446434349693214 -0.4870772703952303 -0.13686957523622878 0.11229765574186923 -0.14686800404317968 -0.4312153554784842 -0.17175475460468148 
-0.08335001099458494 0.14174242739048504 0.23112863100209513 -0.42861033886629474 -0.42957341060990717 0.425957931977785 0.16933690912363353 0.42001860811552005 0.08015422308444797 0.31921468352560867 
-0.40055387463726666 0.11169615774161645 -0.1083855293330932 0.3441183475903692 -0.3589933421829644 -0.23822004726605406 0.20568234234646332 -0.42049081414482203 0.18300283685297225 0.4782962572774512 
0.058306716921129986 -0.25394579147844687 0.4245139575889936 0.16102410131424072 0.3171292196028749 0.13310693158289277 0.39349132540858756 -0.020186083662012466 -0.16194179591140467 -0.19429198942737658 
0.04097186644229567 0.39142405439178174 -0.22781533328811532 0.47298295736340523 -0.0417556950175898 0.32466658051890296 0.41674734420152915 0.24782551207349146 0.3709287544354126 0.34041126971716906 
0.06342478248822969 0.28263893055977274 -0.17337323047008313 0.15600491028842978 0.013052141588711708 -0.07296083381243601 -0.08825699198748405 -0.08707971846419538 0.297930889431653 -0.3791921700112154 
0.40827622463698665 -0.038042274486886685 -0.3187799773516664 0.20901458461609645 -0.46717841438895913 -0.25792076124702656 0.18746766230356304 -0.2538876226087128 0.28772230092506246 -0.4630365938789761 
-0.24083795429214372 0.14194112955767657 0.4982535684342245 -0.49237262218499067 -0.3687484513328473 0.19495828854347574 -0.19008292620226686 0.41996891560726124 -0.3310966619931458 -0.3433518333625565 
-0.22362999698703934 -0.08715899879462119 0.22334086835360667 -0.02405635983217369 0.18120720920178113 -0.014722307682316194 0.02642058238398537 0.2836279042983372 -0.09423881310501969 -0.3792512535817356 
0.26667855040863697 -0.0059344070770107615 -0.019720762385030177 0.11182795519531197 0.26789802072445756 0.125246300214918 -0.06271714945210805 -0.29958206762467954 0.12581919995577806 0.06800575918073892 
0.22360945591322579 -0.39331784516472457 0.24943310222294002 0.071423146486567 0.2215822750553842 0.3840926265871506 3.712076615236537E-4 0.15377541861639688 0.3799490068208492 -0.19149074190621385 
-0.4727767490311303 0.49706273221422015 0.06167558262628303 0.1859653615862107 0.4511857954044116 -0.36199822653672475 -0.021623611894949324 0.04684088766965089 0.27526457543529714 -0.07048382713429491 
-0.4998921570072008 -0.31663683371557083 0.2613235096674631 -0.1858632182663149 -0.2955523493541994 -0.11711727076768008 0.047594299852025124 0.424356723077447 -0.23977338568053486 -0.48887052429620104 
0.46383010841014705 -0.09513073893184332 0.12897638108009868 0.30766224986673163 -0.15789225250523364 -0.36225065143787305 0.11110073306245316 0.36998306902097233 -0.3816473862904032 0.2440222410996703 
0.46397395911964945 0.32329420746417215 0.1729813354961075 -0.1663041038781975 0.1756151874676095 0.09963539820843437 -0.33137299345932814 0.48121611543351495 -0.009717956319981957 -0.41685505732465433 
0.10873268688148752 0.31443671275297735 -0.04872622261181203 0.11744730075109755 -0.037131313838120406 -0.07742068964074844 0.05142788967896128 0.016676985208940898 0.48294947589817017 0.012290611636676219 
0.0632402684507486 -0.22659334011343346 0.26909716302617115 0.37078756528778123 -0.24176561741321578 -0.38524495195172637 -0.26528250605777004 0.23121377522969155 0.019149676194977205 0.422208072903141 
-0.13257413818553632 0.07771304284109704 -0.2012845552595196 -0.19880536410451288 0.085780215253204 -0.2236406483109743 0.48522090230595527 0.2632157854700038 0.051348749380065395 -0.32703545014776714 
-0.0022115155623316785 0.06633463198853373 0.011460163416913138 -0.040081314977017723 -0.14679830453703935 0.24909118350165715 -0.3799454177545324 0.18160007975240788 -0.4786650632971443 -0.2115849178501602 
0.21237393316301212 0.22152551051783886 -0.3823223865912533 -0.3861338324137177 0.19380034687864933 0.4942931438673953 -0.13085975363292401 0.4185413539473595 -0.45602810879590916 0.35150451031896957 
0.3332758023011859 -0.17875655929023693 0.4343750524688085 -0.0967663076818186 0.05124437960633377 0.4550159717833092 -0.3890662226964676 -0.4447547298572937 0.1712951730936798 -0.016094749628113303 
-0.49731496035326994 -0.43295457267593096 -0.4077655544520995 -0.11718056754884221 -0.016548450306080764 -0.15301704995857857 0.345294066677702 0.05461150406775317 0.3354920915295796 0.018000272350390478 
0.25801014901144914 0.004021160415130565 0.24243070348377205 -0.4887330141303985 -0.07483337754457242 0.33986883648380906 -0.42666416908970617 0.07481152422750048 -0.3504459491251596 -0.16509814480125917 
0.3106413093168644 -0.37960093268182904 -0.1907606928457357 0.13695174854721426 0.2216711162766528 -0.22571304912788615 0.058236977151938096 0.4955686062034437 -0.22315009593564816 -0.15387849200084103 
-0.12608148692256504 -0.45494317701675013 0.3772523302621391 0.18512284764759968 0.22719079914142637 0.2678438410794094 0.16996371178195502 0.053837454613642866 -0.4295791013307363 -0.2486282301811712 
-0.39820462992878614 0.2171205906657755 -0.0867209476061227 0.24720943081544866 0.39021825965721146 0.4176439985309992 0.48811734333641155 0.3428400010130108 -0.22505137001591125 -0.21089330738376455 
0.39419699845785094 -0.23541257254798065 -0.2455602296785131 0.04445959955949175 -0.3459780415642826 0.4444026143124542 -0.49139546200773665 -0.03116215272830969 0.3152324986725288 0.003738168988479007 
0.3624133132953752 0.3455269224891311 -0.41204262345282394 -0.2655017752576141 0.45458243748100646 -0.051828024294066743 -0.479781478343299 0.4900575924669637 -0.25861149327588984 -0.35642752616490725 
0.3829276193816785 -0.3613972452009806 0.08771447286759981 -0.03321330668231315 -0.2387909215552999 0.3765544674523136 -0.02424671721496019 -0.24609579358214595 0.3302295950786933 0.25158977821619555 
-0.2036345138216411 -0.45227366264318847 0.43140922065458986 -0.29721069106595843 -0.22109233561401953 -0.4722716623526946 -0.14116524378848783 -0.21030698571788542 0.36241826309828407 -0.3419410185032863 
-0.28410893299744666 0.05255579362847207 0.2143684018126274 -0.40403324968732723 -0.1914280679976652 -0.3771479332321659 0.1627552472350663 -0.34207563891740245 -0.19537361820992039 0.2860860885297595 
0.02313566443519821 -0.1981440539259759 0.3066427841084306 0.18822278837656325 -0.32573161849373544 0.15125442617203866 0.06236749931454155 0.27256156388842623 -0.23564649214958278 0.06060919612867843 
-0.23299916757357297 0.3356334020283329 0.114427726004804 0.10144718522720553 0.2999075872163409 -0.2012903934378687 0.2262947676766327 -0.36557719290577195 -0.21787420915139544 -0.09423235186963874 
0.2994404292952235 -0.17472425716027884 -0.45874845647568874 0.07926844550156842 -0.185298026281696 0.06110785600884683 -0.07327610135207219 -0.4081437543901125 0.052031648719558454 -0.2716867683996067 
-0.06877121881712212 -0.4548993319367016 -0.12448443098299722 0.22462881167949633 -0.2571140498272103 0.3856580029150194 -0.2591222922851564 -0.10484486828712702 -0.3219207977267531 -0.16526302616603272 
0.15902057301974892 0.3058299417932868 0.42623399910084125 0.1585115314842389 -0.21627607236327018 -0.10227971803950198 0.17554350395341034 0.1651314481547438 -0.11755719798152997 -0.398368875811721 
-0.017411910244403694 0.17823918846275677 0.19621732523365143 0.43491178505273964 -0.30101075501088825 -0.492590686565442 0.09802613626869416 0.45097407345769536 -0.12531562828520637 -0.3873157317784155 
-0.4815137816147341 -0.333081194513299 0.3201035988337222 0.2433888651240711 0.3236221183046195 -0.244199733992302 0.4284755702345957 0.32066268947790344 -0.2985025099568508 0.35744100684247226 
-0.06531556180399278 0.22865833437212035 -0.3571771869348763 -0.16465801547536563 -0.4814547195226849 0.48111053284872873 -0.21477709521304633 0.1871163956797921 -0.4519392111875554 0.43798936188482696 
-0.26833155468414405 -0.3979925554030558 0.3021673784417145 -0.1387913616164579 0.45064598044265514 -0.14856580770505212 0.21267385777881676 -0.38113200362753596 -0.48103888993957444 0.29714152130517524 
0.021541591900475887 -0.2257345087519771 -0.22235983902441825 -0.19358634803244001 0.2623499647303833 -0.3710752096544345 0.4372154381264758 0.2749431651851709 0.14373659129911076 0.02813961255513142 
-0.20924999082831064 -0.22466961009904418 -0.26220329211477444 0.3830448693924674 0.471277952203915 -0.4271791608866353 0.35787191959238995 0.41498285487902753 -0.3750935739099014 0.3797712005410032 
0.1478533728651038 -0.41406035544268704 0.46164609237864085 0.25646711767330566 0.1990698900045651 -0.45691438171759746 0.39310714641377753 -0.4917011425781147 -0.038972852723582196 -0.3240390380056761 
0.3695179833373553 -0.22206610768893986 0.31870876323887964 0.06160548325025472 0.08809400096912601 0.28600795127891077 0.4718461415150301 -0.34406055852624295 0.4606047940047372 -0.16501077301893108 
-0.3294915104151639 -0.42103967148524757 0.10005769635244577 -0.24174693368767264 -0.0634394521904551 -0.26317222443639154 -0.3852638417084586 0.47003721073255145 0.1319800815795552 -0.17433272629798002 
0.18240201271598422 -0.34816931238164106 0.12272319873712167 -0.03006946010319622 0.21829055986895607 0.3968820680048788 0.33077023794782157 -0.1375913436534768 -0.05240191230485025 -0.173104210505855 
-0.33281913532300134 0.29350168122871356 0.34648158923204153 -0.20638220887438152 -0.3045680507989753 0.3841063161486644 0.22516048636391062 0.2828948180077716 -0.11299275403800002 -0.33050902707559193 
0.1925313873717146 0.04992442911980144 1.5295148874960862E-4 0.4207854630764887 -0.1362241779424771 -0.1682043922418639 -0.06209065062951136 0.23622047792062117 -0.04923737609764167 0.2070524239839877 
-0.07702736757664363 -0.013990739373919814 -0.1903842006870473 -0.19810356949642471 0.4646380482568486 -0.34722731121855066 -0.3893599368057996 0.0787761657865802 0.38701912881143097 0.47366558710606466 
-0.4571346530914081 0.3854944697148408 0.1379344638088923 0.0608711390235932 0.3687932079185694 0.29159804598925687 -0.2957022360951679 -0.14611306510255562 0.20449734717518142 0.4936956132575445 
-0.2774569215110132 0.3400350137691387 -0.383948918994245 -0.267515707890321 -0.20843824800806943 -0.031114932983627552 -0.0046746179318170045 0.23164665547178231 -0.42917687771025315 -0.4182110363163831 
-0.29347952103861286 0.14241361725118595 -0.02220309346236715 0.4794812791723858 -0.3206346460269991 0.3574709440372922 -0.3135107453802032 -0.041290685018786744 -0.034261085996746043 -0.15597960769727293 
0.17285133184684964 0.2631137450886706 0.2735375283931647 0.3381890024761075 -0.246986969703614 0.41408794651008995 -0.35506644438726853 -0.15838700564486652 0.4167412458641352 0.31410338187274744 
0.2557401321643572 -0.1340947096590661 -0.2287839541995117 -0.15200496584972634 -0.22158263338899775 -0.21815084910431304 0.07916447287770068 0.4469589159920273 -0.12667411701895592 -0.052457762939562946 
0.20058642563452544 -0.27447783549492977 0.15115366239785 -0.4866508357049132 0.22875261217949694 0.35350302622687757 0.38401242741639774 -0.06859708734465275 -0.2511503433029463 0.2829867126446539 
-0.16647961467924444 0.2335282922563916 -0.05840670521029789 -0.18539959938215456 0.3112582196844633 0.08384365756108314 0.20432497602913635 -0.24212118548056016 -0.0096945654292101 0.4609298020393833 
-0.4314463241416635 0.11726915909658198 0.04613503439209754 -0.42066231540648946 -0.04440122566784299 0.31833259621168863 -0.0790359917030985 0.32133957924916123 0.23093643329131186 -0.022043200807920993 
0.3777281612418891 0.017211101953411245 0.09304604924844606 -0.3820978512726565 -0.46183041109226075 -0.11403610904119876 0.06399956177466848 -0.47723811446623376 -0.2159042195926032 -0.17166736892340295 
0.23673125904576253 0.15142429047615935 -0.2583104791979741 -0.45004873408872925 -0.022128893915564052 0.12538296091804413 -0.43418126209473384 0.18503802864098973 0.485219960874293 -0.1622511628898755 
0.39461664013327 -0.3104601691998836 -0.04460960147264548 0.1535755643836736 0.1541716459908553 0.27757076220908306 0.1298321595541172 -0.4948822869369247 -0.14101202709494276 0.08611157946417625 
0.15640647501331362 -0.0751011584868202 0.17594717610244426 0.07031998607001155 0.028868877721670128 0.20497451108059683 0.2978220876625782 -0.1445655106872623 0.3480655251773891 0.42253313159458894 
0.10696411920336824 -0.098862864208356 -0.21365686593652822 -0.47001478431507915 0.20060590300979675 -0.12962623934928064 0.4306182671191733 -0.4280506313398541 -0.40370906051388133 -0.46298767039204414 
0.1297465796953341 0.36205167451217024 -0.16073727751756806 -0.08464615427106437 0.07827857318605547 0.1292118971031675 -0.20678411942450758 -0.4506079334845463 0.1313829570635744 -0.27390089283863117 
-0.38836778495023105 0.06085195459315673 -0.23533532304759652 0.4816958443634828 0.25899489570941436 0.12241902922429648 0.16779974318515212 -0.3245813531033004 0.47949416592953764 -0.0037953326958805045 
-0.3076459431466949 -0.08799974349815431 0.29540869200251363 -0.34262428719411764 -0.23815073173686907 0.384346391106942 -0.04183348517680163 0.30900873448297395 0.3960834681858507 0.12583834031944674 
-0.22783998128995253 -0.2133871414540981 -0.2980896935840682 -0.12593997708120064 0.3647097968285157 -0.05060255011484016 0.039125062474425154 0.0946859358865213 -0.2148573986440383 -0.33975610024543534 
0.082801720129423 0.0472745916267554 0.28176846588385707 0.3674736248031353 -0.32762970311901374 -0.48603044431439824 -0.27238700679628747 -0.3811130719657778 0.16291919242321606 -0.042381865643440264 
0.44408080621916535 0.062180674660821666 -0.02434771791584378 0.42757533030024897 -0.3937037085517773 -0.38426488891538846 0.18212626326176362 0.4894690469999482 -0.4953114401314469 -0.4701070704434276 
0.2508384277702962 -0.18054024272944647 -0.31554263041279207 0.0012371674034923341 -0.46506879660947154 -0.12596409081056192 0.3878774616294056 -0.14899368596091722 -0.31377577957509617 0.2231441220374658 
-0.216031314891046 -0.46633125299348743 -0.05651937824714548 -0.2825386937276432 0.18588004049094142 0.4028109027538166 0.16175950827976682 -0.3501269370858495 -0.1715942448387624 -0.27112362432185866 
-0.47509874228857807 0.4667309267476484 -0.19362818813811034 0.4369264599914674 0.11463868689775558 0.38621923096281174 0.4592019479343362 -0.08752521047423789 -0.10247876579047288 0.4891688746275885 
-0.1722078027315077 -0.4904179251047428 0.2347857355675943 0.4619149115959562 -0.1931066081498216 -0.4122206304971713 -0.27949820158702243 0.1913008402664026 0.2695214374135222 0.003021454844004623 
0.009765624650365567 -0.16130811922229438 -0.2505144167646447 -0.017245504777402942 0.31141119104628934 -0.14713389362918083 0.23394470860765348 0.226314847206738 0.3886532303146002 -0.3790890785623292 
0.2399728447473295 -0.11074065853618109 0.23627142509481847 0.10175980176655519 -0.37256540329483223 -0.16614097467408762 0.08439097132790374 -0.16123794309383854 -0.4649581796492065 0.15787240607649067 
0.016609607635934 0.20568644669099156 0.4172834589302983 -0.45015362401976855 0.28416660981577646 -0.39518316987430313 0.4069902112675775 0.46157558488388395 0.34804487604350676 -0.39369364135177254 
0.13161652225238907 0.43698471044865017 -0.21265796422519334 -0.30528596437512234 -0.3291076962244933 0.19157976029178791 0.47494217254688764 0.3716558359369003 -0.4406825650393107 0.19774857565623682 
-0.15953506826369024 -0.1472402661793134 -0.39095784199651784 -0.40142761607493926 -0.38433578103870514 0.4926225314247702 -0.1430029767605907 0.24644372477637222 0.18889387659727153 0.3732233644172094 
0.12470595644412086 -0.4573310470528037 -0.4170470769786365 0.1992574328693536 -0.47996302315556005 -0.4596343346690014 0.11456873286060609 -0.2418893530941877 -0.29278535789844995 0.4653491658568085 
-0.0060287273390288165 -0.2772958454465514 -0.07526067255892765 0.40833384730584676 0.4794571221707449 -0.49780502682394 -0.45957182636766225 0.4466592923382885 -0.28546267034929373 0.17852758983418848 
0.398613242538441 -0.13511744911661483 0.044208468308117976 0.30608824101272925 0.3366025795512184 0.4609619229401486 0.43208125227621985 0.49722235370298173 0.025830169943382164 0.14838965633080936 
-0.41845307338139437 0.26813252801439913 -0.272308868590985 0.1945141637717298 -0.4981433619061365 -0.4223170170014088 -0.3551211368799879 0.47142483993355444 -0.44606590955434533 -0.14410615471838362 
0.29611088506964256 0.03815592627952735 0.4609377199438818 0.0894164947340621 -0.25454887878796084 0.22159804323552268 0.3750332331253924 -0.291960905261367 -0.42299439548021056 0.11838917612813271 
-0.1454667035243703 -0.4007208564801178 0.22158999018095282 0.10118985633405442 -0.4754940909427937 -0.43262226979296203 -0.3859631983741 0.48012959008137157 0.2691488186063742 -0.05148185009256101 
0.1881311917618783 -0.05615513634348657 0.035672277529352536 -0.10415096997155904 -0.09926632469594343 -0.21558817981523626 -0.28287207704991835 0.05590003946947786 0.31746944473385175 0.19660909377761338 
0.1255667253207008 -0.027763421787921905 -0.21056663685758048 0.1343296427815286 -0.2328953675279225 -0.4272935088985007 0.4036806314708221 0.3055930463874499 -0.013080660355107687 -0.4766089518309865 
-0.30015700325302175 -0.10750781578731583 0.06489728443797882 0.06537917789860592 0.11103121349981127 0.49354163913504323 0.01159524704227577 0.1897423123141 -0.2907457935595278 -0.39672244711247384 
0.1393758902005252 -0.34840518053329883 0.11390608000053926 -0.33240827955709285 -0.03497738434494291 0.37588272410601276 0.35644218498342384 0.38316504722329203 -0.3621664228892235 0.2655516384499095 
0.08518615101655802 0.4454992286249295 -0.11885938621529091 0.28700203701297433 -0.25872040913130767 0.39242723188739614 0.38539392885601154 -0.02175159711978447 0.2401068522569748 -0.4613833193440161 
-0.30260131903937804 0.20195602304132332 0.2520974530125556 0.25146311889626494 -0.08701496902701056 0.04853761220964237 0.39262893972100343 -0.020097741187729 -0.10066166263618415 0.28374932236977013 
-0.49717635203362864 -0.4849461720394559 0.34841182177206853 -0.3692664309532899 -0.2686474250424147 -0.06475781564080896 -0.305711209022851 0.4782142514503638 0.31193049307363696 -0.4321783726454185 
-0.18494231791928328 0.3145571254254933 -0.22799369944432768 0.0863670877121997 0.48370742674480993 0.30166670461604284 -0.19477708668441218 -0.44582593502391654 -0.267253158309834 -0.07680201280994814 
0.19354191353496197 -0.1763560624124192 -0.34630325741366763 -0.43167984615052235 -0.025502310360547842 0.20601406852210624 -0.3347015013391593 0.24527592573829526 -0.48513353845041796 -0.26297526224251333 
-0.04677132501310921 0.358239470348941 0.2741061331315935 -0.3185024767183946 -0.3906958227837509 -0.37351774990536424 -0.1807571710389061 0.14343320374889068 -0.020392217848433147 -0.22338471802672577 
0.08745040225701406 -0.2218806966717486 -0.13134042944174318 -0.40331732751134874 -0.016610108175849292 -0.36112931974512985 -0.4592956160924635 0.3051406572569093 0.14544532323971315 0.13340936147128313 
-0.09061822406475917 -0.04173723605307933 0.1183137609952446 -0.08647755545736513 -0.08651105992264607 -0.20372928168169468 0.22897675781981797 0.2765197717917194 -0.16075625800925286 0.011497453450219908 
0.1789012041665884 0.3181459621005265 0.2683991464868928 0.41114729372772707 -0.2626120909245946 -0.35601576673584645 0.40675658985499497 -0.1572743147931478 -0.05069365864752973 -0.07997806566540089 
-0.2209295433635854 0.051968863480433836 -0.044975561818422105 -0.07706888544403301 -0.3359685284553442 -0.14888857317601722 -0.1388375875647141 0.03674962260061876 0.1869620222883851 0.08958794439411022 
0.09787035648941644 0.33503142184431445 -0.3119479928871409 -0.060227626104251475 0.35164912270271764 0.48616777266983247 -0.15959145506632788 0.4371165927597013 0.47230493249802497 -0.27553708869625027 
0.004888733146857116 0.047057730054526514 -0.28155255306034754 0.040682124725442304 0.47762987492755427 0.27032143495700445 0.32801295808189945 -0.43682866677592747 -0.3886134779010866 -0.05624409118476481 
-0.3213872369152425 -0.1757189062415404 0.273229364347232 -0.054410329726018225 0.23707879981134927 0.2367107074140996 -0.261143512995767 0.47201382683169213 0.08839774152988844 -0.3594795808046445 
-0.08228795704752845 -0.08375311705355992 0.08129579741724324 0.2239430133539123 -0.2466963783558569 -0.3482511341370975 -0.46894375894814044 0.46975861449534606 -0.2504456539926083 -0.30199161667147756 
-0.020277558933812334 0.03387936611463804 -0.16327886808520287 0.33033476328636957 -0.270340712722536 -0.3760761111101434 0.20935612806889348 0.18434493756240267 -0.2614839077147153 0.012943247772831845 
0.34398307353806 0.30134253080804085 -0.008045399261891517 0.2970942602432942 0.13560656483987643 -0.13745561040921195 -0.3449240143236163 0.38593758966703373 -0.020133666168765108 0.06811801138327267 
0.14430081747017764 -0.49982822292316587 -0.3284048683218439 -0.2687496894478967 -0.24147341826722213 0.14399659559853417 0.19073326719848382 -0.32202298246376904 -0.3382923468493446 -0.3820677516406187 
-0.19700138734128525 -0.029741096269519374 -0.18142762540109236 -0.3571963233591714 0.415406133819312 0.3027993556183094 -0.04898671961601364 0.07673179398818697 -0.20432408262393298 -0.33664446893157474 
-0.29524445453901094 0.02435682724404986 0.08976486726380539 0.4918030591725907 -0.0057698522220340775 -0.13884878031749326 0.053201473119857345 0.1249720223590578 -0.07185217382054909 -0.17443744747146372 
-0.45040086575452387 0.27228006888970835 -0.19090945232245682 -0.13214009080760603 0.1636687088401515 -0.3685540531387127 0.4475075689703243 0.38693966900324583 0.22624592166876278 -0.47592536983192935 
0.43382307923793817 0.3349798128629189 0.1552948381197916 -0.3923365966644131 0.0719334239993743 -0.07528581453927852 -0.22045576741977146 0.3035854445981263 0.3931913807611852 -0.16476845416912822 
0.23035806268950798 -0.43013399094517213 0.0420459559722427 0.3795866086360582 0.06263780580554001 0.04307319656092368 -0.14717372947307883 -0.42885674314936983 0.49699861976999327 0.37540412807558154 
-0.3782718827033472 0.40545291763448243 0.06315725461675392 -0.1989456204980673 -0.08111736721137164 -0.03939614365684707 0.46841484693069557 -0.41978325634713776 -0.21754371112044402 0.1113601568342214 
0.21531281488347542 -0.010437113391810637 -0.2099477894821069 -0.24895845966373786 0.34898557599082913 -0.04518012647730907 0.3122527390800458 0.41997845006281653 -0.27257087959584014 0.2540604171096027 
-0.28103630627804843 0.15050935535236953 0.3768497986843591 0.4595845066301584 -0.068708929680112 0.15587015478556254 -0.1805471692073295 0.43177715548190154 -0.009998831940459696 -0.2860415496608345 
-0.25752454049315754 0.23008523732104824 0.24618554112539348 0.2268377877408717 0.01496508840990829 -0.23573612837038915 0.37057227532741577 -0.027019231849992775 -0.14725203171140389 0.37330105986243856 
-0.37500411474344986 -0.4883684027765641 -0.1177708098686272 -0.21006340614727015 -0.2571425141813103 0.047302157945649626 -0.03988982384663908 -0.3745505677448826 0.3249786870604917 0.31729854010985803 
-0.13119461661475595 -0.40760466204837276 -0.1269286948658782 -0.27369280836251875 0.42628472778190185 0.17223478163058692 0.4551165845279318 -0.48054663253572893 0.12426388005700073 0.3302979623174416 
-0.47473277477055165 -0.24112302878228997 0.14011027286939182 0.18229308918671472 -0.39454361845861596 -0.25124652003893144 0.4555269471633008 0.2245703864933407 0.37671716032350344 0.33982130695421053 
-0.14097725973133945 -0.1453868318387399 0.2252878250815341 0.2368585475349072 -0.19062797529209152 0.42873456342889393 0.4418969464822118 0.0311861882170289 0.49371271812390294 0.030716518666496606 
0.08219373399981478 0.18515633842827006 -0.07337353114792633 0.4581354056600083 -0.037890900011374073 -0.3932818719200696 -0.39450950633578497 -0.32762341104900583 0.38400294455090367 -0.23046422560150903 
0.06258553553601942 0.10384777996520156 -0.03222614547945779 -0.44223354007381777 -0.3641101369832216 -0.24434103816666763 0.3956774372960319 0.1444887839143989 -0.08181522362135052 0.007044956995176266 
-0.02957994777451911 0.2489048170246655 -0.36195817487519444 0.38206337783019695 -0.36683519490298233 0.0598218881480983 0.17645802240787845 0.3196098911967894 0.4914070502755924 -0.03844680631952491 
-0.47065026048335645 0.1575493297904652 -0.0337527892549252 -0.04674116917827953 0.2888123137132086 0.12677011403135385 0.3844085399894428 0.3138817071673944 0.13499680124082958 0.14022598409554288 
0.21241822491231066 -0.3677841352825014 0.4056509878258616 -0.4424618253980894 0.1586902224142045 -0.20472269741579108 -0.458182535132441 -0.09251197832347413 0.053818804728670844 -0.09196973169647893 
-0.4041239758522338 -0.24126182027859067 -0.23978815742556892 0.40365476571140535 -0.46793621736993274 -0.4566214810131033 0.35926342369263553 -0.20407597434151825 -0.2501987329833567 0.15840024087656634 
-0.48241458547776594 -0.37610682574848686 0.11659805763839004 -0.40303991779827786 0.2433881124073244 0.14398348901694213 -0.18999269564647425 -0.30569631440685807 0.20992053427581336 0.23567914507905308 
0.43704296350351624 0.31247555594773513 0.44495086205677037 -0.19556360167512254 0.22466972133749896 -0.06654946481639878 0.4635881582957416 -0.3109620740730368 -0.44357955065198784 -0.31792042801066733 
-0.1436833954005643 -0.28949243858523654 -0.2321085610012229 0.2582504714613516 -0.06506586053327434 0.03583400951043336 -0.09218921729319218 0.12192210271268045 0.2861571694396663 0.4721343829254582 
0.12157111794521991 -0.45480174948986574 -0.014026258227945898 -0.3444781508715601 0.4205626544134512 -0.177634737518786 -0.21260203883242046 0.3538234934220724 -0.1366619534592376 0.011825285281664821 
-0.1899018202407069 0.26342868902003946 -0.4064140561553172 0.07311485698085385 0.13244249573556266 -0.2520702661036912 -0.24491460310668478 0.1577063029560375 0.2148248882721785 -0.06014985933022321 
0.035258284685471986 0.1140474244393237 0.26770595106600714 -0.4933612454469565 0.4766329012699576 -0.024697625845109372 -0.48137772202537565 0.16824004895268962 0.23947647079382262 0.31251470842214646 
-0.1705109591781887 -0.2540654051776603 0.19905002018369644 -0.1435782659680882 0.26884052567960104 0.12077592751377542 -0.3826156435824475 -0.2820939397794545 0.05322359830227541 -0.015166891378106229 
-0.3578289056461318 -0.12992055353847998 -0.26222033090113284 -0.3204189770153355 0.05430805937435401 0.2942505987751167 -0.3418792156848506 -0.2668369139031552 -0.4891663215556724 0.3375372642950769 
0.4039259217269551 -0.06811557100660215 -0.48856981149743395 0.3816401849440466 -0.46074638853873895 -0.10882436961185837 0.4543711986042115 -0.11969509173118031 -0.12461203823686628 0.12740048093340495 
0.4417337773340946 0.18725436005690332 0.34910455712145494 -0.42573618798024715 -0.056108756525868886 0.366884065378802 -0.037436045677441965 0.3362085022702941 0.03974775705562161 0.35676856633309983 
0.3006099799340115 0.22607300299372035 -0.288129093645937 0.43403626225181147 -0.14292900621489935 0.29541439412286974 -0.4053751928282683 -0.07307289542013973 -0.22626776128785475 0.1332839057327626 
-0.35140002589426944 -0.4916440782218703 -0.37603220741169896 0.18287528045802248 0.466083051857646 0.21006155815291983 -0.4424090768840512 -0.2946509708632836 0.3000038349711631 -0.496070144607348 
0.4643021766530592 0.3062681418423594 0.4527427011855152 0.4113366675860137 -0.18981559949781457 0.1324640830001378 0.36137684872615994 -0.3781355379826712 0.4550146384316014 -0.054215731511588094 
-0.4276110214479095 0.02950418370670782 0.06773299140874878 0.2850554826416076 -0.18844243293739193 -0.07253822570726243 -0.27677115533532703 -0.16126988463900083 -0.4763073355402776 0.3419464526766288 
-0.11432502935338762 -0.03193484067941943 -0.41792268497181795 -0.36917420552489844 0.2619608937298685 0.04431647203797173 0.348919217998896 -0.4752093443455817 -0.05665345000610489 -0.10668590073967932 
-0.09418706717849246 0.24668010416437003 -0.15572196659645998 0.17691658224497764 0.06715818616386349 0.2088753149584367 -0.30562265506133146 -0.016774364510590667 -0.2603247292722968 0.05917831689954789 
-0.25706153744516036 0.24607493949395975 0.29760355687577733 -0.47765012233116744 -0.10516768989821912 -0.13081010703137408 -0.09413539842916696 -0.4325116943671752 0.21254338207975332 -0.4084522411765227 
0.142416937208239 -0.0793110636080605 -0.4088684212689043 -0.3021493578163136 -0.15377586631375006 -0.1620682631342114 -0.05876767000218397 -0.34834355871137357 -0.15129570535394588 0.35490236751319315 
0.3997793175582911 -0.3914043289020024 0.13422291544923226 -0.061540074584340965 -0.07104656459405845 -0.4467647676356711 0.01913785229946341 -0.42127774624246406 0.16093298025555502 0.4955321467127467 
0.13909938141812073 -0.11875252546039738 0.4993394399475426 -0.23854552713384924 0.3907541068726411 -0.35445155492179303 0.29784410803622197 -0.0827721101360277 0.4866968534800995 -0.25081535167016134 
0.40222103953498767 0.2778004721890668 0.4514595528581481 -0.10406671058324202 0.46420188927333605 0.26750029527425634 0.21152210549679495 -0.06794982792440518 0.21380868555621513 0.12449349932587905 
0.4137749401951011 -0.013612426380291032 0.31141103646211776 -0.4294664253804782 -0.25544158340345247 -0.3518546893529242 0.49157406302742124 0.10362479480583653 0.31534987983074325 -0.23971189080286515 
0.45783463360677334 -0.4863938783161974 0.13136410985182134 0.17717058532137686 0.39086242217554845 0.06929440448896718 0.26577830404821157 0.011668965955694444 -0.007966018255797125 -0.4192912555823032 
0.12498817285195762 0.4801265229978873 -0.2997326242067394 0.2010303881793828 0.10924685677050727 0.44267706386287675 0.09203586471704783 0.40033548101698024 0.04823391965683688 0.13201953745279682 
-0.4972011156352847 0.01677125614713182 0.02254674305520743 0.36547355248026714 -0.40734074454194735 -0.3292721285030361 -0.4301979403263434 -0.25684576027729833 -0.08012393634343717 0.11369262610611475 
-0.18201923718736523 -0.05063761877339423 -0.41706792883730415 0.2758541858122351 -0.2111556509907746 0.29479338902563135 -0.35482394913745907 -0.12484078386984088 -0.029303427947914518 0.06392702042186238 
0.3656297070394242 0.45540471096536206 0.2724593761044962 0.06496680366123642 0.2253698561909402 -0.367916215547041 -0.3600225279942618 0.018956848131809978 0.3609663369940521 0.14208439698852826 
-0.05933887178748176 0.07021049545252045 0.2947768606664033 0.01697384106132982 0.20402194079819713 -0.24805575527929302 -0.21352981805355953 -0.17051574518568113 -0.05664777419734568 0.1990170864005365 
0.2209689093870727 0.4989478239838735 0.07774317075839088 0.2639338430763446 0.19507435253420624 -0.41618761876347055 -0.0761672230739493 0.46277906168707594 -0.1316445848606076 0.3380015428327614 
-0.1668800323971915 0.35450496896448935 0.20345408692196498 0.0627662200440603 0.3133759563142421 0.04000589534502563 0.4367806823818984 0.4468065452478258 -0.10836992657887845 -0.043331347578247414 
-0.0073581957936557085 -0.3451727301951095 -0.44859807565244914 0.03959626745529543 -0.41783537936885673 -0.10167870924294375 0.30829732184723624 -0.37753942007995767 0.4129513827311363 0.10225933329313408 
0.37578098949948957 0.15894680407076522 0.2762182137232835 0.06749682495559328 0.41688370969856536 -0.03998911607610889 -0.22475731107794272 0.22109145198094993 -0.4222024227602399 -0.3373214934279133 
0.11226499594086026 -0.35464237754952155 0.355757935027597 0.07287235564065331 -0.339442316000906 -0.41863267160653994 -0.13369406864620026 0.35776196637966384 0.014199581103336745 0.013739388330801239 
-0.25602880470409406 0.30238825325634555 0.33015933534158126 0.2609417464491005 -0.2643910159984013 0.4908229713109028 -0.4443851989152724 -0.28103519301453184 0.027071996780360097 -0.1761192375340952 
-0.4319953326854269 0.0361058894411066 0.4815918047614781 -0.2565906314609452 0.34612855201094783 0.03273849903700998 0.26219082107573355 -0.10255832352859473 0.0376831857822304 -0.37767774795292963 
-0.2393596130212825 -0.2489993958217701 0.19194139051015513 -0.16145756401602407 0.36192616883547857 -0.17589383400750325 0.48585172054414316 -0.17164903593411318 0.3358776510512993 -0.17845869636019585 
-0.012343373530774415 0.3318131999802001 0.06656304268170676 -0.09180859237171901 0.3741972849987628 -0.26295182988503774 -0.0947526887860497 -0.2207200522936511 -0.4536063210018467 0.2721820626720053 
0.16415518826045394 -0.023419364358916894 -0.22804112939000887 0.2761183053387428 0.15597732899055516 0.10969400101772375 -0.17477378891248352 -0.22394043890572501 -0.2719975242517535 0.2557346313704961 
-0.40896033627760997 -0.20789902158333828 0.43995396495457084 -0.16871732542466622 0.25297617473925105 -0.1121547758285083 0.3910544502133998 -0.3427888368059102 0.49574084817022157 0.4908742199651773 
-0.28546240682602786 -0.22999135829371276 0.11739509579135554 0.41804434389151035 -0.07322864881832192 -0.22752579502135217 0.06914819065313826 -0.1420451253227739 -0.35664806181913 0.1621700008521645 
0.2187638568766419 -0.2134273988396428 -0.3440259008036721 0.12777394512722484 0.06820265428011896 0.42187775373272984 0.001577354949948706 -0.2385165008496699 0.2469421065704802 -0.1404701332888838 
0.4492140803355328 0.49987866165724615 -0.15051345727172583 0.47393448228567536 -0.21971989770149414 -0.12383936945253615 -0.41110132017248224 0.01772459057222353 0.3441942935325294 0.3434401385166149 
0.29775599573502465 -0.392446259482208 -0.36569174745601496 0.01175743614872915 -0.4762458198859325 -0.05476999638931668 0.04777314614684791 -0.36922654729610915 -0.16074849026637072 0.1906036020963462 
-0.4317141474443429 0.04557973230096046 0.012367100885563365 -0.1237469992368595 -0.15791831967904535 -0.34516734906268853 0.3718173714057894 0.13389760147085372 0.005236478225239205 0.10842457176154985 
-0.46150548984409456 0.2885976819789664 -0.33571376172292255 -0.4038365192851521 0.19386155130144034 -0.4308144010753223 -0.3676325675853399 -0.400560612220069 -0.2914411230262275 0.2820040107063596 
0.37952705851584867 -0.09538567056838354 0.26418711666280636 0.29991091835412087 -0.3314541747366929 0.009880215039206441 -0.43294804820598654 0.12964340948342346 -0.48343543479761253 -0.20341314322819715 
0.37472649453599427 0.1380146553276259 0.4479977496600609 0.4815499678982408 -0.16539278749603004 -0.2589476440377474 -0.014335538900357325 0.41860730267806867 0.06820983057171837 0.4900686676505961 
0.4647619919281296 0.2756981326288621 -0.47422811504961004 0.02478509112283389 -0.4517474108775017 0.477999918862692 0.3827986330373979 -0.19398150383426327 0.27242919995534487 -0.4218368255365408 
-0.3464899279214738 0.3890669425890474 0.0578714104799396 0.3914436477244433 -0.24428395570023087 -0.24618266686633983 -0.11630186491755357 0.31653887458658636 -0.022531992020338953 -0.1312707518562959 
-0.2580312558961845 0.25219345938254767 -0.33209504834800585 0.2332323231765555 -0.4357201072708853 -0.0848541095647174 0.0030327697929726227 -0.38329256549103097 0.044050354561176674 0.16674728442721676 
-0.13825489161894444 -0.40789542510001187 0.1656816659162148 0.16358961288068563 -0.3117843052740147 -0.2516167709614725 -0.2042723484530875 -0.23825975632925434 0.21386069301625665 -0.34165606279236826 
0.39140107822504067 -0.37531424478332165 -0.4346082021133846 -0.22294767158015683 -0.2618085451456834 -0.08815295455656569 -0.404950649005255 0.4509399556768997 -0.3589376302206183 0.25753497849614726 
0.23492637113582815 0.12879894161712124 -0.3373565321000851 -0.010526158063606128 0.2993640945308145 -0.3167298103298496 0.32702585767197057 0.1815275038528521 0.4377199617963724 0.47505813627255455 
-0.31078351924459047 0.18702113784181607 -0.12562057470012755 0.42198702987794945 -0.1919983808549911 -0.2429407079790331 0.16370326160389415 -0.12885240793902086 0.4539145359811415 -0.28750148619845595 
0.43467245222679485 -0.4852353783478415 0.3341990201120053 0.4087408822513242 -0.4966873497495201 -0.060950183124610424 0.22310427937960153 -0.09072724953605782 -0.20944896790876866 -0.3498134206600819 
-0.35145702972460413 -0.1331199389455101 0.19897833368886486 -0.4172740698504609 0.2050891536464845 -0.3992694596570038 -0.025940644937705093 0.1630563875489346 0.13848835606383003 -0.24698019685301242 
0.10365547137006736 -0.02575735711022009 -0.4217030060638548 0.21063691879422664 -0.005707183389317749 -0.05158883289543925 -0.3170359979698323 -0.3146873971232639 0.0034305082541669085 -0.20100657303633795 
0.005612839781142354 0.45997077266469855 -0.09594678369114973 0.09752044085875888 -0.4110229766617951 0.32951249694298845 -0.4887669612882367 -0.001704951267971544 -0.34561200823069227 -0.3089813005072567 
-0.4901245381343795 0.11915097199220592 0.2624093297611044 0.07136602334670505 -0.011314827713327369 0.49764101836566943 -0.008343431375519295 0.11950830014319391 0.307457124379643 -0.14062104020765653 
-0.49329665203979306 0.23408323875276682 -0.2978212362682217 -0.34185406720373557 -0.12858231281879767 -0.4343692643122882 0.4747739209924897 0.48323080710966126 
-0.04785978704986911 -0.05391605544535648 -0.004874709528476384 -0.03448020475370876 -0.05988939565159149 0.01311814420406042 -0.018634842464747513 0.1314339158383736 
-0.017804407014019072 0.0015252462529151986 -0.017324921616682042 -0.0016239072572689051 -0.005237392771429596 -0.008825507230281972 0.03001204057670896 0.11555835954532556 
-0.002377674571208136 0.007392192534091755 0.026481272979635397 -0.011696517923958174 0.026404667984722945 0.011765583431829565 -0.01369081354004056 -0.23516886453755104 
0.06517320031196473 0.06582380145833237 -0.15375049142733302 0.06308015419813919 0.0548305791995625 -0.18527619713992874 -0.017087626985405918 0.2879038375160248 
-0.009448245288030893 -0.0073214462056434264 0.023566879396863437 -0.023640341588622778 -0.004667508992506356 0.025173732059032658 -0.0011632438210435793 0.262855355750524 
0.3235003749962805 -0.16882169723741575 0.013600271612528837 -0.346868928339325 -0.22637119230793765 0.1089959819572057 -0.3692571287275451 -0.3812893699152017 
0.0016089841367847094 0.005314094153608926 0.0035286677755171298 -6.958483891641199E-4 0.008766747691521476 0.002830012988195404 -0.001305577457416696 0.22175668377878166 
-0.10186804428502032 -0.11400781264680522 0.037114184120943 -0.08825586907542754 -0.101164739495641 0.043477211926512105 -0.08302280924474625 0.42993746373737574 
-0.31167734714026335 0.1895501707911819 0.21622523985062847 -0.12609251323232323 0.06363206580587638 0.19170860471634749 0.2987995650330375 0.22860828834658475 
-0.488221735700338 0.16660935018340944 -0.4752991118702682 0.29657832710531434 -0.11249464647655608 -0.22441702377373599 0.1619892974385651 -0.18906835396458954 
0.3379595125440948 -0.19564993072955592 -0.18886889808414403 0.20903618576036 0.29290771396272997 -0.3432973214732881 -0.5538413995789067 -0.2838047876862019 
0.03178660998107779 -0.3086710960344195 -0.3323688717727896 -0.2490855999086306 0.2789865125045183 -0.02081049242760877 -0.5000724985917906 -0.11066641738901484 
-0.09327104173511216 0.21852043860489417 0.21114067471828415 0.15678260502492533 -0.3499305138475689 0.26889276889741015 0.20609469891858329 0.2749347004232514 
-0.13400403629795438 -0.24504806446803826 0.2958410587234355 -0.08393208333433323 -0.3553332324290181 -0.45243923408035813 -0.07776383982270973 -0.1909873803435459 
0.4604464094070729 -0.02678478202598351 0.07701802501048716 -0.401936169167506 -0.015059038611072656 0.3828729597695284 0.2703271063576464 -0.07817254598752299 
1.3796454888615342 -0.049067316938636196 
1.5720871789788968 0.383006086434147 
1.7407567299672984 0.33024939046626145 
1.8654137785197216 -0.08496594455257156 
1.4123392828189645 0.47354284098432975 
1.5193685763021851 -0.08773485351996435 
1.0317372764436896 -0.09849106955597742 

