-0.11557746486410436 -0.07777640211161052 0.23130869515620378 -0.35902700265993737 0.19666159727178822 0.1451018646203397 0.2568055255699786 0.0880049151760588 -0.257650250225564 
-0.44537790886334216 0.008541500175288319 0.1517435871616971 -0.44325831325476495 -0.06573825442948833 -0.20113891709435405 0.41443903831243123 0.4026916786924515 -0.2487297829308035 
0.4325009952037686 -0.09160292369326961 0.025748843381157904 -0.32692799235692205 -0.3913069554029619 0.4072777142755025 -0.34805554627061674 -0.14216672752336845 0.46831773469561566 
0.2783152917793005 0.34182704267913067 0.14568684405164678 0.39624710161669574 0.41306886526751596 -0.372221937877919 0.19215038853272148 -0.23188432397913383 0.05997560340068575 
0.45636666034636075 -0.46843900224852764 0.1911112584890543 0.2188939809988415 -0.16652018516921874 -0.46411108877731355 -0.07002238989585241 -0.3740123329328564 -0.27281071188915695 
0.24308190843306798 -0.36772643412968375 0.2567147450134938 -0.27820529953094797 0.06913095721935958 0.17103422755218112 -0.2946484614910341 -0.3637923340108893 0.4893371580136845 
0.4083315131799815 -0.23860606289791142 -0.17918106526661737 -0.123201723245428 -0.05016704399137717 -0.0036568925097382188 0.1292169906128453 -0.18007662961154813 -0.4916906991585712 
0.19879712239793879 -0.37539696614544193 0.4058217822758867 0.3231427231010565 0.05143331275374463 -0.07452615195725942 0.15270296334684985 0.19323936442584455 -0.4696190886796221 
-0.2788793301875664 -0.49803799890403555 0.07235122030275598 0.12564716960641897 0.3947188593105292 0.0394148115587567 -0.15133580110646172 0.1306743382139125 -0.11974065473639861 
-0.09481342014331984 -0.11538954300442172 -0.0702308922966508 -0.15070031800166106 0.17304518128283952 0.1282148924798432 0.42405974634432164 0.07448940669389015 0.3325112703786236 
0.1238872173095108 0.4798007775852736 0.34905001651203094 0.3908652117683735 0.048422515277189326 -0.44274108501298093 -0.34513245449610286 -0.4727896317440884 -0.022925351390511106 
0.4840773839429926 0.3665815211280077 -0.3229589120635852 -0.055081160884226876 -0.32606866964114267 0.15503091065872032 -0.09669679486969995 0.01032091620217046 -0.04055090095493519 
-0.08935560377114549 -0.08127670892987626 0.4501822581229291 -0.392209716025374 0.4458383029850579 -0.33577728184141353 0.42073157781638093 0.017933636653481022 -0.04478689777695588 
0.4195210199460989 -0.09701456128230879 0.06064343940910122 0.2133145374939388 -0.4754276078665135 -0.4813983056136999 0.015246234390048907 0.271953500555291 0.42426823619174503 
-0.15029897709393425 -0.41823614348029614 -0.017445757353424685 0.41387773933300676 0.22533390600800962 -0.49738661435152565 0.013727472520854711 0.1589872549371809 -0.4523787941716527 
-0.085002131758535 0.1602415480200513 -0.20876117137466443 -0.3778011304219143 -0.3267235576449946 -0.353208568049754 0.13995661021819072 -0.3695519744859389 -0.469983910418004 
-0.1815584953927576 0.44978982773859677 -0.16490579497153401 0.2450915116290111 0.07934503234679535 -0.2442110402634644 0.346110074037153 0.4041136633555221 0.1923198754721973 
-0.060128026635060006 -0.20954176509243172 -0.029368418618155312 0.08408603005812332 0.3764255572684505 0.027062251960173866 0.37096602973425663 0.11444747627150242 -0.01017391052949268 
-0.37250520911824003 0.21619767788497568 0.36242789463661296 0.4929535416153825 -0.29677528515566454 -0.39725326606189526 -0.14165501934345803 -0.44668886446402745 -0.19813485906084394 
0.3011446401684501 -0.15196368576555996 -0.35784785429529864 0.017717045118316177 0.04201297054511055 0.11392495866304342 0.3620547188346791 0.16600375045410254 -0.4610717676757201 
0.09734052408658767 0.11967420139430962 -0.14445571762956633 -0.1502342412767549 0.0674869960475929 0.1129420897259773 -0.43878643418412977 0.171279722468201 -0.13532368626744107 
-0.26423087445473126 0.3453907932029979 0.18609043941536796 -0.1910777024009368 -0.33165024476354044 -0.2933026375834352 -0.3630859391614636 0.20971646966685864 0.11745369586114252 
0.14467823373385102 -0.11021585709119841 -0.46121586352529986 -0.10137007556710664 0.42068159821041806 -0.13382186403710938 -0.2651549752187805 0.3110368244099182 0.16804401056700224 
-0.12662365749555593 0.2978800384987472 0.0456521071240642 0.4587885174273407 -0.45695498959658676 -0.1998683550166488 -0.3110955489373106 0.16939639645981663 0.29994850941750884 
0.19204239874948237 -0.2636918535494479 -0.49518679357677586 -0.47413915402064166 -0.18643752779887768 0.41447127885502355 -0.16229749465701215 -0.1418404416804755 0.33473356093357787 
0.02488676103049703 0.09906163682251468 -0.13174970668219677 -0.055816551316851926 -0.030795204497635842 0.3166654691852715 -0.2981169236980611 -0.01985853172220975 0.09322409328721215 
-0.46059398204406377 0.13158700347719432 -0.1441875805470455 0.49562874265964385 0.3084469543039824 -0.12913751922142136 -0.4305776588800152 0.4875362576703143 0.040213680013400754 
-0.06956471763626038 0.3089765519177512 -0.0397884855906363 0.17159151607542344 0.25879064299969234 -0.3372532194978549 0.020840422649133772 -0.31569433164604865 -0.0976309833059068 
-0.27126909989759374 0.39004628148986475 -0.3266914056298741 0.4452200258372794 -0.02019499956126858 -0.2801295723593471 -0.046898498639225794 -0.4564253999704885 0.08601464505907652 
-0.3127712972723432 0.3062689392397093 -0.04229038825588727 0.02142807245077849 0.4453931781780931 -0.1298938692779048 -0.3983564966528167 -0.3097987512949846 -0.22516124058478948 
0.33007124682849953 -0.219385069683522 -0.005019047905679752 0.06483242397942646 0.042895414964964296 -0.03303871427085836 -0.2595014465498833 0.07843276036259306 -0.052464435931283804 
0.17692736450549018 0.0161839103032122 0.3061056640330341 0.1387564505965484 0.25409881629432873 -0.2661446296594826 -0.40304805839435687 0.2759795923096542 0.13956906725875096 
-0.18998179366983603 -0.3284191048815055 -0.4208610698810946 -0.4853876237056478 0.07703059553039915 0.06695371594964694 0.023634053558899137 0.03854971979127264 0.3833727070624392 
0.04105900003378804 0.4880736999085046 -0.22734140123698154 -0.499518848060846 -0.02592799621820796 0.03135364436677479 0.28039123229943475 0.3920873267489394 -0.15731150060251675 
0.1797149330956278 0.32483062406753804 0.12172514608333795 0.4156127673865857 0.08977948026173943 0.04622692379070015 0.1750498056506118 -0.07928142494410173 -0.2798378872133426 
-0.004378250873544931 0.2558362016644553 0.06819111314228832 -0.3078904814849729 0.4249811104795066 -0.3219982014915522 0.4789966791818705 0.3487179203894183 -0.21007740153509358 
0.32072553126534886 -0.2356839087168704 -0.36736680258162224 -0.49196436802852095 -0.26028909690028057 -0.2708829233206155 -0.20626142543812886 -0.36604149534580244 0.43486780459378604 
0.4318294607478126 -0.38881358522529796 0.2617894011485684 0.4631644731168518 0.12212655302430275 -0.23176741111554777 0.14607285063481656 -0.4448729010454636 0.4001048691740352 
0.2536830912361069 0.24451724620694615 -0.35555825121797 0.29269344889093474 0.18036432241300204 -0.3712370800911574 0.25233919155420403 0.32691332067876466 0.20887988077338115 
0.48393436172825444 0.4819204102022582 0.09464627604643305 -0.15598135861013118 -0.27662549371022915 0.47230653147417634 0.249861612451993 0.23152977472246883 0.08187252547733459 
0.0384739751192642 0.35678835153423005 -0.2754171945001932 0.4188613747102934 -0.12013805024972357 -0.4836904393503544 0.4120813330553825 0.3624744648622593 0.17931592999212698 
0.23789441405586387 0.005101859695351707 0.3560159812382504 -0.36634248755029597 -0.4043273108372121 -0.036920628722530324 -0.3696875969100819 -0.04185264865685401 0.30979571172647036 
-0.4920360495479009 -0.38142240404464456 -0.31066523855163 0.02801626880402941 0.22242376954326182 -0.14516262988133777 -0.32573619055271363 -0.252540288622196 0.25727145259779594 
0.4526240654855561 -0.021267498069951873 0.01284714952027266 -0.21635773035427963 -0.15243493742790448 0.07327811013003971 0.2549706280114219 0.21705458634599195 -0.39434630589624053 
0.06278841856335082 0.3920096829546358 -0.08666620018876181 -0.2515949015141621 0.41411491262319333 -0.39368284445610713 0.49048349263454694 0.2267631151333347 0.10579088054363162 
0.03059175328360575 -0.3340616505825942 -0.11246075011432421 0.3749336525834809 -0.07010652921320637 -0.4847649037775462 -0.4806723162828117 0.2686369864878211 -0.15025260008323593 
0.3559898814118355 0.33925552142066295 0.02063590508115265 0.11562006316670992 0.040170955613271775 -0.4124093871518907 -0.13124672357547673 0.015342236249656471 0.29800829709847043 
-0.2658561109824119 0.30461343039892275 -0.02640976883999402 -0.08151754838963043 0.16856697396124842 -0.09566471147274902 0.03632775317637882 -0.025813140886711605 0.14606009739379378 
-0.17260668688018355 0.023148745793513448 0.0024595359240175974 0.19066895533778427 -0.20943785803603265 -0.22324902767723032 0.04003125861917933 0.12026390408946874 -0.17516385322827044 
0.041309110781773684 -0.32496077972782644 0.350458402765089 0.40544262898461514 -0.3646944697437986 -0.17189336431564228 0.1591377292721442 -0.3914561690305849 -0.25058490736246386 
-0.19670987574745258 0.14893337097857628 -0.2070513227551628 0.39633062137995845 0.26004870162118743 0.23189228523902883 -0.06886692511725723 0.2669534644162086 0.14898924007605097 
0.07875427074628805 0.12109283685092198 -0.4938361713858702 0.3269952797003606 0.12466506291352952 -9.692060076662568E-4 0.21142362898038158 -0.4785526558020755 -0.09618363752685655 
-0.2573942053147905 -0.22124570807725452 -0.4514054454216615 -0.30258159427621767 0.10544781433638317 -0.4268291953251985 0.2077390872767767 0.2225747697817756 0.45587030972667075 
-0.21555768915569018 0.07074617548964335 0.3640428916973497 0.10618701905570926 -0.25591127012944237 0.4654942893553783 -0.2434719736606007 0.3137675942776369 0.42581180873372115 
0.31223157059713325 0.3620726573023607 0.21094218007748589 0.32909826379505425 0.11340621092312297 0.0552666646637624 -0.42190732362757566 0.45452159841053497 0.3203896250024305 
-0.3715811616453343 -0.18725617418846452 -0.38069185441966347 -0.49538629326639017 -0.4405070131625066 -0.3328051497647828 -0.06697778780231056 0.24599401275441113 0.34752721762889927 
0.32820829084209346 -0.14423586751585016 0.4181129510808709 0.21341816078545028 0.19449941478682597 -0.10493608432931523 -0.40251149327872293 0.48836642585637724 0.2712462761371761 
-0.3373073176412483 -0.3466447683742335 0.06794328123328208 0.44556699333220084 -0.2910973542504083 0.18473640020192827 -0.10334684917383019 0.03288705830788352 0.2791457216968233 
0.3631871039731015 -0.43396997508825286 -0.108653179307169 -0.10288997855489534 -0.0875596731107473 -0.24127984262010715 0.0898747881984806 0.46795223964640587 0.4102889496055667 
0.4516677551918371 -0.4147199698544106 0.4168933408765676 -0.16661124537791672 -0.49656621091660214 -0.3853071838260915 0.23088355479801137 0.2822685199477033 0.49384295158440916 
-0.4580907108207496 -0.3451675644204929 0.12168544698901884 0.45856700023506203 -0.2903271952394634 -0.2910619825124233 0.350565263296834 0.4669174393097677 0.444651047398238 
-0.36006106935785 -0.12388201804365528 -0.1719657909857527 -0.2621558139728025 -0.10334835575887802 -0.49167785594597013 0.0788213167226377 0.2803866934307695 0.228944804040203 
-0.08617832626268562 -0.1936058529104986 0.473180955330313 0.049340990997165934 0.47238089255308635 -0.21153254932125853 -0.25147130209356594 0.26772599487504734 -0.03560463294536376 
-0.10297284704773824 0.04290135135957229 -0.0878158566654319 0.2845571043479359 -0.2962070168569919 -0.457781804177432 -0.017232396292662155 -0.0753751534835988 -0.2496070721665572 
-0.1155227274530598 0.15004665933307537 -0.20264873118249882 0.0018349202913012785 -0.15068986248147254 0.10657687427541485 0.08397063573109731 0.08877507480879698 0.1900092852492613 
-0.39304184297027367 0.17925221300364091 -0.4377545812309521 -0.32919778429194 0.490950060206263 0.4809760108383354 -0.4660810459595084 -0.4393763211135361 0.2741460766245868 
-0.27521101161287 -0.24434668863256825 -0.1956359669349944 0.21199968638339106 -0.1992481086777773 0.4039684818567969 -0.1564523604875303 0.0955329277971596 -0.495512395439062 
-0.42172182031546923 -0.40937746845198875 0.42084827132646296 0.4736944998392316 -0.20389125810654685 0.3745189150444256 -0.010396976704281524 -0.36011125073554373 -0.4257971023661282 
-0.23014002340386364 0.44389469987209085 -0.11440783664513865 -0.47867955421945485 0.09818637890348958 -0.28345483437689567 0.2387827869792306 0.23671146745784177 0.04678091226180592 
-0.11344023300396588 -0.14072236839132501 -0.29234774521831564 0.289157366103888 0.46957750404806897 0.27581834691320195 -0.16990242708046888 0.21100404513686022 -0.2555832085064266 
-0.18201806497527762 0.13841755866287153 -0.15365175930246022 0.31936063388493185 -0.046359348987019655 -0.1766489188876199 -0.08906431079500376 -0.22438599337718168 0.29054626984564247 
-0.3582781054388081 0.38329453799754354 -0.10959447965091196 0.32971594498522117 0.37712780580249383 0.42868061771764043 -0.36150569394724885 -0.3313519854361616 0.09772693902904495 
-0.4129231351836602 -0.10161795674035312 0.24399808610907792 -0.42459046722499927 0.05364687227016163 -0.45168058270078326 0.37619698544841196 -0.11994221498471647 -0.43148147883776566 
0.4272350205682238 -0.1674062225193269 0.3432600000789291 -0.09749942365886011 0.4570040437377558 -0.1389413016570783 -0.20224048108465198 0.17631164502828478 0.07501315680787668 
0.16258256952678618 0.24208345366236517 0.2831272513175348 0.009766592891075954 0.06926018573910764 -0.14579082384757824 0.4977276872550431 0.34731813951965695 -0.2268521721439435 
-0.4162080891233756 -0.04974444439139958 -0.21739734952175283 0.31183518845571034 0.38938972372104486 0.018568563615740552 -0.07272085651374616 0.15817512356102748 -0.44471279155118537 
-0.14960006257919078 -0.4455124428469034 -0.3155353043893785 0.4219320810999849 0.16501486480011363 -0.29904026513779813 0.475473969367847 0.2946644665904241 0.20377851667740354 
-0.38178592394446664 0.4500691232242726 0.2573312393699363 0.20002731498326376 -0.33289685716471196 0.017779499307983615 0.11054281487331274 0.020862053355486077 0.38377166456547174 
0.04450845531978387 -0.3212566532403851 -0.30304244581805295 0.11012204899302047 0.23069020157328568 0.28592984017738654 0.4012107126050405 -0.22182654985820593 -0.3844535037032476 
0.28676909774950154 0.06302480016313394 -0.3347607132881111 0.31269771363287824 0.15802607172791217 0.21225468508846868 0.1956373267784699 0.25523556589478025 -0.19536923665662131 
-0.16468558704682812 0.15468572740314923 -0.31753463703206986 0.4153755686459787 -0.004325305097797827 0.0020270707946010713 0.3358778078753626 0.41514802827356145 -0.2780452983544459 
0.3238615745695096 -0.1514884704419901 -0.19623102281587146 0.1990391464229696 -0.1525397424310434 -0.39028047430537527 0.44591963747383745 -0.38887186188334266 -0.1436329182638726 
0.46645379076874727 -0.3176947651706272 0.08035365186763344 0.2909887214735728 -0.017465559375954287 -0.030883021289083157 0.02057344400732375 0.29680945910268064 -0.3810293972226477 
0.1210183256985159 -0.11682054005881848 0.49125799043969764 0.1212527102747506 0.13229537436260708 -0.28976554519067277 -0.23970843970317346 -0.39636355806719437 0.4814751228469757 
0.1299770563530075 -0.032947765377223104 0.3057912230028993 0.2866300362479589 0.4307123540744704 -0.4425107145608339 -0.23621341350743397 -0.3282493302380439 0.13133100209064852 
-0.31836963661236317 0.18524214771278547 0.2289824490470208 0.03017735294870627 0.11422340365873707 0.14756821464124947 -0.4828127429638738 0.05871248139679264 -0.04523973543402149 
0.34857541099736467 0.12420348801493208 0.39239601316825856 -0.18556772321626458 0.03033354474770944 -0.06165662917881831 0.17843555828349733 -0.043643380958338196 -0.12998841805607197 
-0.07592027056800887 -0.07146933130025424 -0.3545482240576431 -0.41446844779506 -0.12246127250359096 0.09446369548581757 -0.21437063342771945 0.2392216635590838 0.3493290434275902 
-0.40463302720207095 -0.22549144757650785 0.2392546668120683 0.1654020448463358 0.09772248253472349 0.38964845706818385 0.33650954843444625 -0.2489482437437016 -0.3373740711944584 
0.4353329172792645 0.4935961729295705 -0.23117285421560319 -0.030424984907206132 -0.17476868496306808 0.3631336301566155 0.41804356852153457 -0.2979833226620221 -0.24620239722214787 
0.25397521555587843 0.11174424608237732 -0.16288383719479016 -0.38194047686772825 -0.11307594921083786 0.1463765983814963 -0.4793137731860516 0.39148863783684285 -0.054414828190584075 
0.41011240212217104 -0.0720581227631063 0.22293054901859366 0.4133513830262081 0.13765478838685086 0.011722511733586516 0.1361147074031105 -0.04587823802699398 0.21253927722562127 
0.32204984420353955 -0.16094892635598335 0.14220327949938005 -0.45765026048894863 0.14436667509246992 -0.18233898815737692 0.17594738229100892 -0.412065238627474 0.04852777362841365 
0.08427808040919105 -0.17997464277569664 0.21462347179310415 -0.4334086606873464 0.17919403355907637 -0.2871524953150911 -0.34839562810542424 0.12468547477047898 0.28221388334535635 
-0.1515175005088718 0.49504425711003575 -0.4572992304702437 -0.41877651232491653 -0.0034641732566145222 0.37118903701053474 0.3852871813190747 0.3660614996579016 0.058796582414931686 
0.08760168822276138 0.19860913482365605 -0.3314724265778318 -0.12193594559450993 -0.156142892165958 0.1995399985292231 -0.34685356700974135 -0.18758254334899938 0.34742736058059964 
0.29745335982770005 0.37834797443665114 0.4672927101203207 0.4861551932687658 0.4234950933549877 -0.005988704883884255 0.33808285621471323 -0.45437260191663864 0.01819677975456624 
-0.08113941695335847 -0.24242063700812289 -0.17207603110390735 0.18551776052527613 0.04998932496420205 0.46542377433837845 -0.07236700187941891 0.4598795175789775 -0.40317155109871194 
0.3208402788117166 -0.14831494491881725 0.3524824863306104 -0.2968366704588209 0.16527153709829823 -0.36852467605563255 -0.15582761498872855 -0.37665684200449756 -0.3918581209624863 
0.06890537617289394 -0.22565064086790354 -0.14738406570646612 -0.4431772354328768 -0.21760910265630073 -0.36111006457061656 0.2765606432524067 -0.3590217326095375 -0.225454673008594 
-0.34522179086856397 0.10087773452923687 0.2918183980707011 0.33016396123767267 0.07511956726079383 0.05033813190561909 0.1283910119639513 0.17129668909246987 -0.3545635684675583 
0.08447939190225218 0.475893393086423 0.44561171928636967 -0.21937765676509968 -0.3323220150255306 0.29508743406586657 0.3049169135747535 -0.48834293810258733 0.45251396210685757 
-0.46274731733243957 -0.45738096610443935 -0.49783782187179326 0.08788512662367887 -0.04428619224620822 0.0020656905674721893 0.46710303547708965 -0.2528842712471401 -0.29716948988050207 
0.24212854186797506 0.1394194255012382 -0.1136560844418587 -0.37956062889182607 0.2520503551095462 -0.4749057932318719 -0.3102380735737863 -0.007911480254482628 -0.15550711916393722 
-0.4368547745230701 -0.364178985316688 -0.332992081718832 -0.27611382378265603 0.4642530387250663 -0.37269675207348507 -0.1113905414811227 0.126594531243563 -0.0597872143795678 
0.16820035705099812 -0.13558741720640854 0.3600776988726452 0.25612564963943574 0.14162976455503962 0.0996425704028423 -0.46985953380029544 -0.4617780504805019 -0.154443570955068 
-0.21664926242010774 0.23852786373071433 0.052433866342669666 0.07687828110466921 0.06375670916095644 0.05753692770883845 0.23231318787249244 0.21947236370669232 -0.12138526598773092 
0.14398041117844695 0.07961521761461776 0.48808749365504966 0.11675785487624502 0.44175136513713265 0.1868472996279642 -0.2924913297244184 0.27857492111611026 -0.45959744468720043 
0.03830644939909644 0.2652070835830377 0.476026903559447 0.40656723439874454 0.43460717404965754 0.16572926420638157 -0.4330886994927602 -0.11428631966137393 -0.1445724819399754 
0.43636715314468255 0.45343400528302846 0.08363814983071294 0.32617759577709937 0.4861908249042681 0.0917499527893334 0.4802665159649073 -0.11347852808377934 0.40431400937892714 
-0.4430138974679573 -0.09725230926398398 0.07215977903176651 -0.40169824943996313 -0.412639625124845 0.29048699878391593 -0.08399262154591158 -0.3800810524415644 0.3913634003162032 
-0.47831909992137955 -0.14912361792903017 -0.49704292739895184 0.14357024394958728 0.4390791197501076 -0.4469981956861875 0.44666583977205654 -0.48249866222215076 -0.38788605132667986 
0.2042236209842344 0.21835542777768935 -0.19194634931944066 0.3032008529845739 -0.1296345533452521 0.22002400850097503 -0.31862590168602545 -0.4320719305905819 -0.30567337118491533 
-0.23359558685214177 0.3566491609336506 0.412017696989846 0.384631264911232 -0.2443873398403612 0.07213628010106266 0.45235404858653194 0.04365415011179097 -0.4213794215585407 
0.016863830552864223 -0.41496024786247054 -0.2755300111618152 -0.18993694701029207 -0.4802215563340664 -0.24964640503158408 0.23124914157308096 -0.04956961148200134 0.17971958461740967 
0.002648783557174905 -0.4146503873719525 0.24848462212405154 -0.20754670004762155 -0.25735635733491957 0.26773118262785556 0.42277810492546164 0.38509812298989243 0.1502215285649896 
-0.18195503293473914 -0.07755854772412596 0.4036283523843317 -0.4322298307805764 -0.37827278553914845 0.21994728435200994 0.11574056240007535 -0.17274460771300815 -0.2513463408751293 
-0.4876548653945183 -0.4107783255810271 0.28863739874413985 -0.47961331731335743 0.12250174612113651 0.18505810353947683 -0.3370971721318846 0.07777447843203966 -0.16182947512035595 
0.3648766435410886 -0.47010111047126535 -0.40336250957478903 0.40425247555381216 -0.24608982071986718 -0.17067928371478103 -0.04349514943830324 0.3924003426185094 -0.17646781346778573 
-0.49738327386030234 -0.3941611704690967 -0.2878433493756075 0.2615057689957586 -0.10575909940552164 0.08691323542942941 0.09910515069677284 0.08344467734085437 0.48259500995985916 
0.18448722967277587 0.018055012864658604 -0.19441510610781843 0.00416806297124539 -0.055357046104700935 -0.44693520334491244 -0.4531822779876663 0.058793771332434464 -0.12636778660689152 
0.0211540009107567 -0.24296417813691107 -0.1603884461417342 0.4713035270962015 0.2428375199122903 0.3791961731702551 -0.2817699588518352 -0.12034242353287239 -0.3698414825298739 
-0.35589515968423135 0.03375687729260424 -0.1656940107232886 -0.4883166946766676 0.3697804222436005 -0.4162284282582922 0.2950845103273626 0.4039620982804646 -0.408645718054919 
-0.004016461415284334 0.1017982213811286 0.2602471582822635 -0.4171825465075172 0.37123019080484676 -0.24794669141800452 0.07980025698027449 -0.1514744200560486 0.3316352638938137 
-0.0696434796924944 -0.35509079780987296 0.4602248197852947 -0.11783946104700715 -0.2688608632168523 -0.4322264565049584 0.19446322389313686 0.29944894769568964 -0.38690988581195174 
0.2757072660365322 0.2856036889041341 -0.4012292500305463 -0.0018412211621825492 0.04064651454168122 0.2512560426412703 -0.001951461147192468 0.08581408608802732 -0.33226130844859136 
0.16979742580505663 0.19735111493658797 -0.10837567649484736 -0.002171255926626592 -0.006248038910585341 0.2229100648206369 -0.2610523525444076 -0.05005275625745331 -0.03184834155563976 
0.04662708811264249 0.4334999667652909 0.4324442585319346 -0.010397305555964853 0.1852041909645632 0.1327938570139766 0.08520159350510614 -0.2103675658415166 0.0074428322255829515 
0.48591842249467454 0.4803956364885573 0.15499423627998 -0.46607765684201574 -0.03614339860918758 0.10557151688901945 0.007958466362783412 0.10018165359213549 0.4265129458697202 
0.18032889676974606 0.06121996905582472 0.37269293219696353 -0.12014825471066704 0.11670819775408503 -0.06509627162050835 -0.1436706168276809 0.0650214246808467 0.2234056605184367 
0.07725188834472152 0.2126936560479843 -0.008931754855562413 0.07523456233183945 -0.43407315135447155 0.42058729983684384 -0.22618141976835693 -0.17821150477970604 -0.11653296980656946 
0.05306621729850114 0.17573554547252834 -0.4069475279917413 0.05828318413086109 -0.2800597727254369 0.0550327404557619 0.07474606770620518 0.14168458542209472 0.030239856509923557 
-0.4729462850402312 0.2724722185586391 -0.14822362360462205 0.26608691490741543 0.016903323783868274 0.4612840663150255 0.35667058911175664 0.327569748270088 -0.4604576341738086 
0.32607151322715744 -0.4076949489518745 0.407638103272044 0.48203520582058434 0.3382083031607608 0.21426592986250126 0.28669654888614327 -0.11763538765537307 0.48518924251910733 
0.26836126387120307 0.09848919797101663 -0.2997935126566278 -0.4274737974426006 -0.06870575330574225 -0.08796652220896939 -0.14271755267199027 0.4509611597465685 0.22063686846222497 
0.4987732283243158 -0.11161454429631668 -0.312907174224742 0.4024057934492704 0.2097870502411322 -0.11110022988770862 0.3918030459658275 -0.0651059564208053 -0.02519920124281716 
0.07061359341844475 0.14840794365586085 0.17901374171072382 0.05291770181723732 -0.3551509500322563 0.24124798035608497 -0.221743703397268 0.31439322314504914 -0.059589655924176754 
-0.324529953511108 -0.43452118416798147 -0.4865533020221189 -0.36642159764173265 -0.19995614282520446 0.08907590562801682 0.22401460392790162 -0.281643920438595 -0.30140610046420935 
0.3676988279487292 -0.1464845574826642 0.37739469690303773 -0.10358262044275812 0.2805345263833223 0.42410984342693836 0.22750977594085742 0.34709758575759275 0.07925926733806221 
-0.3833966080872062 -0.49158048828699075 0.10841089826368899 -0.13186712566656345 -0.09094573278052309 -0.3406828956022725 -0.40523445272595937 -0.4596988977840871 -0.48968888590388204 
0.3851136945176382 -0.19780189042511698 -0.4187743357275364 0.18812146702535926 -0.24733423506258645 0.4419937384749182 0.3542621495020145 0.02211433355624781 0.0770273378037657 
0.4902850623956243 -0.031241455221252212 -0.4261248005769904 0.3587438214100269 0.26352299252870015 -0.4023517772026558 -0.04050455084642757 -0.18456922808016984 -0.23649720575901234 
0.1593625616359 -0.16560782118361406 -0.3856423058001741 -0.2993327418981432 -0.3920095933463045 0.35585895514822774 0.25748336101560554 0.30069757677833986 -0.31403698574745864 
-0.22427852568888684 0.1963657255961323 -0.27305739313177413 -0.11485562319305709 0.4336365291173099 0.16159610065141017 -0.28997490194969355 -0.4649412765275187 -0.4290130608608951 
0.3798838475335423 -0.23399671135781552 0.39108858384048195 -0.43401159647252263 0.3216442878569189 0.2057551357465469 -0.16917213299721245 -0.0974607906955921 -0.12708066622843173 
-0.009208676689102857 -0.21662310042459354 0.42850728382683334 -0.14231347675615624 0.37449259416407166 -0.18578329367472857 0.23356299228441968 -0.3499108114467375 0.18280563072789258 
0.36740258090681 -0.21766917367446703 0.21084642771132744 -0.4652787866451986 0.027167636990327093 -0.2244537057820768 0.2580790569554149 -0.2196030283235918 -0.19737070805619705 
-0.41993088990763816 0.44001301297334716 0.44357645639945187 -0.13785753852444727 -0.03198232850746319 0.31549938033322766 -0.005004769944024101 -0.1520542215976879 0.33595331730240385 
-0.3319836805850287 0.3547535629314801 -0.1129025568320342 -0.4630420609038133 0.17979443620289826 0.12417481021178933 -0.31869967001097355 -0.04838824921075746 -0.2250656575368455 
-0.3185430008213075 -0.3939338028855701 0.4482922353806862 0.003861142427209252 0.44046488072600176 -0.42122874035289426 0.4388797832164236 -0.3138124742972138 -0.2317020144497537 
-0.43449321016540876 0.3228690320642189 -0.34496654868793164 0.2848103950526879 -0.011770382641597688 0.23104941213620644 -0.14692285260251803 -0.47395439066967326 -0.033430709894541666 
0.12933217538532926 0.2190886993890372 0.24359025523716837 0.28275049403268393 0.023965335725298353 -0.226576233112875 -0.06686149101996364 0.19343983753811678 0.22129228646489174 
0.06193223768069267 -0.4619011752270865 -0.2710708593708132 0.33837321601501735 -0.3500379052254514 -0.3421370569174158 -0.08208231307744884 0.03520359933808481 -0.3283834333371731 
0.005397119583821386 0.45525804197415165 0.2449267687340978 -0.46585171798998526 0.3051035673316348 -0.30961839936513014 0.015352870186645884 -0.24664898985231265 0.2994399055368291 
0.45572132688186184 -0.05674021383416317 -0.44696367293799455 0.04157332119377588 0.17730123496961991 -0.417634003350825 0.30015865149116316 0.19138481540581465 -0.08623730870425816 
0.13652929255354285 0.06687932061150037 -0.3965714684218745 0.45545067500245107 0.2116393011147315 -0.38816381363149266 0.09798992975858534 0.3817831490018082 0.39283616942398214 
-0.1448877506900007 -0.05982453621931694 0.02297950307549379 -0.06189886077076634 0.4848734974778891 0.2170059868419747 -0.3986752506218718 -0.06507043787850764 -0.32162784000515143 
-0.0012253270943936023 0.4374981904322621 -0.14628954775622305 0.045988791680880325 -0.10153056503115421 -9.033711133555888E-4 -0.45039900485947115 -0.18578754194380454 0.40184934877811496 
-0.2586661696062027 0.41409831931515273 -0.048064215435794866 0.13080263404305337 0.14399957302392086 -0.44182500816295156 0.4141670593927427 0.02390400010062177 0.08411272693137961 
-0.3792411323826357 -0.07176087689085653 0.2706273824732599 -0.2996945818157327 0.03950182063269414 -0.22017903151504958 -0.28054056010120565 0.20282553665255976 0.3951957677377731 
-0.13048581872436948 0.39519823257385056 -0.33785258200226664 -0.25314078455375066 -0.09445639448011345 -0.29298927651704687 -0.3304680972610684 -0.2885695438501643 -0.025972305141074625 
-0.0936385496711224 -0.09552207405182989 0.4101688042250323 -0.11445931231342821 0.3627140382244105 0.06686037570994374 0.30327845379709706 -0.36484468172817475 0.26494631358527565 
0.3356495709879156 0.364933907046187 0.03288144206143562 0.42770874188674046 -0.49854010355050016 0.01280015354839692 0.06239235354346284 -0.015505313492333528 0.18677631520720472 
-0.3006953909761063 -0.1918428883350768 -0.11701896690067626 0.11555937397712446 0.0963319016665729 -0.14542591563505003 0.26323519928254546 0.22303048831847283 0.3606767322395509 
-0.09457301178351507 -0.004324616342068377 -0.49320870187568333 0.054504155832549084 -0.002038310198576143 -0.11679161931390025 -0.08796793864621577 -0.08676948492659264 0.09310835785208305 
0.29075979155659826 0.2164357780368371 -0.19734749238580918 0.011850207753661302 0.25544891604125963 -0.16551348489412498 -0.11218432469124262 -0.3425334439214551 0.4519515581302531 
-0.3037586733568387 0.2480281507561395 0.2143547090533332 -0.25986883788860515 -0.12777242683837664 -0.08441117815062849 -0.45363868293678067 0.4058093278373959 0.4139783722279128 
-0.40978609644502795 0.33103095110938763 -0.3794154987618098 -0.04117929942698173 0.08680954124398887 -0.4390942449057015 0.0928979972047369 0.007882152526633712 -0.08884802818487181 
-0.08101326095514083 0.36008433099498527 0.42788419680798595 0.22620150383815096 0.19269418566200303 -0.3200672991503336 -0.34985913927800005 -0.1288101934808905 0.32914027069217455 
0.020325428125305245 0.2442837020697587 0.026284684779207645 -0.045744987762716294 0.2168078329019607 0.029585512493321753 -0.4224496455338973 0.17928161142986399 -0.029516494610390187 
-0.3466436131664009 0.23008509684883804 0.3003850873639142 -0.00758220397167253 -0.38626227612559694 -0.05836721965895009 -0.4394060745939622 0.2657714393196665 0.03332129189007815 
0.3046281079971742 0.48802146866682306 0.0931753395236522 0.10037162320244153 0.09155007022702422 0.45029000563450905 0.32439648669247334 -0.013967948509184036 0.29662183741042003 
-0.02769282044178456 -0.08186591818500044 0.21874619867175038 -0.34369038262532137 0.05302116909317567 -0.2181755612680829 -0.04877218131462857 -0.18826336406917266 0.18650705170652537 
-0.3453789286083494 0.2906642675220813 -0.011956777406632813 0.043714141266931184 -0.3487426785772645 -0.12056059224384585 0.30888706270453314 -0.19657019543566556 -0.03171402594335093 
0.2115144652328781 -0.3613073675705534 -0.06550751782534425 0.16923073250599852 -0.251293966744213 0.15092250543715424 -0.17398713629661167 0.41147306088810354 -0.23854777531359794 
-0.3424431238669935 0.03833872221493961 -0.04476320975867154 -0.0397402276874963 0.10313281887973869 0.10472590188949593 0.30382207071565837 0.4068762852320902 -0.4738924232674018 
-0.247846426394424 0.3642795966183586 -0.10166683303908775 0.22097507677090522 0.12944965679950626 0.08900445677650581 0.002356843176119394 -0.2035211973069847 0.13186806537651052 
0.16126881012303962 0.1892468919980318 0.3184278044071921 0.1934858528509542 0.42150097959764254 0.05317160795705478 -0.24996268489926876 -0.017734339404720578 -0.10384205983135053 
0.4449332552992231 0.4583788988261527 0.2773548779041197 0.4873272526262944 0.4486059723891035 -0.3575603498078238 -0.0658305040205347 -0.3912664978104987 -0.47394780467640274 
0.15645349201551195 0.2500373328797334 0.3126131355999825 -0.1738263270074395 0.35158231685255237 0.231652078246688 -0.25803870467008483 -0.3901443603989272 0.23968798648466294 
0.23531557606085152 0.06394241081480356 -0.023085992768062225 0.49485124342656517 0.20192297223742817 0.3927961428921247 -0.4020433122350109 -0.4485434739376032 0.24087162599129242 
-0.4056409678358299 -0.048077830054123694 0.3320768801286419 -0.3694490118532443 0.2793610967053656 -0.3508401072956219 -0.05594375698414411 0.3977978204106405 -0.2610539382683862 
-0.21973161909143746 0.02060109884459238 -0.48532288929458145 0.05340267654781172 -0.127491261678647 0.2503573282877647 0.40817602144350273 0.11388363596396645 -0.04153716480667424 
0.03886202094080349 -0.08312556822279815 -0.1630718765681325 0.46570677373223324 0.17592433300215538 0.048382323276568884 0.42289215816490544 0.12162206632174966 -0.15509663064166124 
-0.1076887825456938 0.11193117082925541 -0.16593163916317 0.3030150237071231 -0.17422735724077165 -0.475032948115402 -0.44350681982572804 0.0862142595411951 -0.2881263830131856 
0.3421122455911818 0.4751556366555445 -0.3521372996840719 0.1364062609200022 -0.2326887951097929 0.46649254057282263 -0.07269414588726208 -0.14609619064813306 -0.04450021109546487 
-0.33574241969652197 0.4626486195899465 -0.4785367900753932 0.3373714606447331 0.14891446299122124 0.3114309970152389 0.48721045987706657 -0.4331215325216312 0.2258678679575915 
0.22357069389510642 -0.12998859627324888 -0.36211466086697996 0.49446690708582 0.22285330418060378 0.4180071560638622 -0.4310691017536037 -0.07368281038072189 -0.0035856742356503712 
-0.3342194829260047 -0.061155737993987325 0.46928991076662574 0.26607177429315176 -0.2765646402506966 0.47099905166052347 0.27271688239173786 -0.37896772929592715 -0.3744016751447431 
-0.18972040945803514 0.48961321260900326 0.12840709123872618 -0.4556717474429246 -0.38562864663588314 -0.24663034906793235 0.4061392323148958 0.3271457390424898 0.0897775204276845 
-0.15079069548490442 -0.25764380410893906 -0.2401287556335976 0.14300210380544953 -0.1951960011705436 0.2758276723827787 -0.32631279856313944 0.3886294622334834 -0.3902018695429367 
0.21412096355355614 -0.4831840088636936 0.3585691536236367 0.04058829803159114 -0.44078881178865315 0.2934321851842061 0.3905236610122743 -0.3854403044369794 -0.16528233843506623 
-0.16409621132864027 -0.16122373189701278 -0.47291908109501235 -0.13539858913977676 0.22118450052300087 0.44668476585286765 -0.4650891613693269 -0.2599268946566854 -0.23184544463293533 
-0.0521936803062405 0.141272742932123 -0.27037502227409704 0.45993526948832697 0.22136733378591034 0.11070240997779446 0.036513807397575704 -0.1763219471680375 -0.382168280456493 
0.2958781304537964 -0.011313370012482005 0.2700561532763671 0.3916095839917483 -0.006006899736035298 0.4580545963740752 -0.35433694176429453 -0.4695119890298355 -0.4331693568921473 
0.04918469778138357 0.2837487640481372 -0.3448463525210259 -0.14344377075206727 -0.12810727500387864 0.15220120433541928 0.0772173710971844 0.008339869044177828 -0.48211450698674985 
-0.20759311787011725 -0.4495613494653157 -0.32872434184135835 0.19851383220556373 -0.3813985531012515 -0.27261219797915304 0.1906655537095523 -0.13113764141790651 -0.19545276097449782 
-0.15742741345743494 0.327587052687889 -0.437184154580891 0.422851540199787 -0.3169055328425916 0.24576510861079037 0.09440610999120347 -0.2780342371300968 0.47918979875756695 
-0.008879093848176534 -0.2573425510209406 0.42688271127428323 -0.05045056157205152 0.4559711553351673 -0.46968716581275927 -0.26822519913050413 0.37009963375251986 -0.1322965321271372 
0.2312368098303056 0.21629380185161318 0.1999661534663918 0.17085485686159685 0.29695541652457236 0.2619781632046624 0.49463291676209165 0.28187172555891205 0.4797074025701088 
-0.32880877488789384 0.06384457283707956 0.087431715793302 0.047544976762394886 0.09824001703047192 0.09059271015969506 0.2300589220075958 0.1364366770565687 -0.40919928438543185 
-0.28243638788115033 0.17886577780995772 -0.03501148206327187 0.009503707640676762 -0.07128516344840641 -0.1813933866486489 0.34931423935895645 0.3445074654117519 -0.09381309410277217 
-0.19317125139330582 0.19874900626769265 -0.019882816368231193 -0.07345458996522802 0.2467598013251593 0.44751540099452136 -0.2280193082461578 -0.22461182695212 -0.1973300150303191 
0.18311417849357303 0.3961207380536875 -0.39435928445820867 0.2448010201128925 -0.4308732551167942 -0.1949611058784223 0.14240256072789859 -0.4474460646890941 -0.47171981696662846 
-0.2166461905608208 0.1459963743453906 0.1274800518150856 0.0510395555142974 -0.46608796774640504 0.08490994588542755 0.37172104246593407 0.4256565823373518 -0.05496318453127769 
0.04161157523030956 -0.12710490105995553 -0.3524822605952872 -0.30944291592470996 -0.02324322713012672 -0.29697162139654476 -0.24120134853607622 -0.4035156913223972 -0.38890504077219445 
-0.11301803869876914 -0.10615377509602952 -0.22831703067537568 0.3494224283049512 -0.07507359496998423 0.3613734033848234 -0.15539431226762834 -0.13278190611746699 0.3637674406036079 
0.18146616195174425 0.2741411860234614 0.20813657534462093 -0.1959720148222871 0.11356561133306153 0.10984993994778713 0.49932316220016115 0.4015430358141455 0.36100324611918233 
-0.23466154893633406 -0.31844645466829247 -0.12257411290394626 -0.18167000207472128 0.3382502387895402 -0.027509324414471847 0.2851153090613635 -0.060404639119987835 -0.238672434603319 
0.13389008231939148 0.29991516450607847 0.04889574961426879 -0.39877489699813773 -0.0026261417285510236 -0.40571069446592145 0.1889257059804227 -0.3647672421570881 0.11843287375149303 
-0.05872351862540426 0.40892995088640227 0.43079194855589675 -0.12539430118751027 0.04874095263881317 -0.2696321929805766 0.028665690756729534 -0.19867827682252293 -0.23122322348278868 
-0.10323422361525203 0.48784971770619046 0.4676850851758284 0.24943490384242306 0.4136485666580887 0.48878855292677614 -0.26548488132693016 -0.19995652525097163 0.31510190871275245 
0.41118642380176673 -0.19175188413893807 -0.273255778154024 -0.44456426978235575 0.3036802813863547 0.10684394108370554 0.16146836542021903 -0.08242057011879089 -0.055131934828860696 
-0.42989236167135947 0.48159116434051075 0.23275728665494383 -0.43125485598632674 0.387710022806256 -0.4421129591027672 -0.2663575321111381 
0.1322962667702979 -0.478089716740584 -0.25976429443492477 0.267907602928355 -0.19247864597163553 0.3364985703781607 -0.45543550658871224 
0.6971620552364437 -0.7417430826534013 -0.5566176429108747 0.5630580272518236 -0.6655628057148074 0.47908035944130517 -0.15073224255380202 
1.4039826894515175 -1.2541780611767341 -1.2213470596084486 1.4031848509893674 -1.1649957664105257 1.570185610495284 0.21133097182110683 
0.6326802569071175 -0.6369981493315999 -0.6327287326734237 0.6961924110405722 -0.7786951245836731 0.7739997840203041 0.22136981443691517 
2.3579467445471147 -2.0257445707250676 -2.5509927176377807 2.3149266693130874 -2.5319239487319836 2.2112963866986037 -0.378096595761235 
-1.7750263919889575 1.73159224309839 1.9172441459715883 -1.9021252610743375 1.8797177296593452 -1.9561726058065045 -0.4995663452147472 
-0.21780512270539854 -0.4008284317269165 -0.3490187365347695 0.2724465354307753 -0.12335116739533872 0.19913354161581126 -0.2135820960093654 
1.2411326777603136 -1.1140686172767822 0.6180553967679678 1.4685336112769716 0.11248180701685107 
-0.518389824695698 0.3357604333260279 -0.7160285672305209 -0.9101357497252439 -0.150701697621213 
-1.5003403250381016 1.3888055752278172 -0.8972070640328402 -1.1315797479831966 0.3801380782067252 
1.0225916797477776 -1.5070883521233693 1.308734357912212 1.1607054987253609 -0.3039197806630264 
-1.6844944296637725 1.7221627694274289 -1.9407825077094336 -1.6106353664322626 0.4813204508865395 
1.3445167450940971 -1.1564312501905931 1.595679780467441 0.9478136687548833 -0.36277770355527006 
0.950734767635566 -1.2649228491646802 0.25916231978348114 
-1.8880364187519871 1.6321358195236353 0.35939567431581954 
0.78144452938572 -0.801822435883988 0.027626152550797478 
1.0917807229501932 -0.9286589338923829 -0.2268683140729909 
5.086367482327492 -0.023876680765476888 
4.6302410562368745 -0.22426295152640996 

