0.24494290560370913 0.26194659886479443 -0.30951999921427087 0.31399080899490694 -0.26020306146282257 0.20707943131809414 0.1836896963277287 -0.3867031729304813 0.41642214401164024 -0.44690867010144886 -0.4263442885122636 0.46004315632096315 -0.20671612457762234 0.00613069649819642 0.1731455988180992 -0.17207695501265374 0.16577884886995387 0.1832446199479315 -0.34963620265484174 
0.0373596381991288 0.14349070176440404 0.3356162682442254 -0.10581052871660668 -0.44809236384101636 0.49872174343402076 -0.37649617242881717 0.16403375699551193 0.2851734689317582 -0.4543077913313124 -0.38045269450854247 -0.16010147206943992 0.44501714057264996 0.3762429089987651 0.39386715333822475 -0.35221057995476635 0.19668288921894217 -0.45942715136798973 -0.38261318867040683 
0.4514558601529822 -0.412361823818317 0.18048867202912855 -0.39093164027663985 -0.4264985266500777 0.24428317824832757 0.19783802121535943 0.14825954007307407 0.13722844025240655 0.32432615176416835 -0.22775581808506662 0.17510688787718487 0.10514920475414158 0.08850246819833729 0.4299548480619476 0.20999818118926006 -0.4690796793792087 0.24144830873771217 -0.09043693834384225 
0.4372554897942076 0.038522474999086564 -0.11607765933620684 0.2705535383069897 -0.08119281949560209 -0.304168555093424 -0.4827977925885476 0.04707335359715481 0.3303257248797945 0.2592954239700309 0.045364530964936534 -0.23797934223261763 -0.05467440736507356 0.23225375801386783 0.1322910004001132 -0.2145090437486883 0.3319733425754009 0.3015028847389565 -0.41237500447966946 
0.34681552961775053 0.3728701089972154 0.49503581377001016 -0.32046338386722195 0.49087179668642256 -0.2301757795793291 -0.16154910018442592 0.40203660118941476 -0.09295891260841449 0.15363940947412202 0.3783471275257748 -0.2392877526647499 -0.14686592392669484 0.283202499231757 0.18809254403013442 0.0831417141169365 -0.15319976334941465 -0.41133872733589494 0.37467325645680505 
0.20887530467157833 0.40338175091154505 0.49024205416101807 0.16490044101065782 0.16875580542399926 -0.138130707969919 -0.4927363550546541 -0.13492655657358277 -0.37551789623625187 0.2595605651831574 0.16116235472157936 -0.13973294898188793 -0.09329641775404907 0.2912194640472753 0.07185072330100484 -0.15226855790005966 -0.036434427565014804 -0.38002219660136916 0.4484901729168811 
0.18346393083765067 -0.08849149930846911 0.1949176718075315 0.3837656768211566 -0.4381688866984579 0.1662570899334781 -0.2257828382574707 -0.02499145726401475 0.24519151287602037 0.32431738529033594 -0.4470618448156597 0.31602090536534133 -0.2862120011004149 0.063934020653451 -0.34902030878372026 -0.1697863223538727 -0.08424967150823326 0.33934098915128297 0.22941584223323686 
0.24867718462979194 0.2628681726388211 0.05327374863658774 0.17238256016260844 -0.2239382514678171 0.1398651705542826 0.21009197352996856 -0.4031270322329634 -0.3673467705973751 -0.026774597157886437 0.27549587222828587 -0.06575376010803291 0.2127863255720841 -0.15980681268644537 0.09870156571069644 -0.03505001919095052 -0.44225366865293847 0.18938815736799186 0.289073566337418 
-0.018097967841234963 -0.29443223190033496 0.4915474994341995 0.3815959194156576 0.20817222940106084 -0.2493540169244255 -0.4577725217038503 0.4741953767933079 -0.2989493758358659 0.12283616315609558 -0.3021327794830647 0.274813801725484 0.2372833636251902 -0.321278773188585 -0.45756291463616294 -0.342741001859018 0.0932032843592393 -0.3130113875063554 0.35396543570817895 
-0.10775351083737417 0.208677101778608 -0.3146367107768717 0.2685569367909325 -0.3063224233379138 -0.04476314588756114 0.48830238677654425 0.22408621988658994 0.10008122125029628 -0.3835418111984853 0.3326646058069589 -0.3934284754397399 -0.002719142627671034 -0.2674063804769159 0.26282518632695295 0.01930195945460722 -0.21927022779873573 -0.3383358900590261 0.3772154760277908 
-0.2518858895608035 0.25459124739626426 0.06565759842487462 0.48502352797188697 0.305782260389477 0.3695228706510497 -0.45682136537983575 0.05479978786964956 -0.09569182764145023 -0.18774301218959477 0.2988382449051705 0.07597092202221356 -0.17403419656063468 -0.2225478750526474 -0.435131328460745 -0.4002292971708774 0.4422772450830158 0.4759231396548317 0.4718930542291143 
0.27785670247738314 0.06466604913944285 0.06324050428523276 0.203475189602505 0.1748879113660805 -0.09864541874861432 -0.29117804219390664 -0.43698005616490576 0.4955968988155105 0.1421425335131472 0.4680227724295519 -0.46820985981679475 -0.36260235958230314 -0.4039763248402224 0.46836351487376526 0.0032512285665281526 0.1563284371455771 0.3661685453747989 -0.32408312783986826 
-0.35834990193183713 -0.18286368481500592 -0.2373789618868346 0.16900832017681 -0.2683201204580161 -0.11243202287502252 0.025126799438907832 0.41376782854449135 -0.038722017101359696 0.2324396900972625 0.4568324241806685 -0.49029724129079955 0.3110495495524901 -0.43518360325229954 0.25416397810873415 -0.24665483827696133 -0.388495669041913 0.41963823940487166 -0.3409861867765106 
0.15415886418295965 -0.12676020800446808 0.02939044747320463 0.056435853006984615 -0.27072467484248486 0.19539911404513033 0.30192024232621173 0.2943681637664485 -0.4977405179739315 -0.08582258765779982 -0.47273740074813975 -0.18852617813169137 0.13598994396072928 -0.3341544917730648 0.2733438523881817 0.125009667265096 0.04087029917049756 0.20770532699292776 0.16969066497224183 
-0.14729567401268584 -0.3830282209596866 0.1655867060689481 -0.07622073448900168 -0.2790538487390978 0.012339684749102298 0.3579403230036954 -0.03358218589578954 -0.05384763617862265 0.40957906501466723 -0.01572271310515616 -0.4194376266657105 -0.032988525264785684 0.3889680197023144 -0.24034934604611424 0.23222513875777684 -0.2476396948283529 0.3587297527530523 0.02707003750701531 
0.09264108339047239 -0.1872213548891325 0.39172721354421147 -0.01381490359433235 0.4176170913590407 -0.39644669650209796 0.06272699740199528 0.4392698645812927 -0.4670044787409754 0.22248528414530133 0.04151227255340828 -0.12551564992797515 -0.33557824400247904 0.17808253314240652 0.26450680435177554 0.28158569861681504 -0.2548865174278351 -0.46799750746096414 0.48120555058312975 
-0.17329366091191534 -0.362913228164928 -0.09582242862983759 -0.14841055032336326 0.40051184439022536 -0.09069774685199572 -0.3301215500692869 0.056835494601844894 0.0979964837673768 0.43045234163947976 0.1750389657361887 0.07801565455772319 -0.11162998692876258 -0.4453819168347045 -0.05051205833640893 0.3961107322256565 0.08993420966503496 -0.3952174612862974 -0.29269741764129176 
-0.1284509964374897 -0.22245678472273434 -0.3078053055738348 0.3893191415441155 -0.027389051724621694 -0.08081296099894786 -0.3511637068702126 -0.37509344045796356 0.33942557883914937 -0.13656725722641583 -0.004248198852849661 -0.23157122507776906 -0.10608434161018399 -0.21909662519658957 0.4217588756576546 0.10039257408676028 -0.16406769244992192 -0.19933029133065006 0.20506528409524494 
-0.1259029267295585 -0.09804753171078606 -0.12362452071361074 0.37457577438784306 -0.364327718016096 0.20509513616434583 -0.13288799126249273 0.17817978244244093 -0.35128639266161765 -0.17615452776503304 -0.0754966380568991 -0.39793038892494514 0.3142903204557064 0.061758283063846564 0.040158374874583846 0.2681453655072117 0.19292540260933044 -0.03845431524663412 -0.47340834743773796 
0.025821791035915753 -0.3927846336609446 0.22433598855671422 0.2799104503836225 -0.04994063086861289 -0.1679215535128442 0.15852434543398908 -0.0959901159243911 0.25919985400275514 -0.4358100402286297 -0.3374823066218948 0.1637143420294197 -0.12580533601990262 -0.2970160165104351 -0.468189642428842 -0.22175205992900193 -0.04492814531162603 0.4726709085499443 -0.42679180856850485 
0.2666127052091859 -0.22900447753037956 -0.4319593889814133 0.10765343806654981 0.41289774007811153 -0.3129708497544632 0.31639118329021276 0.44798390391755116 -0.06776113065813594 -0.11627753663048002 -0.18625618214668727 -0.1509061406182277 0.08709252258103839 -0.3351013522953271 -0.384425440039585 0.24534647042641733 0.32868400766515526 -0.14547267725970459 -0.1593862530321548 
-0.186279825305519 -0.48006526819057505 -0.16467416358053966 0.48083461282211215 0.031054945701508685 -0.06613126811638148 0.23973962477912525 0.3015728024677208 0.42989623172993763 0.015444114131625386 0.16821002368222637 -0.03721137854996981 -0.3001820160848355 -0.15504974258207382 0.08014580670873095 -0.10419579737726858 0.12973866525591204 0.3475569034416759 0.1797726589545825 
0.02941849404959429 -0.35837312551883826 -0.4437033387403292 0.20204215521510505 -0.3248773407948473 -0.17287389334239645 -0.3452922762847357 -0.006959633959095601 -0.24679076650728093 0.4660112210263744 0.10055902800451944 0.17484310542667802 0.06988862038742893 -0.020978557858486013 -0.13647493422522206 0.4865236953099453 -0.45990342109635873 0.1474981200959966 -0.30262676296389146 
0.10102584189705421 0.09149713074845678 0.2183881568192716 0.4111718844822143 0.33187299922535385 0.4822549974158753 0.2055561618280387 0.3042221640817323 -0.33580733368062254 0.41847272329077145 -0.2030175685035328 0.2858625235773252 -0.028707519456709463 0.16675724915014267 -0.21769445124422926 -0.2860100467453265 0.11103219809432474 0.32320147897416707 0.3263016643390503 
-0.34491302951260294 -0.1645060270998947 -0.4778633074162245 -0.26872433757559977 0.09373933396990175 0.09296085012804955 -0.3536685026952998 -0.44502874439429907 -0.39892591208970996 0.3529713615872381 -0.4651160964612665 0.08049121751846844 0.10924342278115329 -0.4567743167650261 0.2758731891560896 0.1708504244762733 -0.26697522765692205 -0.4486228777200797 -0.08209166462552053 
0.48316817672405865 0.029803051581342666 0.01524985055375283 -0.16196956580321398 -0.13386137950675547 -0.3043536936217006 0.30178217608947977 0.06299672027272374 -0.48069909870157246 0.4578810696648987 0.15800216003440504 -0.4432060678566615 0.15376372332935795 -0.15648057136513294 -0.49339973696565265 -0.14070062121546467 -0.038578386286394095 -0.4219152122461509 0.25417161622764495 
0.48932815529177964 -0.3266669355928271 -0.3991710663397675 -0.21804188574404604 0.20987541482051408 0.3678135057855473 0.07002782522172724 -0.0030714486092038307 -0.40581723783892065 -0.02507112613435669 0.27598952683652533 0.43529270703100054 0.32832835813529426 -0.3835414089928859 0.07960247646306362 -0.06894672580345274 0.3393602596799994 0.019029015036081787 0.35069772427552537 
-0.2110431692477711 0.14756344755390904 0.24300186546447722 -0.10680577727901486 0.23421380880602694 -0.19272941251311626 -0.11916533792330253 -0.4870585294188775 0.1506141063681422 0.42269757309890266 -0.30398728040697376 0.20936911043991024 -0.23582632505579904 -0.49639558077570234 0.39728584998328864 -0.04650160887601018 -0.018795111380520257 0.36015348004765557 -0.12717512542027654 
0.15256573421457553 -0.4522888598219622 0.3271559214532751 -0.2549537230462028 -0.30454589416203137 0.06126430532160454 -0.14503084377874198 -0.4507636108349732 0.4233227614692172 0.13703121541040852 0.40762669801386375 0.1877385937981091 -0.02372814354098296 -0.2936266659606158 -0.3316460764219876 -0.4336493693282951 0.22957331225504896 -0.49054857009060115 -0.23155822778456592 
0.48071141880977797 -0.048055416356425074 0.3325247739007545 0.12752229697393191 -0.11216035574504046 -0.10646232480775653 0.4361429176563184 0.021609118616606082 -0.32838056054907494 0.24276078784358668 -0.07781536708406633 0.17983691509647703 -0.10908888032501596 0.27874517375566 0.49570787368382696 -0.44834609774793666 0.2850975933978336 0.0902154519360644 0.1918310046153141 
-0.11670814769694204 -0.49573969237001414 0.43171679059039403 0.1583747110217878 -0.10434144291350111 0.12981087656300594 0.14459723282456316 -0.4882492318915137 -0.3346325400916488 0.056287913587448446 0.08283980364064747 -0.3834079411213479 0.27644028623605577 0.21616079299294222 0.15278308825174147 -0.12112371776503217 -0.06771193199629799 -0.05313452238614713 -0.09903466602716149 
0.28780307423701823 0.49589678046137964 -0.4770701473036213 0.06577176210721614 0.4934425941736075 -0.13928620678979386 -0.49407073930994627 -0.3537395609439401 0.1651810510289765 -0.3544481656698055 -0.3988547261367247 0.3354872572169829 -0.2597532405134677 0.45389758228306887 -0.34781589124037215 -0.3841541772558412 0.442107806520463 0.3413317981145505 0.2534432284740653 
0.42038357733757825 -0.3747094386255925 0.19433901264031472 0.21519833734912996 0.026750430644097434 0.08617589612545995 0.4396043287538173 -0.2227852494934458 -0.23061799109771264 -0.03141234757582689 -0.12503425123455103 0.03417101115002763 0.2307142032805437 0.28849611392752306 0.44151048970728035 -0.49018539151292373 -0.19632790241729725 -0.09608342201062148 0.44087412340307996 
0.19665283276460432 -0.09462979641271219 -0.03590870712342875 0.0426216704779957 -0.33588538822941494 -0.33409220862138644 0.48630077153950635 -0.0763398477209658 0.030501933049213337 -0.3836626610186319 -0.27084207100635616 -0.4650476318188226 -0.3073178319914517 -0.24367034056962777 0.4579970332724709 -0.19962801812260067 -0.28764428979805123 0.3947551404196632 0.030976561595175478 
0.01836027958703501 -0.33113429724964716 0.32534484453123214 0.4737732768528755 0.35911533977634413 -0.3940999378178204 0.22479155792351313 0.35625248602355564 -0.37163527634040994 0.42306803430857287 -0.3579044532249056 0.33625734614286096 -0.09665713958471722 -0.3067827584346009 -0.41434490658990697 -0.30633218714808874 0.2374148951754551 0.42248902426116486 -0.49145223662761717 
0.04213769423870728 -0.12314107714954292 -0.28750638963438935 0.44264277420848885 -0.32357385542392425 0.3366389470923621 -0.3673813362238326 0.13863114912471008 -0.3100025191891377 0.24157098513021258 -0.13463166233581214 0.3317547889102952 0.08057139785174161 0.05510545440548675 -0.1512380764174519 -0.328038582882749 -0.44943681446563566 -0.3099812089232772 0.2072047720628457 
0.43240750499952496 -0.3951385314049449 -0.47637186949851196 0.23587659482800394 -0.15832343119742198 -0.14985108637227895 -0.4752874392346943 0.0835650475119214 -0.2272243175389308 0.10797866288542313 0.040145371100048344 0.06500538159212987 -0.4340819324389279 0.06807800537727238 0.28631165224679644 0.22616990040076312 -0.03770458345201977 -0.2711424760664367 -0.2562941679310383 
-0.11541655005597884 0.48248832686804966 -0.20113734372147574 0.46267473874889586 0.3716243682201318 0.09585903368875359 -0.434088193309785 -0.24590901709679458 -0.3850972684343723 -0.30378430579205595 0.4799233459359942 -0.1391871824613956 -0.48380907699967723 -0.275767070177507 -0.15905853867345943 -0.01589368845938044 0.30401414957702 0.2585582795139415 -0.4643711952952031 
0.4737762362426915 0.16989126862845527 0.03523014883784348 -0.2764988389052043 0.08157221916217672 -0.4666506746447894 0.14897765281121678 -0.26156172103739006 -0.07549277582833502 0.22321796036786534 -0.35983180878532295 0.24151139226249463 0.20804572185592185 -0.28865760990969624 -0.2223860091898341 -0.1620730046414005 -0.18131117612845282 0.289737038430148 -0.3898559333887506 
-0.046106425426580944 -0.3886953987104047 -0.25666613034745067 0.2787935555667521 -0.24152394406327582 -0.41137828210049787 -0.3621367264929618 -0.34334276304198985 0.3110103416874077 0.19862475619256637 -0.1839626515295365 0.11490012220926404 -0.0835915830113616 -0.33983974417044593 0.0750887318249388 -0.39888779696954046 -0.12130785542152778 -0.432117536152683 0.28485056061862435 
-0.2398586940961731 0.4573515949377446 0.0247385431850905 0.3979464587949607 -0.47226853698137716 -0.14836831267721617 0.20351250455678038 -0.09770828932714726 0.4837412187934528 0.4646089085718095 -0.45148152900090377 0.27099005587650793 0.2644105439114719 -0.4680728429095975 -0.2056465663953222 -0.12415717100642043 -0.49790940665251593 0.43932022130065884 -0.39930981737963767 
-0.3519291918337566 0.08604619929231194 -0.3014443092829331 -0.11958850243245556 0.4934808522364008 0.019385735800991455 -0.3968066703453076 -0.16704301687351397 0.09919332359498101 -0.21513115893588586 0.043558255736754425 0.28557406971365296 0.30517815179423513 -0.07371256132960036 -0.17541228579062562 0.19223531462177712 -0.34376896422946357 -0.4976892021102881 0.10071727649262074 
0.043304108798105645 0.09865337233343863 0.17613120857432207 0.2187311956544129 0.49860146750475864 0.04078285172404861 -0.03305870349751261 0.3425079820413507 -0.22765311893224427 0.157654146666099 0.1082200352034246 -0.27714845253108966 0.17051610546879326 0.38745214013560914 0.03299970651840123 0.3711051864481427 -0.29051995999670566 -0.45894726461462076 0.23773082670030266 
0.1970036004706165 -0.07064222486837446 -0.17417062145038198 -0.3359417943246855 0.3792263366263259 -0.14366146541983982 0.3710359265381339 0.2817659384588659 -0.14862653398252523 -0.4347031866665034 -0.4655404118995248 -0.24365509305844557 0.3065922328450268 -0.0526547009854188 0.36867035552037775 0.4410810621652471 0.0508412699463594 0.09654091985716884 0.1300759562154129 
0.4462591483120576 0.3677868158524318 0.19577932143627275 0.12512470712969948 0.20702041780199187 -0.20241689239421767 -0.09601657137009223 -0.49461924653666134 -0.2033903485420857 -0.12270310325316236 0.025012126410487667 -0.15317028590895976 0.21319086561483125 0.4424940516517226 -0.3267143430805326 0.4786549226647493 0.006107272399390129 -0.45248638157619125 0.2419438589690126 
-0.437142355042071 -0.09859397767517308 0.4262131092278698 0.22642477536605887 -0.13152247161202602 -0.46335664415794686 -0.3145238254456534 0.35967048936054147 0.032801979638757084 0.021431648407903348 0.10053147591169953 -0.42526199533235765 -0.1431637264165463 -0.19711517224978514 -0.03586000039451842 0.026413050508541147 -0.15656096749459125 0.23406350248326457 -0.06903462207155941 
-0.22450517237031786 -0.2460896614634619 0.3187177307013095 -0.306050394319094 -0.2322594757554136 0.43245255660995663 0.3370690115890961 -0.3687253362501617 0.42402820866122104 -0.47219294563568637 0.4450698970111644 -0.22950186186797128 0.49911729575586017 0.027502470568551263 -0.11647606896469054 0.030708548338483133 -0.13654384074887738 -0.2874668329519563 0.13364435241507655 
-0.27594542177429315 -0.48419346845552447 -0.2610807740740497 0.21207533516114818 -0.27524053001106863 0.44402487247433964 -0.4425176393110739 0.3110946146812268 -0.45326014729424724 -0.08283904086914007 0.29430468088833506 0.15866203073102614 -0.18979324640096817 0.41410474271031317 -0.46827989854744567 -0.20182681063129737 0.22313302440363136 -0.32766808048888063 0.15332125900818172 
-0.030776168846034957 0.25523082425584764 0.27487035206232957 -0.45365281968285587 -0.09161562504740306 0.14008902490111952 -0.21557185175111904 -0.009049853049874712 0.18293083541406652 -0.2946203424809941 -0.3193040293720595 -0.49177706586547554 0.12067268697903422 -0.19845091895139522 0.26015561069694926 -0.21249999555222165 -0.4945361555764195 -0.22383157364729822 0.21729742114127026 
0.06832981369159963 0.47067834874871906 -0.4758750985389799 -0.15803048804685416 0.013647439769344683 -0.05812245702625596 0.13309372561538602 -0.3603480182028096 -0.3219399079832349 -0.44490923668891336 0.03923827398399271 -0.29023034941652326 -0.351209477363688 -0.2914227850834955 -0.09015639027015632 0.40172715542644233 0.31670637416840286 0.29363139191590704 0.17759683477840127 
-0.390829383303393 0.020996386747387463 -0.30605938769828167 0.2654846828816624 -0.4399499243107666 -0.4965632013925113 -0.1568025918101592 0.061787771774625355 0.1133779512487223 -0.29317544106958804 0.48711611118139053 0.13140745501705575 0.38314813258723135 0.4570365541385326 0.3086970539958984 0.48277023059526447 -0.024298642619174582 -0.020693238399390967 0.2445282011108394 
0.44881132964791004 0.2488926401155449 -0.48330349433666375 0.14510832701361898 0.3860480441365778 -0.22026347974819882 -0.4576350924957059 -0.08637797034578243 0.4475102206681837 -0.33822329795067996 0.18713069429282214 0.3952918589426979 -0.35669623002574036 0.3442466187187184 -0.460051839913733 -0.4166223012530105 -0.23315951543550817 0.4721580332535168 0.4213035125119984 
0.15808975592891084 -0.4647244400737448 -0.4102253095530707 0.07817069650362929 -0.018873988128949803 0.4694518746523628 -0.3705011910680912 0.004048088975313058 -0.068759104963389 -0.37834220621583514 -0.17598168621895305 -0.25126900552981457 0.3851966445665691 0.2487633154797092 0.05163293412541958 0.1498569592989476 -0.2763551865549003 -0.07619299100347598 -0.34700228419470347 
-0.10810574239757631 0.47293014666360356 0.3808641518749335 0.4420927686229368 -0.3218735245290857 0.08150461713792101 -0.4039659193327504 -0.024951446142517875 -0.41268101328424434 -0.12641515438489181 0.2216427974410824 0.13752587095807234 0.3791359333879595 0.42288082969554197 -0.4887355555771421 -0.2353293338104171 -0.38899091922599005 0.44567026048006486 0.2999234891275353 
0.31723347628004106 0.4340428934918811 0.3251868985331132 0.43684674281704095 -0.39673590880671816 -0.1533273089923064 -0.45176228404125185 0.3073925436894165 0.15686191997264143 0.0021758900810983084 -0.33984195177422605 -0.27370793219418177 0.1637834497177647 -0.11023100416281628 -0.17433997320083028 -0.46390442482514227 -0.2417221946119048 0.33890566899395413 -0.27917564527461347 
-0.2972755890701553 0.10634211655796566 -0.16747566381680212 0.2754309494273012 -0.4357132958281482 -0.06234113482279102 0.057376350405266674 -0.2649804412521871 0.15982384553658457 0.09179725328885169 0.4681986776350293 -0.38148387044091636 0.2414109124810191 0.203831202823907 0.3973777085866733 0.40995682741074424 -0.3439563140217191 -0.12965286402549547 0.4028839657187673 
0.2417863395043729 0.2730013115535068 -0.49111562042214285 -0.3853602208922321 0.4024024832122951 -0.4721172765646652 -0.3478280383136978 -0.18688463691227142 0.23206472647024945 -0.04372828904945947 -0.39690434820856957 -0.146168902912714 -0.14102068078769203 -0.20200607513794122 0.21714921718166869 -0.16242320668370958 0.271318902826741 -0.1328132456472504 0.07619451838091151 
0.11854178442191576 0.4211304077478697 0.4039108809689308 0.4706751587561442 -0.15881810812193997 0.41252932397090925 -0.45021002787711817 0.41699880146181356 0.2015328119537353 0.33927493958859856 0.42317306936334775 0.40262343446618076 0.03981179644014976 0.005765298842407951 -0.4914284216342272 -0.32654639385727025 -0.31146747215601966 -0.40931296188389266 0.22063133052171546 
-0.3435278481337444 0.22399083980159185 0.2939996242410453 0.05465699478853925 -0.4548956547253282 0.3988618302682092 0.14562924189539395 -0.3062851314159676 0.16563065342570482 -0.4302184596452412 0.4481933593628157 -0.19340256988404236 -0.00996484721141333 -0.12383066352910987 -0.22372877975704653 0.04144073505954904 -0.4360027344840327 -0.22481994974463004 0.06118181366131714 
-0.10345613755755023 -0.32169625524186896 -0.20744261759790794 0.05292582494129627 -0.26705260199269576 0.3277793352877061 0.010293329520080996 0.36989304838418413 0.18258538819718662 -0.12609577681625106 0.3793807041632067 0.42213296074827955 -0.3986665334611722 -0.14439348414530728 0.4195793477982678 -0.274569848844035 0.018033486269406818 -0.42271100660616034 0.24799847902218808 
-0.48887692762286583 0.2385826889190742 -0.05603103571879142 0.16443150008061536 0.08054854670417266 0.37843337703730073 0.010480880277130455 0.2137614058618864 0.0531910211682346 0.11735692741222559 0.3650113755369463 0.24438854554170342 -0.4859404192518042 0.3970836001644603 -0.2231930802841544 -0.013485236407719703 0.07851223108488115 0.11543769915720614 -0.4962856842495097 
-0.41474885597950917 0.06169160289489373 -0.39015491223520526 0.2772850072913312 -0.15910105887432913 0.2649315419780175 0.36859818738522465 0.26149391948638956 0.13238663461201672 0.3729398079123082 0.46002122187836114 0.21569450065212026 -0.3702715107956489 -0.4067432235879791 -0.3723135163724618 -0.31674868248064625 -0.0624971895007449 -0.03656387171946318 -0.1359102271206003 
0.2743623226945455 -0.24626886447425145 -0.2984121024192571 -0.4542983402480488 0.014903090798586094 0.4771722972455381 0.08237047464410652 -0.11093174008691431 0.29269550548369094 -0.04907216419370153 -0.4167871071119901 -0.4293563236545983 0.14842387120662226 -0.3086113164427442 0.4644941923817969 -0.1577062880613228 -0.46950834499043437 0.018935160668011042 -0.4773980016707604 
0.36991837610386147 -0.33856762264489115 0.48043560195531587 0.4862377387234089 0.3243984077284704 -0.15194155193035674 -0.1665285439325579 0.4140312715885113 -0.037920842657231835 -0.09164777791127066 -0.3516500245797053 0.4954729792428507 0.046262565949662604 -0.11482651508954023 0.27634762266561375 -0.14263332549766783 -0.018313893097360867 -0.129821406324806 -0.4687390074717863 
0.3344519814971665 0.4607253029082151 -0.4290842793218794 -0.06377574266760255 -0.3244597385996971 -0.24693592419562316 -0.2801177259876271 -0.20111454655283278 0.3254532634344254 -0.4901647611362543 -0.45360031244829935 -0.3045840052666736 -0.25175068640104104 0.09874106552478079 0.3104819542694577 0.16746151869831116 0.2386667708430652 0.038421839526546986 0.33244393177506537 
-0.43397554308377717 0.3064100687130564 0.058347923959039205 0.0428163932496165 0.01240133168808688 0.011848981049867313 -0.32523117850830385 0.3242045719872916 0.38868126724379815 0.08189686270883578 -0.05623930341102823 -0.17995253915258402 0.11894437555183501 0.24127913146767266 0.2291708944858648 -0.05519435106362469 0.25718185858677334 -0.04290161448240304 0.4062670566068919 
0.04592536601931274 0.05909238549296214 -0.2864518733377923 -0.088845061786201 -0.46000284937533553 -0.21770805809438654 0.008821950090505681 0.44153771992960433 -0.1261525381822215 -0.06689252400786172 0.4977110554839066 -0.08385286745076326 -0.154127758590328 -0.44199261251283384 0.09107720004148301 -0.49181557468540105 0.16374157673007272 0.4638542668177852 0.3673348644835165 
0.18236710160432812 0.1116747206697376 0.44354907949049005 0.3512704016282563 0.18568549727166517 -0.14619448925861556 -0.31773238494172895 -0.4280277988862411 0.3687302253438798 0.20972808309600277 -0.4756261388533848 0.3243407526690055 0.047460430420957156 -0.2958665110988312 -0.3077728680121601 0.22759287607828715 0.3545396486650636 0.31451752659513255 -0.1345171891084448 
0.4993697721882956 -0.32512543485520196 -0.38073861782425045 0.2531195629954718 -0.15449604912036918 -0.1882508807428297 -0.017044129917685447 0.42030815304182667 -0.49680499777594667 -0.012044788772132442 0.006661331903822565 0.1683705297636665 -0.23070998831392275 -0.3494223448291741 -0.28213510148767584 -0.2915400088622665 0.29555946556889 0.3186004755975743 -0.12178247941729281 
-0.28177339883236174 -0.4606954016837215 0.3892577918094412 0.3467033134950227 0.1256142942235402 0.02032801401997919 -0.09793799070177267 -0.3482858947184123 -0.374930591851249 0.4542441631970172 -0.25130180679452585 -0.20242754333421065 -0.0011769663828509191 0.40730176504163285 -0.2875171223432552 -0.14063342787814437 0.2895422698437816 -0.15066415053211335 0.022842086721633237 
0.10453109591596399 -0.2494718536924343 -0.13083808212302261 -0.18172805986313467 0.220427803792278 0.28577157521506513 -0.13932969337387469 0.025502835030822624 -0.2757493273782019 -0.21543979981897565 -0.3119256667226137 -0.31690418282026755 -0.21509979950451474 0.3539632608032359 -0.3047893831814745 -0.3355422307611684 0.4960419497997042 -0.04259680865510029 -0.06351416739005422 
0.08826989758304182 0.10538482591854093 0.3786562488680102 -0.3239910251432525 0.4435815001460215 -0.17271536931034537 -0.251993122258502 0.026643876183092385 -0.3976706480420875 -0.3559008206055917 0.09091374533226892 -0.4178380508061985 0.4438000922823311 -0.06370897074444826 0.4894274907249859 0.03337033068153683 -0.2264382526232962 -0.127905337295379 0.4827338967164372 
0.05303585517931919 -0.4163526450352396 0.23463504172945282 0.2755784001569067 0.18462111221048594 0.4712822809050039 -0.23229518630124668 0.1719608023359651 0.07629332860169746 0.21020425503204 0.1809777018541504 0.40637201427779446 0.16436276501756397 0.051632817349076765 -0.3287440064208149 0.2059773883994891 -0.17074745112164913 0.32120310038641986 0.18842056150040942 
0.48453384170982483 0.12229689067451466 0.273686322606701 -0.29692860113891884 0.04246114773105847 0.3931101030446059 -0.03092262766258702 0.41741824636858693 -0.47262974238166455 -0.4650356702973063 0.14163754267656115 0.20179977938227645 -0.3045157109930917 0.10955888774841083 -0.35226141979405345 -0.46371875781357785 -0.29322877823788285 0.3127596751483058 0.09886142285657584 
-0.10989984194392088 0.28523915766913377 -0.4006676839271246 -0.2871384101215374 -0.2186997761401822 -0.41927109813555463 -0.2026120618649908 0.24962045246244957 -0.27528626742399176 0.4796705394619707 -0.28779391516721586 0.13645937508632489 -0.10147662213082642 -0.07034608057867198 -0.45570582413215943 -0.4657977864700026 -0.3620457228827796 -0.43370403047664063 -0.07201140219625757 
0.14652850153904395 -0.20078230490803384 -0.4392300446878975 0.03459759664227924 0.03326831138194786 -0.3723518875150691 0.1424952034920799 -0.021968483403064343 -0.4474530740139716 0.011045527881942241 -0.3061316049240439 -0.28893866768798704 -0.17280401212548635 -0.09744473177160984 -0.337449840172349 -0.2932084728124166 -0.1923952427662997 0.25698794737916486 -0.20829600291133932 
-0.017371002111547296 0.08619366225966252 0.04030258479575477 0.3297166909689554 0.44297456284206727 0.10794980706184143 -0.25595427450529695 -0.05168702706954631 0.09205948949588105 0.3169716781266363 0.36486053571060584 0.07160927646194926 0.3997940110360695 0.08072888353981533 -0.006250559708700254 0.1985347090485159 -0.008808807490655934 -0.05825056569657594 5.94525296036208E-4 
-0.41281998196584224 -0.12612636898135743 -0.13929388920585362 0.2965100581950316 0.36201816882768956 -0.38163323947347116 -0.36461978456536026 0.3099222556625417 -0.2964270373089102 0.2623270895941553 -0.39326043699577173 0.12184087336110716 0.28499471826294853 0.2225498083640901 0.09637493736941583 -0.3283916121277817 -0.46886456071392013 0.16754464061135899 -0.2412026299822274 
0.06648244820145799 -0.4069020103358295 -0.37133519361046174 0.17760607092169622 -0.1932725870073354 0.15486708446139874 0.10921893768790703 -0.41370512706458573 0.17246159185946286 0.3185125936419476 -0.41130872649000694 -0.44752698870939345 0.10932653164779715 -0.1494116597303068 -0.3868594272852032 -0.17146654193513922 -0.30288435934014923 0.014732614179952308 -0.3869563023100554 
0.34231010454921884 -0.31118080299134177 0.06410930053926833 -0.30370491620009266 0.4780230424747739 -0.33288667681172035 0.2222111680513711 -0.0732316367242839 0.38081856123648705 0.0811410825785196 -0.3583196916873356 0.01779236047122712 0.007468876801675517 -0.2014964887184586 0.3981824029691785 0.4450881638214783 0.04130363982402474 -0.16430052010734852 0.05000568061094224 
0.21515991412746582 -0.40879577124186905 -0.38517701687930306 -0.3260629556355884 -0.08717293601774934 -0.19750182636969393 0.43514720948422314 -0.425898551236934 0.19553105331535237 0.12185024629485286 -0.1547054332366825 0.05283290243511818 -0.3977550610085484 -0.021246213298938388 0.2550127878441866 -0.2687212188745577 0.40125942437073026 0.07298376665285689 0.4351468573623618 
-0.08767860279392414 0.2138145521459791 0.2903810733941252 -0.4797824760553252 0.38953404348622955 0.31949106876146594 -0.4914048772330496 -0.24991325025200628 -0.07672855381326882 -0.1255285192272284 0.19991994562647064 0.4655113253066695 0.3286268585056712 -0.24477481800220457 -0.2098835922171184 -0.19304395332490332 -0.250127981763387 0.3778685499341542 0.19012135546647013 
0.15685790953321266 0.23212742496087202 -0.3626050584850369 -0.21819804142321242 -0.38739656343314677 0.14339463117044493 0.06116590472088612 0.4094217534913074 -0.31919868695237563 0.34871428678291716 0.37749959584435944 -0.39475789236486447 -0.056996965998079796 0.2930966571279576 -0.037112084688236346 0.36069142353734907 -0.34115567409722436 0.31100395421578475 0.05031911542278589 
0.24379139048908904 0.14465072462150508 -0.45245262365770367 0.15637823191321198 -0.44096195318717213 0.29387057303752717 -0.14980664898188645 -0.0837575442049786 -0.4523071980461213 -0.2097303507350965 -0.13034258763597317 0.40338437002223226 0.33444665835238396 0.40564116141902407 0.3947965570925027 0.05474108373660802 0.44067872957356236 0.27085595725109557 -0.36130693530845803 
-0.4776973113592766 0.20503726682643075 0.16239739738012038 -0.20824284426046757 0.1285185413805474 0.37883056730368836 -0.34390379913213587 -0.33744323953926214 0.11561558146879836 0.49672142734476055 0.4656006053493328 -0.36178284426771945 -0.45213224897111093 0.3624776750851507 0.4051874935354518 -0.48638508982323503 -0.4489485319663665 0.1350389712121326 0.19484055973317826 
-0.03777601632695937 -0.4452332015199979 0.051917098745879464 -0.2399081441397164 -0.4486456332110209 0.3409995165401789 -0.21504382517532206 -0.23005659531389777 0.24065667329020912 -0.003754931084139046 -0.21226453160770065 -0.09674423971293666 0.2451486464320295 0.31470970775201 -0.23559336127991193 -0.2626892402076342 -0.007347379522823716 -0.19344959387508576 -0.4334858306477688 
0.2118263358176743 -0.3395845247873427 0.22780997052297436 0.40735598760706904 0.33752083424103674 0.4368159785771234 0.467648908334546 0.2726989728631728 0.19039544467086744 0.22144644038553163 -0.2963284876220291 -0.1978281513484571 0.26122313575974165 -0.04951082552572794 -0.032411603492853436 -0.282584354749274 -0.08569724292495862 0.11419049656221081 -0.3488466767451206 
0.08108021139449706 0.0503578576586462 0.31936841882981126 0.02625711621974003 0.28501234281149745 0.06552917762912847 -0.057727917055185984 -0.4467424355981572 -0.31351051498206794 -0.1482688646304512 0.015745026299172737 -0.3919316262949438 0.23811060171788356 -0.10678813881739968 0.49952568418487975 0.2712266640797276 0.28996345319135663 0.479977650712326 -0.006346782096792181 
-0.008896997549877494 -0.018054351797321733 -0.3191878655832958 -0.2276726103066835 0.25861372030525576 0.2896243900612159 -0.0030584258920606233 -0.2607939350722589 -0.08775957201450935 -0.1612223479235989 -0.4480326698900551 -0.46499469364633306 0.329857084438698 0.06176769407789495 0.2645072857173387 -0.43559944800214134 -0.4421901676196026 0.13315498411141136 -0.30294182935511094 
0.15160981904884485 0.3778909121161378 0.3924691169581672 0.1779110221876644 0.3826731877334102 0.4192925064519437 -0.36118930943622796 0.3525224916724702 0.44732481634608745 -0.3146777948470947 -0.23503413747865576 -0.46343529627943225 0.45448743120472246 0.28360679434604374 -0.3120263299499776 0.11494703934841755 -0.23719852075268966 -0.27629359341032467 0.428593072281252 
-0.24057669578910867 -0.15876601738460427 -0.12249321444654926 0.49387560958763277 0.4219681693108913 -0.44530454022303545 -0.41454799454739855 0.42505644354106764 -0.09807312239050514 -0.44427471161243415 -0.06437396764125647 0.48723484464133315 0.2820129796482712 0.15568921867793672 0.442886161244917 -0.0021771976530553516 -0.3184515234014007 -0.35243426624040153 -0.2883024851591952 
-0.2825013604316552 -0.4150880779069829 -0.4427199117827286 -0.320988098401077 0.06040941430036584 0.46897939710840086 -0.2883216559196251 0.2024811090709343 -0.38037493924471344 -0.42458558376003086 0.32861609014257664 -0.4155113874668508 -0.35064644988865323 0.45198276869648946 -0.4417303607265102 -0.3960700629106808 -0.30281447094214675 0.3216383545628133 0.03466011204379482 
-0.23463302175936196 -0.46235650132563944 0.42894700627521065 0.032513634018875526 -0.23087342136547684 -0.07743051539364221 0.2604850602799832 -0.23303599722537627 -0.3438905583473746 0.43439213476717564 -0.06082998345136548 0.22223633755252692 -0.31247939483689613 -0.09492765255421776 0.15205080191055986 -0.34966614671005947 -0.21757236672378866 0.4465345694306031 -0.3130942732016646 
-0.4581179637955116 0.25499878121246866 0.1276480357100772 0.025066121097637284 0.4386675839692611 -0.33153207849332045 -0.2716690769258787 0.4662041795569336 0.4310425412124208 -0.1456812098529502 -0.19689272304658334 -0.054605780899252276 -0.436753872865673 -0.4671236543514531 0.49445538428692226 0.043576008299963775 -0.34416935232199286 -0.4845618651852853 0.15054295198640666 
-0.3103801552006742 0.246759482293046 0.16827422640703116 -0.17754675740013726 -0.29448672469750137 0.45137909896222506 -0.32473071377967244 0.14276375899402072 -0.3442405993824127 -0.45365107463270193 -0.3513242923665628 -0.07965350061568166 0.4278971664161273 -0.006253645459192603 -0.1936076641373915 0.025517474536161266 -0.40687565748785026 0.4389465972827682 -0.24062176648649192 
-0.2148300387997405 -0.12567561764831336 -0.060489805154400056 0.43425639620456025 0.15928489804194446 -0.01663172994219475 0.31219355201264154 0.2938577737757849 0.428218516637098 -0.3196168838958837 0.02133073678461772 0.3124010719788308 -0.015574027534554502 0.15474956670593776 0.4742178992352558 -0.387800668277555 0.09278724018929996 -0.2690899834794208 -0.06223617358871558 
-0.2247708351581006 0.16045911555993764 0.46164055994569697 -0.4544461390727743 0.10559459981372554 0.14018541909108706 0.3872593629243468 0.025606166368820404 -0.4621381180756112 0.18025512777849084 0.11131456225352465 -0.1535167198054158 0.46143764778569185 -0.4701943674378404 -0.12838433546892525 0.4530535245598718 0.4626078523524204 0.009926942225962687 0.4700418147152087 
0.143080796544231 -0.12644996135412245 0.06902941897301862 0.26538114053796735 -0.0780469089052962 0.061577214836737504 -0.44480360359426685 -0.06947394071549096 0.36524372670933003 -0.40793345190079866 -0.14124957058617726 -0.17133123436876563 0.11743135231979396 -0.24502825487161406 0.0050192837356330955 -0.3272876035159168 0.15998823030939546 0.4575128305946221 -0.3897032403624512 
-0.40206701500715036 0.3931787054423391 0.15458286013238098 0.35324994653280695 -0.10000180823434335 0.3932927324034854 0.313606214995518 -0.24046679760079914 0.4687685674851778 0.4306721154972871 -0.1079719125014581 -0.3508732794039776 0.3828779481054875 -0.03623001894843603 0.44331086130554287 -0.4460749399922306 0.22090935091719177 -0.13938317789443022 -0.23874239348707593 
-0.22264058887121896 0.3920535876771065 -0.4585510123860662 0.4226786328162975 -0.46165536090770076 0.1924577280504567 0.08488883735440378 0.1948623208269581 -0.18139986751651416 0.3530411272326045 0.09494807144160788 0.037006758646379145 0.11540162781451047 -0.43962338020197833 -0.21274109302779198 0.3437139885135423 0.29107844560085716 -0.19569447468942336 0.3203202641381022 
0.1538437527968548 0.10607864889268581 0.4342746874168494 -0.12882045053086466 0.27946962249583507 -0.17581734538392213 0.4909543208235475 0.33485231739726085 -0.3026253278566996 0.48645324082333263 0.22051629917892435 -0.18708356598836706 0.08947047077115833 0.06476792083437677 -0.32397836002269276 0.24909859194933626 0.11871697832377714 -0.2737124169829267 -0.03631242298362303 
-0.3316948619926757 -0.11643236698643356 -0.1330272499262748 0.0013739584847871633 0.4804310790705175 0.0066583616143709445 0.40526704587192197 -0.3775505201677809 0.22141459732269164 -0.01759513115335154 0.06632496606277372 0.48026850312290814 -0.07861332427406464 -0.2666322604024025 0.032668948555622634 0.4868094054342207 0.013398714792943522 -0.19330953189439315 0.38891861413299444 
0.4535958509583836 0.32609331497862704 0.2796104832414983 0.2462427917847244 0.1938425881584892 0.23981703016461675 0.23698887994120954 0.2964427961344469 -0.4081622183457341 -0.47194439665208954 -0.3660004772210166 -0.18391688259593086 0.04889424514905838 -0.24529400091331843 0.46356388912827273 -0.182156171339932 0.2747718294245066 0.3525819020257779 0.41081311033376544 
0.12927626950494842 -0.39070573754989 -0.3303180294447854 -0.40419600082163176 -0.33159796901828964 -0.06904652171038772 0.33713364519579025 -0.4190890114600123 0.08110243985360321 -0.2623850955094422 0.28635711985476664 -0.4492381074242012 0.20700419950670101 0.1690076632675025 -0.3771218605409128 0.46027964524434173 -0.45142600330315896 -0.4184963117050966 0.3503496573694864 
-0.009661364812882711 0.032393231620338137 -0.2172395757048945 -0.3692734608677545 0.35073847059300645 -0.12790843832716914 0.1871217644390638 -0.1348304818469359 0.32664438340452195 0.2691759333713548 -0.03775778094739635 0.3851375634187659 0.47733774246135985 0.020999124466493546 -0.2967800613654994 -0.04573918462234727 0.06506644733792111 -0.15562941437552114 0.29259409166315253 
-0.4010311039119163 0.1169796083282848 0.3688190415393595 0.3828828175203788 -0.4905177747020715 0.004576222746837333 0.3052750274656334 0.3729078532627007 -0.11734302477508962 0.06279369735817808 0.253948767366854 -0.16002719723484582 -0.3856933460943268 0.06480604619262231 -0.020562967350416628 0.1370316427760827 -0.3089932066921611 -0.18120175978016095 -0.24839991744350265 
0.26730505035667007 -0.01997865453954173 -0.24057256605191213 -0.47249215036571623 0.20837203134459714 -0.12912727934617574 0.16937802493154297 0.33276228730036883 -0.42641538000674195 -0.11679016477412008 -0.41463823340439565 0.1897603904190891 -0.129275909104695 -0.07698827338169001 0.018110684659666365 0.33597065352654476 -0.35386295678636526 0.3427967352335699 -0.15264527661141958 
0.2770530951932738 0.48716028482345464 0.34139024255561323 -0.35952782362641034 0.42766111991512 0.19646361713447758 -0.47506308813337705 -0.312554181119983 -0.2929790196362363 0.44900998125788116 -0.3567742049398219 -0.2550469121547231 0.4768928584196497 -0.10434726561014551 -0.38596997826707435 0.33886415962853655 -0.36372514028437286 -0.013039679779085711 -0.046955100637529945 
-0.012883315949676954 -0.4797803854967636 -0.24332170462892777 -0.3618580875340375 -0.12611830847080752 0.4893902984282883 0.4263100488881296 0.2540381253332834 -0.16886981110216503 -0.2575086024239679 -0.02938337488017373 -0.012886137625835348 -0.034844713452541254 -0.06453292636582542 -0.2815925786620749 -0.3300060324687344 -0.09669958548838564 -0.3506326432118434 -0.3461868429599456 
-0.3883588120718817 0.4300887531391895 -0.38695893367879 0.3303033225108407 0.39109246900033545 0.2321451073301386 -0.14267846957648866 0.21303000030757258 0.14160233456773064 -0.42225375420518085 -0.34587090250445407 -0.17534887744946126 0.106839969481475 0.01953114559954905 0.17692246051068106 0.28560570529695894 0.41191954023441524 -0.3721519239657939 0.30818852164723076 
-0.2881156756111881 0.059426188515895206 -0.16258927344085639 -0.0848319892808852 0.4616585748727643 0.13423273100277644 -0.27861963696251313 0.21677260452527258 0.40670313076692755 0.08078511096160323 0.39468734099525793 -0.42734355378799516 0.24536458999535327 -0.2973325076523031 0.29234963799705427 0.13966286496544578 0.37090165665734864 0.22664043091495234 0.26874193585555206 
0.3613754786025042 -0.03765866525864103 0.3719785593544701 -0.17978616707455575 0.18325978775690377 -0.22543363061424415 -0.12918271767047362 0.24615129356758392 0.21888999940857268 -0.42983086924991354 0.2963500344863308 0.23252061154205317 -0.1679869350607901 0.25767772828657043 0.3731014370070326 0.1671294236344616 0.24471006359206304 -0.42091939026634473 0.16713367935947765 
0.47728471884263 0.3336726458559769 -0.3758544906656446 -0.31607314366305406 0.41822334695094077 -0.265379684036086 -0.46015001378372067 0.43780631777658663 0.034635061105305676 0.23914183531311362 -0.44969016126164096 0.49917333625312565 0.4677945676016594 0.23875210166609495 -0.19408661419965334 0.3744278529311037 0.38726325999232847 0.1477136680138066 -0.36006145239755283 
-0.17164486076527374 0.08881744122152513 0.3191794758639128 -0.47324882925026934 0.41988088387925016 -0.28079530202492775 -0.04152808962305843 0.40775243205343426 0.08948201754349783 0.16352563782239649 -0.0671796386900948 0.07956396836528168 -0.38982652365390824 0.3624832697502668 0.17863773164657992 0.0235096940417322 0.09387387170208539 0.2144380348259447 -0.3845758342295218 
0.3962732172830643 0.031085961203899393 -0.23884883765118303 0.08964358166370945 -0.10131944137853977 -0.46578973785909317 0.05629521585509656 -0.10757282496826182 -0.10712224909422918 -0.44655651294749654 -0.027745039438450747 -0.17828477964966427 0.4477435738819323 -0.16090401923468278 0.21343797807916864 -0.40754337630625515 -0.0418023571201902 0.335295058678839 -0.026740785881261497 
-0.3622566009757683 -0.39386526910130226 -0.492575838859041 -0.0028411327970984113 -0.010734815847274093 0.2090363495407631 -0.17071929413100162 0.2954588601052982 -0.02277364533875126 -0.06311938069659151 0.28581772426707386 0.38755804603695754 -0.052123216568936814 -0.031207305385326345 0.28346786452727457 -0.24708848961138075 0.06106423724389598 0.4079469570063634 -0.19756911549516543 
0.11443508943479486 -0.4992749364285025 -0.3234461422422704 -0.026061780305257964 0.2864211540031322 0.10798696658921769 0.17233368731926246 -0.47960819679688327 -0.41825269627167383 -0.47043415025922475 0.18370029382361563 -0.3425936766101443 0.19210436622496463 0.46339652703596845 -0.06705208504320459 0.12416743658593321 -0.46983351617776015 0.4789446511865443 0.14505454165322218 
-0.01784885999393171 0.2540701048941909 0.19140521873585536 -0.2757140438790159 -0.2978678800706309 -0.4177350480514487 0.27700083486420146 -0.03839573931988349 -0.15445805605234642 -0.44925510647679645 -0.06914923782986093 0.19295558788238898 0.3386209420428202 0.0648622175465573 -0.11061079369514237 -0.01816837449018205 -0.06356041932229395 -0.04562619135297141 0.06606985659275011 
-0.29092989266177505 -0.02125064477517613 -0.24693648794830725 0.18210067479402547 -0.08132029266107188 -0.04924549159107516 -0.40677056396743516 -0.48678873961543545 -0.1094550048111459 -0.32071999234693904 0.4305216200148503 0.018963028004837956 -0.3108126162237128 0.21844290728263127 -0.20394077934684962 -0.3271304306630969 0.37232875695979684 -0.3911817938740849 0.4104529399606952 
-0.2303967527137557 0.13382389021994912 -0.2697781365153018 0.2883031142751131 0.34982120043315146 -0.09740082390501337 0.4106174058970997 0.4119392336594414 -0.3463477230087174 0.3225544574945979 -0.19771480918467865 -0.34038765955651706 -0.3093564291179487 0.09795599335486171 -0.2087244530751271 0.4360463324967443 -0.40302604528264374 0.4046680371444876 -0.13269905068462562 
0.37220071132694343 0.43999883841053034 0.43964155221882495 0.4486040132569601 -0.4637090756599477 -0.4743010065081269 0.20939850693246675 0.12997193289363607 -0.1704402442065448 0.06636354274690603 0.3428204172750863 -0.2980499874790371 -0.37201330296334667 0.27384538749904774 0.054370618710488094 0.07544032711866155 0.27506881750514844 -0.44201494018308407 0.38094939353870694 
0.43825392127337814 -0.26899871768327854 -0.46969347273800366 0.46890193965113447 0.06881805498874549 -0.4599685952443423 -0.060153277326527865 -0.0027308302523008088 0.23712275825544937 0.2904549260593139 -0.49901176058626706 -0.2108081521601144 -0.4658763830370213 -0.08933083309466772 -0.18757788909934225 0.28544861869722915 -0.21179910827527515 0.46989239574984876 0.21187599971829263 
-0.16757086130853982 0.4509071442325219 -0.3663954965339832 0.4630003848646055 -0.32858658275397046 -0.03588044730752482 -0.4385407775496325 -0.37118647297498897 0.1068492957393784 0.15684447896567733 -0.17063670755045945 0.3503635912348706 -0.42161021191292536 0.16230601436668357 -0.0923863087464375 0.019774178180538393 0.2647726767882739 -0.3054180814505033 -0.166571144209679 
0.013597331861198936 0.4071949588613972 -0.22106596801749423 -0.021094419315670132 0.2354060461078139 -0.24434504044925498 0.19111259402369885 0.23437837278473816 -0.29418419561431 0.4138054014774193 -0.07170338061325121 -0.49764680832030506 -0.16636745384497276 -0.11381902890159745 0.007965918563958563 0.1286332691396168 0.3035828823467359 0.3162341268397132 -0.2291176979271502 
-0.21505035574087006 0.22408905764766607 -0.25556661319006435 -0.34950887163559496 0.3613543380870584 0.29281011649486755 -0.2872515668743093 0.06343645202412551 -0.3731701143414361 0.25817763671467553 -0.30483288232795 -0.32548346195909494 -0.22698658826939855 -0.11808699529807665 -0.3565409971654736 -0.20571140180738479 0.4686296637115849 -0.05947974443688109 0.4032211919910631 
0.07866525723348916 -0.2788277130741109 -0.4569931184297521 -0.12268791797706136 0.017227087003288344 -0.33243254523428023 0.1875925619206249 -0.40790107198072856 -0.07939077850250753 0.3970006568055964 -0.46807638133885476 -0.2434843257949605 0.2472024560975168 0.046780964995740804 -0.19068114031083183 -0.005252206228059664 0.1455421127984159 -0.2939360018790431 0.1878303001847783 
-0.31956913606731374 0.031140590231780396 0.11244917205014149 0.139409864945215 0.20357033913489742 -0.13484701455282355 -0.26708748269087157 0.06323131093989776 -0.4390399555508476 -0.4428530296085602 -0.4167686454706234 -0.009775741295252605 0.3766972761636175 -0.42461828331686513 0.05900297717666658 0.18513482998224084 -0.1685372304482189 0.41538340541051044 0.12655412838607627 
-0.14206438706006352 0.007553966013907121 0.05123709191319026 0.453483948314803 -0.0018347661347939415 -0.15876934612085014 -0.12610173341536846 0.44627800480105084 -0.44621446009737364 0.21475170878004357 -0.09304043976425824 -0.2936236258079792 -0.2095974555073229 -0.28244713122714493 0.28269159221641804 0.11627455568052303 -0.3127953215056971 0.2593349233171228 0.05980906047587531 
-0.37631978989353765 -0.3472698651450409 0.027402830915000398 0.4692963880541966 -0.1955545296395933 -0.3234175056024218 0.24641556116940577 -0.41423999448536053 0.45393857045824504 0.2724719990510518 -0.17922189972192615 0.2391571701883476 -0.21828531347938507 0.21346732144434877 0.21822595344012796 -0.29461613760832905 0.2657908225270539 0.11210085202229014 -0.11227592286228238 
0.3440872775319289 -0.13947494974142916 0.3559778221013369 0.09562139747165865 -0.11179872559699766 0.046045562026188036 -0.22620179106161753 0.3110732390135936 -0.46791415601238706 0.15737053186271222 -0.3227929513209876 0.175063689622054 0.3137844532459573 -0.4621951584367959 -0.39935213387693125 -0.3530692170396692 -0.4582039159125192 0.3238952957729696 0.1444005588160846 
0.13811688865514904 0.17789146705799752 0.0881710119614264 -0.1847561186936325 0.3149382278092413 0.15488584926293192 0.14109110575442663 -0.3453103896166273 -0.2195136106296356 -0.4180865570259267 0.02506727190098612 -0.2535057260750455 0.03034605784963018 -0.3303682714483578 -0.37887616522008205 0.4031608223040165 -0.08236702903101945 -0.006084010325626332 0.3327032783830791 
-0.054598046960423474 0.3599266570765809 0.4089881798900511 0.011320895923902619 -0.49095657670861714 0.17399257940809099 -0.4804438508803285 -0.35478306417215555 0.2406038328207235 -0.26624107903215577 0.12642263052218372 0.3448504010162704 -0.4242043536350134 -0.3871666333220435 0.47115608608861415 -0.17197617193173542 0.03444941220346043 0.49491557884987936 0.422797995420386 
0.432623513181129 0.11087104096848988 0.4137813050475161 -0.026785272143396432 -0.33359465600473825 0.39040038215967376 -0.18091530422794333 -0.4624161720797394 0.44095120979116653 -0.019053657493512732 0.0550452659144246 -0.4073612958083488 0.430866819555362 -0.2874678725933 -0.4138435012922178 0.12767727579389998 0.4494866164888285 0.32839203620258983 -0.29262660460556367 
0.23197373295162493 0.3387970076264215 0.06791852953839828 -0.4641933392745715 -0.10288478657410371 -0.36601558062245043 -0.3752332142910638 -0.20322871859426817 -0.22608231030043746 0.18196001220827074 0.45268133327840543 0.2891076424332434 0.19095868606332145 -0.031591863945331644 -0.21288292056351743 -0.05698597994551202 0.21539679719411564 -0.3606490387991299 -0.44751456931242606 
0.06819891886732155 -0.08336894084410029 -0.40908297173925356 -0.4671367424143803 -0.2690173611756119 0.2794859869072822 0.044946829878313 -0.2017390400531206 0.1960475644669375 0.4059908820976953 0.2282636081802759 0.39905322069240334 0.02185664910024343 -0.25654533273918656 -0.370116616142533 -0.23206601667026894 -0.29166941690012926 0.08142092644176291 0.3231328729679819 
0.10176522853910508 -0.23880627057919324 -0.02878059478112671 -0.4914102196705429 0.2349464994239424 -0.3405301924184905 0.039214728274048594 -0.24104502795565264 0.16144051654966673 0.49092799161598466 0.388484361047562 -0.07158824090011928 0.4143472785458112 -0.045148834567703244 -0.0864584788767152 0.32672197234798717 -0.030072272885368956 0.022317749267141473 -0.11114869674615158 
-0.4477449409364941 0.20723493950824035 -0.20874099134256552 -0.3657288352353528 0.32834047824256263 -0.2749802585949013 -0.023125573089783802 0.4091796933372345 -0.20622004559356177 0.49433409358367575 0.03755725213934569 -0.05805982763924511 -0.03894896796381264 -0.09173533674887158 0.15230362627789495 0.16247885363121195 0.4746784195016388 -0.22051386971401565 0.13764815998784286 
-0.2268599982864724 0.3774457612383685 0.23183165240283599 -0.07951042178137357 0.26661296863815476 0.323564898747165 -0.2661641492083404 0.3677403530751461 -0.12039078774062062 -0.4343846748276937 0.2302135748164469 0.11455436166717003 -0.24289971506580443 0.08601228717056442 0.4414951436448675 -0.4700429217336225 0.2943101096888806 0.443956455704243 -0.07745291467282567 
0.11202312575504891 0.22228798275404882 0.2652640905982123 0.3974648117091715 0.4143160965058379 -0.49222811039470016 -0.18482835610341775 0.22133161116227307 0.07112636115946791 -0.45081644465889625 -0.23684590445845788 -0.44140383030645647 -0.3888877175762441 0.4679808201467709 0.0739916787506043 0.013328693571751704 -0.47272910363667653 -0.4817756892662155 -0.05923517692723712 
-0.0016266799501746254 -0.49426541680354186 -0.23290066657453412 -0.1868472536923098 0.08842261213770941 -0.19328974485706452 0.23526612264614166 -0.13164398511437325 -0.03370253420107505 -0.46205205496308654 -0.37170535233509583 -0.27784086944899355 0.34222372668803636 -0.035553747878199315 -0.3609273497670993 -0.21590568594486859 0.4026545927660041 0.05767210091775876 -0.44404111325367135 
0.4233627996934708 -0.07180427785423216 0.2033927383784827 -0.42741383915248576 0.031115664363203344 0.20944763391278765 0.35928814827872424 -0.23739882251575384 0.13989116516310862 0.28508806457995817 -0.0181673636605425 0.1562616449700195 -0.007548819077687008 -0.17172551449985196 -0.27349600179271805 -0.2643063608120011 0.3399542149152359 0.21545490594342953 0.26619991355250894 
0.4517447986197025 -0.2066516338586437 -0.07406693027451483 -0.4301895183387967 -0.4422478443886013 -0.2479376990680041 0.441041559498748 -0.3637826410999888 -0.3458241469979838 -0.20948173269643844 0.23853467200702427 -0.011441230461244456 -0.1570668043532245 0.3956857601869441 0.3108200441881017 0.19942165438550008 0.30139981925417114 0.11784044235017399 -0.1250931853852263 
0.3396907953076752 0.4034280571532144 -0.47811217970143627 -0.4125453514149199 -0.4778931927814537 0.23836497157665404 -0.19194346869464496 -0.36993297851985973 -0.3548464171321919 0.008935748121266962 -0.39153826181759377 0.48797907973925336 0.033717398078428995 0.32499044208889816 0.2599838603517922 0.10954853471826442 -0.07997082419086543 -0.14750438120641174 -0.19589626531555182 
0.4044661251998114 -0.3882772971689564 0.12578429621094311 0.0707803900825178 -0.28464069955782945 -0.2465891751290905 -0.41403867597776145 0.4661527107582628 -0.01952858411909808 0.3040030318208319 0.06949346109820886 -0.49720790033769346 -0.20564427601294843 -0.2759427137741709 0.03839683460132626 -0.3135719377005626 0.46903221060434586 0.39577966438713363 -0.1829335338507121 
0.1045141705782131 0.49981193842907556 0.4828560140548238 -0.019323602769302117 -0.05030284710545918 -0.45199732177633734 0.2781191788343663 -0.17378938601695793 0.25519724797713517 0.16696631748503166 -0.41587317563509363 -0.4504309350081961 0.31930308359523774 0.018506903638885297 -0.17495587079986363 0.3508244440473576 -0.34737016220384065 0.25332620764520275 0.39779701468135187 
0.1945895862327376 -0.20551537555134114 0.06229065402184508 0.23628059337920615 0.36358712960758743 0.013628408256217361 0.14451232005313985 -0.3155206249943936 0.2608964749092507 -0.2660808668408611 -0.016246428854339467 -0.447325597613609 0.13998572243110075 -0.49323397704318794 0.3764236750283356 -0.3345156347571546 -0.4284811806892542 0.49002000523746425 -0.387557509138018 
0.3013069254935954 0.4920616549479667 -0.31312872469198283 0.07450493462624641 -0.3302026046983222 -0.37780722112208087 -0.3514804519320308 -0.20821228791807922 -0.022658039746255243 -0.10984217601387203 -0.04917177512236004 -0.3391032446386606 -0.30994700284002286 0.25208946760208395 -0.4821309308812175 -0.3701369719370775 0.3196346393997229 -0.039052714118520515 -0.2157909318631529 
0.1302508102230978 0.4295364898232117 -0.0962850423539875 -0.23701323474824276 0.4379510517848705 -0.41286593990673515 0.1000250286222385 0.31827037084201304 0.44499061129956186 -0.3277549468708779 -0.16473596537890012 0.3278853002149338 -0.4673052698259347 0.29311028674159467 0.187343977487894 -0.03315542781564851 -0.14920058294011207 0.05803889328150624 -0.1012913159701514 
0.04170982863742434 0.32761691423449246 0.1042376191212715 -0.35622362053284673 0.16265747618637771 0.16311633325876418 -0.405085889406844 -0.2530971565490705 -0.4472820114688827 0.38978842535960945 -0.1384351112142561 0.3170821177959465 0.4626035373343106 0.32542201817403293 0.4904283472014763 -0.41701551806779724 0.48473303040102367 0.387426715852062 -0.06959574918701861 
-0.0644351737715747 -0.4584903068216334 -0.20990475729861047 0.13431056446651002 -0.1846438388106545 -0.039398581295850055 0.10420558627630117 0.33616973305858233 0.11769736183259627 -0.1560806353744616 -0.4773785298516491 0.3142860650678039 0.23152560946204848 -0.11281414230812004 -0.05394217329648532 0.3931966299911175 0.17599776669384615 -0.08657242217751404 -0.3200653459027044 
-0.0028517638302931747 -0.44591260442979974 -0.353574468138831 -0.3837482563372566 -0.21642672105340965 0.20343682283258424 -0.3309011492951234 0.26367367995009194 0.2571079722093449 0.4921268391412511 0.08699417777340468 -0.11547731265104444 0.29301608981193583 0.1806588299081574 0.14849850753815652 0.2991346261723743 0.18345232073208895 -0.3486722860622462 -0.038912259786666126 
-0.37395875129289335 -0.3391805967726579 0.09229633003565307 0.4868693998022179 0.34069993557385503 -0.15045669762182146 -0.08393533581056567 0.20087265413000666 -0.4440009751238795 0.2509113686922826 0.29066068495922914 0.1519845104804297 0.3545261271281518 -0.3248114994006167 0.16676180890240344 -0.32087408326373257 0.3355931830275638 -0.4989531858319862 -0.40491095635593044 
-0.2957926320485692 0.2792707586889046 -0.23558567994470037 0.4457987148201845 0.3485984307929999 -0.024808496606086528 0.3571688275526491 -0.1347705211292658 -0.39870885857507254 -0.18435949792633866 0.05067339750945676 -0.06475506266231523 -0.09536731340289129 -0.28954150177816385 0.14996983535705 0.036545359885226225 -0.18255233388294356 0.24554095891592143 0.3315173845497934 
0.35970445160381714 0.3655660774349292 -0.22277548158662053 -0.3793162277022273 -0.14367984890732333 0.2962179034059088 0.3316100266027495 -0.47523379402592913 -0.3224488045343574 0.21545110228456243 -0.23912144365079613 0.053140328300990136 -0.19155602048054865 -0.49332531071799657 -0.4020842667290061 -0.27179478566954074 0.17383700923683554 0.003623772880570475 0.4460663213806252 
-0.2808871110146334 -0.034736757012032715 -0.37751044799421307 -0.4574001778117007 -0.08515849908394624 0.31815311198695706 -0.454348662636504 0.3424747956734997 0.09399088044632531 -0.2452257037447808 0.09339428092359625 -0.41675161552844286 0.3457503888427883 7.264663895635293E-4 0.1201907195840275 0.312484288097175 -0.4501916942269617 -0.11855716276340855 -0.3714310247999052 
-0.21422903796998305 0.032543554738016955 0.010032343188988158 0.30628877883369576 -0.02353036657420593 0.4826593405827715 -0.11107011099507635 -0.13851264872383184 -0.32243107950319994 -0.16850987493580394 -0.13479585324881893 0.3556558263248244 -0.17846857211469247 0.081532499332434 0.10300582832305183 0.21575113466783646 -0.30422510598434915 0.0013215901279105546 0.3665218649125096 
0.244443361630588 0.18943871734548012 0.19559444085763833 -0.057066412632206465 -0.2585557521400551 0.07134410909724631 0.3067523511492529 0.4772603908564176 -0.20094234832758284 -0.4304356355336256 0.0069547237334453005 -0.16039761745395087 -0.05846168556361531 0.19977906903693465 -2.5345770387619204E-4 0.40017905788010566 -0.45945992178729933 -0.12740563046243225 0.46594282577626067 
0.24869331312782483 -0.1421192351046885 -0.20073121391216664 0.26056295050504275 -0.03806662598919075 0.1420456156697022 -0.3892076957356414 -0.3040714330822969 0.49715763970446836 -0.06370339019430116 0.4070238119131583 -0.06939115364360882 -0.3313095313028094 -0.3560491952031022 0.16060025989908822 -0.17528274277950895 0.45128964399046523 0.4403352477100777 0.014588305665780621 
-0.3808657417469652 0.04622935029413022 -0.17887769162783052 -0.4666426427868743 -0.050449178974123154 0.24467472351489483 0.43319366400244463 -0.10708957252821594 -0.48420229566407935 0.12780741951120766 0.3468773622849972 0.3299173314663514 0.19274606254048265 -0.4457056529505875 -0.40265308120038734 -0.09204769588339967 0.49113489203385685 0.20307406187167754 -0.3518326502718847 
-0.19505387188902257 0.05500151011658427 0.16306894900195068 0.4114177047180787 -0.12237934645518045 0.3169613922304889 0.19131317413416105 -0.4034841657664828 0.21668107454060392 -0.47659616682966055 -0.20287984234499323 0.4538155521997189 -0.22920026034465224 0.08874071598929267 0.2522953359651511 0.4292421824017275 -0.11206741402690801 -0.3588346937550875 0.47603333862016206 
-0.1473222759312941 -0.20073272538357 0.1819489572817924 0.49802116143958464 -0.45449789538635454 -0.34589008137591093 0.4961234259217008 -0.13559798024894476 0.15164226520424773 -0.2967248288497909 0.3244671837906635 -0.08136292935119505 0.07167632653026268 -0.37594797488266707 -0.16496595667209557 0.3629352906451624 0.11098506274703146 -0.21842408152646653 -0.3829668956886231 
-0.11419545339341308 0.34063866751549765 0.4294448986287016 -0.23931085970461197 -0.07259063700300461 0.21365173290125805 0.4666761639697159 -0.41621717025440386 -0.15319560659596765 -0.3205652239596479 0.3886065128642002 0.2188906193696557 -0.14625535429660574 -0.10428396671204376 0.49609835623434395 -0.41508560222898405 0.07265697884762112 0.14990268644492155 0.2604207220171074 
0.2323112133721461 0.017489662544554863 -0.22920450974840412 -0.019567797066801118 0.17350401974188412 -0.4264599852158729 0.13676666318330477 -0.48579863063449313 0.08827401137453983 0.30599278636185745 0.36795602203207267 -0.08104325303868243 0.22850653364037965 -0.45521529811550565 -0.07226470423773335 0.29126779729207186 -0.06251849437739099 0.2315433783264581 0.15263653777672792 
-0.036385431527903855 -0.05402900071865124 -0.043268006743943044 -0.3198647118530431 0.48401299993674574 -0.4892743064787958 -0.03623674593435511 -0.14987531019255074 0.4821193111462406 0.020503120756247273 0.15172978130345627 0.4186121815160234 -0.39175418757013414 -0.08938954040712421 0.26953005779034034 0.3411153030098958 0.220977660289854 -0.4009947837480463 -0.43844742405687553 
-0.04157085133438332 0.3945880575414057 -0.3146828170741449 0.09871339913552557 -0.3511175424057795 0.11920724680294492 -0.16127445310982913 -0.09147530534147341 -0.10110467008737811 0.2747084087723318 -0.35855466108372147 -0.19599443517503268 -0.2124033328620536 0.07353150775010198 0.15164774707482365 -0.49637160906000455 0.08145452842165135 0.18817364485459354 0.10295885455586351 
0.23312735439821852 0.4913182548202376 -0.29416714908525277 0.4672520711356214 -0.49512191684261364 0.1569661594892271 0.38569909193864094 -0.4267303045027232 0.18169085956185382 0.09319834740648247 0.4336454595425182 0.09567917640345214 0.24924186454022512 0.15670905564284776 0.15457896568789498 0.007490062546593901 -0.05499971970470574 0.0744185377383636 0.394468853687193 
0.023328299066808222 0.02139180649086303 0.2116397911203728 -0.3579215829903545 0.15188405741689914 -0.042928259543585146 0.052400583134269096 0.024683343199031316 -0.27707947940683286 -0.12743612917313563 -0.18556331361903722 0.20256807559818557 -0.3424495140349296 -0.24484611107871657 0.22781748102786292 0.3438491518706204 -0.18994122010114645 0.35280924865194574 0.2688605825183016 
-0.05581747005878801 -0.07463212518736628 -0.24197004156941837 -0.44006306092761993 0.24516958037029557 0.12831558982162528 0.2699176806813687 0.22096389640462788 0.40078406695651925 -0.11076727862777913 -0.4036169094712003 0.18982857358788485 0.34290057607409363 0.09487992681499557 -0.16170519231089397 0.41667897938107756 -0.49498725516843 0.19462277588683286 -0.016494408681827166 
-0.1190336174297213 0.17748675705134054 0.38879445358420905 -0.1689259313502195 0.08031710405834758 0.2882042637940003 0.4795160551284755 0.3646340083698386 0.4967572236422696 -0.17079383854271424 0.3138142232079194 -0.4012551847369171 -0.441490488174883 -0.017043418274229172 -0.28530296381391596 -0.16680935863988 -0.2154731642854928 0.24110435818375153 0.4179183001369683 
0.06757782353534458 0.12412134643933559 0.4541268809100558 -0.18951839829276818 0.052213265015702226 -0.01450515745774661 -0.1980006071909146 0.20150548386721512 0.08112938681823167 0.08467019687245791 0.1340398998788055 -0.05310876120019603 0.16925389300244786 0.04026953933831279 -0.009661191804588132 -0.0036946751913411457 -0.3018947023608949 -0.4102198134595554 -0.11231114332953696 
0.33430866645515867 -0.03697167591128636 0.4093941017932693 0.12968993810299112 0.347035655400704 0.30986586547011186 -0.21779701808568175 0.48371041705002726 0.3616452670390893 -0.2899029764535689 -0.22152482487405412 -0.443355264478579 0.47783810166729357 -0.30914656576725674 0.1869369482167399 -0.4030851926589286 0.3390522955464318 -0.4901406283065399 0.16742538565758502 
-0.24807952435147862 -0.3244774029039136 0.3452233306180894 0.48297565383403973 -0.48184769064492705 0.2922065476394353 0.05614191449686101 0.21335076978557188 0.23543742385328525 -0.3283478371302765 -0.23704013651828193 0.0522171076123612 -0.002702531964336452 -0.4847978751103855 0.09366220855634178 -0.3533854936119971 0.2761548756089591 0.35549935631297314 0.4487583128439858 
-0.04993519599251928 -0.10486775814742899 -0.16092058217254535 0.04764933497177859 0.22960817850292148 -0.2825533338167817 0.3999055994297347 -0.1630456873121252 0.1922519826087049 -0.4300907448004887 -0.17697755396920756 -0.4350975416527686 -0.3222382210498298 0.4687975496209189 -0.36792557568476003 0.4557819162624501 -0.49757978574068973 0.1743765541941552 0.3252559664288813 
-0.04543133810245559 0.3323237378937447 0.4646016565651022 0.2313302421982062 -0.04575864679674102 -0.08501631695897627 0.28904501768384716 0.16067358591051473 -0.2330788705638529 -0.3955577757344987 0.14084411007676545 0.08587350153492512 -0.14514189754610596 -0.12218964169860291 -0.4325203465081531 -0.19777207566523136 -0.0015808340195303527 0.4600790363010073 -0.2695526408236354 
-0.10943612083705634 0.1456142083436558 -0.25074873047062096 0.31939616267577 0.3331144589135051 -0.3386687455865439 0.4652870723380651 -0.07193677268882381 -0.18223763751425903 0.07433323283753746 -0.16595076527986785 0.20734380066732228 0.10677985019503966 -0.29379778474550444 0.1613830622071475 -0.2749080252988386 -0.15673620035916624 -0.24119998281737343 0.35265818797917237 
0.4827559851202291 -0.17821358212898164 -0.46455402754794006 -0.2104535762955938 0.4657097666482337 0.059350976788387744 0.4758967577258567 -0.011495580246025039 0.4371499401057751 -0.0314363514077074 -0.40365505990269535 -0.3656243809973142 0.4246856455958955 -0.4429984761987129 -0.2569638555558914 -0.09227902769932594 -0.005743777014171503 -0.14492164813822617 -0.20826239997385643 
-0.4940666104187337 0.4577692425619514 -0.2907210466371013 -0.4448265977622785 0.39588637711412666 -0.38114000270253046 -0.3315457208651691 -0.30332494575893987 0.12981192415480147 -0.474569413498412 -0.06206111111567636 0.39067796117667253 -0.4937008517076752 -0.031865169076127464 0.27957299355856535 -0.18067172141764465 0.46474928602811116 0.14073332917991088 0.2952821364246607 
-0.15065357561287074 0.3643190024965882 -0.038749675907982284 -0.25231329137701874 0.39442701804228764 0.21732843002877766 0.04212223002116822 0.4432852611453022 0.03583770132866726 0.0223064206441963 0.19303514368400398 -0.2679254074172611 0.4475116403698741 0.07329000878433323 -0.3580931630880556 -0.13795943064905192 0.05181204220508184 0.00969142513734611 -0.13252368608287635 
0.26777405413463595 0.11827934284522279 0.41499002282450803 0.05122181254477598 0.36953613429661447 0.21005461029108674 -0.02729687929013136 -0.3231638314838836 -0.38758238040958815 0.48130572339736133 -0.4554660461404205 -0.26775413536878023 0.28480764015345494 -0.1661346199281054 0.048291088762426604 0.30216840302863035 0.12120719270150204 0.3524231779996575 -0.31788167604341633 
0.07846007974811153 -0.18350713142281594 -0.24500362204241932 -0.13323009240385464 0.46101410341608573 0.3570569257735279 -0.18096273782333205 0.2591109399848208 0.4737270901548227 -0.4911796137949156 -0.12658256492896292 0.3277180746799151 -0.32194069867032227 -0.10706463181052206 0.48266224758850906 0.2754013099447963 -0.36902770197165213 -0.17293636249500288 0.3921918488510274 
-0.45633738918810507 0.20453520787519464 -0.48656090299457455 -0.34804278730773397 -0.2594476510089997 0.26124845979416 0.21449130839828234 -0.40925670566749595 -0.4039194447447667 -0.23785764409857502 -0.227371854439552 -0.025456153707531626 0.4682843029691224 0.37396460913050766 0.2028458877864665 0.2497948826567986 -0.0017514800501744476 0.03727988457221454 0.1151550696861472 
0.2458873253318885 -0.25617718060861283 -0.2409388943881724 0.40838109123788724 0.09126186413603754 0.009471757749283105 0.10136130801565557 0.01771869016375105 0.38352128927250106 -0.3663581372973883 0.45191140758933956 0.4954896790832811 -0.15362050817741313 0.19522375632274247 0.18299796455756756 -0.142126163075865 -0.1951016605269157 -0.042867140131714554 0.23173242332971955 
0.43995289197016985 -0.1846534927228285 -0.12227212027408663 0.4678312722659135 0.4672281857928098 -0.3028525639094113 0.18973139153546315 0.4542841805709502 -0.32615741836042644 0.03176639778582646 0.3715119575222865 -0.1482046774105622 -0.42394231536143423 -0.08298098258527409 -0.18296717775164684 -0.23035951774826857 -0.0558923451443214 0.39516707298383846 0.14846747011876948 
-0.17640918884269996 -0.39362843712972706 -0.49070040585748487 -0.09057238872531703 -0.47418851026077613 -0.03312436741949354 0.384880506639808 0.32694422274609025 -0.09784834874152326 -0.47954157140889264 0.0819767105574637 -0.06321174368172666 -0.09100034455765105 0.2095008752689851 0.21856332683411772 0.1294120002860456 0.3048855149368629 -0.3180555451947148 -0.47356436976065364 
0.09273845521170632 0.12127023670806325 0.3823906414549204 -0.4313600177586788 0.20322031144277053 -0.22753041983437927 -0.06360492296981368 -0.17903090724531967 -0.351963703696511 0.14641752231518534 0.47264029953526787 0.19994935599203245 -0.05101239729860374 -0.27401736782083774 0.3684914048746263 -0.09411873201414156 0.1026022339969529 -0.09519181027229129 0.4015087183621737 
0.1418763430651192 0.25115099841721034 0.18215493898734048 0.4428125836716429 -0.1315328572096709 0.15572348879193465 -0.1520170532260786 -0.3622346869876243 0.2582494340491335 0.25520816354552245 0.10251699699617389 0.4852553459794601 -0.07385124277956878 -0.23603405133855404 0.2937977045499107 0.34894000231143263 0.32828584357552637 0.08618189086993355 0.10222842519864772 
-0.2878779588069411 -0.05395069107156791 -0.19367527317336186 0.05288556187364524 -0.07749285529956007 0.0018650399980647547 -0.34716035746143736 -0.3056316949744081 0.26390833092595334 0.4892866398449257 0.12614492214884765 0.1472207959341476 -0.06096522392207482 0.24241226677505923 -0.06780179181832657 0.49546829647424473 -0.04917806473784947 -0.38173292839892403 -0.030656493765971016 
-0.32843371897701823 -0.07066935911232419 0.12067312819566078 0.37884564236503016 0.0680694774272117 -0.332936583627785 -0.044738993074685984 0.08846372700616945 0.09858532882689142 0.49761570678584033 0.0726606287411592 0.35361106833551803 0.3260845720555584 -0.3190992801304551 -0.269458386337739 0.032093437132729385 -0.4216006799852492 -0.35724289135652576 -0.014944313431524914 
-0.28388585426509005 -0.321253581638803 0.2575679910142008 -0.19163235643396248 0.38917823786980454 0.03337254528075706 0.35959124947077303 -0.27865737783451305 -0.02427511390413928 0.3389242885982411 0.3220207661200062 -0.07090818572555901 0.007761003172245706 0.0989051859927702 -0.14763152497205823 -0.04803939458751427 -0.3545343489510856 0.47158893498023224 0.11857810842632588 
-0.344324171032109 0.4576789950113963 0.21101588986063424 -0.057649346794028 0.4017527483639095 -0.3066139605936513 0.10820804146813601 0.07448333430482168 -0.23710648572630932 0.2567495163474973 0.39149517724718763 -0.4984072603338514 -0.12200646358799117 0.23594241609525346 0.002852886990786563 0.32441432374568824 0.05750308386427849 -0.37002414340819945 -0.4685890974311986 
-0.005060212518573137 -0.30772379680979045 -0.13208714383910602 -0.14420212145906475 -0.39702505076504047 -0.1323300587452092 -0.1786956506544305 0.2237469691552465 0.4622704748179236 0.33954134537485037 0.27337910035056356 -0.41960623305083566 0.46219856481332233 -0.3100787397833882 0.2274639023702404 0.4459565890709565 -0.47698150335904876 -0.4524723250620928 0.012306675478585882 
-0.46100366956131034 0.021095022372804917 -0.2680865491615766 -0.12658051732240805 -0.35678851256683697 0.235002946637904 0.059926614791312116 -0.37274557409461595 -0.07626874319307309 -0.2957275971490656 0.33929396571827053 -0.0010295377912180603 0.013127888243552266 -0.1104008528988647 -0.23347843167974414 0.46474446777024514 -0.2921232216311508 -0.32333536119391126 -0.4550614680335866 
-0.22397474516296434 0.04275109105085506 0.07528104551255255 0.043593412283888244 -0.1441755990934348 -0.15635475500657658 -0.06860350829488004 0.22884512194144813 0.42608355994477454 -0.40142060649537004 -0.40843364009841243 0.4178733490546085 -0.44964766440621473 -0.3678550863033263 0.23781671022968398 -0.3730340057313696 0.257457263330363 0.12040890834733209 0.04539586738975154 
-0.08267569740408709 -0.4504634830792591 0.4413030432651106 0.40673127251661145 0.17725881258907628 0.3917614671574515 -0.2802195752143011 0.2119780701474957 -0.2779677301785264 -0.2687394714022697 0.19753174373642857 -0.4201327817362118 -0.05876153583858024 0.19920670715267508 0.23380951261125815 0.49213026809813787 -0.02151130002329582 -0.08727466999920208 0.3269177511675967 
-0.49940103383370205 0.08931042930240829 -0.28777631279634375 -0.4648187500210146 0.048147741981154346 -0.10945467886392957 0.24493962237560352 0.07171742105505108 -0.027032131516541713 0.18816718222698348 -0.4630481496666109 -0.3509092491378233 0.4502317408334686 0.4503224343033354 0.08358932859779455 0.3579380288807311 -0.03397328806301492 0.27852895856206894 0.032122929938440015 
0.4779106123222434 -0.08449201504838078 0.4223522804725116 -0.2691820419112677 -0.36021317238914263 0.07053993909265932 -0.01849015889661132 -0.22512925188702104 0.1843668971957474 0.4716666391637575 0.44423837447684156 -0.30755118735315323 0.3967690325775798 0.26507118766702276 0.1218906704528917 -0.41700143859173255 -0.46599554803758036 -0.3727447634936403 0.35711222471906257 
0.3451802609010841 0.20921598240472017 0.19848931679224724 -0.39342006672821694 -0.386764756798641 -0.25227686185642184 0.38065552948634607 0.1291686827875661 0.1582854618298163 -0.411975390845167 0.445924107898772 -0.4534561110824228 0.30501126774651255 -0.3348339771361535 -0.3502241243166395 -0.014438814410486112 -0.13565230200354617 -0.015610168562742 0.4452028763040783 
-0.1395128308434399 0.18928623956849056 0.26974103987036335 0.45448990390490707 -0.39206200755550813 0.223562691494547 -0.34468933162173854 0.070799367431712 -0.15143486592818245 -0.16804123809211224 -0.12394300472096753 0.4338534029252217 -0.48309898495411097 0.27613892169258714 0.3106515168295866 0.05232607689137425 0.4744092412099582 0.4313901569096651 -0.4694444588992892 
-0.46987003704626185 6.679478528112126E-4 0.2273275040358086 -0.2824599769841388 -0.30539881792032353 0.34374652482217516 -0.1604268781623237 0.4261200727732708 -0.07834290420280832 0.20321960229352176 0.3596125670388153 -0.312117523092881 -0.39367829117988107 -0.3821052373822623 0.026476737148816487 0.3814430619937268 -0.46341610714756165 0.23521302568334845 -0.38340641013121424 
0.1247782126709508 0.3943735321060221 0.3504142406210434 0.25709896286364176 -0.31406724127538166 -0.27048838838209077 0.4209422709851467 -0.24690905687311682 0.05361415955737692 -0.46918987496238773 -0.014802462911869374 -0.4992420577904574 -0.1390590996712886 -0.04693183209560958 0.04462755477744873 0.19600562584104986 -0.1863792341993642 -0.15046909911384898 0.004278541547585002 
-0.1578468180819046 0.13809229465098516 -0.4935518296977941 0.20931442368923148 0.010464925565548677 -0.16432922483289103 0.3796904737804435 -0.036357996738131004 -0.0862717216700386 -0.29450216695442255 -0.3070506972778563 -0.32833599805744174 -0.38421523636756727 -0.3178983608506799 0.47287024174215886 0.405314773019946 -0.38113422559877996 0.02263200133233434 -0.031463256278736695 
-0.23408446951990503 0.145780206581148 0.2743434095136793 0.4310432971903323 0.3840200102054848 -0.3345537436512398 -0.24534393529897458 -0.08653338530455856 -0.2196974093062789 -0.40204447579036207 0.48413285694900576 0.09236418040019156 -0.40332427978280794 -0.32069801554402677 0.1269686576495429 0.10899961665857294 0.3992042008794936 0.16610465687496556 -0.48590465985146436 
0.08181442888261281 0.3530187079210446 -0.08290282577304797 -0.24923573792984732 0.2512365107919535 0.07431196236834958 0.40085379286178824 -0.2565244340467808 -0.3162645096765875 -0.12436473994309605 -0.1518343976099482 0.22038147593346713 0.0841061181960252 0.4380946595246392 0.09267698550192516 -0.03520142137550153 -0.4567199659948318 -0.33232011185155486 0.12483703554082382 
0.03322202507078553 -0.01646221539934578 0.12284130429736284 0.021916175587227138 0.1872421263249524 -0.3461871814311607 -0.06343681593143835 -0.28921631508359646 -0.3669781382890711 0.27484873959696154 -0.401435650108832 -0.02966317556953002 0.4325017205232564 0.3372929035465243 0.311890350777176 0.186917879617559 -0.3727444965621103 -0.384621606995577 -0.10695637534227398 
-0.36124948433409987 0.19892963325939184 0.1746675802116614 0.34593130392142635 -0.49562765196500547 0.4794549189725197 0.02440027360774355 0.3072929864460249 0.36523569389125143 -0.4802709935744778 0.09331015935529507 -0.4650962347458728 -0.2959058119625918 0.22722427090677055 0.39234316858948226 0.4897303006662628 -0.21151228802165345 -0.2090154510335317 0.06853222250271795 
-0.15064919764598228 0.3725839231284781 0.026731724936162604 -0.44864754053442457 0.4823325709425257 -0.14917036917441473 -0.2046893242197655 0.1462019898913689 0.01189351289738072 -0.1466892674191438 -0.4255405803478427 0.23922314579451032 -0.3979431669404866 -0.21458522798392377 -0.4031012644141282 -0.2565002828018982 0.010640836955765565 0.4833353049084097 -0.2930067539756349 
-0.4612643059716732 0.2708088571453352 -0.01784730187728345 0.23374445721061232 0.4348417966884479 -0.41346302049743766 0.37467145483885245 -0.270366923851151 -0.37557410269760294 0.15723993351951082 -0.1231108333614428 0.38283658356072625 -0.3199957710931731 -0.3170715957485819 -0.49008238212812083 0.27460533626161376 -0.1011798854998428 0.2436540628196846 0.258372097352208 
0.42408848582970804 0.2014774758564556 0.09563105237259606 0.1716898170703618 -0.2603411756361388 -0.14983288835735575 -0.3186942114167204 -0.3624657294900241 -0.42120654846323713 -0.031916913883571874 -0.18822055826353523 -0.024612999897116405 -0.39217507014937547 0.21369776218030379 -0.4526292678727176 -0.4263758228137029 0.048385327190489935 -0.00811590460586431 -0.2242612005808826 
0.024820214525300255 0.19912380368987337 0.26844367277472947 -0.13313041800755332 0.10171628309654368 0.3292854550398928 0.395419972940109 0.07036119021531384 -0.0397632199100767 -0.34500241561036293 0.35164626681928157 -0.4871730653065691 -0.3438680291884286 0.12961732393729397 0.45629763303571513 -0.2481325132022606 -0.08172924529333725 0.20625174401250002 -0.07721245125156206 
-0.15205364256065057 0.13430228004705802 -0.4364297462451069 -0.4138305466558564 -0.17336426551415896 -0.3266491248035339 0.025286248070885087 -0.24072652211220413 0.22108264488315832 -0.004396117649647535 -0.4508068913035481 0.45113009500659573 0.1081778084173004 0.4800972918131313 0.2133973178909938 0.11580151017070617 -0.31820703906068004 -0.4603005677903743 -0.4146005590977667 
-0.30943737331014165 -0.057415031760534196 0.3862383298278955 -0.2760687267880154 -0.07055642825041519 -0.47375254225144237 -0.24108647025763108 0.3339654843717702 -0.05853406626831126 0.04072431987251379 0.03557855989997427 0.2720718322041241 0.4024754789354984 -0.462218572092405 0.40917562325254286 -0.3176981581909527 0.12529411575586957 -0.09453342660517539 0.23054925406526117 
-0.46795831642918073 -0.4550157154390928 0.035369470283978854 0.19406100485703892 0.21278051538266995 0.20433951862723332 -0.4077727816389498 -0.22612723016331782 0.1725001177001988 -0.49071536774561186 0.09330346476356399 0.20646126472365778 0.2543982804677958 -0.13530973941929358 -0.2088984869460594 0.35887188709435125 -0.46908240141362334 -0.2018245130364893 -0.45464460495570014 
0.022415304967202676 -0.057442222309078694 -0.16720598984661517 0.4688752972216985 -0.47204465031362186 -0.022291405900511707 -0.3209315352242794 -0.3632937588708077 0.09163233089995737 -0.037252506292347554 -0.21734138501663391 -0.44080755051497833 -0.031188968700753827 0.27090412001933883 0.386018914306567 0.43692213709427474 0.3192379579360476 -0.09609803121835103 0.04072151046770578 
0.4391601868523164 -0.3321621491412582 0.4521448013216932 -0.05830879632687391 0.377259440467554 -0.016725319517396198 0.3972233643419685 -0.4545813510957445 0.1806738098382069 -0.3096523739476461 0.08477627121049458 -0.31871079114023504 -0.4744207096034243 0.38248799757941665 0.4662457658399016 -0.23151563598031355 -0.18525818504765879 -0.392931719193231 -0.11517220665856964 
-0.18951653505532196 0.462153591513219 -0.14107044662128976 -0.23607665336805395 -0.4449863508840627 0.09709274708561799 -0.16352041213920088 0.04565529443077876 -0.4206338377411446 -0.13035684286444293 0.08990816254363221 -0.3774761945370878 0.08931766024036092 -0.48665487665723095 0.4225125567935635 -0.1929697038080137 -0.09553485652788762 0.20052955383462157 -0.20617951156098202 
0.09210813622058267 0.44360403437051765 -0.4879784897242201 0.017143998825550844 0.06945604555261586 -0.4791516704530028 0.03528183549132469 0.24439225164360823 0.39337812018417806 0.4165131990973392 0.20368809351766148 0.0874172669936728 0.10449165409128214 -0.003650396104664 -0.00546070091055717 0.2378613119741847 0.4606726962955975 -0.3814582353912892 0.014501082541377719 
-0.3835795130489026 -0.33813402966969097 0.18994772423926565 0.318591711140238 0.4076339262338946 -0.4991053928737331 0.011384524634483695 0.03244095426731408 -0.18224634302741438 0.024162271495205667 -0.013670969258809285 0.4774380103247491 0.030945413116522436 -0.25585163569014346 0.35822604539625624 0.034516064508608224 -0.3669842836507189 -0.19014512002149042 0.3886658253783192 
1.8894199385043797 1.701651909990998 2.0046649230441598 -1.7047614106289115 -1.7186874189445034 1.7255802103737887 -1.7018654501906902 1.7103051321252756 0.3587073577608544 
0.5124871838059222 0.4739059282178342 0.5387679580392428 -0.4752475420762328 -0.47555405008287926 0.45337166656060657 -0.46697681896800997 0.4679973312185476 0.22102416184258677 
-1.2258167238395359 -1.1178374116854197 -1.2921195456829406 1.118360813910445 1.1171694653106174 -1.0892982835041771 1.1198222718799857 -1.1241916837234152 -0.3551275388248879 
-1.5417867037722717 -1.3048944717333932 -1.6901205720520736 1.30927470780108 1.3200973300395724 -1.2796401841164764 1.295848320030019 -1.3055265750494072 -0.17534337030437674 
-1.4817117625400984 -1.0666785683499456 -1.7527747868344603 1.0700675129935848 1.0944329007649223 -1.1212836579861591 1.0812837036074006 -1.1004664859803486 -0.024380538606600388 
-0.24253000376662304 -0.18465304988908188 -0.25987556270173895 0.19104172752107348 0.18636280135715513 -0.20032195786048165 0.18582727234357357 -0.19925753121612863 0.11909244876846581 
-0.2972932350530471 -0.2693957939652769 -0.3199878048007812 0.2701654884621578 0.27632274393038697 -0.3011853248410237 0.272839887546723 -0.27568718169136625 -0.3929303433446769 
0.9783218850142262 0.8540435156754281 1.0426467612070391 -0.8557450107923642 -0.8611912129987683 0.8545053483081402 -0.854423587868528 0.8602477443239334 -0.05108165779972451 
1.286466556616622 1.1965358647081898 1.3355145871873009 -1.1979889537988753 -1.2033945287499084 1.2027326197012878 -1.1978554547806046 1.2027554764384187 0.1535978518713631 
3.376354442974007 3.070809349978792 3.5721835986608816 -3.0765501979439405 -3.1023662393212423 3.1046312289280213 -3.070867151454841 3.0854010925339947 0.22966231136848603 
-0.9426469099030076 -0.8632350783006865 -0.9796430605394462 0.8604194815041454 0.8428313105585836 -0.8035990764423637 0.8888372694792189 -0.8975161456500163 -0.048339131126222346 
-1.231487276303661 -1.0786856727192609 -1.3387834069803113 1.0803128923841845 1.091337943070257 -1.1051916282680738 1.086780058510661 -1.0951204397480245 -0.13840856256673806 
-0.9834971092065711 -0.8544936335871491 -1.0703884170824107 0.8568015133411643 0.8644812367369292 -0.8511418989373866 0.8514403343632689 -0.8566815500347917 0.48721941656279366 
0.03290837463506287 -0.03296106183879659 0.08179382900065207 0.03246926278271742 0.028213191294986124 -0.026062142178548655 0.030119741913081657 -0.027487767236547393 -0.484548334608115 
0.09021446148855355 0.06874565632941286 -0.020125814054986858 -0.13211988915760012 -0.19727875847992757 -0.012039984944914685 -0.07649390475624791 -0.05196195978899822 0.30427481447174476 
0.565174726217874 0.44949941974504803 0.6291912437768039 -0.4513378162681545 -0.4580028554923839 0.4515415180008724 -0.447663770723941 0.4523625097295368 0.08166614596196908 
0.181387912795288 0.10610915834676375 0.22674065578267738 -0.10859427996022677 -0.12073492571960924 0.14243602856275167 -0.10260152026541944 0.10649994956236443 0.40190528042142115 
0.08041745297608428 0.07445974396753201 0.08547124600659327 -0.07527912794313028 -0.07721634741272737 0.06994783869304726 -0.07530693015969404 0.07055397763747251 -0.41250224205806096 
2.009907060029934 -0.09758100414003179 
1.4361399514109323 0.13236544162898656 
1.8653268682422117 0.14545735884206457 
2.1018995326795253 0.44086053979965256 
2.247290630379466 -0.1805397086374526 
1.6718543810791702 0.3620309215499886 
1.5571902754362328 -0.38401458194326454 
2.0779286143094247 -0.3859931918965397 

