-0.030454639080850443 0.37044661210870433 -0.19957978936419585 -0.30418961572916836 0.27194462833316835 0.32671661371714433 0.046950519425894566 0.17875581922218586 -0.19675830600549016 0.18321233443329443 0.11829975516936209 0.2842322150676798 -0.21320358430730846 0.4584461528172601 0.3247267086098671 0.17385108399517069 -0.05824645534265027 0.22462496369301177 -0.28107716103758085 
-0.02681221315659077 -0.05862306203781065 0.25589276742795897 0.3497838733666958 -0.2394754982582561 -0.3997335315949714 -0.3507926789795368 0.08663214547409315 -0.19307078679439382 -0.12772437848872686 -0.03817272153545159 0.2094768982908909 0.30744723142761876 -0.3362015460070297 0.308799133707757 0.39937625387307174 0.38322138567615394 -0.32880295920367797 -0.20550182437543696 
-0.01730887832323258 -0.2943548886831623 -0.06350853436945914 0.11419154585827118 0.28399782930040085 -0.30380745042858937 -0.41796337109030224 0.15475523630741683 -0.2753468836583016 -0.11064155201549564 0.23276064732215473 -0.05190834935993527 -0.1325188579580231 -0.28882031789350515 -0.03635733749858627 0.3864570691683985 -0.04722078725107415 -0.37790048918846075 0.22045787457229427 
-0.30417563687537374 -0.4031845882290612 0.300474632907735 0.05342042584362472 -0.21843159441335203 0.23121761425226306 0.3018139547784813 0.1762056569449938 0.21017700436782272 -0.44986988088241864 0.41887749748211056 -0.18306512023389832 -0.2286461845817711 -0.29825908831537595 -0.21094746778890028 0.0630576818157016 0.27679340162668464 0.2117585199566664 -0.3520367193147116 
0.4186681053115049 0.4950736032587113 -0.34135524974483533 -0.4879405570452938 -0.40935769172012315 -0.10347668504685448 -0.06611442827502434 0.4879682387806954 0.09908788509152555 0.18758862864160486 -0.48469086439799236 0.352683154638711 0.1679451599952021 0.4511340472124328 -0.4425632767741784 0.026202083791100783 0.4931835655328375 0.0772798287487968 -0.2399213986480877 
0.06701652679605308 -0.09111282192416659 -0.4312102130030879 -0.08513642393231569 -0.13910765812239734 -0.3243748020845203 -0.2643107905889204 -0.2508824761318147 0.24467200344381945 0.10085439457427636 -0.2442945851767916 0.18748277233613997 0.40936702709574924 0.46770288370357516 0.07028807552433947 0.433896650076001 0.060598417317043296 -0.20366462211262004 0.11038083617346761 
0.34002436251541224 -0.02051793617527997 -0.20879819201905558 0.401778916482203 0.37096736991558654 0.32334532682418726 0.4378232141190618 -0.3131777635075432 0.10504591140116215 0.23319937335013974 0.10436971512816573 0.31733748516051685 -0.38832026774278383 -0.4263182060052497 -0.3238624787491583 0.3231562248438169 0.23986863327375108 -0.07877759192626255 0.20513289914950839 
0.24120082295278145 0.31950060916859957 0.23747486138583274 -0.20767666219894387 0.0020434177993605696 0.028691598006756136 0.01759474335661748 -0.06328308110609371 -0.08599219335518216 0.21258822343544403 0.08673507580235307 0.3832829714196957 0.05929755692459737 0.2525405452491307 -0.366831526783546 -0.4191714796396685 0.22229842411320666 0.17927922815894115 -0.48726575025747676 
0.22129671777716542 -0.19288356423710218 0.09970738560869397 0.33684844456846974 -0.02644543345019723 0.06957792995268175 -0.3358553796138193 0.36510275626921496 0.4475894069118389 0.3883309308471552 -0.2606633794984632 -0.23648127394677987 -0.3708652225706466 0.23035227428153393 -0.32772913613824195 0.3608115556694038 -0.4899018266953551 -0.07192174382083749 -0.46918492003000667 
-0.3624427954199846 0.4067640879207749 0.3785408589726592 0.4894221675804521 0.3169461229424505 -0.49440151119805553 0.29930590706891813 0.09162105367157325 -0.4091549739960353 -0.49441892369782836 -0.2683269034843061 0.4657406007030417 -0.28882201143052844 -0.16365578026661431 0.06851237552117528 -0.3037108378125588 0.4041768699230245 -0.17700127457943948 0.002274848109611871 
0.4606398340529487 0.3238401600843044 0.34137795013387107 0.4381307975876436 -0.2708527549814872 -0.4490216645712206 -0.03846633637025332 -0.4021489849744494 -0.20345087829945263 -0.03448691687794603 0.3126683084423827 0.25196218856686237 0.16348144105439943 0.17223667366649664 0.4192902149069322 0.26087072491769214 -0.18083641147568874 -0.45597323873478446 0.056229772176998094 
0.3800639719847405 0.28978565592688754 -0.1384488485112355 -0.2507444682778379 -0.40983894815416433 0.4118570423748662 -0.025214075668640423 -0.09161791716038581 0.04950054019416794 0.16575194221046996 -0.11079054657839171 -0.27743818026090294 0.13511567443458705 0.061913831216536264 -0.3116759344119524 -0.13269529170319083 -0.06263829101111573 -0.4893422887898662 -0.25580407806034366 
-0.21912761759336674 0.004124880319379409 0.32623547958471233 -0.2610072914522562 0.25004313471307105 0.09245558800317433 0.01680611603440818 0.12303840834769753 0.3130472784530236 0.17863294132463936 -0.20582090587979074 -0.23130774718038527 0.03512305858217479 0.0020820347663814687 0.3006761579932259 -0.2556003092726029 -0.4587549851317859 -0.0257710230483309 -0.1048170776583488 
0.3295505287029806 -0.19907128295944854 0.3702928193030335 -0.03356182198423108 -0.3816802083377443 0.051616552673788285 0.34017812783368373 0.1488360618676322 0.31945535784524837 0.4200016430752702 0.4240450024237018 -0.4955083646948607 -0.35098472114055057 0.25474787670288246 -0.061201357354487174 -0.2949517369567619 -0.4656525938887174 -0.08058396834358861 -0.18634654656828853 
-0.0023191576243940526 -0.2998577833422378 0.31100729493075274 0.19609152876205094 0.2719757865519714 -0.4088204857716651 0.16738710026399917 0.4239491221495316 -0.1421546126740837 -0.4985716178463304 0.3059538452382278 -0.23497120516393888 -0.2206397203027909 -0.2745513045040605 0.29626851808056465 -0.33745103136177723 0.06536112856125886 0.02558182371672113 -0.28903713660997965 
0.09290676422606192 0.3749361188441718 0.21720733630218436 0.022095309671247065 0.04164405375505997 -0.36567170834830964 0.21438105525131246 0.41422529127580565 0.03417050979664382 -0.3984368853486898 0.44945946836080164 0.2708284489835374 0.11971193979187067 0.2760626652983228 0.18285404593237953 -0.14272349647544014 -0.2998842823414082 -0.14725957753714047 -0.14715135904009724 
-0.22854277088639352 0.1195596137665601 0.4835462696328914 0.2804515297401088 0.06221146250806309 -0.013125783364325017 0.45415812980837167 0.24054346330247978 -0.47388407085487594 -0.21089680563092605 -0.4905060814949074 -0.36187861526074105 -0.4152581766181316 0.47308959278418905 -0.031057360947539858 0.2872272930754348 0.31737084115577163 0.32129086610226876 -0.03930840550210368 
0.08019012051825125 -0.32174804435816495 -0.37131117972169203 -0.42574791382743293 0.15609804446971087 -0.3371660969741269 0.39957499614513603 -0.018736964026519698 -0.47004242446688793 0.20400940598697803 -0.4738435751551223 -0.3931216318065949 -0.4722154901681008 -0.12274060497488459 -0.31466023427985945 0.2475208944742464 0.2879114960707737 0.07268662740570087 0.4957172973252246 
-0.3744886130434669 -0.4649144816528167 0.1522796105356592 0.31369077068101914 0.24705858611008413 -0.18853216219350089 0.25234983455229165 0.41583456178890166 -0.41267753826667375 0.3574380800648377 -0.1860640038594863 0.214012632530159 -0.43526093140352995 -0.12485681400154791 -0.371928465340733 -0.4195715406852475 -0.013477295375681875 0.4790207120062696 0.16816212592089075 
0.3217008436138995 0.14823688364140797 0.24006563448307883 0.24832278031695754 0.33422277852408644 0.0525527077561444 -0.1356017041675024 -0.4056257175149032 -0.002525687612025762 -0.22421038561058992 0.21173028854632547 -0.2566985972067224 -0.08237504955646213 0.35555989501261054 -0.44438525423255637 -0.20267362534887445 0.22067457173111482 0.1988152093792337 -0.2850945140348039 
-0.04964740739996154 0.2125461823202095 0.41681973084892276 0.44463963508825377 0.3773853591862808 0.3729582428589029 -0.3179488933432639 -0.23540353991177831 0.03163803382468322 0.33056754680099754 0.1717569973645705 0.22507506732960736 0.12938309931387149 -0.3212113939428163 -0.08612835324753476 0.46197201025812173 -0.3807901975283907 0.23485878107830915 0.3832233396344824 
-0.22297088812341803 -0.26979876282776205 -0.3808670472564859 -0.49055997145968444 -0.1058388506856125 -0.22735475721746168 -0.1627443993446408 0.3526876108489091 0.4890618144215516 -0.2747546666888818 -0.1152284224734611 -0.42064912799622955 -0.4331746692680253 -0.2156007670542237 0.26190203646409926 -0.47300513291563484 0.2711105564451043 -0.026035812691058813 -0.3143751461962304 
0.08641982819057681 0.24841309847396142 0.11802986789930703 0.2168639054627699 -0.15164946419449388 0.2623002750075528 -0.03542895291852888 0.4825048252623655 -0.03672363256240041 0.3550027546637794 0.014454067495109357 -0.3348802032137418 -0.054814027001280685 0.4875454585720592 -0.34187744608983583 0.4576970490182355 0.21341611909147418 0.2546400446170677 -0.44861091442442025 
0.23633566122450955 -0.48843844694230476 -0.033150249479088956 -0.22788807040501335 0.29077953253999167 0.46836881185041945 0.12007649159165923 0.1911363611742225 0.0708293935527583 0.4727636329816285 0.031209696106359708 -0.33626732255685055 0.05608461185178304 -0.2763617151896225 0.20881479219988197 0.10186397796413327 0.037131711555661084 -0.21524841283962226 -0.15097142374373196 
0.22296862549567287 0.3082100692691573 0.22607074500071134 -0.30063211913225585 -0.21245631112129926 -0.4854508673267681 -0.03488873824218275 0.4169468863277195 0.4356672617060723 -0.3280139838351881 -0.26469272789395004 0.46263732177654393 -0.1883006840795668 0.18213611952046393 -0.29682902208751916 -0.48100454461710074 -0.4732479967914377 -0.4966965260600654 -0.36802257583765285 
0.3973177633313436 -0.34987788299611233 -0.4945182145733966 0.14693630610686226 0.40797768212401386 -0.15627013489766695 0.43721091792767264 -0.40471049466051356 0.20823340416449299 -0.04229022661358495 -0.13728205932668103 -0.2854998939970774 0.21298693521562495 -0.109349106404388 -0.11031457479041173 -0.17732586646833715 -0.2434870252493586 -0.2154146728598214 -0.4988453918147907 
-0.47241617687283144 0.32696551217477376 0.17267549365993884 -0.17051597203003332 0.01413734687070789 0.36050920599316694 -0.47334801538832205 -0.2340508290462967 -0.18513369426514426 0.27821130141482375 -0.23859415532498562 0.38648221884263734 -0.4060205974041523 -0.3236306887897973 -0.3542598325236964 0.2922154513111508 -0.1172433824755823 -0.16026149562950742 -0.25886219011396827 
0.11290530673272381 -0.10746452985783872 0.03716241562728595 0.4445033457323414 0.10197905569950938 -0.4987331661398061 0.3803985548394204 -0.0538106233083423 -0.03614085511511078 0.26059475186083647 0.3794706162670035 0.4312182668321497 -0.20261490121408832 -0.19735871027602359 -0.2883324000816727 -0.3505377503485886 0.31356648847403557 0.3391537638469133 0.1363493753746592 
0.05964668898963743 0.2915646480201003 0.040398304306351496 -0.06599328307799146 0.1123922830533195 -0.4262849509953903 -0.04283935443625886 -0.2744359132674692 -0.12088604280971837 -0.23143396026108465 -0.19355912718990176 0.03670107420102953 0.15644559099743172 0.23032374866363203 0.3799062530915781 -0.4879914149430342 0.3799614032829425 -0.18624249522962832 -0.4461077017774451 
0.2550844263132048 0.16631622300175297 0.36553315995721525 -0.11928141568540407 0.3732120131477912 0.06952848237442133 -0.09389285711619955 -0.47668660480975233 0.4390551142118204 0.18498166939146954 -0.019273343872568627 -0.14138347815828356 0.2468404949871208 -0.436179229910749 -0.2862532787085038 0.41995709719166086 -0.06321031476579675 0.010772702876214568 -0.3126117944747716 
-0.02542047606807063 0.2890994855646497 -0.26997948477337463 -0.1157749093208168 0.4397169873827338 -0.25243922705982735 0.4566133958931573 -0.41789661240967857 0.02908909275732441 -0.47705656810896335 0.16499544769386532 0.27085823786312624 0.49142593448825256 -0.0524350581979548 0.18158811069330427 0.3721096604713052 -0.44640146148422044 0.1049986234270438 -0.455037307289481 
-0.21341853692260326 -0.28683895136008397 -0.35733278124788437 -0.24500898882384692 0.06780216736427058 0.3385873083107934 -0.40989412615938536 -0.3685366354973765 0.3267103508118282 -0.3697887944105296 -0.04803164813458893 -0.13698484577959158 -0.19139856802186184 0.37085577991221363 -0.1776111398345045 -0.031195272265869267 0.45201664060236324 -0.4476363701308257 -0.2238989512029368 
-0.18176341714396926 -0.36141098586184706 -0.0972826369899451 0.331754887933453 -0.4418742691369796 -0.22647459407599313 0.05816516692979801 0.3541613917142894 -0.21794955822757622 0.29831761749678565 -0.37425646759632225 0.3647336326822084 0.04324243459065502 0.23043952092821496 -0.33618466167455197 -0.13681799828270802 0.360214738673708 0.349201623505936 0.17171852397981147 
-0.07143908301621382 0.19342938546106025 -0.2974020799675188 0.0243466833155499 -0.43594740930447706 0.48165840689743755 0.19689459577374868 0.4134596979013032 0.4774131106483014 -0.2817066986835083 -0.3511262432361757 0.26474914567715435 0.2477948982967162 -0.2792902974103618 -0.16994033809528852 0.2881597559676934 0.1196987587624635 -0.3001046503660294 -0.28708121940057985 
0.2886944039786701 -0.013902385297767994 0.4729013608845283 0.34093939890273195 0.11590742106652652 0.4753135095055636 0.17727810977766623 0.4876601201624692 0.16251668804135244 0.44001786220302286 -0.3554914630687819 -0.455868863313556 -0.3639575994019494 -0.4382352249611319 -0.3314463582471584 -0.1200442308351981 -0.07789392330280154 0.2307555440749205 -0.23402402143250944 
0.25997420893889367 0.23400104062653593 0.3380722197629257 -0.33429113574505354 -0.23318489498465667 0.4003707376131894 0.12640658985516984 -0.3106093721536852 0.07895514779723944 0.08130924514950799 -0.21464963232231837 0.38728435912577075 -0.11540959879018664 -0.07707584355540142 0.048601457672975745 0.28015582254371163 -0.32646270054944604 0.16137821042135558 -0.3470203607932577 
0.3240830508794025 0.1425459092899427 -0.030346146659793627 0.15293518350630664 -0.23697657848650755 -0.026179120496895303 0.40375992870222055 0.24927183354920224 0.3630649156628054 -0.19778922303861368 0.14982759680923663 0.48709518155552944 -0.3673597589156711 -0.226559987773575 0.3995183019412729 -0.09446316369304597 -0.47541601795075317 0.21392150644068442 0.08839345651066655 
-0.019406996350264993 0.28876453776880795 -0.4178973093988343 0.4203722609717324 -0.007543871133361413 -0.4018762294211915 0.05196107643722103 0.0711300402508489 -0.22999359656264418 -0.1936904124183988 -0.20881986578318468 -0.28573294889829226 -0.3823301728699088 0.21168760580756651 0.23970005186091947 -0.4536970189213838 0.11363786112287555 -0.49963016353391654 0.46875169799711514 
0.3000301169311147 0.3834833252613421 0.1200000148348973 0.006146871716851465 -0.1695159131809666 0.3994959070506482 0.19638645605969185 0.3505115182466134 -0.26623245388692873 -0.16640016754023013 -0.25332470410679186 -0.23468745758004994 -0.3838106554051627 5.054073482082533E-4 0.36560808477116535 -0.15705661573768637 -0.4303424429559066 0.46778497528501595 0.2655096423329023 
-0.24020299105260923 0.12899191700524648 -0.01914687242165114 -0.4639965829633991 0.10516977613669887 0.4877972807741321 0.4533699100054508 -0.24394683364280045 -0.3399973230690104 0.031766687589630416 -0.0926251506289435 -0.3612183930080176 -0.4741184057510073 0.3117589272400071 0.41249890142896095 0.2186177682553655 -0.4396183496979734 0.4237221569695955 0.26989005051077564 
0.20067682905415274 0.1617545732250013 0.3885116531684992 -0.08597213515808566 0.4838774711604529 0.06412302930877323 -0.46812364094431713 0.2643908630343469 -0.45784664347134374 -0.04624120589631131 0.05336551232530207 -0.45101991171460765 0.30221717453068997 0.39768636413255487 -0.057367095813957825 -0.057008926054067155 0.3916870313498446 -0.21223228782607606 0.1525935297846135 
-0.28153471838274213 0.14798627501726347 -0.2534125326384058 0.4711131405804432 -0.015458243555594886 -0.4237199253324604 -0.28412757868444394 -0.1536116967526926 -0.4870318825649156 -0.47618681012597974 0.25384291151646643 0.015901189177497055 -0.41018050256481864 -0.30163535800092833 -0.09519204771213308 0.16480928484117796 0.3119129392997374 -0.1998626119659752 0.37247969055789476 
-0.0031423579272227276 0.25519387627721213 -0.04074805399888781 0.12789761637220076 0.03937701977132335 -0.017589607447299538 -0.12488529676182147 -0.4864842319263134 0.22365843375655092 0.42867992956910983 -0.4607167926031088 -0.1330783818828859 -0.21702921417319299 -0.19390756289990052 0.19005260139606195 0.1808182518458621 0.2927151000519028 0.3022823537826633 0.19483819168019223 
0.34031623916548825 0.2406853811204409 -0.4870579139476151 -0.11446851796199053 0.034245252770900625 -0.13986755033577292 0.24453721780063675 -0.017641834173579674 0.024109883967174617 0.08430395855324302 0.05102397941533854 0.13336811234387447 -0.4275223760582261 0.3883603326294438 -0.3728420702834859 0.26953914439084614 0.4820020583886149 -0.026957367971325308 -0.02897796013618592 
-0.07042221230244716 0.3769468539315297 0.21419535920856358 0.04969134171179701 0.443851834541226 -0.42900807779970507 -0.44677662707140275 -0.44550940453463683 -0.11650885411062994 0.10826560065973578 0.03578896294331313 0.21609022327845795 -0.02145550041780886 0.338962121375026 -0.4804686087373672 0.0647250003183173 -0.21181788284330838 -0.30343337420851113 0.1663181159058611 
-0.03289117148224041 -0.23371509535055568 0.18062462313429717 0.21051316982557966 -0.2508416310605244 0.0073630042400864015 0.41715692152410244 0.1519748588893598 0.22242707997789046 -0.11940218999968255 0.06823455024833758 0.4609715916437267 0.47219013499100415 -0.03609668379356601 -0.20710702402430825 -0.3980690379770778 -0.16358970407269802 0.1752539893142142 -0.07652164245247906 
-0.31608584231863546 0.10735320664388825 0.26512816395179184 -0.4853167238732241 0.32793388600832873 -0.37858974080232255 0.38176723097890963 0.44694250361294274 0.4047108170447241 0.06772570483902685 0.2500528783883146 -0.1784752231599227 0.14119035201150565 0.04251417451380968 -0.38484445435460957 -0.028430927637486336 -0.27988264549942576 -0.39650645734675205 -0.006290229013248161 
0.03147923374396244 -0.09580613823057793 0.3376474242030265 0.44812256864063194 0.1565042814335602 0.4048208798984543 -0.2544298475936999 0.05372351141430143 0.16499555480999806 -0.31484793383648757 0.06693682566363313 -0.03618403088314004 -0.41225343695372474 -0.361836494125198 0.02417956656203557 0.49429128780850295 -0.1480151194766477 0.11267077830569139 0.34524023342978427 
0.4473184298436017 -0.3980001065213098 -0.4262995321446903 0.3413092261150654 -0.027276066145693 -0.0359459666135471 0.2783504027281952 0.26174883903496904 -0.3739719979295073 -0.09986081650262146 0.22424904840525306 -0.3740614935507367 -0.07629552122235239 -0.33669573727852997 -0.21504872875048586 0.24056877892132056 -0.38091617594976257 -0.23330631845395333 0.38508432897612366 
0.150949565327398 0.12642001385000967 -0.19089914154318988 -0.2122159629127418 0.3461875616813278 0.005993389251501835 -0.0382454163619671 -0.43206168263717215 -0.3593736683650811 0.1897235922876397 -0.08577958169784294 0.12698140172338435 -0.21226768024006681 -0.3253821181576432 -0.3982866692539101 0.16845845156803918 -0.45235163380295873 -0.25951805561881647 0.09178167727337416 
-0.10169241313704969 0.12592582158668508 0.3586716239130209 -0.4047632496174275 0.33978187192577547 0.12848548034738472 0.35026573218997925 -0.31563357679851833 0.06016146091337038 -0.0633538310682551 0.024891846544715435 0.45088506867798606 0.2948816484453022 0.1960994039830538 0.48553798407575777 -0.4832636002635565 -0.07557008141014443 -0.0650028489138792 -0.4799647759258473 
-0.47722052135775905 0.010341213666401616 -0.32114090341042834 0.016497649476816312 -0.03644715286015254 -0.3711525694754063 -0.18620518441852407 0.13785731660524525 0.010725059948572202 -0.44578667045185805 0.36457527026423786 0.06973405575844926 0.2735046196301162 -0.061481616162906594 0.30037695137840326 0.016231054643751408 0.2811957731773691 -0.4893803326811691 0.45856132171834985 
0.2598486189448346 -0.1587486715913432 -0.02574180240152657 0.18564142421812568 -0.475439209113943 0.3255871972000052 0.22374750017264178 -0.16537415259391197 -0.41479994044526347 0.3685875459881329 -0.28459054583249066 0.32922003771477026 0.051647896575614305 0.4221438443986235 -0.16610049421578899 0.1079039462110819 -0.4770703830927445 0.10623457310533424 0.3747894997177982 
-0.10530650519527396 -0.1458356395969862 0.3179669533699646 0.3282531114714693 -0.09156700207147761 0.1084219841287628 -0.3823341291049501 -0.006574446231822573 0.31875452801100745 -0.12410956558156427 0.4975090797191317 0.07898547583555138 -0.015620764645256524 0.034358822305700976 -0.24362761606406147 -0.14726625621714662 -0.23177526411377114 -0.30212720761696465 0.3539617496698291 
-0.4085794677425306 0.013821669940069503 0.05452056856380649 -0.20202586748371254 -0.44820184319255807 0.08883182901366182 0.029659297182075828 0.32994244494290415 0.43485427003677857 0.2539990704186619 0.22749324005624205 -0.08141585673154428 -0.15259369814436574 0.49965330721772205 0.4017666862641679 0.3438872208826339 -0.42128562692188354 0.40692700885657807 -0.21456390979777207 
0.4608311933774444 -0.3955028579320846 -0.46286706391277144 -0.030462556907214555 0.06855498041342345 -0.39328933241767206 0.33029029355216477 -0.3369333224023714 -0.3210526295428353 0.4546779487960173 0.002576200924975236 -0.41145794818429304 -0.12194997381867523 -0.468367493901365 0.47251794479103026 -0.027980565092918797 -0.09567302454609261 0.010466352701371306 -0.0829690055317518 
-0.4283171341143528 -0.4702312877026317 0.18344945743818009 0.16094629366004076 -0.04426605201816636 0.3229627036153626 -0.2670863869467561 -0.2625401121428158 -0.21184399609543048 -0.10232317451230621 0.39337130314552937 0.12197683093135991 0.21002942739365327 -0.19383442126937234 -0.1997344675311168 0.3381100996345697 0.014427332061587417 0.3233236884308279 0.44652398569994856 
-0.13786508478779969 0.20452127715516666 0.4859749556591616 -0.42468271584947725 -0.48901262930705336 -0.3026211802229254 0.4009993990202587 -0.47410272182496205 -0.21106447221294822 0.39003635457570174 0.016664447955936912 -0.48088171171107685 -0.010659655759637454 -0.4602183368009778 0.26344131009136096 0.12022082797912026 0.2004625633276642 0.4271829675840235 -0.2862494052003549 
-0.3513166474657643 0.24806117441289133 -0.43174782740838336 -0.3155038142974337 -0.38157526071425985 -0.47743243177393113 0.3212318383885858 0.01190993776669158 -0.11363345152000304 -0.4150908958337042 -0.40615299547340833 -0.43485603285352104 -0.43665939083081096 0.4225945274846238 0.4984644299839789 -0.06678870069390341 -0.10144608759883478 0.23646289253714903 0.22545357845513714 
-0.3807100948442068 0.28729990476073275 -0.32146333592756837 0.1091448122201295 -0.4929309398820937 0.2713311218170442 -0.4672913841610511 -0.15386755516456851 0.3257307605117189 -0.09771476863799511 -0.06746836438471993 0.092271292579581 0.3333239218164262 0.12078266080309852 0.34416886444457373 0.21256724322790577 0.4627016432552542 -0.13270877763094602 -0.292398557494262 
-0.21273603397233232 -0.27014250402673456 0.48557852876495766 0.32547974796190626 -0.412220975016115 -0.2085903081020879 -0.3944487955594679 0.3165430970244326 0.12774484866516655 0.15614658752331423 0.09950474482829375 -0.29067800877570793 -0.432739026179512 -0.2950391277404032 -0.10571424963467468 -0.45812352068214923 -0.2974338241464657 -0.14583607658942477 0.39159408253747896 
-0.345387920582755 0.008689710311563181 -0.09091407403311824 -3.705704746930216E-4 0.21575558628587932 0.21924377541147266 -0.10196887259825305 -0.1884869886547742 0.40286008494035397 -0.27463049583981525 0.4510720537131926 -0.22060788572232892 0.078749412959915 0.15495137222441135 0.0938304758776417 -0.17213869806214144 -0.253399858223617 -0.146434173848351 -0.33669362923527546 
0.22631099569033786 -0.45360133502582234 -0.36976791333485826 0.4209816304111078 0.19704050284641794 -0.43619992669334995 0.05388396015546204 -0.16216267506717352 0.17444945088804853 0.262454608766282 -0.2094163537311391 -0.04341051293923193 0.3503474399144413 0.42215604248712735 -0.04315030432887024 -0.3016394161167393 0.1413993401257364 -0.43229365993391067 0.23107325268589485 
0.4741694648491124 -0.003050837860541278 -0.49282109831229637 -0.4871523947805966 -0.01396461916260805 -0.47105735512120606 0.26330271025366814 0.24913852649781476 0.1581565894210959 0.29039535879917755 0.3779781930654379 0.15657357689650153 -0.27446224151950926 -0.3451712059011781 0.2974749601773865 -0.03926928221062964 0.125604373976814 0.15632479803926513 0.30465026070740586 
-0.05384215599955733 -0.012243247713730865 0.3383240295087381 0.25456674059722106 -0.4350434917955899 -0.30352004966804724 -0.37097837443081205 0.19117641796339047 0.08711462325346508 0.2155400797327024 0.01218904532712084 -0.2247227068271761 0.29237454022414777 -0.3960382423266088 0.29447830461101443 0.3377378919743367 -0.4987254635255597 0.4288952201560644 -0.416259037276977 
0.28702434450155967 -0.17789703785696087 -0.41385427222640647 0.18762083458196466 -0.45364677195349834 0.3508563966118363 -0.12394766004048074 -0.48234384993738755 -0.326667073289688 0.20289434054747035 0.0505665051991645 -0.25864685858567704 0.32374495783360824 -0.32216563837221635 -0.05320449328325694 -0.13683001349822188 -0.2388438071814687 -0.4366659425908358 -0.24706009795247197 
-0.3649237453582457 0.18534135553796194 -0.4312434918474244 0.4144677602678267 0.19832975961109334 -0.24496517964406572 0.1463184914444423 -0.31846726913366896 -0.35966090289958474 0.3143197210143919 -0.4948282700795892 0.32305729646121883 -0.28604287013660035 -0.0029991893179945883 0.4529692275111217 -0.41143368785292067 -0.18872335606506785 0.07959754297919797 -0.19017962039364322 
0.0857700112639943 -0.09002365478017538 -0.3188677299598688 -0.46886039885523767 -0.1399399987867157 -0.3825078648033938 0.16667746711790266 0.34874567083405206 -0.388504584974953 -0.3732356668293084 0.4016654342789332 -0.3063303344561479 -0.33447914046872695 -0.13296072991273022 0.32525265326198916 -0.10051853986019799 -0.47442836599992866 0.38417903973164935 -0.3364301100257209 
0.20154610417248264 -0.421114281593607 -0.4828392681399699 -0.012521337504738828 -0.15452685000889566 -0.1987437816497143 0.25092231411483423 -0.2655065449497829 -0.30287690566628267 0.11212205066540826 -0.27956058898542246 0.2608179591711063 0.10688759341557807 0.3683085258778285 -0.2831065670960906 0.46698308141424083 0.4225603394083992 -0.14710630287785997 -0.29598167437899414 
0.049363459273941146 0.4679685103703364 -0.48490962164196194 0.29118959970569813 -0.030112301187248947 -0.49136507668688767 0.14769779637192526 0.3295458522789847 0.3075475453822474 -0.28890641301958153 0.15059087149025474 -0.20159022512242386 0.2578495784889562 -0.13091741352614528 -0.4781208192212172 0.43150202067706844 -0.31985777284216277 0.21768931329090468 0.24278181926051956 
-0.4040822235774326 0.2577902476077869 0.4856254568487469 0.2779284009363444 0.28156271622698237 0.0324573519064939 -0.05383981485325251 -2.8987648025891044E-4 0.18472135682859792 -0.19870265323444647 0.11884161922949699 -0.036530157367881455 -0.22334247861407286 -0.3753573739089845 -0.05301177101260701 -0.39026708372864516 -0.06337697441950241 0.48181846899950054 -0.2699664212933114 
-0.3496541919764996 0.19837764526097224 -0.06599996803316033 -0.17484087500706014 -0.3926976012286042 -0.08970077473634397 -0.49443135171353125 0.14925135170589898 0.21620328582541481 -0.35860960518510376 0.3792126609915992 -0.1899286134421918 0.18070593436236604 -0.021036063538271588 -0.08494282913262807 -0.22537348222660225 0.06998917045929964 0.4585160188693549 0.45039631721078854 
0.34308452135137757 -0.01183192672534139 -0.2577269861065081 -0.1858595108545933 0.3381737478293949 0.012760632611573008 0.3201235793904127 -0.0011198120576296766 0.34286280330492225 0.2987207294185923 -0.054874514546558784 0.4735071573638603 0.023215806791462068 0.17521654271232223 -0.2644982814947807 -0.30937740031362115 -0.4413294862709247 -0.4757524906020152 0.376018138952966 
0.44550114412834396 0.4685881216030019 0.22335643371552327 0.13386102788893206 -0.12283147833920349 -0.3282248010552361 0.4591087341432831 0.46760941215986074 0.06718988056356989 0.44477976938615793 0.2736730313513963 -0.14737620788687977 0.3880546486252454 0.055115108105652455 -0.20624676464843306 0.0721492462091381 -0.01941695100778762 0.23716643286165606 0.20928483078162596 
-0.36934228426280036 -0.0014315502777108025 0.35138696371426303 -0.28127682344119964 0.1344306572125733 -0.4510914620188047 0.02149199149045511 0.3384148893890845 0.45410968140561947 -0.42323229209811875 0.27971037007084254 -0.31454172839571093 0.23491978299750027 0.29785190391907435 -0.23324496691282182 -0.41337809514914725 -0.14750412693913273 0.1636663033594049 0.3310253623344328 
-0.35969453595179446 0.2257201672528668 -0.23933476402136533 0.4506561422469141 -0.3358098270907297 -0.007295487299312398 0.4904928475092276 0.26237875323470217 0.2981406265666545 0.4320279858590049 0.3560520850033351 -0.37723731008038175 -0.09991567737354201 0.16856743303087462 -0.3130715649857234 -0.4497438101040726 0.2720079937078508 0.14173401493202786 0.17773443512810927 
-0.39945296737223346 -0.31612459881469934 -0.46634328790971025 0.184229397687239 0.21311570447155292 0.12518425211233275 0.35582900810640583 -0.17539185229484455 -0.1665453704053469 -0.29295571202127946 0.1749627337604973 0.06714188657743947 -0.33672069402772986 -0.3379270207709576 0.022268513554630553 -0.3496071660065184 0.22015797882840504 0.4450687343787467 -0.12489019662087808 
0.37851384568403323 0.4983385832505566 0.024336004452905735 0.2259532990786216 0.06168284695316073 0.4141530964959429 -0.4282993875757597 0.16076557061061003 0.13051133026943595 0.392230844172875 0.40866774879419343 0.05748191496068367 -0.25669480785912924 0.4028542990709283 0.246839020618268 0.4849006048603377 0.026344830071177827 0.4961417981953783 0.4726190350489108 
0.13333131703950785 -0.060108959402908835 -0.10465605446529747 0.46940615044894973 -0.3594456767683166 0.14641221510997582 0.009391314824898411 -0.2551238063875022 -0.009877883048069025 0.17256666607327364 0.3039331449834167 -0.06336847542813095 -0.24623654015018637 0.10276443377878852 -0.16954186147880534 -0.39359763431198147 -0.17437558074115433 0.019670303224844865 0.35468970694074653 
0.10115144321264846 0.45330944791515615 0.4158001711287156 0.4483002042809512 -0.341153550948485 0.30916070063726986 -0.15959875169274318 -0.3879103398956405 0.36732951049809826 0.06494089585972607 0.11709581310334294 0.48412644191007737 -0.4533732703132677 0.43406195162728733 -0.4296927256821492 0.45294862427610605 -0.3817954070131986 -0.0722727168998798 -0.1677232318247961 
-0.45622335383042445 -0.45090518418475556 -0.3651667991602593 -0.03248342963795958 0.2747891153349443 -0.48552756771516736 0.18020049634460222 -0.15216312788443365 0.29086541256024 -0.490813417641937 -0.35831520142441764 -0.061379283229166304 -0.02619979043639853 0.256907360875021 -0.3860600927350035 -0.0841886463434881 -0.09915350013538615 -0.08503396707260169 -0.20491432337968807 
-0.17688522091166758 -0.02245436026260106 -0.24636993262602735 0.44225788816229794 -0.1997895779473562 0.30615383527830453 0.20046855641665928 -0.2070051207919804 -0.23469943693035056 0.36757686104495524 0.3836277187842313 0.08164138448032876 -0.18088078492829207 -0.10742445439917347 -0.4177502688434801 0.09342747015975295 -0.44744013368347857 -0.12289305681764351 -0.20206690623905066 
0.29360622472951103 -0.11362955428485022 -0.4429830900568924 -0.0019540623616990382 0.4450112080482779 -0.4510967752013235 -0.20109812115542958 0.4498682819518084 0.2846202858639869 -0.19330388050276004 0.28680901230259626 -0.03604692566647194 0.2681902359549796 -0.39729888345189757 0.08854542572601698 -0.20424013580011813 -0.388248304514745 -0.17173540647143526 -0.3292811669990835 
0.4165294960498812 -0.14026806819818405 0.057503277236469086 0.19823360286749347 0.3575313596361763 -0.008301595017607521 -0.2934911350552215 0.001817341268170014 -0.14377026987728148 -0.35680673731838375 0.24485285895485032 0.4262554278479437 0.0885794148672907 0.3608553820372564 -0.2168469620707527 -0.11763826224923724 0.35857466519929704 -0.06199718847861957 0.0880013029728377 
-0.18268420040856737 -0.2656600093284932 -0.21592437005513598 -0.16565771682422714 0.49084813355537615 0.2694651627956417 -0.030185068739420062 -0.3045695433694844 -0.1011431027790215 0.12895067123146153 0.0597813343314082 -0.30821647038732747 -0.07860920774578217 -0.3489552806720383 0.0947918596029882 0.07308797650374144 -0.21146551598265628 -0.3805845518257369 0.11908129256604716 
-0.10919767110572709 0.25558446733332996 -0.20548205746594772 0.4604705848001699 0.3342424809409783 0.4580051069348242 0.05867811189778205 -0.43344897669353144 -0.15077733690548567 0.2770056262329653 0.36633052214064177 -0.42412978643123067 0.035864471760379546 0.18818075209549323 0.05901078871849297 -0.03966840028434093 0.3309756352976264 -0.01149061596554779 0.004117600253154552 
-0.48650352486246484 -0.4795606682568192 -0.498893209748253 0.4471233763399899 -0.3207962099456023 0.19834346334328157 0.34247785598617 0.42882621387327136 -0.28410064160461923 0.39211897650564465 0.10362000360660606 0.11240075145367523 0.47429328841657714 -0.2932549632038475 -0.15582341944029554 0.3894184691515954 -0.3705598489420303 -0.49388219571606096 -0.37205762848057145 
-0.3103266395902845 0.053063775774069954 -0.1540308927800058 -0.0616249722973905 0.0065613954522870666 -0.3620755484811705 0.10025970847870991 0.20436739903590662 -0.2320720449889444 0.2932536462523041 0.48176160279417335 0.3393875236038767 0.33170995257246416 0.01875687841010165 -0.052417793724337636 0.15119465831942214 -0.43363552075064615 -0.06558698785660455 0.3016730553963797 
-0.2853092070969444 0.18798935526006555 -0.10572588440584485 -0.3410960957034729 0.3170695131871504 0.26920528043976444 -0.1553031997737383 -0.18092724215068812 0.3822745912201577 -0.3907170574961858 0.40091250189891037 -0.48573842933643685 -0.13911650433769207 0.4606632093669746 0.21057075406623826 -0.06076463621640793 -0.06811881064696845 0.44393179299188357 -0.4511338150800882 
0.45212319089416786 -0.49560771760580624 0.35147446252445547 0.24708605800607597 -0.15859323611846365 -0.06970936349524226 -0.06054745481910018 0.4948924430827667 0.09528306094190542 -0.45729302917458137 -0.2615972018854388 0.27637910694819545 0.18075510741622935 0.12080730311743071 0.37467946690969134 0.20091997922215288 -0.05765474245237645 0.14781528258300447 -0.11187898385566208 
0.27205269643362473 -0.1358867112395299 -0.22289530226989718 0.05573704673490387 -0.29888300896331277 0.10370181488845198 -0.2497113303557673 -0.2131237029682277 0.21709476223672142 -0.09658068832758171 0.12158415529480238 0.24224945739669668 0.4500746652136659 0.21091165711570758 -0.4656680268943363 0.44734538591489215 -0.12700906346947294 0.10076045615173845 -0.031595914105400635 
-0.1798069034635872 0.4747628484289034 0.37838684673749945 0.3313312301265964 0.21408589670348155 -0.19231273409130822 -0.43107206365544737 0.001335835783046524 -0.21220164609123682 0.3029138921929708 0.3462919823702215 0.4470565992503558 0.2589903116616884 -0.21994082794569925 0.34138790723577406 0.34660251441284073 -0.12909288431577892 -0.10950908934100134 0.1835633877711117 
0.20767615613687063 -0.291851652935738 -0.1714568133939427 -0.4244247968666731 0.3508568766259379 -0.16580809078499248 0.020896798540630424 0.1799541417429028 0.2597369860175439 0.09152452148501722 -0.3384126154500392 0.10341628408101533 -0.2755452745683262 0.3046431765086234 -0.10141974429412337 -0.19398875935454274 -0.09073007159709257 0.056856768623616216 0.19757690612590317 
0.3329871250040346 0.460179857489898 0.17373087035495027 -0.09030496106441654 -0.13010894513588167 0.035173826659359086 -0.46081743384918283 0.3518909311615759 -0.24478709629650253 0.18757708378090165 -0.10535329511131564 -0.22753146904992805 0.24991958703650718 0.362036241482499 -0.17260130185023892 0.41874723505279265 -0.44048471044080506 -0.1269507194760825 0.24103302356512635 
-0.4500637132230806 -0.16819656738282096 0.1275460114967878 0.21926099597357618 -0.35450952576421846 0.1123137047692242 0.025874816561458736 0.34360492180489743 0.24769834208963337 -0.4706020121652298 0.4296546572619464 0.2062302868555812 -0.15301928964983902 0.30228696348273343 -0.17969823324330536 0.0710715500326995 -0.03064613836619634 -0.48206103791676 -0.21135759320341008 
0.37957073863017365 0.15773820917944603 0.006301325378287759 -0.20612503295151863 0.07176310770582062 -0.14772984176035908 0.05864359824081011 -0.2907546453882205 0.49910691185707057 0.26950083730328345 0.17991131689004103 0.03215229835950717 0.042369565816213206 0.25634260838342593 -0.45641233459121333 0.2779998080364645 0.4160457598610523 -0.2481496466814167 0.3263396174045424 
-3.379715189333332E-5 0.040197471999651624 -0.07159869146773878 -0.3602353500843939 0.08096023596995061 -0.20873014927302513 0.3035637153980697 0.34784205815655334 0.42938700596371604 -0.09464895290084696 0.11492112489451844 -0.33876661955835385 -0.02305296969443804 -0.19949207489766962 0.03234584360444914 0.033364321719349554 -0.07545572123547628 0.10924396456906871 -0.1543087733204641 
-0.45173980726482177 -0.4885198103131755 0.2677893395186015 0.11059984697001046 -0.3136038411501141 0.19346194223935886 -0.4041522243021286 -0.13889986290923284 0.08236186232441933 0.006555426412984566 -0.0814118112912725 0.4048912953208863 -0.3530701031511879 0.06706429431610728 0.4320835881028827 -0.09430698944587368 0.21615605889657352 -0.38858132050468075 -0.3059361422023984 
-0.07323770001337004 -0.28857108536531484 -0.2844917633843971 0.33376281891393544 0.3606570586470209 -0.35307533587027007 -0.15050442806604536 0.3178039245027865 0.20255227394698128 -0.29528717856053366 -0.2780012599277457 0.383483786561406 0.4378912893374355 0.012797161133922375 0.4466316238532956 -0.44352435186769146 -0.09011897620223353 -0.292334710003871 -0.07575659982494065 
-0.493110059766129 0.4083171152979068 0.34045959374941237 0.4758001544465543 -0.13420737138160954 0.37845075351516233 -0.30532906905182544 0.18370218962769225 -0.4763037996518189 -0.4129139519421817 -0.37670410592343395 0.1034333192890331 0.3632024178885652 -0.19717664489341358 -0.41531257987779047 0.492789145800409 -0.1601103960220258 0.048340296151374695 -0.3411326329419707 
0.4725332383223888 0.3187017636705787 0.2648287689153216 -0.040140891068816686 0.08018184000213335 0.0975105721212326 0.2921831322251983 -0.4753630259746172 -0.49228110796246594 -0.394814575505281 -0.08673893566138224 -0.04442155869185005 0.42439503066934237 0.34842092569767924 0.33651486961464805 0.3208443902954916 -0.32263437060030675 -0.20026503968150522 -0.10148155159052707 
0.07590125097596312 0.33577471257856295 -0.431535010491643 -0.043609305045387625 0.05943829246421872 -0.00200717651776261 -0.12274627189005505 -0.09015675049519134 -0.06177749167807567 -0.4829312220854155 -0.42156996229193877 0.0435569945460047 -0.17202806756089606 -0.18394336988847537 -0.3121456696476893 0.4128182549935949 0.2011183597147963 0.2627307620715188 -0.31178770663690436 
0.3088219069536471 -0.39263168770235557 0.15230366116085214 -0.3405953063477144 -0.06522421463623229 0.1792610955884284 0.20711249513804086 -0.36940527180555904 -0.2000832976961302 0.372461411893552 -0.3561580906024423 0.416639166975608 -0.004224585745085108 -0.1006869534084045 0.2817024523189079 -0.39895711747060925 -0.04249586946055417 0.35421938841684986 0.369085265512598 
0.25824077943930845 -0.46719308189874775 -0.3992943805547947 0.29156543797957557 0.46992518252973825 0.18198995912057636 -0.4074438672250402 0.09072776307096664 -0.3166991390801396 -0.08512537441781687 -0.06478985019068983 -0.22885950657644472 0.48356355003647555 0.13379404359522307 0.15863760118954273 -0.29809604093249664 0.4085625155838355 -0.10338089761554603 0.36920610579824176 
0.02955275994687956 0.020521117375218445 0.23973709937343857 -0.32441102839988467 -0.0893084961299283 -0.43214606446652615 0.10813304927835576 -0.45744630057408153 -0.4544041330956443 0.21953274560476743 0.1281993616667989 0.016508797400047293 0.4481122411794317 0.03511784350809655 -0.07137297136298404 -0.4120236274355852 0.1225407923988091 -0.45451490850220666 -0.03429243730208975 
0.30869669238370046 0.3347881674592653 0.062443551022667854 -0.15839842297373197 -0.33513991196202486 0.4629279674936744 -0.39014796650523087 -0.08239357940832626 -0.37699936252607325 -0.008591579897672008 -0.32549244419401324 -0.38081794339838015 0.2113752128105265 0.07349823628400809 -0.1880078949374142 0.20547068907367072 -0.02280987726627748 0.22816345242283187 -0.48917088723424784 
-0.0667278005572185 -0.3311725454977067 -0.33958069883474895 -0.3822862021469601 0.4839143572681238 -0.46773868791119777 0.39830285531367593 0.05724708232258813 0.24118280932098224 -0.317855966925657 0.4249639436376462 -0.45848459455562796 -0.4905470332355909 0.11058086894798325 0.25097291660340226 0.4580241252618288 0.04339185070101759 0.030401392454470932 -0.08020396841254773 
0.1489051732034954 0.32407534467193255 0.41477410115692315 0.2684901916869814 0.3499845702968888 -0.138908020308674 -0.20869940330964887 0.3760207300427292 -0.3547914184857127 0.4261813531316959 -0.42373583967035056 -0.47679259256669804 0.4100923736703056 -0.46881778386938666 0.4934968569643924 -0.33884487248948947 -0.13273171795957728 -0.3484588581089205 -0.08763159152116218 
0.33912787608592154 -0.44212492769681144 -0.33364059825761094 0.2606891328905515 0.278175493727464 -0.2555561504557514 -0.2630669665986082 0.02085796428296116 0.2934247188082113 0.004100336083674105 0.37796616589767684 0.20137636618625043 0.06579752249188486 -0.45468334713665826 -0.2108842419872905 -0.4091129290975096 0.34302106813887057 -0.41288891213965273 -0.39074851649848086 
-0.4518134788923528 -0.48985438105306534 0.4765067765982517 0.13179126720530587 -0.44080170976731425 0.11138763096533133 0.08822574457716559 -0.32329998244768665 0.3006844011455432 -0.1720323032583264 0.45000796021474143 0.2532147290512843 0.4905097706243887 -0.3792863304776808 0.46760937675249115 -0.13291331893311054 0.37556499006488 0.23155158169270573 0.08544689751816215 
-0.17289244613389887 0.3109909133353205 0.004607968287605568 0.2120226005090886 0.1879123948535284 -0.4818619441828904 0.035499360713115435 0.263672989863146 0.029530136199984347 -0.22626726310264123 -0.013514401586941505 0.23585390250014537 -0.3811224869212656 0.47901077285897375 -0.4844841603132636 -0.20191502198736289 -0.3756299804321006 0.2851190783977863 0.1587971444205749 
0.026842174685271503 0.4620491389791205 0.20987403435175 -0.32063251369266177 0.04010074717512302 -0.4598976734697402 -0.028995136195244298 0.34825639106551465 -0.022104863050208978 -0.3616215326119072 0.08229930663204754 0.36016795450554384 0.4851762309451856 -0.08952186182870436 0.11160781730296354 -0.39777720017890483 0.09641050647767047 0.028224532890886556 0.38345174958227424 
0.2921465888348066 -0.3042199560476392 -0.19820237166562815 0.32401981941803704 -0.4186049812444752 -0.46749438577686186 0.20354049282705677 -0.40737365646684887 0.07905598308751671 0.10772994030678107 0.09942359940826595 0.12124408272994736 0.3939717329035919 -0.38243794828014444 0.14937880160223693 0.19251276867813483 0.2153751479747602 -0.4637028311469572 0.27619233678240895 
-0.27333542897920626 0.15643594244229686 0.35449159246508255 -0.17762849761418364 0.019095710576900404 -0.42953592843184485 0.44848532150967446 0.015377406413355055 0.27285355498578867 -0.18388085286440448 -0.44887054297236817 -0.3561582085093291 0.40409655379458265 -0.0041735565958740395 0.3178897233539061 -0.08913688854519253 -0.2363758449641178 0.020701442401456216 0.038161203369958874 
0.275203282677276 -0.3861370788129107 -0.034363636798054875 -0.37145646395398 -0.28281653663853346 0.428233399242406 0.06980401291687977 -0.3370101743767536 0.2733030000184674 0.3386122369460235 0.4106855294244188 0.3441570181337563 -0.12791660913039404 0.34664265440275777 0.23383012597163055 9.486648029922717E-4 0.47336454891891755 0.235935346230434 0.15590710861215817 
-0.09084392342184888 0.26425800501174135 0.4747413531582759 -0.0247891502839912 -0.024732905316429687 0.19718769509127076 -0.2175330419052024 -0.37836755455581683 0.0979263667767638 0.46892627848984836 0.44844036105326546 -0.14278815561742797 -0.1728052870208544 -0.36573966830357174 -0.06237152484612585 -0.3012629545761971 0.2786692914925094 -0.07610433463035038 -0.20445878805987083 
0.17545756338584284 0.1276905763663181 -0.006560481064658896 0.3733501778595162 -0.04216821102315915 -0.09172408990510594 -0.23122650957079427 0.43428738425621016 -0.4026713315124707 -0.22791647012915928 0.2728574943434159 0.2736784087864592 -0.3973439750720146 0.32462529478638347 0.31998161177259 -0.4124957436407648 0.34438967393412934 0.14910999779043443 -0.25429092269542863 
-0.041825580671630225 -0.17217159471521049 0.15271344207824888 0.4042306703296178 0.49123328014761125 -0.2969977860274887 -0.07426439294898923 -0.4904233284901458 -0.16698920012733975 0.4911119230305817 -0.10898104418634313 0.02310988596002783 -0.4732326535714064 -0.10171917800952779 0.13916651097942345 -0.30305095699150764 0.42367213350360533 0.26034942463774735 0.4945117813657012 
0.07144895965224785 -0.3450068877714245 -0.3834527808151039 -0.4625428654326498 0.19459030854429404 0.4931657272470438 -0.3547743060758084 0.020711289264527255 0.08210813839268605 0.28194679412194046 -0.28856063229483897 0.3601201868576823 -0.030584770131117822 0.49964890444400833 -0.4259874943756857 -0.34479995996468626 0.21985274142536326 -0.06551039244533974 -0.12116855736339005 
1.4546036234686088E-4 0.34852701775667616 -0.10262089285266252 0.42545282725369404 -0.3170009408853157 -0.0030315496530144426 0.3750089166548233 0.33572135775134615 0.2388335686167462 -0.1489258190026359 0.034892897247842836 -0.3240596484280256 0.22221148261853463 0.433273639405529 0.03405174389285537 -0.2117584550942503 -0.005149148792907066 0.4195821994076834 -0.345679753214885 
-0.4278491115995612 -0.21365953011592498 -0.36681536133449333 -0.11020351198321965 0.2239497337706865 -0.2210883355689467 0.1484168467108986 0.24574045201870187 0.4892814181191536 -0.008312553653051058 0.002490884410821459 0.17326940276773295 0.3135555882359983 0.2954945178959735 -0.14296515453175684 -0.23951442257299582 -0.11494650793763761 -0.02376255560584284 -0.4225045156300743 
-0.4717882481437011 0.4572397748118908 -0.1170020004563791 0.10567853834968466 0.4372981292880712 0.0096369535003622 0.3464374194891342 0.18917780195690492 -0.4954956061294301 -0.23927853907015983 -0.2662570878471877 -0.49882936209210893 -0.2547512467490681 -0.21834962614609887 -0.2817261899791943 0.4350344886334564 -0.4859445779761552 0.4762307365092493 0.08522703319543634 
0.3904652101515337 -0.30267926249196886 0.4903942746868777 0.16905570246071266 -0.3187453925395153 -0.37194230563074837 -0.3064581848685589 -0.1759617718067501 0.28961136386373765 0.03856692971289222 0.2344737312890558 0.16630992243409515 -0.4321141791633317 -0.15547791944510192 0.3162238583645095 0.19383285844217601 -0.35421417668644195 0.06274588650647761 0.2569661676242556 
-0.20980602629523326 -0.26035261764973405 -0.2950070894304633 -0.3917349960908668 -0.4512148687049039 -0.21994958327796243 0.06134328847946258 -0.41270905409368475 0.3158334958569594 -0.22495362324970392 0.3893517868284786 -0.1537735216382251 0.3439140134948999 0.10849117222078286 -0.3411153726793904 -0.3500632233548805 0.4719902297291959 -0.46354655284774293 -0.33238395611593174 
-0.13791749807475717 -0.1963061897657975 -0.010605281611508977 -0.46155409421638494 -0.2497966189383628 -0.057533293102046135 0.4137942523188449 0.3376379947587085 -0.4880974247096078 -0.03964533464495956 -0.20588119223676737 0.31126827526622824 -0.4028865012305093 -0.07334586344608396 0.18451287077909606 0.02761146425158656 0.3555323999113287 0.003279271629472724 0.04931274237230876 
-0.465617236961852 0.27365156086328746 -0.17437050999826587 0.4624634169781524 0.49229153215025456 0.08242935879621716 0.13090200928149598 -0.25185574109283104 0.13015173661781532 0.31448529267459147 0.37020829337900396 -0.04161381692137589 -0.2181659015430787 0.46880926352147456 0.34651680914177985 0.17818894315784828 -0.288366988534554 -0.19867351562061963 -0.24264089352636264 
0.024624504550522897 -0.08783890329693589 -0.09873975756261388 -0.1106001084595939 -0.1363614847324235 -0.4323271453883484 -0.36391285843620136 -0.38861388372105854 0.20673849180738524 -0.08424196548255958 -0.24801979989855805 0.24265378908782664 0.4694842565876912 0.3116345428976326 0.4019873209872794 -0.16371397566873158 -0.2253278535994726 0.401809784378657 0.14079405818356006 
-0.09082127750716229 -0.234668281472168 0.4476680653446179 0.4727708561992655 -0.3243143658821973 0.4561297581598891 0.00458113235402291 -0.13089290387921793 0.397177685413721 -0.0034969487632252605 0.3584278443953739 0.28018525589685883 -0.4532340176767773 -0.1551817566455601 0.34894801520642293 -0.43904955469658147 0.10660156826167 0.2600831893664277 0.4681443561180987 
-0.10011798306746678 0.46457981508357615 0.20621125320538103 0.4119860952319718 0.2962753009393869 0.05794031187420268 -0.2664338790043571 -0.4150440197768588 0.3658935976063359 0.12316824556552453 -0.34650832442778867 0.4095225361549578 0.27165162970723833 -0.3452333778566442 -0.1462424261760894 -0.3235925706305596 0.3738432707999707 -0.05011703064379758 -0.08367155889872135 
-0.4134423631065819 0.27352831732422656 -0.07856163682376915 -0.20640988625640944 -0.417979112554554 0.2830441845435766 -0.30067965663157536 0.17514420450282042 -0.45953804444614377 -7.897713338903545E-4 -0.09263419010460006 -0.16549261521847813 0.4168461392461904 -0.42235620258147244 0.40327347377848854 -0.31647007599517574 -0.044143965046141154 -0.48929100209482956 0.19925018313054565 
0.4820730906378934 -0.33010402230653135 0.19697002383765005 -0.2568912695399872 0.15146264887938932 -0.11992183913455223 0.3566235651955264 -0.26730037424289876 0.42246167778121224 0.2513731337678897 0.3952351448474757 0.1609726769688683 0.11198281376140462 -0.08185314550400846 0.14720673347983348 0.3446287672617838 -0.3325136573210029 -0.007405096458951599 0.04075411006656593 
0.27623596020251207 -0.2560127323011634 -0.02387568728952716 -0.3822259474809021 -0.24215162943308732 0.48582104745155097 0.35252181433413 -0.48516691476114726 0.42358015623936063 -0.1262057900054293 0.4317868791137498 0.46561111745518413 -0.06074894796878627 -0.03192743859078906 0.3347965863475817 -0.3795153748531278 0.3791340047228051 0.12813641724129543 -0.13849106914004117 
0.49553586467921684 0.022999516304937684 0.3233588327808192 -0.1308005140809959 0.16112597456434485 -0.408934830143465 0.46123895596111164 -0.2977336090324314 -0.14072832335601781 0.24012342361686312 0.255050088073425 0.1614265726230566 0.09941625859479253 0.4810338486170641 -0.47136251042012434 0.4776661988531673 0.4237879305475889 -0.45406870608189054 0.013328568490188486 
-0.234903205190502 0.45638928114248234 -0.3670856282992919 -0.3696062607735917 0.466907688092173 -0.44623601120898715 -0.11335653139721757 -0.027776408580861278 0.3798945177495441 0.36103787912690066 -0.06480877043038769 0.1963640208220615 -0.05441737119735668 -0.15666692012773242 0.29665264598908625 -0.1712222355366263 -0.37024662806856334 -0.08949378408907638 -0.0065643234353361946 
0.03617735089555185 0.37721974209934095 -0.4177379845342384 0.2678180187315069 -0.2279990866345203 0.32498802802714755 -0.24895367336766572 0.3792688760633064 -0.1734208446527401 0.18447997462765753 -0.00827651707777155 0.0821993579843453 0.2192678269682442 -0.03772017667598304 -0.46010514067540176 -0.46778141843429977 -0.4412028444457087 -0.021090757855200093 -0.48518341673369336 
0.049637377961009865 -0.03218392490936728 0.4664227194833771 -0.30177332530616385 0.3808746684867339 -0.08141473512517661 0.378154192550366 -0.30300762372110013 -0.15841357976445714 -0.14099972186741416 0.4277357920914442 0.11534130059196968 -2.4942140744532715E-4 -0.17839798221103131 -0.21045217600641775 0.4415402890059078 0.36260590318949926 0.30295874901148234 0.339048456193047 
-0.28576149082779434 -0.13174365796358578 -0.4232201360764216 -0.21102909665989733 -0.3247080220828962 -0.14908328248831593 0.26134925132227127 -0.4138354387817501 0.03873927353715845 -0.4518101559482781 0.4003412009977054 -0.026104463662097732 -0.29030147659150773 0.14942873748238272 -0.46419030253342863 0.1957119841755326 0.27230854322912723 -0.15384775287373476 0.25311779931111755 
0.4195170657331627 -0.1675623562705295 0.3386458897199143 0.45980022516893804 -0.4057164956557039 0.3487357600967017 -0.2227058313397381 0.22382966317593134 0.11688061142278161 -0.08529326002709847 0.172854792658948 0.3414828263028834 -0.11722438930790036 0.06482957623895569 -0.10320152722186016 -0.06902039806585225 0.021908644961238344 0.06935839215419692 0.011003445691315172 
0.2552949440931068 0.3798311668104283 0.35528310534333307 -0.18449373115387047 -0.3339803024778063 -0.405764586680449 -0.35496585963074134 0.18367604829398454 0.029873071055491196 0.43829242813220515 0.139865580522621 -0.033907838369921395 0.2504461721932455 -0.045245045608658274 0.09145347653118374 -0.012429758189583917 -0.4700173331162256 -0.2114295520164453 0.40309721935368925 
-0.06380488532242423 -0.17052141741188054 0.04078867560594002 0.48101336658551874 -0.2511168850197173 -0.41988916157361544 -0.08716258061290294 0.4165630276623623 -0.065088931283658 0.07497974690795828 0.38777881346044674 -0.27814454032803315 -0.3529879203807389 0.12737764647693106 0.20394786250940966 0.26402209688794165 0.2090536841035543 -0.47972728864089276 0.41641402100217073 
-0.25244337549270024 0.23997693519213836 0.491422682687516 -0.0870048474841304 0.07946856615599951 0.4755894161732884 -4.890832457490335E-4 0.35409328931465067 0.21859929145454393 -0.11703048074642142 -0.20107713671525373 0.13940943928654748 -0.34169947177851767 -0.31334699805589883 0.41425781928613936 0.1696346661055117 -0.47922203674049046 0.4814368080143805 -0.04960204376226074 
0.3675035059104289 0.3517529535531939 -0.3064500380852909 0.29993220831435996 0.15013453786511677 0.09569781412618927 0.27010418438253614 -0.28304009968328836 0.3033724311471183 0.4047511873931805 -0.37384785674427723 -0.08522445776328758 -0.0011155621168419394 0.38852192637660754 -0.4406552995159829 -0.18533787278236014 0.01605372943317407 0.14734105680918508 0.054092379134168644 
-0.1760024323626186 -0.41674914398049234 -0.051876610159546366 -0.35969898524030286 0.05410534007235379 -0.3631463228399652 -0.3001482076035964 0.24616495358043178 0.2017562224085001 -0.28857500983526807 0.46479826932769597 0.29016573378579 -0.08704409263451274 0.12074677447216842 0.10194830083561213 0.09433774546867568 0.32362843821458875 -0.43305189844889924 -0.21930405899900907 
-0.43097304932708225 0.12903302010384243 -0.17624614985327147 0.02572865768776933 -0.4812175048487879 -0.0277721495529617 -0.32008071281037187 0.15812301906792336 -0.15031510354429434 0.16162103202991485 -0.09979421884490935 0.4830233342804223 0.42032940259400386 -0.27137424463335424 -0.436208705658928 0.3408770234326025 0.2718458928309909 -0.3813370257370602 -0.22620170278534923 
0.1870524229467918 0.4967521801788093 0.37223146414239894 0.3966613169562997 0.19376591286910294 0.06210023046169666 -0.002508015465825131 0.18634495368996606 0.4785968305804804 0.4892901042952761 -0.13821150965793394 0.3759624213456886 -0.04452968764089105 0.4110897514225248 0.33675621771668574 -0.4218661748919914 -0.023159930154869834 -0.32418707188182627 -0.3798573762747579 
-0.37453782406548153 0.38990382154877345 -0.1507281133356082 -0.3728058210179753 -0.19620543693764403 0.36503662545255344 -0.32296471835054064 0.09543824493801767 -0.21652533864475065 0.37122837452817903 0.3126858600185346 0.07891609843813407 0.4375819593669563 -0.028836795526302805 -0.10781345191976677 -0.17860082017091616 -0.34880783993784226 -0.31231938841687923 0.34012778726546766 
-0.4071517933755232 0.17198223355119857 0.05370916847093088 0.13054261158428504 0.4493501574137956 -0.4699573653360003 0.09936545081163439 0.09314062765888009 0.03399565637859725 0.06354832711795555 -0.047237536133401536 0.2552255624558306 0.4746353415693596 0.12697937611656107 -0.06482674016075618 0.14022533645004165 0.15418055556934285 -0.37012947948611963 -0.48345294223631874 
-0.09432210373582606 -0.3699099473582649 0.1566090725317939 -0.23602322172754864 0.19667949617777347 0.26191144480681516 0.0515883944633011 0.4635683818980273 -0.38478292312894347 0.16922194788173595 0.01906440407391763 -0.07473590573310562 0.26146949959806964 -0.012959680454165512 -0.01664928761468487 -0.40947705159981285 -0.10992287335670237 -0.48824209644920735 0.18252766056834402 
-0.04563606239159945 -0.15745704310080277 -0.262136536362241 -0.2723707470039898 -0.013871680328655822 0.06634303175010348 -0.025787020627426327 0.14931131593044977 0.18741942132001388 0.21198696049210553 -0.30167759018571916 -0.22470716546071423 -0.3389702623875871 0.011184752537516385 -0.4418625675005605 0.1344021528976046 0.08126662085309266 -0.11756094861467348 0.46296131650978134 
-0.033152045371027006 0.253939706269501 -0.015203395482357496 0.018698392637929162 -0.1646251203779413 0.03337426443658198 -0.2538432634989666 -0.3427031544621303 -0.22174797362459386 -0.27583320411809487 0.22944841998551624 -0.3137479462564553 -0.07741825034828898 -0.26299948613936996 -0.43184803864281496 0.1412568523804305 0.48520582104365984 0.19068964202087324 0.10205497850756018 
-0.23643692411458317 0.12852413430694276 0.3567235190505843 -0.225203128239838 -0.35665564641558933 0.20983098615789475 0.32793281758723225 -0.18333042759788543 0.07132701543821685 0.06531268564040793 0.059501524541859085 -0.2706931110467904 -0.07681735655957933 0.10363919714496206 -0.02159950079794748 0.11330824761005731 0.4646522313327378 0.149121986833901 -0.3135807962388686 
-0.06449247127735414 -0.18990180419826752 0.1706989082892576 -0.10767556560490565 0.41951074253818355 0.39315777842650523 0.26054611215235546 -0.3997238294122898 -0.13870876522369613 -0.28460281403515497 0.48490631324603994 -0.24551793593001958 0.3210446578227846 0.3273428342055875 0.01976132858522195 -0.005825961373270405 0.32317023221307595 0.4659923355254262 -0.19473363087350581 
-0.09165841767767646 0.4081587678373859 0.023884758474834067 -0.19459783987039803 0.19625831294414053 -0.37666797842468214 -0.4429640327151333 -0.15690952794998547 0.4376897061333658 -0.18620794095385274 -0.14747858579590023 -0.10394282649474351 -0.244228731371686 -0.11939663715921545 0.1712156974497715 -0.3149832351631434 -0.48410129395263957 0.010144398576305669 -0.3428258288151548 
0.3632904007820622 0.3455721232799692 0.24672942199992243 -0.43763099762308666 0.12575950827444027 0.1829888801371865 -0.3199844552289657 -0.12603187781507263 -0.40490478780455175 -0.23371926024837097 -0.0506260927765525 -0.34892718856550875 -0.08550625750038432 -0.039357506624797645 -0.27068188747654653 -0.12119481925267173 -0.42131367633760897 -0.4127988263111029 0.3532467704084863 
-0.07013546540442772 0.16878140915984818 -0.03467407649262422 -0.2428284893730276 -0.21285298499626948 0.32153652130549915 0.2091811457325642 0.4807655618785297 0.02575062418049634 0.45994516834621935 0.42967570027156876 -0.45001773722297866 0.17866334508765602 0.03956430158782798 0.3845639540995157 -0.31634335105297307 -0.48234095788878273 0.32379631192919744 -0.2076949327006955 
0.41591778161341664 0.4694025808698179 -0.008621445119459503 0.47938872113693265 0.40690287040761 -0.14350829025737988 0.20062294023484617 -0.233812732368041 0.4261792533075792 -0.09585972455366065 0.08748667733056603 0.012995601326467154 0.23644327886722993 0.4854334233924962 0.0583445727244315 0.045771608495995486 -0.12051990141318036 0.3915624828611963 -0.34662766429207537 
0.2601919262892717 -0.32796810683751654 -0.4918266054083982 0.20273950117612305 -0.43701123296149336 -0.44386368409957855 -0.3450605268582022 -0.024650901263487235 -0.04886430179827561 0.3166611649294757 -0.497304541408772 0.0286512720985872 0.45230145972290847 -0.4218251477552276 0.42094666216106125 -0.49190392236836733 0.3540925636349236 0.4239568505994983 0.3282935646351228 
-0.28391971349979384 0.13495689983314696 -0.05813377460411229 -0.3807113957143319 -0.1272178306723295 0.27622259727140763 -0.0050499698562260775 0.02346853937912896 0.1250669111942968 0.1825969497194242 0.039087923046183914 -0.1842174150511081 0.024684724744240327 -0.2324469054326037 -0.13436680519245825 0.1423624165904145 0.3932724995459973 -0.1296174513040016 -0.2660756220892445 
0.35155781756987703 0.21920924302478073 -0.43670621522960074 0.476705899287577 0.12738668958810728 -0.009835768446540882 -0.42021131169748693 -0.18908991844708412 -0.0889732552951431 -0.34478391454072665 -0.4503497464214472 0.2669168931428396 -0.43429942160846646 0.23171025312539595 0.4612257633307685 -0.13867787971800816 0.4912844255004466 -0.07543936133828366 -0.21170740965143997 
-0.11859149743617592 0.4271957052907769 -0.49050855086927836 0.016644024813810665 -0.07607178841460471 -0.0044074981160789894 -0.3532469526261063 -0.11536525633520889 -0.36353012818349584 -0.3683566025343733 -0.26186422871121395 -0.4877228205539166 0.44659644249157593 -0.07639617758184081 -0.08235609078682993 -0.2649188096055157 -0.06789503785368656 -0.45733932490849394 -0.2250182688525798 
0.3816813326402999 0.38517322791013187 -0.11901591040370418 0.45104201448294656 -0.061602636833496094 -0.4461781048936876 0.2361515980438631 -0.18412298352979561 0.02922564006474393 -0.49396440651186424 -0.1189133234410128 -0.4578294989882308 0.4063596441864711 0.055049634952533566 -0.3591203056365091 0.021018759323784053 -0.3058091127816013 0.20872386144469712 -0.33866308804589396 
0.2318676487007545 -0.041158577520214346 -0.3384115146880565 -0.10117184895516018 -0.12525859326393518 0.2856321458207767 0.43506137291404057 0.4869822247909328 0.3004385570854534 -0.06150847833574158 0.3895002979084672 -0.45699615951292516 0.0331587445678555 0.3481618830360397 0.48116701978531873 0.16486402332556305 -0.029936076858759986 0.1301611004630988 0.3178452038286408 
0.34034128947523656 -0.3364340266852749 -0.43119017122952275 -0.2212326388695326 0.23986806490804957 0.4446721402866006 -0.47976458498363783 0.20767048944085376 -0.10263667286706912 -0.4704914421550035 0.4851155821821589 -0.0377859102422573 -0.4032909805353574 -0.33381874381162124 -0.31897356655710374 -0.09134174391360417 0.3762539152168787 0.32542353372380484 0.30461049360982784 
-0.2123865175787829 -0.06029400900377058 -0.08398350376671115 -0.18461700281530724 0.24483817856026346 -0.08099987183725232 0.014760133690176258 -0.004155055379116979 -0.279526244313934 -0.1267950692656652 0.1408101212377526 -0.25332572628347516 0.3207711595843332 -0.3727408635701128 0.17548534988182873 0.06111716750474527 0.25827689392469566 -0.44469582265544016 0.1311896615364987 
0.38930318770219596 0.43961069447975876 0.19560652725503658 -0.3931187716805753 -0.34893977389964614 0.3043808937952872 0.14753963151352845 -0.06743932237621142 0.4849057167413118 0.07444778049410006 -0.45417780365776206 -0.2984601683800566 -0.06875708069551978 0.1596589991283872 -0.4668144455599419 0.11679042476383805 -0.36060741767429116 -0.4156542098907289 0.05987018185192794 
0.33646224176780937 -0.13905883790562146 -0.05171816667978324 0.026827311302110468 -0.20630122709002896 -0.05401050217906744 -0.3835283729264476 0.2592284879519241 0.2871677102767983 -0.20576389539964002 -0.45595112350153966 0.04786247390333065 0.49126230486366107 -0.2705679205911944 0.38572914489949994 0.028225336348504992 0.418719469132386 -0.4364049402259276 0.3136757086492653 
-0.01941376150771723 0.2834382494868005 0.19647196178608917 0.2733013924401573 -0.2709620398844733 0.15757316828653367 -0.04390832844857473 0.24344274326489834 -0.3064823152831001 -0.20548595376151835 0.02784999358727802 0.43550782274759303 -0.1939897186177747 -0.0018455394548457793 -0.25757859849347775 0.2656122973838816 0.44062286896015745 -0.041110660589336434 0.19689310648059943 
0.36438263494540135 -0.27305433084596487 0.04807157296038256 -0.33113121175271687 -0.14898016565823613 0.11709137487703769 -0.33480389852354087 -0.450108991423264 -0.40861957742791166 0.3590310666730093 -0.13413024935365692 0.07238253519737592 0.18424586002590182 0.09232205360847212 -0.33633651724026004 -0.06659124779303982 -0.02438412817831126 0.12704867714159063 0.0952331215578962 
0.028914739454109717 0.487774539920404 0.09277470315220038 0.36563357112753436 -0.09630818900206128 0.26804299023454203 -0.4484684953331006 -0.35045924360765335 0.1951806973465181 0.3115454506793869 -0.14265639436925337 0.41413423423081974 0.3033193363202854 -0.10701917466859368 0.014519051007996553 0.45068295644133394 -0.24600491470677532 -0.14569535472659467 -0.46209066333967375 
0.15441532485273324 0.24026269742469697 0.13839150392112942 -0.14943069147890398 -0.02395603014181724 0.12334131666276826 -0.3668387259161461 0.06772507103468739 0.38335459325315735 0.2545045208573339 0.19631694807802758 0.11068334243460276 0.11755751934522107 0.33932992539004314 0.06775596334194067 -0.029706536348426682 0.006639341199540905 -0.2926244951683634 -0.25511943209423316 
-0.40320130029350065 0.10674134917692502 0.27320241197308504 -0.20455259064613085 0.33139076948006585 0.48263037763975314 -0.321235619389572 0.013260160424029 0.014508049354666541 -0.4903830415034407 0.09253666337417654 -0.21607685596032922 -0.09310609848311424 0.1818142436516048 -0.09264214300875862 -0.47896178216279084 0.34165898603885525 -0.45457902532866523 -0.3731895802975941 
-0.4423591368279036 -0.4109328722171881 0.04075006545915538 -0.44093335734495975 -0.0666641031268328 -0.2395084417529112 0.233014072873428 -0.45252119765589305 0.10450675713074897 -0.29603551371309356 0.1394173086242494 -0.14120644454317755 -0.276862946383041 -0.24903039067259458 0.11889408193640139 -0.47727778004387966 0.2791966320608379 -0.13739590998151385 0.08087071024701076 
-0.12929965759050066 -0.41779163544043163 0.19296220214507587 -0.40928073538924514 -0.24297892322976378 -0.2304733736698139 0.33857075107181345 0.30210847601922397 -0.037870773109877964 -0.22797820327446405 -0.4250686130304395 0.030248091893180673 -0.4242867356523675 -0.0577207419801945 0.1947029991059014 -0.30493977986999166 -0.26366449865395936 -0.1439139638046274 -0.3432173793757566 
0.30960186463170436 -0.03530913131775115 0.13489142207715787 -0.36847912890965984 0.16660071251597142 0.4691873831957454 -0.4949073314999235 0.18453392513985412 0.38475615190399215 0.22539224515526524 0.2094104826493498 0.28005064439708915 0.016495799696538915 0.33498937024558806 0.31628350413680295 -0.4955396899885477 -0.009832280254024162 0.1552457963820767 0.43512449062951064 
0.41170279333159243 0.26218669034651687 -0.0434144706160291 -0.16155447931415878 0.17436937493653115 -0.31155725163527925 0.4137216874103188 0.01627323072714737 0.2878594678230322 0.2893187557797475 0.06489860469691344 0.24393937519369302 -0.08033544992110875 -0.22104705564253768 -0.01585239765766111 -0.16875410287227344 0.12182758810256533 0.45692152078365256 0.3030615948334203 
0.33916787634601886 -0.46814765477874487 -0.18069437825777968 -0.10855493258669002 0.1996718263807965 0.3758140999585138 -0.46385459361734305 0.4602978124244319 -0.1451093691344315 -0.4428505833492362 -0.23642602165769688 -0.4140577118638107 -0.25618923541526817 0.3655792087258747 0.11146207133364339 -0.3292943343981518 0.20779127601060265 -0.12715378197890415 -0.0288060084925984 
-0.34657999680702256 -0.3393516102977413 0.3954242632589897 0.3232343535156835 0.36210452459869447 0.1747031177281535 0.49908317069522223 -0.4095661010567362 -0.23845352595316704 -0.028896083747869228 -0.1038296758884234 -0.41943790077634857 -0.009902093973659709 0.17090002592188236 0.24369559082131342 0.07034293450180862 0.002857792579533891 -0.437244414832501 0.2887836624898702 
0.12330999328667591 -0.15748990805932062 0.07385827972901382 0.027783867439356458 -0.19491502077013456 0.04444005041193422 0.09249062019718868 -0.4536954852242827 -0.4377760016039983 0.4493527217669864 -0.21610398689957055 -0.010335102096996507 0.16456407319988042 -0.25553085757002647 0.06548559520145492 -0.32326468316636947 -0.2239578187129112 0.38347710911691046 -0.03690377075011875 
-0.2851388368445049 0.4152474260690353 0.14576503874653213 -0.34307625843563194 -0.40045533905773834 -0.20549335408076985 0.48706924625041326 -0.35608012219578455 0.18978354600173186 0.28509252171282984 0.006516170961819889 0.09285528163543122 0.13844316231139397 -0.453817656153064 -0.19085707215885261 -0.3510849995265303 0.32676444627869006 0.17648451367311868 0.27833071479852545 
-0.34339297315006356 0.10308761958594603 -0.4000105106230558 -0.2108120059490144 0.012928401819833457 0.15809700549361105 0.281090022478917 0.19177066084357475 -0.36285235318437026 -0.31763029154784805 0.2793555359696225 0.4721294449471616 -0.15077396279115485 0.04673713639319166 0.10053383705376762 -0.14047498411152914 -0.21418532334816287 -0.37805486173800806 -0.22210707261144125 
-0.2102461623281331 0.3509281647398874 -0.48867568840576237 0.1268044002999863 -0.4426214295075539 0.09780958691223318 -0.09133987081076977 0.15550910904832826 0.19375926229014706 -0.13083401776942483 -0.4868226477464104 -0.313705173057261 0.09313212077498367 -0.01513277075343289 -0.06546906133254415 0.34385487150320204 0.1755851214614269 0.259365401171323 0.30292181910829663 
0.2013851921632348 -0.07636923367354642 0.1555057809668503 0.36293266132413304 -0.45998268963888944 0.4581778981018001 -0.06293526912124359 0.17440470297146204 0.37347265283947284 -0.0699436712943875 -0.2307364163702943 0.16965423070453522 -0.38263632426869776 -0.10515078186120186 0.3346721706334087 -0.27644682652306973 0.041355639112729214 0.011640072828458914 -0.3186710384525172 
-0.41852509922417047 0.43244235823710686 0.3603824446798386 -0.29943039264111293 0.4598333588297223 -0.2811218359918398 -0.09204772509390968 -0.15603062191306727 -0.11508067823029577 0.15684721764702048 0.16954410324548808 0.43196875818898217 -0.1320345540311929 0.0657407794003485 -0.09007553094123188 0.18116626153720883 0.3278468236299312 0.01295161291422886 -0.1918436926664875 
0.3829259990177113 0.26755146877989255 -0.20461578139840764 0.36976116213299604 -0.4971384768701401 -0.41346846266448356 0.04241825772139962 0.011886402008464914 -0.161077731443943 0.06827176829101733 -0.2261480218077203 0.16989660297965747 0.27522210644316125 -0.4791104142359769 -0.2136088365366864 0.4779102704542656 0.0994139941096206 0.2683067383577853 0.31353828915307924 
-0.43884646271895045 0.3133290452588682 0.1905093261652041 0.006276054534485764 -0.25539459057418534 -0.14023841493685518 0.2936398482216066 -0.08427251595086571 0.030259586338922784 -0.28730307048051806 0.35414107707520825 -0.1759846088055247 0.024429883260966512 -0.16605847775748928 -0.47410177982834 -0.0341687971245932 0.1068780542514951 -0.41396979569995285 -0.07469726357541051 
-0.08923580138647835 0.025143761577804957 0.3094484922826166 0.1163871187723875 0.1352294517639404 0.2703088987490959 0.421622596323344 0.10665719467916057 -0.3971268720561516 0.04452896405403439 -0.4242064420811603 -0.06602551167379234 0.4936221583278654 0.36601663286350594 0.12980580235985073 0.1758180466244701 0.07408477665591884 -0.12623605394992865 0.4180049995950049 
-0.25551814221964564 -0.414202993125084 0.19214079584310173 0.09385374149191805 0.14523979620558491 -0.057150209157467935 0.2946094241441345 0.11653761813988428 -0.030762123592603552 -0.023279869789942786 0.16614590204990098 -0.20825129325078873 -0.2311513070454897 -0.056331290325181915 0.2055612996694357 -0.35500290334775253 -0.3795493271915238 0.01885580633844075 0.2317666329104876 
-0.1947845277743021 -0.38192932991158957 -0.45863402214452553 -0.33787267050094305 0.0070855913260999825 0.26105521861243575 -0.15437865809248275 0.4164047112703366 0.28242977314162576 0.1999123812499296 -0.3827976529763778 0.3663832178808778 -0.09582542433857877 0.08669226939947816 -0.15511641872783555 -0.30086626268642336 0.1708073863241225 0.33975179852219894 -0.3942680049009244 
0.3909652224605218 0.1749116814867453 0.47747460973711786 0.11640306655946919 0.09946810502274572 -0.21372010670626673 0.30149452515201824 -0.2886896613487543 0.17265456831507608 -0.30173283364187287 -0.3828026239772575 -0.33286780924052595 0.14705240500044947 -0.4645362814910209 0.3677519801399949 0.08315909824846945 0.06071074078381089 -0.2985732119862634 0.027648429889698845 
0.34827370449465167 0.14242741027573347 -0.14287175071523084 -0.1473020714939045 0.07789474833517607 -0.04489063929941506 -0.3360630237810539 0.1156749821765225 -0.21199435717706216 -0.13097092673117894 -0.3006301837987363 -0.22974052286351154 -0.011573438584603357 -0.18015871186892962 0.2595088666143175 0.08066286489931496 -0.17622094492117235 -0.3334234216170344 0.09889704994637949 
-0.36970135505831636 -0.1318695399535874 0.10642875507703209 0.026887094351932483 -0.21991523701440252 0.18809465626142918 0.026005885847647403 -0.3211651521060499 0.08544117112423211 0.32920516209253325 0.3728152701083407 -0.28881012512042925 0.40077334872423054 0.4516648798315265 0.1161048932382528 0.1314521757880881 0.401208200899413 0.4441166464782824 -0.36721482265865923 
0.46712651552733986 0.03357590636120744 0.4778672641620334 -0.0979935359680516 0.0022207664724108733 -0.027892226762507244 0.12903705981253422 0.221069277448129 0.3654986095847774 0.49904648665346163 -0.10760426553972513 -0.23430421509898447 0.3416104253224127 0.35634187663085337 -0.3618151712696417 0.20929278799613316 -0.10560878701477583 0.02183196274365662 0.3220157496593793 
-0.21131213848089492 0.04102752003190857 -0.44821457624013195 0.047971599135214205 -0.3420782546712573 0.39646011372445655 -0.3985918759743524 0.40632991335012547 0.10703197966012334 -0.080697255608559 0.485893529459012 -0.14013719555884185 0.23936420724276963 -0.3662783643085932 0.17682215701184067 -0.16354018291515304 -0.0012011852946595125 -0.12386555686306733 -0.05780665400046181 
0.10085768516337767 0.017382664147292615 -0.07874887570913469 -0.06690226817147449 -0.07544911351190642 -0.38579312522259734 -0.321106166624363 0.39601640050595066 -0.4495048031217316 0.4179733846603144 -0.4788037052343298 0.3469588272835714 0.45800605065971767 -0.49145573390935926 0.19919805949037928 0.4821280834033769 -0.026707797403924816 -0.32313027827402563 0.2385118811709226 
-0.18047110688783008 -0.15764524056407703 0.3880421602625541 0.1656579609215253 0.06691028486713546 0.48551985757608807 0.2988248444384247 0.40982164024786294 -0.0063388976345925 -0.21333649572992774 -0.2711438764607842 -0.2507940392635517 0.14775355250011957 0.4352247837930918 0.31383066088479217 -0.273185904004118 0.10355631489909056 0.035394061824986944 0.17931168022889743 
-0.45258888915187767 0.05231493857264602 0.42440090483215764 0.3654290751961672 -0.41442179414982816 -0.04567507038929974 -0.09938427220275725 -0.09442975205508286 -0.21581297783242126 -0.33970220170832033 0.3522187246849895 -0.08372828918030728 -0.09671474769289401 0.3791487620941625 -0.4015221430772564 0.29087164558865564 -0.20870076873588328 -0.3795901957083665 -0.391782324644246 
0.10608431025591913 -0.406376941051536 0.2716992967236622 -0.3561511201734706 -0.35149030834664463 0.08807791808251753 -0.21484443452647772 -0.20563166089865126 0.0471924722657201 0.1423891103780739 -0.45853146820742474 -0.19297196929028693 -0.14130315208951316 -0.3742571682350414 0.3361197950097048 -0.3950897031260918 -0.4072356667060927 -0.02535161555065435 -0.41033133013880085 
0.3864361577021804 0.08947423979478175 0.01274578033333229 0.3223975273997026 -0.2571276433635632 -0.13707297452280698 -0.44513747154867045 0.15335695389574144 -0.1988082469836029 0.011823448133973513 -0.2124621383453683 -0.4151724396376729 0.0021810397792395575 0.06391280855628201 0.41139637389629136 -0.38455827001110554 -0.24252152212658828 0.1691361278678628 0.055167067116589696 
0.2886854053827673 -0.10573631557273211 0.3853911790685177 -0.4731916752811116 0.12822628311361417 0.4926104161939454 0.4111977962486826 0.05411274253223852 -0.462508159256518 0.4480524238456619 0.01114356194602284 -0.21466957273457643 0.14814634043591757 -0.14929858601795598 -0.4471579526669416 0.4697630070871527 -0.20940640327329085 0.06229539128302497 -0.47176392421752633 
0.41894478354313247 0.22935779608889684 0.1938445670308292 -0.33256851689652633 -0.4390583031955694 0.057172140157566664 -0.46091885131060883 0.2698474611811863 -0.35653754861589393 0.17383076800060093 0.402708325636534 -0.3246785831361406 0.41589074707666285 0.08933697621684689 -0.32251706348241627 0.3769079391191362 -0.0739890359974158 -0.11439385420278791 0.47045527149977817 
0.13746285531405467 -0.09588562042573645 0.04695965075931763 0.056228570681567724 -0.3862947829783383 -0.42466333524571664 -0.4731288498438976 0.44388986413691456 0.41430086710182323 0.14049134335554303 0.35690480401140623 -0.11569730436079506 0.2226142215957545 -0.4036714665311205 -0.17649010873315973 -0.2842583782376634 -0.3998754463154721 -0.4719383723580386 -0.26068563797346866 
0.04838724202475864 0.3531065451486911 1.6924567889353703E-4 -0.3822147692921023 -0.07801045032316256 -0.1069749940293695 -0.3041064987968316 -0.37639882048094364 -0.26395335866363945 -0.1498041061327341 0.011519850543454946 0.015808418684867154 -0.051865428304445405 0.3106173806167326 -0.10156238380976423 0.4268085259289345 0.2635638025659808 0.4374758153570213 -0.13585528968955463 
-0.2725476733498029 -0.20167422979998995 -0.08831660250606166 -0.30722606549586007 0.4169914377653736 -0.01266666377811032 -0.4200939986326836 0.1263821855952434 0.4463650229217412 0.3312469742809434 -0.06610951094319761 -0.03984185251732453 0.13427630672985214 0.42771808278521395 -0.43849656444894936 -0.2521318212938478 0.36773951877070754 0.11666988153605673 -0.49225617882774353 
-0.41172633263217717 -0.4077450125628671 -0.015724755213937347 -0.43690556368427735 0.26891813105343887 0.19149621652946658 -0.0834201418914019 -0.14307232308789897 0.3805952578397225 -0.26763037712874715 -0.12874150008420893 -0.2247159342196836 -0.1160259570203167 0.20853416286128745 -0.4552192410069047 0.1451918342705858 0.00927091107050182 -0.14605562546241102 0.15230211868939447 
-0.16820093334659314 0.30052259633610545 0.3177073630709779 0.10888501005171336 0.37994012221466267 0.07792798643004184 -0.007479588089830624 0.003193605635633645 0.09836064158478053 -0.4151091189126582 0.0711825650723017 -0.11140471368303273 0.0326764060488236 -0.3891901169791967 0.46915045989403914 -0.4183592093286661 -0.3977569345573875 0.43632563490598775 0.09583452302199058 
0.35418375235278265 0.2864651492492042 -0.46535046315471673 0.08330892362572406 0.13293998649500882 -0.3623251302484113 -0.41923743590539775 0.48833505237867525 0.07907546001995447 0.07056201881570412 -0.030313933062717124 -0.32792589460156185 0.21045114610683047 0.3322383587760145 0.225691751654036 0.03159246009125982 -0.44955801882329316 0.29237143542764255 0.39623058558907653 
0.008238495782174837 0.13978640532209874 -0.290576049385858 -0.23247434621944119 0.3301970283757124 0.13171146087847208 -0.07311312927217106 0.013187683270180384 0.2600038101875216 0.10561835416716503 0.0324956019766548 0.19287553414845204 0.21252917303769936 -0.3190984961162845 -0.12622964656368796 -0.14506121036567843 0.48491637296372636 0.49001407184767376 0.46482343003593274 
-0.13485688706797672 -0.0028133969994508234 -0.42131892742065213 -0.2577726035993805 0.48299336241676305 -0.11930015934517912 0.34120135113446437 0.33184008059167824 -0.3621667722303523 0.47138631968500844 0.1700675781645511 -0.02616639488192518 0.3188147091156147 -0.23435912604508868 0.10167334802267369 -0.4802235134470495 0.4859940824581144 -0.3210017775154669 -0.1263345748370549 
-0.036530946822866506 -0.06577391221452034 -0.4888155405862026 -0.02546235707487554 -0.203665845421945 0.09719093273394797 -0.13413387827032597 0.46235261578501685 0.08851706513293756 -0.13419616031699733 -0.10060514448752211 -0.44298346214859086 0.08844928859620782 0.11342010530494884 0.1800726795161397 0.269320862097454 -0.19351678340745349 -0.23033655403816955 -0.37206147111641996 
-0.37999583394817904 0.0023057613925531184 -0.034631225194471926 -0.025195540230294244 0.3233764309194942 0.2311910057605283 -0.016955014514934086 -0.06475465413108827 0.16258709701650942 0.12075272726819042 0.4904275214989515 -0.1885267124524106 -0.33259286784997244 -0.15228946478840732 -0.19089592778275577 -0.43149580107534 0.12043461680604162 -0.13671673144139718 -0.22413860012612785 
-0.4892497594895111 0.3639223401694386 0.2761763228648225 0.09131477161565305 -0.43285061477950226 0.3569648525136848 -0.05626961688779908 -0.08145395823063384 -0.1508315646879973 -0.05842820570394802 0.24465042446399377 -0.10610967138613603 -0.41550603090281146 -0.18380707171382726 -0.28916355525794435 -0.3573251405480209 -0.2510490160063066 0.28654980717084555 0.18118733671582543 
0.3546285120911049 -0.27983369583208195 -0.03383226851479715 -0.09314739978527431 -0.03315625438087433 0.058720216077286724 0.23279091762294013 0.08525676653310577 0.02658725195814493 0.08600607338781252 -0.08809700787131058 -0.3706761004868747 0.3619195071157052 0.2727446084974938 0.3548632667122408 -0.41131948053230305 0.27499732159925894 -0.4219239547713841 -0.19329044033217657 
-0.46878292257724286 0.09109810896330994 -0.21362056288943876 -0.28253396102445694 0.3662398982541676 -0.45418217624267043 -0.4225541776734021 0.44083460259070617 -0.4554534328885842 -0.32644069923498553 -0.4646423708250589 -0.4145629237908728 0.3061096782845437 -0.4276586407384756 -0.4475961671052706 0.13631422002783578 -0.3373445374139884 -0.33687651398171314 0.1165868677920886 
0.3481771920786656 0.10027498387969946 -0.1637456389868771 -0.21524640460196198 0.32694577944608116 -0.43369246031215647 0.18331738404726772 -0.2618905797468043 0.16239691490985797 0.16508737804703888 -0.15044047521700443 -0.3071488897197916 0.4522859853186829 0.12874634470481272 -0.08974531963691468 -0.40411934067651356 0.06709255202906961 0.05211637783128109 0.07376622901824392 
0.4740387163363441 0.04458119402359251 0.08487813826474144 0.4447377606780346 -0.474977153732573 -0.4253427342455176 -0.24054747831651502 -0.4572448176924936 0.039132675301889575 0.13753610651755976 0.3997343534109986 0.2649869255479672 0.023210122294734736 -0.007966102055158575 -0.39638155317571444 -0.4942761908993709 0.46161979990088586 0.37582692935518436 0.12137022886472859 
-0.29859663286676696 -0.006158879231651482 -0.024184744441949513 -0.43775581501713445 -0.34338170804275947 0.41422009835091633 0.4542657092950493 -0.24664431384318286 -0.37522806002592857 -0.1933444135615029 0.0751986760830845 0.24766259059524853 -0.23354125633297218 0.31547126465797704 -0.23447853732442658 0.4320147912589236 -0.2106896723542404 -0.4765491298483534 0.26670066725385844 
-0.07841816745024222 -0.2150362819111057 0.15899138420159942 0.38530491656140964 0.4435698172426512 0.021970391320255467 0.38655482685949405 -0.2654618804664439 0.21099042397897028 -0.27211969791620094 0.24807616823119893 -0.2260771520785242 -0.1336533267207224 -0.30060152653700367 -0.0822885303354729 0.4005822806588293 0.435451654130784 -0.0835741292714115 0.30828687070713956 
0.27161301618194916 3.487028836404704 -0.20697526454757925 0.7560806806013027 0.16145655091915073 -3.068804671000136 0.805808841693395 3.3284128707320124 0.12703231429728956 
2.4524921441275636 -2.023420903921441 3.320301489260279 -1.7315489854620425 -0.7373013634321767 2.4164479765417464 -2.9146564589612507 -3.0920710852592777 -0.22953583629456797 
8.757068429738208 3.352677028014169 -0.34232733310442565 1.4412200788966651 -2.1416012583094917 -5.05901080720688 -4.915609335450995 2.4867111209675126 -0.2791269876657154 
3.410990865864237 0.8533967557156696 -0.5227068261313944 -1.6673039723413878 -0.9059196148594302 -0.9952833187427481 -3.673965483537488 1.344652436656032 -0.46276255431486035 
-1.319309149058737 -0.5664366831902421 1.6268547034784548 1.3950331753652032 3.1949797305930843 -0.3334801018727983 1.2347314176860404 0.18036980151052046 -0.17681615393474115 
1.7598512128243096 5.060961282338218 0.9786715373497081 3.8368934871415927 -1.9721670855147044 -8.17998776576934 -1.8082475190303315 7.327688722423332 0.18386714777868496 
-2.8786793662700703 3.4711336155425956 -1.9928574794732856 3.8662485215372744 1.3834910254487205 -3.4766192981925186 2.5491457179981927 3.0694970792852825 0.13683315259239015 
-7.238836037918275 -0.4453628949573495 3.1067893761179213 -0.8092338826281761 3.6977319015288894 1.6803655339818362 2.5215085974874247 -0.22765626239167222 0.33967357262722875 
0.23462834411295466 1.718142833504378 -0.05242873681575373 0.2384783424920099 -0.08581781726961392 -1.8127511406336776 -0.6011223716913223 0.7406130916385639 0.34442253175183046 
-2.9438460468269003 -0.7104623032261348 1.253471245566641 -1.6534163797848422 0.3335502065989261 -0.8567743871234146 2.043204327693193 -2.8629724693582213 -0.03271952984652582 
-0.6776449198853984 2.463130174127362 0.2859509644296027 1.8507121341483472 3.013069531866053 0.6850798062174073 2.882156622125311 2.1873980866454112 0.4014818423291072 
0.07483118099590376 -0.1049994991896074 -0.06289684819392191 -0.460473573052323 -0.1880553690269915 -0.2632957602677554 0.36249976579810395 -0.18896208774454934 0.464764616598636 
2.7587686012653387 0.9459741025017894 1.5761134674044475 -2.6659441496053953 -2.626136811733699 -4.361228268142918 -4.126015794177457 -2.1642826651278497 -0.2659205753746694 
-1.257808953673338 1.4295630081078277 -0.5966665361223704 2.5300380570908714 -0.6842662482754825 -2.1276196339061704 1.352116619418561 2.047671413357685 0.3578640009456243 
-0.7185775782373867 2.371690669113627 -1.6551714057828364 2.735753475903568 0.4069474057573656 -2.657396712146337 1.6939480444123112 2.57350370529637 -0.3048473350604475 
1.8739313001080644 -1.5371961943119354 0.7644167216354286 -1.382288789969645 -1.5944063574872316 0.6691178062354693 -1.6099435629195764 -2.1366059025120157 -0.25753175423272257 
1.5893904866192252 0.800538033545492 1.7629450935324724 -2.5411345349687613 -4.425312356629433 -0.04182941580988765 -5.45168826579433 -2.6451093479408376 -0.3220336785441441 
6.479340713996589 2.929509732592331 -0.5060864492597281 0.982156447744183 -4.6492370814200585 -5.975208896045338 -4.917609997065236 0.8752783161289395 0.0654134356213778 
1.2217292945867446 -0.01315644773605984 
1.4300270113300035 -0.02795424213410269 
1.6029996150753134 -0.3541285695265862 
1.623408559517483 0.08181036411187037 
1.7836336638447572 0.32384435279190515 
1.7764406125408108 0.19252028340378946 
1.2671278217509616 -0.25309107091361704 
2.0596683197661987 0.33008866222034194 

