0.133563366770584 0.053222436642354154 0.17978646997012815 0.2837856654691866 -0.03413372106900969 0.4868532455349175 0.45652894370007224 0.4020178040965865 0.4311898311819714 0.07758894645610881 0.09623166066078281 -0.2850815500227508 0.13137765851549255 -0.15540205695630716 0.3954453936430463 -0.27889751211616276 -0.4912703457226605 0.40233644698773696 -0.08100901459905108 -0.39288611395630735 -0.11834588860131867 0.4108183376538864 0.40660470009751315 -0.1055932815527606 -0.41370323843681844 0.4547457279723657 
-0.40674620932296524 0.018314721970140724 -0.13190158780641514 0.48202382080143236 -0.21126552298429657 0.39384979600773273 0.17211533649405375 -0.055120959850691875 -0.10482866663853885 0.4889895505111519 0.39206917288885335 -0.04425510321463888 -0.21970476747111056 0.04818493631693466 0.455476686420484 0.09527515085470661 -0.430114822736985 -0.11286129431474878 0.34584168360433787 -0.008710898427788272 0.47451652304602854 -0.38552382872064506 0.2927745596088408 0.4251492659121504 0.22376649656716907 0.2267499683141807 
0.39703811093998287 -0.4839827700773638 0.045285200626159594 -0.22970939489916142 0.39990025047003164 0.48362823341445027 0.3966485406559733 0.1667352716752537 -0.3451919945126475 -0.4033292348668166 0.33466704140132153 -0.14136269138226798 -0.3857209426233936 0.1765528941276756 0.4898326260749384 0.14737949806886197 0.30604077415298137 -0.0547182627629218 0.10284274852883646 -0.03231601082504931 0.3398288565104285 -0.41862150670046494 0.4756496493661979 0.37133286315982394 -0.04010911740164336 0.07919641804704691 
0.4912399378246908 0.17728271125686323 -0.4618774874173164 0.39470437040269657 -0.4356422973977925 0.08617785223475305 -0.3111024447955706 -0.0952559285665765 0.49964203250162964 0.054336080910652784 -0.12096502817522625 0.40696448979563804 0.25415768848171716 -0.12439768300715714 0.004979745316043838 -0.25591810845089513 -0.47194440679268423 -0.270965181011217 -0.08584350267845431 -0.3511902766421793 0.44010750937169674 -0.08379045944994412 0.2585880016131492 0.07474750385678353 0.28411698743442293 0.13399833741590228 
0.38625346578010866 0.10371338102655159 -0.49228325049130717 0.4069969761316611 0.19929423433218407 -0.49854971167010464 -0.39317981473166363 0.2383493403643666 0.038057418395888165 0.13133099714987306 -0.41299729958522313 -0.371465450910507 -0.31389929828930785 -0.27036742069225517 0.007346294971687928 0.3587537143664222 -0.46633564139612405 -0.0038540494607653963 0.3927888068259565 0.33887399675087815 -0.2142503996418318 -0.43966773785343405 -0.0222234863873102 -0.12054295037780416 0.3558248329145318 0.14593178457525235 
0.3270274486212372 0.4632203518024405 -0.25268572554760815 0.1758778882022094 0.36846970973352156 -0.036651040326013296 -0.20759335393873457 0.13456278289857038 -0.23107240784218108 0.2843969319570223 -0.40864650548053016 0.23594746320776083 0.384885679966384 0.08608654915658642 0.3753109627257909 0.33370394271060955 -0.27133098956622004 -0.40886493173319927 0.3019098877520733 -0.44647767884557377 0.004635512660313035 0.47530809993657586 0.38512350550725094 -0.1720884191587454 0.29048408977147233 0.49121962935703467 
-0.1403660666288149 0.37026730579421585 -0.1344596984079588 -0.2130315181874849 0.28478156414850087 0.1376757667623284 -0.47911130852502104 -0.15347801627454694 -0.39568532795893063 -0.49913167830452776 -0.07452070735328586 -0.3991727536697308 0.19553874175228603 -0.335063996031581 -0.23215698090036496 -0.4630487586851183 -0.3349015391136059 -0.13414106854480912 0.44480893750974637 -0.43287906776287444 -0.22149209286845628 0.005601242145199192 -0.4733759433554897 0.010355230239606605 0.4466767964613453 0.18246657671144162 
0.09213395960736592 0.286450608184171 0.1350644056864334 -0.476394500014227 0.2981906400645631 -0.17459742113570742 0.40972478308882565 -0.16698950555939118 0.22421169027029653 0.25491605454071686 -0.41060993499245 -0.1689694389452 0.11582239213723655 0.14447677052008612 -0.3661286640251986 0.18038180932521308 -0.3592290035750386 0.4565277514912679 0.4664397272229609 0.06882652337203088 -0.3341860667425042 0.38361378692588355 -0.0985176834637208 -0.1498623572909683 0.3650270354349173 0.43492797842127784 
0.22861144778554876 0.13266203019345524 0.1780053970304013 0.4765145279743581 0.2905378458101684 -0.25125999050207515 0.25067297213238815 -0.07354781568839297 -0.4155986895926629 0.23843495521111302 -0.48806922500607663 0.45966303535485986 -0.48511471604584333 -0.16252873843330062 0.46613006502595933 0.3865620012031481 0.43232466093895494 0.47197504927480705 0.11436508208819351 0.335582013146586 -0.4998512135692753 -0.06844329253061643 0.15683730887836755 -0.008318932097881704 -0.2466155210670803 0.21746977634218267 
-0.22594834886294102 0.4212567548105225 -0.06642309746631347 0.04402641288240572 -0.16363819032755167 -0.051535075771225625 -0.184631526377945 -0.39085556402152 0.3493910173447119 -0.36124112714399226 -0.2238905378754894 0.04384662531353534 0.30711126542368994 0.19253625473875657 0.30225600303133515 0.4007280459815843 -0.10512764910402583 0.45510085865403094 -0.025055133939483776 -0.35214728425262976 0.1614298108138441 -0.191283265230761 0.23201615708531276 -0.1027639995027072 -0.13797118329337865 0.4283529506295033 
-0.13511084715792643 0.016014565047966944 0.16385826382791435 -0.24521338382193936 -0.22392196362580552 -0.15639898554667164 0.3006981546884543 -0.43294662444248144 -0.0032319312803903433 0.46956569919353075 0.06534018883116521 -0.27919647830514926 0.34375494742033474 0.4146833026217903 0.23636971801446927 -0.04005658115590294 0.38118337222651744 0.1015274960445347 -0.34984474614727123 0.20601148839477634 -0.45509681897024035 -0.29880839900387746 -0.35060092351567795 0.3830583214612062 0.38589460782935137 0.29915959635683054 
0.06636055890497083 0.1453715727517333 -0.10590301718821549 0.3360457925277738 -0.2681283465565659 -0.15879460763867315 -0.22489239798685345 0.4478679236975063 -0.259478311223322 -0.33225453243645964 0.369600985948365 0.15571305038243333 0.3478964810041939 0.25086072892212685 -0.3710490313526882 0.3361013640186671 0.42751457691115924 -0.1822371453899101 0.19042115650269953 0.04104801489186094 -0.12688864424191082 -0.2784845649423854 0.13142197380747933 0.03076854679979857 0.1961793452114554 0.323404517031724 
0.42471561820627257 0.3321688950094478 -0.16081917009549163 0.14250302011897642 0.4650825775121853 0.24270590517375712 0.40160748205523444 -0.25866838508617995 0.2928465783772075 0.4619002563146899 0.059067880400792805 0.03233871175927627 0.30078756134330675 0.4517281365720831 -0.05515637978088883 -0.43800687428688545 0.27835472935970296 -0.29768588929677153 0.15886090712611645 -0.14239741804793937 -0.3792745821519 0.31079257658080617 0.3707830460269729 0.10654221809019948 0.41013704166361287 0.16890031567679753 
-0.3080627769612616 0.278397062875855 -0.1369464394855232 0.09880855538837519 -0.3949537911273714 0.29759292748436705 0.3291096584700737 0.47689759289592926 0.2612439795140491 0.027410625194722593 -0.3735909109890926 0.2416228993395958 0.3806116828063305 -0.364151539211217 0.002636770429336077 -0.30568347591295486 0.3254783231423076 0.3796185307229998 0.4225760798867224 0.17071319086958736 -0.34501142633599846 -0.03536761329654414 0.20000683023941324 0.4861857073069141 -0.38505254849799375 0.4196522010363819 
0.21559107700845415 0.03911958425319784 -0.431290213824184 -0.1456461918440165 0.09223752982409206 -0.4054478589165391 0.33289025242905235 -0.4361319083342713 -0.2644322257202666 0.06414666378401557 -0.25407278841180725 -0.31106207017026444 -0.41050958468882426 0.048767414316678526 -0.43195835121687975 0.044147680490990715 -0.19447790446619506 -0.48363325468455554 -0.012109563499639209 -0.21374686045880287 0.27937688300447105 -0.2494092081896292 -0.4057793298703106 0.310459571730336 0.16947910373043162 -0.3755444808178836 
-0.33991022732076137 0.13456609846251733 0.07943628998936003 0.3286403039318989 -0.017276038065010768 -0.44078481741915676 -0.43985707800549056 -0.08460852731299151 0.32384526070784914 -0.4229443614439773 -0.032932204094404005 0.40672338475607595 -0.29669452197911583 -0.15555111275402556 -0.005589281351447095 -0.24044952553972065 0.4131226334955277 -0.47358276211177786 0.4001971389137412 -0.31942191476600357 -0.3604759405736605 0.4788544802869632 -0.4649876216393728 0.14022645968629 0.00735755722901732 -0.45841110545819697 
0.2919593290895388 0.4475561449726241 0.19423980188469347 -0.31829150124279637 0.006556859405824733 -0.08289024503298159 0.0010696051792875583 0.34863004313327706 -0.34732109814311196 0.4837792546397298 -0.08895939041042844 -0.31928783180076903 0.40426647918324965 0.10325407867587966 0.2210466933473022 0.13778432720419476 0.26242869234197463 0.4132998149317423 0.28738021743828013 -0.2752168994407552 -0.016319551638425356 -0.07493632638622627 0.29188197725595666 0.2187578342406825 -0.012551547115739248 -0.03620294526747048 
0.2052089080621602 -0.2851721540029091 0.26960899265268157 -0.315168384728044 0.3006436930022519 0.36624388226070503 -0.39629536033466606 -0.2466596119046227 -0.34512189102480895 0.40952665761465457 0.47261904731032267 -0.3046393741463215 -0.4385402145852694 0.4377256592500012 0.2408725044268063 -0.49724940299529974 -0.3218998665967715 0.41316180204857744 0.05133312412363622 -0.1938022571669955 0.030798216212176932 0.09558787144132264 -0.18997811570651346 -0.18190925809850456 -0.2942555636103191 0.40252052908109226 
0.40882223914490334 0.291013985938229 0.1742243256220276 -0.28443114181988394 0.028287773518954507 -0.06218263542266944 -0.28374846201870085 0.2999038767526945 -0.03862550652919916 0.11566024467843627 0.33541660974107346 -0.18641585689323958 -0.0961930117866272 0.08912383326681317 -0.10955429058159616 0.349272969022828 0.06792026237176252 -0.14356928343485675 -0.09177813758619491 -0.42704709824975384 -0.20579764195204797 0.3480067894241049 -0.31147186707323304 0.30256346837224535 -0.44160457137348963 -0.21193490420418226 
-0.13746869531869776 0.30405850152792036 0.40189533131281296 0.14758691271407576 -0.47496888305458773 0.17319987764611888 -0.150676168576795 -0.08897916489936053 0.4247586580266014 -0.08152565162297576 0.31952852418020816 -0.1707846265144043 0.4675153828613565 0.2638408974239502 -0.11509970037094785 -0.06245340143709355 -0.03629849120204054 -0.25041366242631935 -0.011220564174026615 -0.11910284799534432 -0.36520903216734857 0.42538672110206754 0.39185526942646154 -0.4939116750279976 0.38256730001555794 0.30174310571215324 
0.18584645047923853 -0.24243736903228252 0.22044340959346165 -0.24571995233053567 0.18638243707398006 0.14355895246410244 -0.43205497772841617 -0.2400344919400943 0.3968885045154613 0.4277183649015043 0.3174464507265329 0.18513168691218873 -0.4785892030326161 -0.2549967238364025 -0.3034958887074144 0.3422460637758664 -0.3033004677877672 0.04100870864111128 -0.03035777950836971 -0.314297857853734 -0.28749804303439197 -0.409811032771328 0.4502014078072013 -0.17352948408625546 -0.006100805057212222 0.36121914143742373 
0.12587052657607123 0.011270320885843677 -0.46934574747975033 0.16665521756343404 0.4407779778608033 -0.1660082653922581 -0.24407926824481285 -0.1407470385648577 0.42252828191115943 0.22542085540409118 0.10029505076222522 0.31875007585293813 0.39432638844983414 -0.2981120460996859 -0.42292230311757417 -0.3893878650816631 -0.029659785367095015 0.4442810122301901 0.2907418496629046 0.4921877827213047 -0.10328966652507465 0.02593633801912676 0.20299026566924272 0.39191395271308815 -0.4288775548756186 -0.4887613647129577 
-0.16058554995760932 0.09365752084656531 -0.24938260884990981 0.20633305544957514 -0.12534702868156922 -0.3790254163820572 0.04031989195359109 -0.4408278312317423 -0.304921693646629 0.23501449295166688 0.2450263980851476 -0.42180886771850523 0.10542453159068443 0.034990588655873456 -0.43890112542264814 -0.3327756539799174 0.31940122225449885 0.3815849297697772 -0.11212942864404196 -0.04115235684395668 0.2542213819916227 0.2513501342189822 0.24577613539539578 0.06915029995418398 -0.06489581019427326 -0.325884006942609 
0.40267775202091793 -0.30598913690913276 -0.49180379212062664 -0.39439544188229425 0.33036550746416404 -0.3797279983680828 -0.04101237812186431 -0.05609796580765347 0.039968864145392025 -0.4652206815108555 0.13818235441888138 -0.08886804044946595 -0.32197643778680296 0.48006950687451233 0.1081145142181621 -0.3093816552063948 -0.49580395525108467 -0.07243646802602688 0.14018578679593385 0.03502401089838725 -0.48282452907581797 0.21744096969386872 -0.08256859322084331 -0.4576063710680931 0.04700138227465267 -0.45105820414333564 
-0.3737944682288693 0.4347269545545034 -0.4098978911582437 -0.20433779212780234 -0.34289132669040423 -0.03234736115804293 -0.4724220053325706 0.16748147668556912 -0.4223358983765598 0.04996851168520444 0.1377700752603821 0.14407725049398046 -0.11211868571531736 0.25825985352797065 0.4909140344825321 0.1645566119892925 -0.17527101197424189 0.19450142026323536 0.396685427488391 0.2735510923427388 0.14267144689453437 0.05349590294354989 -0.43529832751343933 0.29619362203588584 0.36480639162598694 0.3421952622138156 
-0.4664472352193858 0.14271603281201795 0.472773764033239 -0.07560236051053804 -0.27430855399314824 -0.47202405012406 0.3834888485707566 -0.0479922783018063 0.1935205868005644 -0.26795761534117457 -0.15311464283234644 -0.21200677576583193 0.23627403094133825 0.025039027808072545 -0.40876263904824117 -0.27363362441870065 0.08779448074719887 0.03276559335059914 -0.35873916024589725 0.17096355428376275 0.30207005465336145 -0.37081310237520526 -0.26092001701553735 -0.052507521516751865 0.2963990393554897 -0.09229981274450083 
-0.29072564765363873 -0.40773892166879 -0.24869037131630956 0.4051615773034468 0.42660756675672673 -0.21380225339625303 0.21187020546686053 0.03097236845909601 -0.23133045747472436 -0.4157823528134996 0.28678253887923266 0.08809670266586156 -0.43445183512833774 -0.2723142259174911 0.29965880381768384 0.3637022977566028 0.09477860160450446 0.12167197693103815 0.11114066011197787 -0.48581384330816246 0.11220124830767908 -0.49111114488327434 0.10102688868667509 -0.12733270499214333 -0.24200781114978498 0.4786488259832993 
-0.023666563669884844 0.36659960989085116 -0.06798678553167536 0.21187180834580466 0.15421792881969631 0.44897719466871044 -0.10623939753710354 -0.21787967784196294 -0.04204182062062112 -0.18132424852768536 -0.09042493192663248 0.40783401630867433 -0.24031765348590262 0.23379333845636208 -0.2565916962693914 -0.21761868996192035 -0.49469400991634116 -0.09357542407473496 -0.3326762873891671 0.4962406431845128 -0.2348608135880509 -0.19187789031384495 0.4540425186802777 -0.3904304652793956 -0.4321153100555166 -0.28762989175518106 
-0.4937716466003692 -0.3663852273865733 -0.20374424874074104 -0.046285560916685675 -0.12416262456415617 -0.46413769871106425 -0.15079968054295023 -0.30723544756333154 0.431742637869198 -0.10347880216006322 -0.3912740123688926 -0.057897388709755804 -0.15502516939890332 0.01288043352233359 0.48857780909144877 -0.26979453739621007 0.3783045183935352 -0.4267264014747839 0.48752909380134535 -0.4411945185021138 -0.3094766712140602 -0.49616886605808685 -0.2781971814789884 -0.2563131756109077 -0.004335514362198367 -0.2711042752877715 
-0.13085039785663322 0.3197333345642177 -0.04646385850208157 -0.12007915562335303 0.32136534269584716 -0.06188443587820769 -0.3896762669282464 0.43786880657745275 -0.3874599419366894 -0.4131762431812913 -0.4433502143746333 0.40056935897030255 -0.13291321022914637 0.025324649112722808 0.22536353390754127 0.32919522185747163 -0.40539235529024564 -0.46006019493011874 -0.08753562912354063 -0.4530435398233811 0.14791150946588238 -0.0013860686320855686 -0.32805319747971773 0.3383107811451437 -0.44399393827423395 0.21206143323285842 
-0.2910130753989604 0.2284323073118334 0.24564426080050183 0.2928502036394598 0.27577342708273056 -0.1896237633616572 0.3730137018135744 0.04480181127133254 0.3604189547636376 0.13132294506941145 0.10141450092349102 0.4121574189173254 -0.3482296321757974 0.34947936870760166 0.1812796196422387 -0.32872052548090036 0.36156941125326203 0.22966185609228473 -0.38435078505249076 0.3572287136444733 0.4902979213805623 0.058279053077769816 0.027218329417996068 -0.11662224818892541 0.034174567068699924 -0.27262063540829384 
-0.4176648538426706 0.4342909845932823 0.44815328720645875 0.06262252142899005 -0.02716514140755577 -0.009577343641907099 0.4034056591899411 -0.048519609575066514 0.008351900632921683 0.2777538310489842 -0.49234709642815544 0.4656668680348155 -0.17023877931189335 0.026310427025093563 0.1928459671366547 -0.03425727430070247 -0.38134295357390346 0.16857366439216825 0.4170743687390024 0.1260363356177372 -0.051714570757266376 -0.48788398429430246 0.17621825098072152 -0.0755339125542902 -0.4018954751301991 -0.019635642858183866 
0.07573977992055592 -0.0954536042129579 -0.2628453296626976 -0.2687860605792257 0.3741440256480735 0.43580396196697146 -0.12932228977438598 0.33528591155375265 -0.02297879124285318 0.27402611998636783 -0.16006654976473378 -0.27605767655256563 -0.16578426516212597 0.45420929161606116 0.46691809997240863 -0.198257979352924 0.07254991494725449 0.4367696998536805 0.14369826854278944 0.4588419489868122 -0.01733681036441659 0.4715248796709345 -0.21966881199143606 0.21591808370983834 -0.3290896181537112 0.34414891839484874 
0.045849953792484466 -0.1124990247851183 -0.21410444878522084 0.026250435778941372 -0.23644942987408069 0.4591907503222177 0.23410047019362978 0.2629172148067007 -0.3451751383169007 -0.15996287312706847 0.2101999768351166 -0.1994832870456994 0.3650416775656621 0.27344024947464696 0.18503890044461258 -0.21726287800100308 -0.1495136216485239 -0.031751915702834865 -0.28212170951231597 -0.1757011104302647 -0.2428737598315942 -0.05370301239892694 0.0894014269213591 0.4094620102238482 0.3799777128423927 0.1934618595934714 
-0.2118971057473108 -0.44360041972951625 0.15610873336761688 -0.05164682708408652 -0.17493318259809487 0.13870346137659517 0.41481742860318727 0.36611781390044673 -0.2992268449391414 -0.1382666911231749 0.28528636502406535 -0.14562861054086218 -0.39754609549602216 -0.34578450205067746 0.24501897384026083 0.09411019630426032 0.07165353507754979 0.15444347540384318 -0.21837668754192685 0.1305206472700422 -0.05096882733984043 0.04562710295973227 0.03601516137545735 -0.05307507359633068 -0.12292529214845804 0.22638304676754284 
0.09687105624987824 -0.3803282498622407 0.021279707456538288 0.1900540536708748 -0.17583061316936166 0.49260113601032707 -0.04352107900307822 -0.4695096614178331 -0.30608453098917465 -0.19321706796783522 -0.1426088128015821 0.19212122975297807 0.17665424520580963 -0.1254513088284105 0.23109082519828872 -0.06140906864668638 -0.4108675613595256 0.19640705977083872 0.4339820042455088 -0.4730727989861626 0.19147922292040698 -0.11474703586819524 0.12699508246176106 0.24315737904434676 -0.45846704005617867 0.38435161379606586 
-0.3598953926156937 -0.21951846735731184 -0.23655140523032459 -0.25610208004290147 -0.05909807875205697 -0.0774427160658806 0.4394789898359823 -0.34447705421679253 -0.4681624374379919 0.132146858963184 0.29183049506059455 0.034939092913443104 0.13688197376107525 -0.060678209375723435 -0.3142486349130148 0.18998561517249557 0.48073546050258353 -0.02638370969972814 0.2555191342948899 -0.4853426689414906 -0.18764851892585754 -0.4090348896329412 -0.3682488253084313 0.20926843000545425 0.0794198928578621 0.308957943186266 
0.33147037815494285 -0.25727507861000776 -0.17841049316203317 -0.3171134153205094 0.3616153568254088 -0.35505159606006953 -0.08240712871658573 -0.169742536015282 -0.017807034366055574 -0.25418492913154467 0.2950677460651584 -0.45711336297764593 0.3770284116615733 0.16154363642674985 -0.40824620066661654 -0.18660987990945432 -0.3119240965589296 0.17028613959055028 -0.4571250204811155 -0.35317236277790887 -0.01648894783731092 -0.38425339640653866 -0.43809868059002244 0.2284532319274718 0.2503336057178661 -0.3690282719094745 
-0.419483321759055 -0.12502895023422167 0.42896709552675505 0.2840290679838634 -0.281498728678351 -0.2906091150203167 -0.15965005050402925 0.21310812680458757 -0.23462840731772472 -0.3314778485823603 0.09526999109679168 0.4406497296203252 -0.22699798236955404 0.2773414939130866 -0.2787974607391147 0.3344301626208066 0.28208618114765316 -0.3940865267795992 0.29367005644426103 0.1180960128021118 -0.16482160530569223 -0.03776010274725028 -0.18285161169518271 0.4244666748776459 0.4651883767416055 0.16835824487937112 
0.4648039440963192 0.131991207964273 -0.20941446286579668 -0.28279497594151737 -0.44314781642656087 0.1280670804169014 0.1972016890883196 -0.2857947873406038 -0.16591285015348645 -0.2975018530565313 0.3414037377743391 0.2702445204925036 -0.3338613975400907 -0.009810000716190426 -0.1294587482287327 -0.0683741817800797 -0.1767286541106925 0.2542506831293546 -0.17604419314782604 -0.19219252542130805 -0.1639502635077118 -0.171014532264664 -0.348527270191042 0.2891652808816578 -0.23105279184298566 0.22684440071705925 
0.16617786157846814 -0.3652834400078512 0.4419890531147944 0.2542018517104335 0.034415422441046895 0.2536886527064991 -0.2512253373394462 -0.02208249583558719 -0.40167480389138244 0.20501086383843647 -0.260267250656646 0.037948547839027236 -0.07512899546756213 0.2952530983115056 -0.4337789213484179 0.11085324501423177 -0.019805918950885237 0.16823047339205766 0.21409038298130834 0.2948461141347384 -0.26074109340652074 -0.05156218102409049 0.194589266352183 -0.19086451461416798 -0.14185898409948117 0.32567431772154465 
0.0059954787135405585 -0.3214052837175728 0.25993965006402264 0.44966252278468255 0.2311161125434752 0.009387928281629154 -0.3848194258665826 -0.3588375192682485 -0.4061924746216946 0.0519923752033743 0.23370748803673103 -0.2799737596527989 0.16192336158203635 0.49512902379492985 0.32744310352844264 -0.29916607724282773 0.15460685894714965 0.3374340433702129 -0.0479664138889806 -0.28680291763923194 0.48860169551046406 0.24327325272812805 0.19027357793901634 0.2665113264257807 0.281263169509372 -0.4950769969949882 
0.3013407582768868 0.397884671502292 0.01720927065368605 -0.3945897024814905 -0.3727472337496607 -0.1828360631280116 -0.018940523031302114 -0.09537425970750923 0.021591372499635053 -0.1055735664862485 -0.13953378545537254 0.1558933756755836 0.4454220370450417 0.22299992575370098 0.13165241060616661 0.4010013193551911 0.1614694334541512 -0.46498133214853854 -0.0460740201994716 0.2887677762405704 -0.35000699799808865 -0.0532807837927044 -0.17984999608244634 0.015537058323095487 -0.031561878196378124 -0.1328758286393653 
0.13690517055222673 -0.10442893926352614 -0.2181767058136237 0.41645846955885346 0.24108878610306372 0.03512106185794195 -0.29804591195599905 -0.13041291052390358 0.09895282000408567 -0.2939639340230803 -0.1090602039821329 0.4649589101551477 0.0790906440101371 -0.20691660988701632 0.10811975795735607 -0.09901322413877311 -0.25735946643879215 0.12372799883883379 -0.4906097520057149 -0.020511214009728773 -0.44801857782838084 -0.4200629631133709 -0.45594511935980964 0.14976158085514724 -0.2365454270408408 -0.3613531427753136 
0.23670494783947604 0.1570513575582394 -0.4598479597860591 0.3908495358258194 -0.009731535608843767 -0.3943661197463525 0.49757142249271735 0.14882647476996114 -0.19875050649432613 0.009409832627843007 0.47794350668169383 0.46687717955085817 0.4393126517992222 -0.17813237012767846 0.33829765200854645 -0.22703870313829777 -0.28925017478860016 0.012460355436923476 -0.06716271344391977 -0.16300763491624926 0.3989994036452291 -0.012110250033174008 0.27195592323211626 -0.013907672915170366 -0.14472899576547904 0.0444845201564098 
0.04823191722588327 0.31793575987912237 0.4984614461003476 0.08180646849653639 0.33399767842228734 0.16038338891498016 -0.3240693367340147 0.007812450066064791 0.2755873376390193 -0.32107543075042744 0.43533877551746747 0.12234600926290362 0.03612433557213657 -0.1569810146876286 -0.2373711880869006 -0.22157224416991483 0.0717182500764112 -0.07175224243106804 -0.24762810037244987 -0.21024135784992437 0.06519813264647423 0.35325489358486506 -0.005925149798521767 0.3780457495906332 0.4870174949885048 -0.07122010107395405 
0.18168295297477943 -0.06479428753291538 -0.19527654585259246 -0.46934700575843613 -0.41660683180927205 -0.48680418151449123 -0.17960902559699388 -0.20055534882641446 -0.45497378442016734 -0.2518315196453489 0.47968052010588036 -0.2834687299605565 -0.3574112715546227 -0.12416022610770394 -0.2333147540948084 -0.1903406870223291 0.44828901620291417 -0.39859154568886934 -0.024507796264681248 0.30066057080190156 0.12915368910115 -0.149943195666288 -0.267611072181402 -0.2762086390447378 0.2585243033267116 -0.15698995764992774 
-0.36809452213429794 0.4152389982553363 0.2880964121140306 -0.48067329321454155 0.24538937286357154 -0.19734126802109475 0.10179642402446498 0.05503706328288471 -0.4374313934285232 -0.39182444138329553 -0.047325958907913024 0.11894252351020562 -0.3654341075174866 -0.08089552793569421 -0.12987901594862716 -0.45166576778827816 0.30108541074827977 -0.4222859659642837 0.3171100007480825 0.3280837599701093 0.4050002962053051 0.4946777478883193 0.47578011325769065 0.11300508076969806 -0.1756721343870813 0.30042853436010275 
0.044577594922258656 0.04608154190948621 -0.01541326395109055 0.214451641187152 -0.15870526763193626 0.2940971356208999 0.25378817261706144 0.13462170267935547 -0.17626902674306322 -0.45259312029052834 -0.23217849143407898 -0.2729901959612524 0.36333454172841817 -0.28797398307701805 -0.2142482797887243 -0.2688427329166275 -0.26293539378058384 0.15991342045802415 -0.3674455903447117 -0.21336756746794083 -0.1611525303740129 0.19726963044210155 -0.3489279315007112 -0.1662423784812328 0.05438285892978101 -0.13913433042741397 
0.355482585322627 -0.455286504733852 0.0916893529378594 -0.2411365778810154 0.15532915615227239 0.30079828464146496 0.31466040860932554 0.4352843529914099 -0.3978314743425895 -0.05255991603625798 -0.2119643154288262 -0.3437716618375466 0.10015218499798739 -0.06936999849526604 -0.1904248219374074 0.0911396260993752 0.4173630930603923 0.44676514463936257 0.178855999284671 0.0938624520186303 0.1364882241924017 -0.07754008770182252 -0.1680050602093306 -0.3240760282323394 0.39141501592170835 0.4817049557955496 
-0.2422672154912089 0.30842764052182625 -0.1494021521724156 0.054823201177348624 0.3026985702447409 -0.11086451377748496 -0.07145195574318042 0.4369926493401993 0.07230571872202662 0.06776259095029213 -0.3664408168403849 -0.08632377528357982 -0.36138634729007235 0.1352033131661058 0.2927870718408734 0.03611880542241708 0.1776226695153026 -0.14864687358792616 -0.36493860726232996 -0.24785751913049492 -0.024148748133785203 -0.08861403788240807 0.3573143691945778 0.3757906180455749 0.4696787977944774 0.23179164537420704 
0.3522689601674437 -0.18605736596010103 0.11081941695546937 -0.12482576585550498 0.23303732881971684 0.05884062540207302 -0.11257534363964794 0.22675617847275464 -0.3454618470326474 0.20254000929690397 -0.2273034281225209 -0.014270337684127998 0.20214878508101242 0.13261659864604458 -0.278474931099463 -0.3589589702197228 0.29476663736991127 -0.37196756393662167 0.09054589465859186 0.36388991437587914 -0.3675386377134726 -0.21011652871020714 -0.4818505086319508 -0.3318301888579559 0.20815776008775744 -0.3861778104102026 
0.3683521500896969 -0.23472771896393185 -0.20170312388958778 0.039268791181489626 -0.18392442527423603 0.27112218855706205 0.14918050914961878 -0.004905245924220369 -0.46873791457229663 -0.18899335476905876 -0.21628767613342703 -0.19771716197975253 -0.2946132274073764 0.11170582721806488 0.46750664647395845 -0.20886188149804197 -0.14369019919680404 0.37062900358104034 -0.10615660808048066 0.14394477660738458 0.4460456010120202 0.04810439970112357 0.07370606153849146 -0.21646638039420485 -0.14909196713493078 -0.258333072042482 
0.25014694868574416 -0.4059540186605861 -0.3653764794618749 0.47013322587540785 -0.10451824314307423 0.38224945446835523 0.39238706877862317 -0.47955179024418293 0.49532380168917955 -0.23391828412293902 -0.3425311235027735 -0.00826627060127616 0.3752254922693766 -0.3883315044561798 0.4918619832387642 0.30866379910092656 -0.2162972971636571 -0.26911728672222546 0.41859405388436455 0.2702377354769748 -0.19032435968116035 0.298581329433088 0.29570992306537247 -0.34978357684712835 0.48286720074968537 -0.14802245004660886 
-0.41943690351218976 -0.02806672095909113 -0.4175417575327308 -0.2058241830428883 0.18793854182441472 -0.15711374349477525 0.2623062870718508 0.03971733638867603 -0.19333892663845387 0.15346273195146354 -0.4097073678408697 -0.18794531557281347 0.10672661613786605 -0.4806555607505697 0.49487027911716586 -0.36880627025888857 -0.2573734609041548 -0.4214152380751214 0.41364290505861645 0.21431192957778178 0.43841838571027614 0.14204625528198433 0.14681322105919759 0.3529818732140396 -0.2737719642700227 -0.26016862862685874 
0.03259640130272434 -0.17230017226939498 0.10225282009839753 -0.1934651963198356 -0.4177972829605262 0.07373899165204989 0.4629662137251388 -0.3954088958321582 0.13875044284347415 -0.37808273049856533 -0.3108911300360291 -0.002313389355097506 -0.042521067128377665 0.30369047921871684 0.15618272100731045 0.3551498994910032 0.34388870678830563 -0.1679488365356584 -0.23245186319591438 0.19343045442075135 0.1319437020777643 -0.35196564983339107 -0.17014307659192174 -0.35777943097774756 -0.16377158924328883 -0.14279828295877783 
-0.2795637948362766 0.46047041110728093 0.26996088433555 -0.32870472983851406 -0.16762791019913792 0.12149235427415506 0.2850194154906549 0.01732320237139573 -0.2745762788523832 0.436544743949144 -0.43935023111055704 -0.12034034243120706 -0.24046815550973688 0.2927318756012093 0.044276770914128405 -0.49968874860281465 -0.25743130779597134 0.3437515024581169 -0.2691479920970342 -0.22167689058272577 0.2851084828990753 -0.08903364400038671 -0.04357225617583582 0.08136789203946404 -0.37761885584835264 -0.07252755349622664 
0.27715396916306256 0.2108809783461395 -0.3627957414155256 0.4892808410052365 0.3066546373418212 0.4466758688879837 -0.302428724853922 0.4654262883859662 -0.40725455240129327 0.43779397364879624 -0.2912931721540031 -0.33723970964367267 -0.2712852393195694 0.2034130952020229 0.47178263743789617 0.24138242844152236 0.41489603642904227 -0.33904048413796595 0.04012041444224024 0.43310801685922706 0.1130185091823267 -0.09186122780441253 0.2685912854530682 0.12806685520115801 0.2688304326793155 -0.04857963216361594 
0.16305335168767165 -0.43652836130373274 -0.18225281114716796 -0.30441759761768916 -0.04594754169939308 0.17379108017521583 -0.1662160146695365 -0.21275824397571919 0.042643944426090874 -0.3569922997608441 -0.2662084621078564 0.33986668906190576 0.09607560857839692 0.33733527909533123 0.4070195596749412 -0.3414119644648298 -0.3927946247926434 -0.4092834328087189 0.004292348485889996 -0.16980390738430307 0.17390959145121843 -0.23438257388795825 -0.10841290680011995 0.4470306416854145 -0.3966288275191706 -0.38192179277014293 
0.4495643127183587 -0.20695843369349176 -0.2989811964798378 0.2586790488830659 -0.01639282265952069 -0.4638821324979241 0.2650224196175568 -0.07997909844440398 -0.0018154966802552686 0.34285348811959504 0.37463164587320885 -0.18348075050877 0.4848597498520799 -0.1397616336293781 -0.4657220828991516 -0.38624665794136337 -0.32497336453683767 0.1933334678020867 -0.3847572062598402 0.412308073612189 -0.08354083491140274 0.34880922475944076 -0.1771713817417001 -0.3050078777444881 -0.0529776957440663 0.11129648684408544 
0.10935002874350475 0.3865105077924704 -0.14060302719507745 0.47282004972579084 -0.4481025012791532 0.031115158662271214 0.4774306794170212 0.045154728561721424 0.2187075408515078 0.10645253743527294 -0.3022662750749674 -0.14923570388431573 -0.04089373806170338 -0.33922716530829544 -0.4106024238863629 -0.4899457941519797 0.3693763144640634 -0.21413995383434847 -0.3097791943827095 0.12098892798504102 -0.08947010062411453 -0.08051208217015693 -0.010414594199360971 0.061695357487371094 -0.2161467848350378 -0.39109763084786986 
-0.4538662245179673 -0.46250611497622873 -0.29377933581649707 0.16077533437452785 -0.44734472378696744 -0.059130839816295855 0.16955999506814745 -0.44672854758027325 -0.06890167794952928 -0.0037874248300044933 0.11748229069761607 0.09231339638360514 0.2173821557593204 0.22073965152668384 0.2269733490038608 -0.4431722770737241 -0.42130975965522177 0.44880435010599695 0.14417624953553343 -0.0033025168408479244 0.2951848408526009 0.038904433397769944 0.09067733632980768 -0.07765564095548705 -0.06640947175218814 -0.08900933088914553 
0.23034074398217064 0.35630734723219903 -0.25814844052923414 -0.2537358521020012 0.06661947197659546 0.10488077564916143 -0.4979231658321802 -0.4775342037973572 -0.07359600844020053 -0.34818021521817033 0.19324265891005776 0.05473230903482351 0.2788515705445729 0.27631679738464965 0.3356327813308443 0.365413624286438 0.2362731893849359 0.35389720715377504 -0.18424833449124633 -0.4841832271774925 0.08903687802932603 0.31157880369927693 0.3234559666019152 -0.001338446802597093 0.13757989508956525 0.37758392046760925 
0.27230579922678455 -0.08789607644039432 0.40200431422263727 0.09108889453836122 0.21964635933341603 -0.08549714110700268 0.013363691297437752 -0.48105886573460077 0.35468734261677004 0.39367714951067223 0.22063162113648183 0.2639685167443805 -0.41914403480305296 0.37521887556435796 -0.016525082413305525 -0.35654790359101407 0.0829570439298205 0.4415003802819235 0.0633381585404833 -0.13347221367884565 0.04018124952906754 0.33633200323780155 0.3739779132464667 -0.3542717365799607 0.322760857034042 -0.010201614222134059 
0.10746888119008302 0.44057158153163 -0.40692049447779277 0.41362095949404243 -0.18716393115123386 0.45004820894386854 0.2213011606361922 0.28946494430474323 0.171850708222419 -0.45394615684800477 -0.1789097330896432 0.10092954864639792 -0.3098401904316541 -0.4287398279194501 0.012753841440808378 0.3445298868038189 -0.09819754578127737 -0.18738861218032055 0.22914333046043922 -0.3041999384682299 -0.028701243882215066 0.005579717296354869 -0.006087608812162193 0.003716683573891877 -0.23012031112757836 -0.07549191779790054 
0.12223428675329528 -0.36003730898561404 -0.3989403890864316 0.47081360882471834 -0.2791596499509741 0.03912151341083625 -0.24436441699695433 0.18352119801377298 -0.30275085308307415 0.2317120838066643 -0.012669588156609457 0.2655411701040503 -0.27268674622532585 -0.20595483885140264 -0.1823206611768753 -0.45569921184192597 0.2757189414441841 -0.08279759374338935 0.30239312593354484 0.2667845366354389 0.31583133511463624 0.2320090337067232 -0.4786870581767898 0.2667334197335156 -0.1467140839895381 -0.38230785843634263 
-0.40979472255930693 -0.16430123266625873 0.22198448708245244 0.4689864543643486 0.43502809295252765 -0.4201584264325884 0.39166232708343385 -0.20023024979680937 -0.08206787181853792 -0.34918666548618016 0.20295016489178452 0.12088066692674182 0.1591439765040078 0.0017500683685444107 -0.4711368283322387 0.2455916568908395 0.0600105889118967 -0.26164382634774075 -0.14909367727008127 0.048280463635172466 0.09986755101784872 0.21025042428091933 -0.3665058703516999 -0.26983646059542266 0.45302611879989885 0.21919132877857916 
0.18213960771208249 0.33052512925653077 0.3520573985919663 -0.39150524510177065 0.3788758519090386 0.06269650925558201 0.4096838886602284 -0.45809823048294707 -0.1973689065541423 -0.4488905263575751 0.30397251443968365 -0.01964977081901642 0.26278599935118163 0.19906907756951575 -0.16984464676351374 0.22154849758953432 -0.29910008288953294 -0.27353934735523155 -0.17271293536756704 -0.12005443432394902 -0.251399841462976 0.3824264738174321 -0.10091838004163545 0.3536369451056929 -0.031113188092427135 0.46011778064558184 
0.16565259072537009 -0.350059555981619 -0.046387013071033545 -0.481051692384482 -0.49348506917806123 0.422822475355059 0.0016582042621704485 0.15434547579447644 -0.11491109472948746 0.2130495121814906 0.06032075070321963 0.24581599967184453 0.38107904132425763 0.17588563824998937 -0.023287601756364018 0.3612129149062504 0.4994846726275617 0.031351941511702064 -0.12355347384883597 0.39841115836385277 0.17363046130051707 -0.4214911653282377 -0.33633085011513597 -0.3948305726466449 -0.36551073074569174 -0.12208205275759598 
0.21948929470313527 -0.16622385823976726 -0.020298770163633573 0.12538539204620158 -0.13487627081354092 0.25914779512373 -0.1569230448603146 0.31528332338086584 0.05157834414863438 -0.1826318917692109 0.039004675013570966 0.023192534037682955 0.03944677993449608 0.30622687697463147 0.4360645258782735 0.025303521422585074 -0.45958599507794273 0.430137743303891 -0.3997144913355861 0.015959283940828572 -0.09368872371550718 0.06888426936753667 -0.059135919453650265 0.3849182547304759 0.4720759626645874 -0.297035981930838 
0.18979538651809558 -0.1276393121988092 0.08572771487675379 0.237870867983907 0.051751709799837675 -0.0676419090213487 -0.30851928017626795 0.4354759656193318 -0.2283249470534845 -0.19553055100170047 0.07136886378747043 -0.2172620841529761 0.18493358289205664 -0.3816758439408616 0.49626906752153344 -0.09370677429032259 -0.4614752107114396 0.33749653168572513 0.08896543804873569 -0.4239515161939331 0.00169070741820454 -0.013327848919041596 0.15990504359538804 -0.06828406565295786 0.3204436963644186 0.40005156405121156 
-0.35944640164123565 -0.18669596353712858 -0.487116494791653 -0.32086781416047816 0.00976751371398843 -0.02010412014978491 -0.14918010476250687 -0.3455453043509207 -0.21464397730491247 -0.43938239538555546 -0.37190252927473577 -0.0914046750880344 -0.2639842155829061 0.29751971816049494 0.3771520799778838 0.33663083662549975 0.4580772313851743 0.012164939997991397 0.2627113310604129 -0.2045015980895536 -0.14298971187590215 0.25603559524951647 0.3551843053193372 0.12511773192316678 0.37539498240247615 0.28944462951914796 
0.3661685641024207 -0.2881618156864666 -0.4829302733916442 0.3744545878013522 0.21463495705369462 -0.19128097074603845 0.33142854410221534 -0.13562146270040631 0.48473413355562545 0.027346153835068887 0.04234586944443475 -0.27424187624854734 0.4348011398542255 -0.22766627312908427 -0.06703462840772911 -0.0617161577026194 -0.2779830080907273 -0.09764472467671492 -0.0694025688218497 -0.3160575563178497 0.41831985505497027 -0.4295070859410939 0.07522725472380476 0.3587479876820894 0.21054011317733545 0.02188980308270927 
0.2006438139446194 0.2187316595380615 -0.09863274476845652 0.10813548094803016 -0.2910427372686971 -0.09356240634868784 0.45763918020427685 0.4155095050622226 0.27728060867077453 0.19499050891401504 -0.11142309147373197 0.19815379252548182 -0.3003910963160342 0.03387282123392543 0.1789710252550447 -0.24256037052670998 -0.16256247017114456 0.38386799630039214 0.35095878424618265 -0.48475940633205505 -0.17058170521310245 0.3881981419091053 0.48291331376306945 -0.20848237079672272 0.2933604161070047 0.14270332501231087 
0.17509990012737664 0.2155684455441279 0.2431411714759626 -0.3000188131489361 -0.48086363121112174 -0.22451193455458307 -0.16140160335342235 -0.029274785670008407 0.10192784360529239 -0.2581669727353193 -0.11176444630349902 -0.1299295556360568 -0.04537112806774546 0.08917705608763238 0.23257728151758716 0.39757595342267427 -0.3566812741173607 -0.4168087470481675 -0.24972860187913026 0.33654339736045913 -0.10954169900234456 0.40107708678474907 -0.2504589416071449 -0.08830854205322425 0.21483044585843392 0.00962588828327715 
-0.06565123749984003 0.053776294131827496 0.08254743037388246 0.03787396003823684 -0.032358258020994124 -0.11443156497850215 -0.027157110234966142 0.050267490022775196 -0.10669467338268301 -0.3343333549263383 -0.42025173148222217 0.4514468417690445 0.3239600020572606 -0.2950498912629075 0.09438587652145625 0.23520531533909672 0.3534946991794663 -0.2949601602189479 0.14249464674423473 -0.07212745259168263 -0.38876329506654606 -0.4410384849585567 0.4879364821004275 -0.12968198302480693 -0.2610829519793324 -0.09872889616261249 
0.05531451333732762 -0.06703429500560387 -0.15790255602705305 -0.40177401047647443 0.17346696269938888 -0.13534416187555287 0.1444827006419369 -0.07184593694974373 0.19648357186794407 -0.26111439797524083 0.15655085712153083 0.41799358126792163 -0.17997587229805723 0.3799051305264709 0.15919040892195213 0.17404712700840896 0.47810108676472685 0.22634134610072554 -0.30145775170555134 0.07331311315650102 0.17912200061815164 -0.1785332021194096 0.09000160302811588 0.36632884795441 0.019869308759192572 0.0069263174769367275 
-0.36265659260782046 0.08327889746292483 0.40222846252798294 -0.05932035544831915 0.3871913970388169 0.13219383192541012 -0.3301420383499757 0.2601132678819501 -0.24043960830572975 0.13138341733415093 0.4806276193587655 0.06772009010545876 0.32195800658269 -0.17217999202062118 -0.2644654200942672 -0.07055866570539349 0.3075400069276688 0.4190070947633078 0.2959386992796579 -0.25529067349455736 0.2170719147004222 0.21793888461329236 0.03834247382680933 0.17242632949308578 -0.010043465305995203 -0.12092317927343699 
0.0195730650818019 0.2785592518488198 -0.21865454469231416 -0.16216024434719067 -0.34489301487330526 0.2087251235758948 0.34035992884001076 -0.2930761907051894 -0.1505895466990328 -0.016911541360895455 0.3487048433687413 0.11983943256586571 -0.040448033885118306 -0.03891411194636385 -0.15053329291943462 -0.08462730273803887 0.32197563007058827 0.1299395136152801 0.0726451944994202 -0.3837516611801496 -0.17279287701026902 0.1336153519869291 -0.4530254258059644 -0.1289073030301804 -0.31160310416303605 -0.12217127482107815 
0.37685027253638925 -0.09913546421578645 0.11698777644470948 -0.3781061789602127 -0.04131746790937818 0.019242328990563773 0.09242742775884716 -0.30034043161623214 0.21275800698030423 -0.018973089321061454 -0.2072717313085024 0.3994699359382725 -0.38530289670854967 0.2534386541055148 -0.4611889516146148 0.07703137331116927 -0.07514699524030688 0.3022585074748647 0.2979502795310308 0.2752659733577938 -0.46549353962797935 -0.3619172228896249 -0.10972667252174717 0.48167403701395206 -0.2255325814018545 -0.3224682993671305 
0.047147094311407844 0.1664249281213901 0.3647033933815552 0.44007225131298155 0.3814194640109081 -0.08665950848800663 0.4228713293764197 -0.2768141426882329 0.14686539187753378 -0.2188690975613149 0.0951383937017991 -0.32306792570264 0.3878202053880986 -0.486312349230859 -0.07556601757969639 -0.3664705512977432 -0.2901343524945029 -0.14406616009782325 -0.4707157293554445 -0.36160455228748434 0.4385669901482291 0.025677710695810707 0.03063701275409947 0.3761572039627127 0.37564224953996905 0.3421098095955828 
-0.06540656230952746 0.08846538816271599 -0.2894225256658288 0.11803041334818043 -0.1442789932988512 -0.3599859933561741 -0.09941516549044183 0.1855883027139994 -0.45137102080543534 0.10498857802453743 0.4929329630712507 -0.15574194748923098 0.20474657212417013 0.11823656666214744 -0.06893794880288284 -0.4050223647081128 -0.1332489259547629 -0.23622725556689106 0.35952869147115696 -0.2441858924951995 0.11485133174205242 -0.04219576756658361 0.32270874434987395 -0.0577802519247147 -0.11286023955757152 0.1242785603820531 
0.0383184838510916 0.43888700673765824 0.41048376594671554 0.45802996877513935 -0.380801747205877 -0.30959442090934486 -0.261064627587521 0.2239178106649724 0.21543468323283443 0.4943700791991863 0.3233955803270028 0.3499231706631114 -0.44621940342748956 -0.006717469085245731 0.3692779526003047 0.03798834721640498 -0.23753493362443878 0.23053899425446345 0.47817342746566927 0.2384551074833462 -0.3131319383958645 -0.13901523138631466 0.2150266813838444 -0.38772204344029193 0.1251675990541864 -0.4120318571804199 
-0.20590848334460232 0.03975851140191211 -0.4570503506105036 0.03651823543397048 0.0349410366332894 -0.17463238823427174 -0.13809552883441578 0.06621686538927252 0.1040663359806796 0.4952924844737534 -0.13988501616090954 -0.02246890013794589 0.3281043292792931 0.48766571753965704 -0.42992342815173457 -0.3281830274476373 -0.4585054340739235 0.09500408165079977 -0.18453034316224293 -0.41209878433871994 0.014371261957444204 -0.26579523293633556 -0.31116016325271656 0.1570928434434702 -0.004244389876626786 -0.008482427052909913 
0.3397227908880882 -0.4063284307269329 0.30262077429139056 -0.08176880780173457 -0.0836156480615371 0.06934537640358818 0.1871598745522045 -0.2626171016165937 -0.11577174344738705 -0.29213460695112425 -0.07740485592093604 0.462620160946137 0.23005798191985305 0.3799306675160603 0.16212416865260226 -0.07258558417330851 0.2537607030176884 -0.021288416576434988 0.14610692831935612 0.3761460516272771 -0.2523847651788541 -0.2872347201135844 0.25935532241114023 0.07815122437874844 0.36830781714706484 -0.03418765163410942 
0.2733945717826677 0.39164049923025457 -0.0821269348162662 0.44178886757388913 -0.1521765400656493 0.32647036459516865 0.06715979798470217 -0.361216299134999 -0.4895913529577117 -0.06693147267839605 -0.2209455607791433 0.17691557745883235 0.38730595651586386 -0.22061596337204048 0.31857751422886826 0.14290059612881412 0.4128089352718426 0.3685546088240502 0.2731014150645784 0.4080054772415761 -0.3877164728384753 -0.40294782517428107 0.44832063711090364 -0.17372246958119342 0.3224546917053689 0.25638974274032267 
-0.14576156375082838 0.3263873658017292 -0.11003041466235275 0.14104164654469709 0.25031658290133096 0.1731161533279374 0.4721685360332638 -0.45894958589281365 -0.11993237180944727 0.0934638788373453 0.05325417834562973 -0.2301368172634024 0.09275222057836596 -0.46244905760576105 -0.31544432166868963 -0.09373858912446065 -0.4765232264403937 0.07593053658558546 0.2593437200444779 0.11381755393561321 0.3828688436053832 -0.17737564970423614 -0.15934059491624042 -0.25786695537376036 0.1936418978700708 -0.1828601373888531 
-0.3251223291377342 -0.08881813175744546 0.0037421899890384136 0.49892251077232364 -0.4557655609598624 0.43340454765183456 -0.29559501528336785 -0.23585853204455642 0.03830367639072518 -0.2622323237080819 -0.4136714465430156 -0.3925971237331938 -0.3425809099838343 -0.07417556081698595 -0.3216913150713274 0.01993005664725811 0.400292247448769 0.21188167784336498 -0.26994183357014545 -0.3590548956004951 -0.3664123907872091 -0.22230038906177874 -0.07543111074739106 -0.3595680735071185 -0.4070280062797622 -0.4932793073682824 
-0.4647426329869718 0.44915608198050894 -0.17683598565899994 0.15364394712698248 -0.2207334554594712 0.24576157096917428 0.22876729106379978 0.2522319508872629 0.06068042520904693 -0.43903906733519094 0.17817844794913051 0.46755787890810085 -0.35395999225884733 -0.034720470167727946 0.2796189550160382 0.15846977756460567 -0.43056733276393266 -0.4304894234197977 0.03134777582460302 -0.36812966336620956 0.2255591463074773 -0.014017196307276714 -0.4626304154811821 -0.05751967081111331 -0.32343412998923393 0.47393769548323283 
-0.12453908582791606 0.12007395598850845 0.1720623377560967 0.2237590025215267 -0.4939053375179715 0.39074533069773976 -0.23837283019968913 0.12249196234589255 0.31885098732077555 0.29958505350762843 0.16523779305939335 -0.11296446411272554 -0.4728392580633324 -0.36078384918716244 0.2594431351046499 0.15158596424522652 -0.35726508357845044 -0.25804036263335495 -0.3642696806473068 -0.04764491805590698 0.1877919608515528 0.002969349583912595 -0.3075803855256215 0.0652829680312107 -0.36379789869763246 0.4674965591441189 
-0.36744515021997126 -0.1785915432939258 0.3139260281041134 -0.062484702590571706 -0.4423608938170128 0.3497579054909806 -0.3653669581881378 0.3312590798996341 -0.4293020024783639 -0.3209435440959846 0.09814103543725927 -0.03620936590166679 0.4320367894499709 -0.2327373097681228 -0.06267032742176548 0.007546187237974733 -0.15281126914116938 0.3218715897944838 0.16343437945380712 -0.36113378056886003 -0.09106359465994229 0.22412720574848533 0.030138175556951197 0.27984498885485765 -0.4360803427126133 0.47673100754554276 
-0.386365127191019 -0.09559844014840146 0.2292270003751674 -0.1426727815428377 0.2888457835240793 -0.40670497995347255 -0.15450005352016016 -0.12100776062568852 0.3712295596204658 0.39487717648268994 -0.2795375116058384 0.23415027949174905 0.08913274867067278 0.07669634947209525 0.49042134285493455 -0.3702176845467827 0.3533862173989828 -0.46236406364888516 0.40716438059531923 -0.19050864666829848 0.498860773388212 0.4910920896829305 -0.05618160558781604 -0.39806780476608417 0.28695284445202807 -0.4732352103377415 
0.4056097212529878 0.035308648460466774 -0.021521004555875134 -0.18804284054491838 -0.1698959568840418 -0.08591264322161851 0.2132157036596103 -0.497151878725676 -0.03361514528517351 -0.23322824679620902 -0.23467088478996756 0.40202391188961806 -0.46623787182983534 -0.2574740641462393 -0.01680339682355969 -0.4793761760625125 0.2779867854996081 -0.14036735119666865 -0.13236951852973333 -0.018223412924422866 -0.4334222089942573 -0.009784400343383237 0.2942712606308884 0.13657353241476533 0.39475306257580167 0.1033512185875205 
-0.1560732988784399 -0.14535486377481788 -0.2904129274482854 -0.4173595668355504 0.06888946862806788 -0.3015218366966502 -0.09759859425148198 -0.11549363081256048 -0.20622501582777097 0.09393027921846975 0.16802714609743374 0.40992914963998917 0.2261787069616824 -0.3310298673821206 0.18446074284252023 0.22502413679048638 0.23545924545936425 -0.35150944146617236 0.2275681261394813 0.1848158213297607 0.147212388728574 -0.43488682011243807 0.40287422740836887 0.08975382732437354 -0.203491445528038 -0.4257770390710611 
0.1501079933784022 -0.2640357294809349 0.38472367794545337 0.3460415061047426 -0.44394378888679153 0.10792351141017598 -0.10719805275207106 -0.15163173527059381 0.2974116135116339 -0.49381233283783865 0.4180464160390357 0.33068914682625605 0.2276839268077796 0.10300639236353892 -0.17795915844439414 0.47367224450529477 -0.27912455785811807 0.27509418267715136 -0.4959353463973901 -0.022359122016778588 -0.11049479176934807 0.07552879438806459 -0.052629491088001856 -0.17056583333564868 -0.2943012034102499 0.37569032808074065 
-0.07504877044508407 0.1091360748895186 -0.12855624515009734 -0.46664852449550065 -0.10306838631963944 0.47647374499504114 0.007743160270006988 -0.07552700258427225 0.1834775422948708 0.4112565612342848 0.3622828580213021 0.3139553029323844 -0.04487673465125708 -0.12695231578564647 -0.22863921960009104 -0.165458520432052 -0.05332476934050101 0.2923297865922825 0.054209104413812326 0.29326249627889145 0.07135867618853031 -0.2912525947633855 0.36647371922515537 -0.3687390711878977 -0.2113688730323542 0.4315786300077985 
0.2944970697390088 -0.3744751884723658 0.16209471393239328 -0.18659128486019283 -0.36681543262216787 0.3400080579942948 0.033196833256179836 -0.39995094357278216 -0.1423835334188357 0.4088099531385627 -0.3680831783497084 -0.1519349024979768 0.2722003893338538 -0.03446910513200008 0.2473940371221045 -0.4141532329262628 -0.2989570692720376 -0.0793827331232344 0.28946011017520756 0.23497579586648187 0.3693505209883913 0.3324533580407013 0.18629691082670252 0.30571428660620037 0.3180535447201278 -0.18184599186813155 
0.08394831132408898 0.03375947938864643 0.2924801841975677 0.30645620247527927 0.24017283673500378 0.43497948659449037 -0.44921135190160977 -0.052196143255956895 0.3381315090243905 -0.27933434564890547 0.4490007692729078 -0.33433458862164345 -0.3153373835178127 0.13790717441797218 -0.0231391979019272 -0.34168191352077526 0.4034042397341414 0.07801400710264483 -0.3576220469353 0.1417794875621301 0.2847815186989141 -0.2695155434532194 0.23279254022610596 -0.23773855985083925 -0.08711512818465061 -0.34916612063970154 
0.01583927103055849 0.40046657955086706 0.053522374841268094 0.3576717809839287 -0.11243607106704923 -0.4597562779840808 0.05823760937951017 0.4777343669043028 -0.1784180243507847 -0.019436933118053057 0.21584198109975272 0.017150196464675527 -0.2704487654618929 0.4324679440318415 -0.4339813960402634 0.05303686262528451 -0.49623719297358737 0.4616045026197255 -0.32118791701175453 -0.48840321465480496 -0.4198620633114739 0.3121269390748198 0.2993271395486672 -0.27279905526430626 -0.16644938018836575 0.37922038106990963 
-0.4412839558748325 0.1615189493380167 -0.0027206527442994455 0.4851792255758205 -0.33945678210552443 0.0025750362237337843 0.08452333581035165 -0.3420759466041886 -0.4341272783230714 0.36067909524434383 0.4823022165117842 -0.18896449229268963 0.22093280016678407 0.43150286302188856 0.48669035267504146 -0.41917131457053347 0.29796849351371124 0.3061408990296224 0.05322022041206265 -0.41131284567694737 0.2529022032481556 0.07381733813389801 0.4474216470916488 -0.43417908434488794 -0.25732097339711846 0.4849684644244683 
0.29784703119909484 0.10280773534412535 0.09068227346361823 -0.2792471976652534 0.27756496361507554 0.2677231449109101 -0.4596384396732631 -0.2503905424602233 0.26998790240874926 -0.025641048668953115 0.4952243649951169 0.34230689851022633 0.4110321413058533 -0.22402398107113464 -0.19240044497980324 0.06399366033799236 -0.1580088796838347 -0.28976768939165465 0.449088783046251 0.4650835690441849 0.3561360363768039 -0.07262798709291785 -0.4276195876400767 0.2523780169987828 0.3769405434745092 0.09645762891113474 
0.057107190012970155 0.4376480584392477 -0.13304098895453742 0.003371567475599524 0.12168790183364009 0.33296965327399797 -0.1662293803625431 0.32950957926016355 0.47860022332145247 -0.2095744180575203 0.07303466286790239 0.33153312483420416 -0.18770978401202687 0.2683578013091259 -0.33141514415088735 0.03024388112496179 0.06693151771503425 0.1471745200100325 -0.4443764662182621 -0.43941196986427755 0.14550525143067916 0.2147862068836761 0.145459287454489 -0.46500612770618766 0.1421794030031579 0.39506570252469486 
-0.3911355045143129 -0.37130830095274525 0.15672413514313344 -0.39770296649591375 -0.07998804093283896 0.1083591791700419 0.0727075371094309 0.07039881396374825 0.17408273664798535 -0.3056174693470858 0.4204741534946874 -0.3722223906664146 0.009019866389671227 -0.027782689130254612 -0.40858429182113953 0.1669873567711717 0.18553587720767728 -0.4502207560757836 0.2218027517152783 -0.00705869293590744 -0.4906356206261213 0.2954899598956645 -0.4775480014738689 -0.17575689272594752 0.3158791576128197 0.2855485416047746 
-0.30523660386054574 -0.03072631335225473 -0.32041327772329997 -0.46080541110682693 0.3441678198564716 -0.3980081633266269 0.3596313549194946 0.22717387659299648 -0.021215234187479726 0.12197528785068501 0.24733435973508056 -0.1986867274723939 0.264096617660208 0.29905100048103217 -0.25707793187814043 0.41205672548053485 -0.3062955244461002 0.27493215039263075 0.055979856965064356 0.056009306933659575 -0.2682621042264205 -0.4773990620347277 -0.10219756558093351 0.1269817776295411 0.2842487449143549 -0.4512544247052641 
0.41369338358376606 0.4317235632266784 -0.43507227591463704 0.46538090337455984 0.4893997027224397 0.27547698996105696 0.03473893945067763 -0.4461479661640917 -0.24175001042514255 -0.07731873111008702 0.11557677688485468 -0.4022592224019036 -0.265802430353447 -0.4054000469095054 -0.19519356399260301 0.07076484949879613 -0.4991469759379502 0.17834073904214576 0.15055737030456084 0.23158038553003502 0.29772299486023746 -0.009318086136684944 -0.2131028070854678 -0.20053149284844463 0.1622549967745366 0.2653152703909909 
0.37352067301301406 0.16320684311248568 -0.4900786958163875 -0.4864397631748204 -0.16365303729912495 0.00999728190182747 0.16445691759275216 -0.4537005706963759 -0.23657461275228642 -0.14785804381806922 -0.11349972504456751 -0.2611686574163191 0.17480858038589564 0.17622894501149444 -0.10873239967707571 0.07053096915198898 0.15555893278257615 -0.15708962923438063 0.19452484069348475 -0.42234550418600525 -0.48218739977411906 -0.07507476814193925 -0.11899593705367373 0.12031963071597751 -0.2591671443970106 0.3868399977636593 
-0.44945648064573496 -0.2163616606954707 -0.07275747228711271 -0.11794989499729047 0.2646142497213838 -0.19182590194546578 0.40913308410092 0.47090592575343615 0.2895277626304126 -0.3236588646092221 -0.060494370870528225 0.24839704286546693 -0.18749659144978192 -0.13094161402007587 0.112506866321879 -0.2893510202263688 -0.4070943639340674 -0.14908387311428506 -0.22981889064983474 0.18655675214597256 0.20334531173488002 0.04230884958872705 -0.3260328026592878 -0.18579973351566392 0.11397094547130404 -0.1065670732991233 
-0.3540736205776639 0.35125631842344973 0.3781595864796281 -0.31225700487274977 -0.2823036457688215 -0.4255570842853992 0.08894904805514559 0.37140665374026993 -0.43557713065872494 0.14510136443773003 0.09293646992437765 -0.46950836717778954 -0.3535705405350058 -0.4036576486566674 -0.3279991860681737 -0.38093416398003954 0.03314277065382676 -0.4682478067679784 0.03309000919651284 -0.32091479922291066 -0.15820054076269152 0.21647608545804364 0.4824455964420834 0.08689009079032695 -0.41228229018001805 0.4885651950866321 
0.10302138634463942 0.31132592722488306 -0.48657503345449094 0.3217947636181381 -0.39751510698713044 0.27494941472711787 0.14069078912081667 0.4307310840202033 -0.24592687212885145 -0.3275232429048017 -0.1274782032752214 0.0246450453853041 -0.48629239285244086 -0.4804242711101534 0.4614332270101965 0.18894056478483412 0.4641556924626524 0.2802985239218997 -0.4441801535670221 0.4010862789156979 -0.28934157809062044 0.1528982656445037 0.33800653550972726 0.37260955492519454 -0.26767206575735447 0.481466345203327 
0.4755662853493079 -0.25046828976132074 -0.020249737455576344 -0.195225909550367 0.22175218925068974 0.20069430205768368 0.20161203362519686 -0.24610309149420062 -0.4786034597840291 0.07674567192672432 -0.41819757433766624 -0.13335528759659898 0.40538917987005796 0.1321284389833508 -0.22667515242055702 0.39951746996023396 -0.21014595206213438 -0.23177202393098617 -0.17351477403885496 0.38685035212218544 0.03540135821027213 -0.12208739263672475 -0.1737934529448284 -0.4779919836242401 0.2673403542270836 -0.34998320020886997 
-0.22304713542575283 -0.08306711209645967 -0.4905045129789113 -0.3731116874094885 -0.09637228893169791 0.4340478820067294 0.14227654195782158 -0.10105871921722043 0.07294540727885468 0.07845887738071011 0.059911407424279584 -0.4327729347296083 0.4821565573098361 -0.11140197467214852 0.17225734965164174 -0.491644985781572 0.11064121156549844 -0.13010609341045443 -0.4266346016983057 0.03566607706252034 -0.3152329906094914 -0.22124989960834673 -0.21802081967447084 0.26638175048915014 0.06754121979914751 -0.016940805731580078 
-0.05159175637383229 -0.12347814313110583 0.051969422145744515 0.20067372928867366 -0.1822766463279002 0.45370465649393554 -0.4893339225081348 -0.3512976186851702 -0.45902106956640787 -0.1574871366372239 -0.2658554317443981 0.02419322204330232 0.13417580925498895 -0.2820698059604072 -0.42365226021323055 -0.2192870510684578 0.4989355148073803 0.11942240338056154 -0.2816372253404673 0.3655248151895406 0.43936432311612905 -0.1684420442542488 -0.04010375049828341 0.4385142028365524 0.03634424993699159 0.3066332227439099 
-0.0470308676043929 -0.3932940489689182 0.07349484035871834 0.29058772807094 0.20342349139351112 -0.1228374870611284 -0.051691687543930054 0.43556497158380014 0.4832158711319121 -0.14375239822524022 -0.3525321107549565 -0.03920491539665827 0.0201048965637054 -0.2953145000147467 -0.08288281613103432 -0.1419544935539584 -0.0387763658669501 -0.004459040623911004 -0.2831436261008483 0.2287064588572334 -0.35683979123720655 -0.08380968693470914 0.4104982840415088 0.0866478594504142 0.14355232024635634 -0.29445005022863957 
-0.08287383436105 0.36430549890761155 0.43783503902250565 -0.17572710773212874 0.2227517123991295 -0.08097649849315991 0.239663340409474 0.1183203782449549 0.23588057396089457 0.05250137743253469 0.2646639105910743 0.1552599936757707 -0.04045023913657997 0.4282636330032137 0.22455393291215597 -0.012162515018695363 0.3479098862338458 0.3003906136265174 0.3322963790401451 -0.16918506195340066 0.017181972213846652 -0.34868064006370847 0.4788454072656799 -0.4752373346038987 0.18882752651182877 0.17734365424921683 
-0.47183264579869955 0.20443830157333842 -0.14297258464371332 0.05751252615316993 0.36960593856100343 0.28958100763630823 0.19307367234499084 0.09494743499661884 0.46529306723983654 -0.2276050354419077 -0.3739646986376134 0.12916772439862745 -0.3648102848861826 -0.21130936718842253 -0.12793196353931513 -0.4161649572009065 -0.2665264512465605 -0.3714014051687323 0.4239949039562596 -0.3636025718007885 -0.31262661834740746 -0.33203481512717825 -0.3417073999600938 -0.22556609860079546 0.09318318786327318 0.18298500410154417 
-0.2316233391788396 0.4380711174566366 0.19407093264726505 -0.3516792537268143 0.19108592250462764 0.03866365296770602 -0.39956938183526536 -0.08709458318405483 0.05752490531259269 -0.10900026371565674 -0.44409123455554256 -0.40218160033270045 0.46993007531157893 0.4996150165495796 -0.09913101358467269 0.16707106736363342 0.08298430611616381 0.19936667633475036 0.1399416529261076 0.3848336745311517 -0.4489885702127565 0.36624083335144875 0.18143797648677973 0.29158032166492887 -0.10825955791510011 0.28643670610743954 
0.3837910547847616 0.4068240766067247 -0.28716316921263985 0.30009057221164126 -0.48218116927662635 -0.40244040258185454 -0.4508434027550816 0.020573912825931462 0.13348716043175213 -0.060773844879431715 0.26668590192796104 0.27111948291249766 -0.39401638542626105 -0.06005087741644899 -0.396612729740606 -0.12240003438541602 -0.17170428244693137 -0.30098698489219067 0.4376813047438769 -0.3903961281581293 0.11611998898982279 -0.0730347540386993 0.30205020766823387 0.3715239826301101 0.3958110318785619 0.2674439756599336 
-0.007742250324191735 0.21119339709077012 0.15721269920738545 0.02977006377116731 -0.138062209530474 -0.16432474127481833 -0.02940377056780885 0.2665371100644838 -0.4621887689353982 0.10213192454932418 -0.40943699285117197 0.11187987492524298 0.3425494417991446 0.3862700394410685 -0.2003477214123357 0.4337963314021068 -0.32969032106539653 -0.178321912042828 0.18052747722838092 0.14784365358452922 -0.07577409237368271 0.1504435606538752 -0.05200327836384888 -0.010275785945487836 0.3956463730848586 0.32875674429316937 
-0.17924290306870216 0.15072279092026786 -0.3583330782406543 0.09077887494745385 -0.33236634955667965 -0.05734862722683576 -0.49948290379680793 0.3898726984285207 0.3242183282116007 -0.42209663827384214 -0.12638658744690878 0.008363259354459474 -0.45680411664703924 0.22541441677671903 -0.20139732300425695 -0.3446821190223599 -0.484723085382175 -0.26522779494478965 0.1394754571386092 -0.4435961329003415 -0.22245896562336687 -0.1915870347491 0.4278378180906016 -0.11929680319133984 -0.3878738480499776 -0.05421212663828656 
0.003687386435704987 0.3464336936584391 0.23058212635280428 0.1835774511461814 -0.37545241596336076 8.46369708923822E-4 0.13784049951153377 -0.4875219701052992 0.138571135010087 0.47913906527921646 0.07463447636781617 -0.13622118195483812 -0.34976701195143534 0.013046903809830535 -0.15166402101153342 -0.27210570333066786 -0.15351090252514277 0.08183998105300361 0.17955998940987927 -0.20778867709506377 -0.20321344636960437 -0.12322031156795255 0.41551854349419826 0.467055857091097 -0.4079321835339865 -0.31534538646361077 
-0.40901001494858613 -0.19372026428913636 -0.3540806134140727 -0.11316189381486519 -0.14609824794687387 0.1229130018237653 0.3452738160457681 -0.482620991561452 -0.2850921355057161 -0.4494777244930903 0.008580939022191925 0.22695822313666392 -0.07102514989539821 -0.0926378470560052 -0.21387738500928588 0.059113444840718676 0.07187300354356618 0.48310022366167227 0.22015272518300788 -0.3390448630482895 0.0356025540483671 -0.21315676540144823 -0.3281977140272918 0.4226666976244511 -0.2658331415305648 -0.12961402148163748 
-0.28280294104009573 -0.43159722875483986 0.2847380203920389 -0.42794915674932854 -0.08300705473321213 0.4057691494869966 -0.1908571583138403 -0.08581973868014559 0.07154243799596849 -0.21811151737964696 -0.21327018676577747 -0.06870951938771797 0.18816308450857755 0.2911265381125272 -0.41793905324278946 0.4060899916879118 -0.09251355693577323 -0.06712658154078621 0.36950453690831475 0.3470110117759795 0.06262449421395022 -0.27265493018928255 0.18168852319328288 -0.4464016900424911 0.37789760627275026 0.2631903272135231 
0.21990607418044694 0.28504466379753957 0.053126429813076914 0.27275939461873566 -0.11805155867744532 -0.12764265177605938 0.12499751165887074 0.10920960280028358 0.18647289566095326 0.09608582410040012 0.048770777362212026 0.4341947925763654 0.40289581673198505 0.2892357414936986 -0.09839581315607537 -0.4842947873032283 -0.26806534350570355 0.4189398272930337 -0.026970795038525064 0.2826944924755971 -0.1756953685834789 -0.14934843724680336 0.27861832498239203 -0.3135485521995788 -0.22629089359741972 0.10507292271541524 
-0.2903563676411204 -0.02175623663294357 -0.024854511809755397 -0.31927767683096664 0.11453337332510882 0.2285820020880991 -0.09931904616932374 -0.06600499381372238 -0.4028087940654498 -0.21447830732597295 0.41223566413297186 0.08376284789374477 -0.2872493076457101 0.3977423871951441 -0.2954565356010669 -0.36099419092153984 0.043095163699439 0.41271216453656434 0.3513429007920139 -0.06433704073661994 -0.15751861939641243 -0.1989328473041736 0.21398463557717406 0.01283634426087854 0.05786265084261233 -0.2445949360048324 
0.16402379143880752 -0.24132458721759797 0.049015469932023326 0.2650129842608234 -0.33000153298437274 0.11271656280474496 -0.23966910718683487 0.3776191088777969 0.30347874699250565 0.12414592082469822 -0.07085965286466345 -0.17492090168069407 0.13060333980984984 -0.1655995676033034 0.1547029280318596 0.3119775659677019 -0.22729629199375567 0.2777162980420722 0.29748914391649317 0.044445997950650296 -0.3567519088094834 0.3746799650511694 -0.26984589394712677 0.011067992545527594 0.49822114312171817 0.13153195991197197 
0.4196005860204469 0.11856401608395006 -0.02681249265751018 0.3519190101839036 -0.31620936477286254 -0.46798277736973903 0.22267028532094368 0.017985173494273865 -0.26252835294807453 0.47272276288440696 0.12610823062597254 -0.3958613836896018 -0.18225851745479904 0.28631316369557736 -0.22046109948831483 -0.15047498384260272 -0.2366160461110488 -0.1903672083539335 0.15328646862803796 -0.06581528962402228 0.41116478305122806 -0.0630957716946201 -0.1366826481112955 -0.4209343574907547 0.06778544567305922 -0.18594927327015187 
-0.02244150613324447 0.3215095329028371 -0.3820499757468373 0.27460786958754213 -0.34164393003500293 0.10552391215079304 -0.4629914463361101 -0.028520839584245672 0.2283857611604596 0.370098270864726 0.1908973938886689 0.15585958888203055 -0.060291906764573966 0.019017583607048527 0.3266058451455739 0.20797234614137083 0.32429508759200065 0.0120717825822525 -0.41684479370541194 -0.16616667431112586 -0.4907623223917915 -0.1697445078683445 0.18608479355335739 0.308079270667025 0.2909758487403932 -0.2635030763953067 
-0.27230280937970364 0.2649648590224757 0.08027622978473326 -0.4213491652165221 0.08082259565614403 0.3179550953868119 0.05331509059511774 -0.13706443096303111 0.045620250658899075 0.22290915264947653 -0.02589313180303221 -0.03631111638611251 0.2869424669954036 0.3906723332590173 0.18965184772381705 -0.37073613637059166 0.4840446061965129 0.3019631615579593 0.24155885923235465 0.3940802280113519 0.3849326269887666 -0.21923707706149975 0.3865319917917387 0.11329243001051681 -0.3656031115993267 0.1419850693881025 
0.07299312059674312 -0.40076891689111827 -0.17221079626692204 -0.054977396162531056 0.08224472964031004 0.2577193420518511 0.2318580767963736 0.456841496523815 -0.39003977419022473 -0.30243839116125815 0.009464262464649709 -0.04339129845685252 0.03742227618887406 -0.4820532497925927 -0.41324287397774473 -0.30158628436931156 -0.4781881888893741 -0.13379627561407703 0.009400269667872552 -0.31053738443994294 -0.17901642450218846 -0.09770741416298157 -0.2513084186804089 0.4381942280752813 -0.039452980065808 0.006609414778839695 
0.43893238305443916 0.48008820076179903 0.4497035878064999 0.42412849212648496 0.4541565450366386 -0.2014951502302189 -0.24282500200565738 0.05060115592978376 0.06533939511660203 0.2237175356857365 -0.3303107084441873 0.23547529685522706 0.15846327074926558 -0.4846321538584263 -0.027125290944128633 -0.19860473140091472 0.13932511535749048 0.11189502318630207 -0.3819562233524185 -0.038412788122914265 -0.29727151348989467 0.46506076558286635 0.1682334644113771 0.45412979034260603 -0.39828897364751126 0.46851108561233334 
-0.14700062321495233 0.006056171422608947 0.41671565677191535 -0.2636129450277235 0.0038452200778754664 0.1904279515879993 -0.40487835143258655 0.3913170780269941 -0.009198492280632964 -0.15403273687954955 -0.29169017161021804 -0.4193071243444648 0.03555004217994617 0.4915285692278799 -0.043556185834059846 0.1559522718537517 0.43762404748748884 -0.4133631349881052 0.44040671145430044 -0.17833799768846004 -0.18240410860822975 0.06451455563404707 -0.3841588121255296 -0.4104858624138019 -0.04520209688527166 0.29546434559858814 
-0.35400217337511297 -0.44308030752251504 -0.32299591034804376 -0.4738291509696779 0.07810518298282487 -0.1292962450287598 0.04563362221909684 -0.11557096294496505 0.38223248147406275 0.23347682056343544 -0.22758040232823262 0.2390029556775649 0.41212346898792174 0.463576633079715 0.4021196120343219 -0.4392368029150885 -0.2257617638514906 0.42904587193523014 0.3007273397907815 -0.05605258274098923 0.4242474648279868 0.1419312678628517 -0.10022292984221959 0.11533276641030088 -0.4505191928777458 -0.07874058710675425 
-0.03528385571515236 0.0843054311723942 -0.05865988892799845 0.31136574196037936 -0.12104705632888035 -0.43174337007767827 -0.3865552659283422 -0.12317719651073966 0.06507093218334559 -0.03456918954286836 0.37928489032884094 0.08603431437909392 -0.29916804611543846 -0.05870386367180802 0.46741630253994193 0.24263240230830063 -0.17002495692442454 0.14470365262406137 0.02273765001113015 -0.17286522580574326 -0.1835506017665629 0.17654572588422768 -0.4808504815702872 -0.32910999057183277 -0.15439637846407162 -0.3036791331368913 
-0.3080977660288269 0.10015815571535303 -0.16301458359933996 0.4709561602795017 -0.41280327615123713 -0.4397544955113186 -0.29921072535516813 0.24543486184114993 -0.27788854520775996 0.2579317457307754 0.3436223949407815 -0.4537785796735032 0.14968517933882775 0.04499826962115305 0.20914146812750123 -0.08382841918165418 0.4319943461973441 0.1064869877235396 0.4252466072612684 -0.3764391972236186 0.13832036009697746 0.014389063597471607 -0.17809938918282664 -0.4119407317483944 -0.49398888439991806 0.36078316151853407 
0.18227524914658622 0.12292712545305118 0.32839789471634306 0.4940136000509916 0.09480849613052911 0.10539904285474144 -0.03286282415607422 -0.15268156419716916 -0.31510972784546576 0.3561724453636923 -0.37439518790052706 -0.028611301083508844 0.3222758788986254 0.33410872833920147 -0.3345229571448093 -0.33934080566870006 0.12396033153260422 -0.2662972124241204 -0.19960826550162236 0.4977027631302757 -0.29787118101185817 0.21057089014507058 0.4585900072472864 -0.26908071458688065 0.14293166238794497 0.25415247740567815 
0.4706970623141663 -0.3522185279105544 -0.3557852287780602 0.1770167305519028 -0.4906917749595534 -0.4907800311684465 -0.4110302851512343 0.2966101623026287 0.38380442353188426 -0.32970005527749835 0.08614988167038307 -0.35202326167498865 0.37682884496190094 -0.27183764864637794 0.17163247370946788 -0.015072891474492645 0.29811470909493887 0.41027304598126846 -0.07051137371538907 0.40232951431878006 -0.17313868332041493 0.44434310733377436 -0.23264329529852823 -0.35636071469996944 0.01561401924878525 -0.16414552879187894 
-0.04040297902478385 0.04548004917223403 -0.46338889744642187 -0.18005514911490128 0.35803841796047775 0.11503457406103812 0.365818447277488 0.2514763194413965 -0.1374892895291293 -0.06380144585653302 0.12038100431359233 0.35043267882849716 -0.1580110527056806 -0.04310383901509063 0.19197730133431368 -0.47063980010508966 0.2020592321155763 0.22265123297687328 0.15157158801702375 0.49538769209981226 0.20554764524950686 -0.20954654213467616 -0.3596841527478395 -0.058568856909796185 0.4705375458722484 -0.11784579239151172 
0.10686155361743765 -0.08049081381131029 -0.20636738506764218 0.31807184050612136 0.3030989271658231 0.4236657110547283 -0.4237937466488223 -0.09081815595764375 0.4083497038613545 -0.19918367426025674 -0.33248930535034726 -0.21978768128362536 0.01629639527086446 0.354905317294274 0.38090166418630456 0.04616063904916545 -0.010560425089954695 -0.08691904336309686 0.28806788535671335 -0.1288074015552173 0.3626322098388345 0.18216612860110748 0.15103688670869064 -0.2984197954072899 0.06024786931414117 0.43952258676835254 
0.012861578538871488 0.38328053837978804 0.1807976832293503 0.4744769095834108 0.03527542161508945 -0.0500479289488337 -0.0016817768756555163 -0.2752032805936454 0.1452356925578414 0.09865145410194764 -0.3683890698155462 0.2372758765036853 -0.0678416463753887 -0.24185177388164802 -0.4595787533996305 0.42230803978595266 -0.4762198727569731 -0.30125952671936507 -0.3780970062059781 -0.4306022053481592 0.36096625474293764 -0.16734991189978632 -0.2987776371491808 -0.25612057724999115 -0.10958433288898173 -0.28947901478032945 
-0.3630874670445515 -0.005317070266982471 0.19909736351365792 -0.26776056438905804 0.09459859993296449 -0.23119168580137217 -0.4746144134688839 -0.2407591572706238 0.2819699903006333 0.05023842439418835 0.3992430272163098 0.1406624617705332 -0.4166146831472527 0.01934137225404442 -0.11256465200953913 -0.35285284153602847 0.08425247621298226 -0.036615820243834474 0.04964191923663752 0.44379828864368565 0.43333465229332657 -0.24040107167039815 0.2474614754132496 0.027731256844262253 0.3553908019975147 0.499313746019836 
0.3906937726994857 0.0058629684608166865 0.3970665051491331 -0.2750195256111334 -0.4460891925768966 -0.3049752645367517 0.16570981587039846 0.31150204124292624 -0.3487852837154508 -0.21081931265930143 0.40379339610949727 0.23908217778995966 0.018211726593130084 -0.24252179545482022 -0.2691168008404765 0.37689067802760423 -0.18238550117001706 0.21205266906427833 -0.21939934733183164 -0.07484203472272122 0.15851815979081074 0.21595368070743126 -0.23821581814375925 0.34788248624722096 -0.30072230390533006 0.3892558894999494 
0.18106285702085334 0.46915534887904453 0.29004796801399757 -0.28463792306414615 -0.42168680665115377 -0.0968235488632464 -0.0965705082420436 0.14970221098855052 -0.3530219337176781 0.14135709568858912 -0.2997032929103327 0.4894769065840051 0.03798390002735408 0.42947402157590264 -0.41723220924847315 0.47578945869249234 0.4790009754532033 0.033660219761626586 -0.0025918086327995082 -0.23154440884714733 -0.41995127245347286 -0.3839115227240171 0.06914259227835384 0.258975666615477 -0.15804380270810592 0.21952334595335765 
0.3699830876469924 0.16859934810031996 -0.06405470291503279 -0.20551180205914965 -0.24343602916853768 -0.4838923497812395 0.2806129114780903 0.29361378236661784 -0.2533934234046058 -0.16611663118776354 0.30684471692504 0.10480536665081386 -0.15318002745294657 0.461035334506101 -0.4282975776981883 -0.0018143283901139728 0.09337677827336732 0.3487880618183843 0.0590834045605958 -0.1786587588875833 -0.17901444086210805 0.076042882744633 -0.41204060702330825 -0.10677985224556863 0.33771458414907685 -0.3080371446816349 
0.2382592837997154 0.41909918974690874 -0.24989599640095206 0.07762800253974622 0.09996827345966153 0.27735912995973566 -0.3432631619090313 -0.24974613690779646 0.4527738458049264 0.2133769168329388 -0.19167822692564962 0.42116064579456347 -0.3084035576155597 -0.18333622348598477 0.11847335224936362 0.16262640867151024 -0.07239871638343254 -0.3455510231812594 -0.39824158516564767 -0.2610476473877744 0.21479458906374005 -0.4117712242264333 -0.0857901283135365 -0.4864859975812371 -0.2209340865697349 -0.39062924384981923 
0.17639245840242235 0.35626746312215873 0.45954637025766076 0.49568401183781874 -0.3297627275028685 0.1451246695329821 -0.18859088547405822 0.21293555172116518 -0.18175526197894554 -0.2201924260515975 -0.035251901368819505 0.2636145951792993 -0.4227107809609528 0.10823615657413577 0.3859270532733846 0.11981538040038953 0.009140215550235697 -0.1967997527656642 0.14579987920002735 0.4679306694055333 0.3259487661802748 0.021011145492544125 0.1634606242774681 0.23991752872053895 0.15132990915563904 -0.3759765392994113 
0.1646893902720934 0.3092180216249796 0.08630552868581876 -0.14463631761934348 -0.22898161019967667 0.28898720151244306 -0.07574635719996625 -0.38310311139313613 0.21834962832613025 0.08610112366086131 0.020144566752876125 -0.07959181909852997 -0.30668558008987656 -0.2635114606593906 0.38672533365438777 -0.3428285798619305 0.17107183568662632 -0.42435059938299924 0.06394836394720216 -0.43747784454310457 -0.05999834196841525 -0.0172057482360658 0.187821867718181 0.1397479678325826 -0.2932451813221021 -0.2221415491029416 
-0.029007080109573646 0.3515539769951167 0.28938245357753467 -0.15228413939346808 0.4997568411811515 0.08755699492478841 0.42677198687500373 -0.26876309757742034 -0.1491806734998442 -0.2272930072152367 0.1593773706243823 -0.29759455153700765 -0.4639796406229788 -0.005770088922738004 -0.43076276082187315 0.35653084521808664 -0.3056377698876851 -0.30636900241886134 0.40653362373820023 -0.1733398607867923 -0.23193373228102698 0.2954935493078997 0.27545110928442074 -0.46438351214428497 -0.37698387639553876 0.12625259867799843 
-0.3961458469432936 -0.17633914602841128 0.20382796921452373 -0.3861807911365057 -0.4206916664631326 -0.11740747655778416 -0.1500790471940845 0.05287558892999211 -0.4017710792981475 0.17417630847549148 0.3413440613885309 0.1708571415689334 -0.4545519772438559 -0.08589652896098621 -0.40825181752087836 0.3360825051608147 0.3982494033754046 0.2622635047650316 -0.33922479201769995 0.012188063261065585 0.23192781710188537 -0.42407460375824546 0.41926866459704115 -0.01803116378053249 -0.30681235285461517 0.45449612274336204 
-0.23190679741395037 -0.06107723099791418 0.40320319811875605 0.33284485212693726 -0.21501667245886935 0.2762408867363215 -0.4460788352504338 0.0647521166236551 -0.44627617416278687 0.290681128207683 0.16919322525501124 0.27886258585309853 -0.28390162087800686 -0.43729127641151977 0.11658487006053331 0.2865914077618045 -0.02057561371338945 -0.0255182306472006 -0.02378598743000626 -0.025246678489280083 -0.08887430813003594 -0.316294632411672 0.29973127788443754 0.42525534395953646 0.3566775242132284 0.38407358882921305 
-0.3744390180497569 -0.029987364482897183 -0.27160978004008496 0.35196347114024484 -0.1442197394044913 0.011318973199138882 0.2298823398529931 0.10424050537650131 0.24552140971634406 0.2162223171067711 -0.19527489123304365 -0.026519124652627513 0.30753971643831923 -0.37197277180020827 0.22762406024382653 -0.4553895319992731 0.39259842960005986 -0.17113458352184174 0.2926362644609344 -0.3090938989511004 -0.4294219091774225 -0.46565332674626525 0.4953036861319814 -0.10249973453772399 -0.2922723859068955 -0.09537769390808526 
-0.045782620087468584 -0.3330249444889616 0.3122303364104436 0.4157636936654201 -0.4275914276283769 0.06432713779660681 -0.19673250168722267 0.35117892042868915 -0.39990340427700277 -0.12246958096590344 0.34801842468449684 -0.15513942191379126 -0.17229432616470142 0.445118536783664 0.30654532484800556 -0.06342156735350457 -0.3883037975677478 -0.06634535697847221 -0.3737323851832597 0.28370060503575667 -0.18436196971235086 -0.26434873320228536 0.2357392172688254 0.015147630303064097 -0.46491331062273666 -0.2975519240725719 
-0.39830026591219914 -0.2899464086467687 0.1672064234056837 0.12675133060162058 0.13387796390530082 -0.36297066946032164 -0.015283952933469624 -0.25401673961292903 0.048784876842387415 0.19949282760498865 -0.12138295983170988 -0.4497143406367624 -0.36326022395889856 -0.001648119174943563 0.34529605322567847 -0.15203310440479323 -0.3843674547378333 0.045395118962171854 0.11097638289430545 -0.1336230752019144 0.4004312393806436 0.43906722721681035 0.010126337621286452 0.1476403815768499 -0.33079635360729964 0.24887462560686402 
-0.13568504694418082 0.1363727989804976 -0.43557234842833914 0.4454885887884631 0.14413797816968865 -0.3495494190236925 0.2326245251677943 0.46068222863083685 0.13922083738731994 0.3761008075733244 0.1758560167961719 0.3645592276301347 0.20993708816175083 0.13502161815163005 0.06538430630687386 -0.2928986237441522 0.4493641348214936 0.4339401792713088 0.2508020615750677 -0.21311674378666723 -0.25486924939261146 -0.2740404923375733 0.1871967620816386 0.4818718308657235 -0.20180595432372117 -0.1117582447481833 
0.3984223267324465 -0.19444999121914253 0.1292154540570235 -0.34797982883209444 0.3963079862781891 0.03617242814137456 0.48308942006295585 0.10862729437281538 0.18364272201666154 -0.3922168653809023 0.32830999102297365 -0.04082713420891826 -0.4169688117915693 -0.05130578336508418 0.3402442218614258 -0.12430056092253639 -0.3457752303124366 0.10644554499295533 -0.14398616982525736 0.19808957551543027 -0.11071035877221636 0.3078352157339057 0.29356905540974443 0.20369359578881274 -0.2920192477964515 -0.4315683080243621 
0.4386721560214015 0.35559208319612445 0.014949390185648781 0.08804786977923729 0.3208900696930366 0.2606029425999249 0.22591902757079774 0.4469782438983352 0.1233290268392846 -0.4504122558612865 0.22172250639650015 -0.4476292433373399 0.20072658834453017 -0.46969217450651546 0.14710085414818785 -0.1250755804148197 -0.18335046091561247 0.2570253733535751 -0.16457737878207856 -0.2368245426958897 -0.3470716295380958 -0.3887592217520486 -0.08901028720122273 -0.47404666332884693 0.4930927694226547 0.09440218548261137 
0.2973536832856519 -0.4668398333134287 -0.2635457396663772 0.2961185539242035 -0.05692522634484698 -0.19915438618341297 -0.43938378874580886 0.4203535794861324 0.06561309679725214 0.3986210795085118 -0.38242705518606646 -0.17272793218641203 0.10954939853199308 -0.4542236488520617 0.12219340980936033 0.27985641651375504 -0.08290898709109962 0.4470327213496913 0.07176750938597731 0.47210601972094235 0.3168260356804873 -0.24031323400862048 0.12142557974802737 0.45957742658506673 0.450946387744549 0.08096889170973098 
0.3326247873231706 -0.18678107589985204 -0.3183310134861609 -0.0022379819891884534 -0.389471068308347 -0.3261021083072181 -0.1556586667872104 0.050394890626337285 0.15099076830521296 0.39771518925590854 -0.05227415779505462 0.4280459271221497 -0.3710212476101833 0.15114577156756526 0.1612152756509092 0.335362792090128 0.17767350048313524 -0.3597597949026853 0.07423928585231321 -0.25177562093420236 0.43109116773875167 0.13956678479569606 -0.23512033381947595 -0.2888592585632498 0.03297449157942167 0.12426999870050026 
0.17272027418215186 0.4196084274829698 0.0508245944783664 0.10256524645029996 -0.364785190051663 0.0778074960408559 -0.3236700240376055 -0.3038136498892743 0.217363810194956 -0.07465189493318558 0.44208125099179096 -0.37725357920351754 -0.3587499724770169 -0.11365632921963487 -0.06065655183833263 -0.00333102020474052 0.2049887901110965 0.009908883956571968 -0.3172092744166578 0.2842911529781863 0.06990839524654235 0.24325075113338857 0.3354903156737945 0.32393567782565014 -0.3097171545489047 0.10684106033824015 
-0.018943647361443272 0.05319459040117269 -0.03830281904586108 -0.47427079128363003 -0.49022368260592 -0.0266379318428539 -0.12786616503155035 0.41187438339959315 0.4716458958532851 -0.07510042854456833 0.05412546772936333 -0.4105530763131482 -0.058369104200195365 0.44801173652282666 -0.3431712491915079 0.3083681663501231 0.04110771361859056 -0.14114351515915746 0.38362989584442253 -0.09907075863115722 -0.2356835981889711 0.18460857177239098 0.3739018500733442 0.10214893888342857 -0.3302063848241965 0.26954069122945157 
-0.15320981308389137 0.17660174086432168 -0.18586504624641664 -0.31051803278321644 0.07041263460541836 0.272766452487326 0.029069798695309457 -0.4065414717827781 0.2716152239642985 0.3605173484826609 0.27271371759169594 0.22901659024757182 -0.44056448747873267 -0.30180074393639944 0.3219969532335548 -0.298326480710151 -0.20031856663953884 0.022798359661441614 -0.484349890520101 0.4691377318707032 -0.3514579600202814 -0.43995854952520363 -0.3942391662345396 0.1773837108979467 -0.37009579490001765 -0.4891744687983335 
0.030798216792891075 -0.2916364802595378 0.22405707752719328 -0.1137984510926805 0.0841346818193689 -0.27191835339251125 0.42472408993520283 0.4352045914240067 -0.480522635011711 -0.4010445987859713 0.11687009478027166 -0.06185525380555157 0.10825448053675257 0.2518280588830031 -0.07051131883366635 0.32254208419992647 -0.45611553826292783 -0.4993021552636704 -0.07441690065056039 -0.10029003642721768 -0.126011382150517 0.3271704819956006 -0.39418844545130505 -0.48293857654445427 0.33399118723768595 -0.1381611625610616 
0.2227758500693695 -0.42546715464415097 0.0541828795416629 0.1462383658022337 0.3296895540930527 -0.33690936548216976 -0.38279271783100477 0.27172220921910306 -0.1798295362609792 0.04910588773389091 -0.1459377360675641 0.16054546920517332 0.4551595066448565 0.35045283026431995 -0.4159089307467181 0.07964307061001197 0.018475799765433676 -0.47149280344148525 0.22807081561825693 -0.0409688050055127 -0.20572399680355902 -0.24520924311504255 0.35338888456756967 -0.27554227001549436 0.017693515847661545 -0.19817129585606508 
0.24643059003142787 0.1478718609493438 0.31419087533257695 0.3548568073945133 -0.4503159744167521 0.1694791911388298 -0.08633329191406103 0.04433561761498084 -0.15029877807513747 0.25159317402015313 -0.39788373446624437 0.058799442823397885 -0.1430628769597223 0.08718954464457229 -0.043347515239852585 -0.08661221272743691 0.47962115738582367 -0.09498452383792355 0.3989521209032706 0.32147760548987336 -0.33880137440766345 -0.31169941501662224 -0.0023002626600365783 0.14515480475967535 0.324511940532208 -0.14443760465743516 
-0.24764053484990645 0.08483405683087397 0.14577505846002647 0.3396936613787793 0.29861324190391403 0.10915564615849471 0.16752656234005658 -0.4545351199246116 -0.40993920751632795 -0.37664073855265046 0.45213009520578984 0.3657703402089002 0.13128567490468956 0.027654260019725374 0.0760236278343186 0.29339121375091826 -0.23585127781419235 -0.373323451324332 -0.2301982761119532 -0.3222550907338937 -0.15782177802747732 -0.18305754065286806 0.42034789460612765 0.34503474124595945 -0.13281579463832205 0.10128041921014785 
0.468616792577358 0.125409921767752 0.307731639365466 -0.2424587581330755 -0.03970094935267221 0.31219025426018665 0.370865549295032 -0.07654126446116116 -0.3635158217607748 -0.28409366062467734 -0.04351141168059258 0.4503517709450733 -0.01243032065371985 -0.23014955251248537 -0.11195050124444306 0.12543031354033363 -0.36395220308889376 0.09402912194882873 -0.21629124827063084 -0.23421271695675594 -0.2375664281694697 0.030853623037454092 -0.39109445717410074 0.24672904888449954 -0.45651920396419476 -0.07140021395914842 
0.034257769481765066 -0.2570826149555675 -0.26703401729911913 0.3676139434560759 0.21198490266317427 0.33286601362852797 -0.4172980542868612 0.09943720454018878 0.479551345406971 -0.35434440244294496 0.27507677327560975 0.2004654182122142 -0.1990147876997438 0.4133004256831905 -0.081704184398801 -0.17054238932404364 0.46433601665729907 -0.3669783105150394 -0.05836226708442471 0.022150916547952648 -0.33200776385702757 -0.4592489020959464 0.42041780638317705 0.15643541406822092 0.1490872008722507 -0.2494899600482675 
0.4589855515401712 0.07798747351540858 -0.06601991024608966 -0.27612060385758785 0.2649651382433298 0.3889557845854392 -0.3761934888749596 0.19959504387552118 -0.04091866097589936 0.07123908524131273 0.3673506593784499 0.3353751714496608 0.4822953197534716 0.4410905297383919 -0.18100088952554383 0.09240516236122698 0.18560830614596424 0.41322834219778626 -0.06870581400736997 -0.1725234606923287 -0.18222668862772107 0.19032819901914577 0.38961243301437776 0.1485965075464032 -0.337711445067306 -0.21228208974370266 
-0.13924834282560428 -0.16304482775542828 -0.48257168163707453 0.25328996326647457 -0.002282234048666343 0.04145752581479534 0.061700406806315056 0.04909355848048658 0.3197605776970648 0.011598105368364364 -0.09799808838092527 -0.17623773047850189 -0.3302845093888024 0.3502757956737591 0.2628775516531924 -0.276120606742444 -0.06003463435641054 0.14021741570397617 -0.1573315664435131 0.46757779710322644 0.15384578237921065 0.3259983328461157 -0.16402905296665438 -0.36488287561621835 -0.20892667345774107 0.41821894622952926 
-0.4982910073205026 0.018875633411383097 0.4537855302215231 -0.07278348426976333 -0.05774472035878897 0.41914017916603574 -0.41596197398287105 -0.0692386911624433 -0.04857964584308827 -0.027727737758579285 -0.03588695517555196 -0.16649280485772755 -0.11223934253488821 -0.045725770615441474 0.15775057386956592 -0.314463357409243 -0.46546003703865213 0.01547430547084272 -0.11657839342773801 0.39316064700889664 -0.18118885640885785 -0.029004955963586765 -0.44997921835477683 -0.22279600358043972 0.07946822064205661 -0.4031355157581247 
-0.1691367191612878 -0.28767265829358446 0.2977512545841402 0.36307531466125065 0.20362893757083678 -0.4844930756101894 0.33356955775905484 -0.32740805833472 -0.15809592583519005 0.3426141663628729 -0.2528582710823477 -0.030748641281763578 0.108229676627419 -0.4008935914430031 0.22783320698176657 0.027698281411641434 0.16907186624864878 0.27416179814751607 7.057554407884359E-4 -0.15505880864642507 -0.07111084096918596 -0.33283972714775756 -0.16382483327406017 -0.18418960284030517 -0.43652190553772086 0.19123411073341534 
0.4493069897056128 0.29354505729199787 0.42203686352284164 -0.1893194170039051 0.14266253600351841 0.2119314696197705 -0.037105128309461444 0.19735112569308555 -0.47975959341806074 0.17685969712481342 -0.31038699242168477 -0.12430009468731373 -0.020058624916890144 0.3228615115757242 -0.23783174656345185 0.46699671138786825 0.4781175926546566 0.2741377601028515 0.07219319150380454 -0.35972186449286014 -0.24785042189046946 -0.25022172113011487 0.09174943184632123 -0.46906786867100814 -0.21437257002709464 -0.2906766826680668 
-0.2681286544113439 0.19738080753169662 -0.1944043037867642 0.4475102779516795 -0.21987536034757826 0.15214693514370936 -0.48754648612408835 -0.28400492625628426 0.22568197378710975 0.12566009441453896 -0.4395146909831785 -0.22496706621637963 -0.07407462967423717 -5.219070412442184E-4 -0.469370497666042 0.2595482103878003 -0.3796564147946866 0.2801702381912302 -0.23302425849162467 -0.1182810292775126 0.25549994330464487 -0.42407085799399225 0.48461388109032855 0.28614628405459863 -0.05089613271218385 0.2850478832052693 
0.49884097005802475 -0.17612532633358358 -0.30827216567439353 0.10871995568994308 -0.22563497833225643 -0.382025534047866 0.06146830571282824 0.06018935539148096 -0.251972641914736 0.05609283621656147 -0.19014211831842454 0.35809903058165315 0.03969809848150574 -0.23567481863217477 0.16659330407972883 -0.03604440722325597 -0.26661803170413645 0.19195396628650285 0.10615160216737918 -0.4480510015634461 -0.11579505671144896 0.1680476034017805 -0.3788748864826642 0.383936121611261 0.2868342931616179 0.17860686138186688 
0.2551130330119026 -0.09678306167441719 -0.17298184265453487 -0.34310784043980136 -0.23773414373557944 -0.14219649392880718 -0.0696869611969737 0.2797598334106888 -0.2189137931029126 0.41720068026476553 -0.2792992691319862 0.11928128822856732 -0.16315221801237456 0.05628933066973518 -0.493321099194289 -0.488386178093146 -0.17999839069216783 -0.05427779395363719 0.12354233370305379 -0.32596232913151924 0.32719709304233147 0.2103129421517812 0.477954706360346 0.4262686084719238 -0.10294735664339882 -0.3047803260673916 
0.3645436236629219 -0.14639865167887878 0.2245686637061508 -0.18570572922042872 0.2541342263353513 0.38713357248335745 -0.10391621339707013 -0.35421105805275077 0.28936989289536097 -0.42973325410445096 0.050932579808656286 -0.31231784104985105 0.16585087520993047 -0.2691261344016914 -0.3535289000668168 -0.41179374201306973 -0.07444496633937014 -0.11502899182573378 -0.32010570682639816 -0.2732709076310703 -0.055812673194772344 0.46042367606900836 -0.1967229364066002 -0.2640370159629448 -0.4447626549454652 -0.15183507101548122 
0.2575290416257633 -0.07145623082921693 -0.17909222216875897 0.36359752745413676 -0.05353987523090442 0.11934388115313288 -0.06629165168645823 -0.0677025621164522 -0.2260876933730891 -0.48054711349932655 -0.38760631397840684 -0.2981689035223205 0.07492105846472963 0.2185800832625635 -0.35794429244238546 -0.17455463180949116 0.08612704124943182 0.2697031403610036 0.4005642156848952 -0.13641755753438956 -0.07883318335064982 -0.45689200412477093 -0.18781813680880732 -0.39438065874659867 0.4435295225084983 0.32653479588596623 
-0.3259368363314582 -0.3730746061177851 -0.23762665097706726 0.11396541912119595 -0.2875208455570112 -0.4347227985889177 -0.1839454764916031 0.14765821873081775 0.04299284605503284 -0.07413411246115342 -0.3463714453423332 0.05635615355563928 -0.06755692448207695 0.205576171614833 -0.42365860134640376 0.3671643596579317 -0.10952303554418263 0.2649128495347425 0.25913673610999655 -0.24058573851057818 0.15450479201915956 0.16989515671897537 0.33646208285396906 -0.32409937973955194 -0.42566704542549894 0.17643462956952394 
-0.29283433689639415 0.3101993391429875 -0.24863593707533382 0.13615817814048725 -0.009967394574670219 0.0483432632687294 0.04213588805847346 0.36533225731204444 0.14451765463205535 0.15895395003026158 -0.302896104058063 -0.06250958094881964 0.26048897805367177 -0.10200224187246154 -0.0270456963490735 0.4355610614564325 -0.08369435497976763 0.22265455251847366 -0.4696317024078652 0.43073800536342133 0.30630893086439215 -0.006641886469562874 -0.1909600432940639 0.3430315103680591 -0.4531840964363585 -0.11611287587534025 
0.3578841105711683 -0.11761719949271754 0.18396078064798738 0.21645652054409814 0.2907523175639932 -0.03057934151191466 -0.052761678869367334 -0.40792131116510877 0.13660856050928127 -0.10861653408002614 0.21936043589692633 0.4960347230874773 0.35799912984782156 0.461425765204475 -0.4739544168306944 0.024116166073822942 -0.27721678589597487 0.11847402799253903 -0.41138187182101116 0.49736797001196065 -0.4685255075247803 0.22999062844252216 0.12780259698960506 0.011383561346093307 0.4261762613208352 0.3414513747580209 
-0.3411441925534475 -0.09922660976947262 0.13697538156799394 -0.24596325642483863 -0.023812708403330274 -0.3097511051745725 0.05779380128434086 -0.39401757612281973 -0.11012332095159438 0.350833369470563 -0.013921856891057183 -0.41677016264330935 0.04700412069304438 -0.4169677619097363 -0.29065820131453035 0.49146300360416173 0.3474679914069234 0.408365658339652 0.3764560140869926 0.18431329888430792 -0.45302845641198763 -0.4335143780175955 -0.2472804532103312 -0.23854122149374224 0.1291184254673149 0.0871714235783364 
-0.47488083427045735 -0.4744599964851728 0.4240644793555318 -0.06518325541894421 -0.20217362907347158 -0.08173959681880327 0.25293114272771366 -0.1924078697264362 -0.20214185970239806 -0.4562668348781156 0.08519349326676884 0.01428720501585412 -0.4030375691021273 0.4310833773071364 -0.18948586647053778 -0.1510930637066158 0.34817233150497084 -0.11149181799242425 -0.2529985946350911 0.03641675252698917 0.1341049613038321 -0.3425557437224319 0.4346286467448828 -0.3673983419200215 0.028964506696919412 -0.4118139253990637 
0.09555892374604658 0.22682467137679363 0.38734142662214965 -0.2727554971304045 0.382377230783174 0.41854044516919087 -0.30971732932767404 -0.4680696464026679 0.1807404319980893 0.31673975376800445 -0.49725952444517785 -0.09090714811316736 -0.21528739336401792 0.2460717217625482 0.22639054495621214 -0.08736197157012027 -0.2789386678041995 -0.06579016018796457 0.36794231303835756 0.2283979724142845 -0.13695135788703527 0.2020992868507807 -0.014551925834654145 0.025116423363617413 0.24475773762778907 -0.4179576009457906 
-0.17625064791999234 0.35676221767006755 0.16375444682321982 0.3481501237642445 0.4050826744803028 0.06407684637966415 -0.2571094947505598 0.159507303962641 0.0019988010691632807 0.042208001222175495 0.11131322213134853 -0.11153007759202971 -0.012866701031666872 -0.18352361674067885 -0.23974588853505108 0.23483302401855977 -0.47200183951502395 -0.40023217947685596 0.4309267589841519 0.4111778427049976 -0.025152225999899747 0.3927390482998686 0.09987211536329199 -0.4744723782172372 -0.42419512513253654 0.23196942927791775 
0.241347106078023 0.2845114107470075 0.3458151164261922 0.39138770563303904 -0.43313965368934715 0.2935555635091498 0.014631657865545655 0.19874714234487156 -0.13128351247245096 -0.45980681206537555 -0.01608596173488941 0.14161779141224906 0.42743876281200777 -0.3875981476600998 0.13465837115081858 0.10631087154283525 -0.3178033427707424 -0.17404982833837368 0.1435586705658034 -0.08165586091914112 -0.49112617265045366 -0.28694542139036994 -0.3094679728354216 -0.16549631020044087 -0.49783071682891633 0.2592172474504634 
-0.4304769664285857 0.27425227326366874 0.1161320535379915 -0.13406282077374687 0.25083589334444967 -0.12782042583146558 0.38178822850652483 0.26405607577642376 -0.1143747971090745 -0.11661456275898119 0.1910263393364935 -0.49417835778308605 0.0918092752487103 0.08013234121644364 -0.1873348338181301 -0.2766795123813153 0.11555288506988393 -0.4592017349377142 0.3896361673402561 -0.4432460590438634 0.12359884446595981 0.1511071496366717 -0.3445303005907284 0.028099675118039236 0.4491109424849532 0.21280880284239767 
0.0037830698247331984 0.16402289691165584 -0.4126769187223577 0.2864257549545063 0.34622538752114695 -0.14352936864085186 -0.3828270539680686 0.2823798871557067 -0.09765755298386514 0.29020379267797436 -0.4887691306755769 -0.14124325038157104 0.17908273773996586 -0.23640926922366545 0.4886172880813969 0.3841610858819434 -0.08182694569530713 -0.11769210311978806 0.16423565578173893 0.08056212980531652 -0.28364944505166867 -0.08483807344748484 -0.24747046070915035 0.47372269370633024 0.3564454480401029 -0.4329307996334516 
-0.004893688846930311 -0.052248629920110146 -0.3734332676548454 -0.4537020293996563 -0.20104781475546118 0.025512592747805485 -0.4498493614296335 0.08139968173401735 -0.2044039797701368 -0.02192579432480135 -0.4986099684649814 -0.022174590211155643 0.16146292732094447 -0.49593204519482537 -0.36142991629874155 -0.10495582936204417 0.07579027127143534 -0.4862164654975215 0.45209373377086026 0.27205017378654384 0.13486284022129624 -0.49698799290072604 -0.005511617003649216 -0.2675338060149093 -0.11004446427590042 -0.39190048800270205 
-0.4635573859604851 -0.13997938005691257 0.43125572702129056 0.1963682477828952 -0.024069992739504054 -0.049003865769111976 -0.39883046583050596 -0.2349938310460553 0.3167346785037978 -0.277681618806229 -0.012200341294417494 -0.0032775104412515743 -0.07179894145174925 -0.017727265296140104 0.32301455416148916 0.05191184152180739 0.09978833467970616 -0.04459152899515839 0.2894123445210204 -0.43523570933723243 -0.3879825230034698 0.29400928862803355 0.026614976411965308 0.3547046317569926 -0.34034300634404135 -0.19442052274606259 
-0.18028874694702612 -0.43526078301394144 0.4835010400002606 -0.42088408815527323 -0.4486996367738647 -0.20526598346042113 0.49385164707458606 -0.49749449977080473 -0.49653016021192264 -0.18965712380539368 -0.49817585465277237 0.12920891552987002 0.0071752134936355905 -0.4227498116718026 -0.08614672338123996 0.4744609125105561 0.2538711214427103 -0.3044119739409903 0.3902848504907587 -0.400461328542563 0.30787661147619216 -0.20916808971378453 -0.4793041899100734 -0.22278087346978026 -0.01216005463004921 0.05517628644922701 
-0.47340668396137286 -0.3776327978279366 -0.1781985973106932 -0.07266540408891953 -0.13359865974060037 -0.1813332320492549 -0.27726493233554406 -0.15109471217997672 -0.11184906062769606 -0.024173327445423887 0.3800835355229024 0.14188959686677693 0.352048491939835 -0.2888356263974793 -0.382317678777219 0.31464285269732795 -0.27189659156866997 0.26529014180338406 0.1296033732617271 -0.4775140453344606 -0.33674454770393525 -0.1663149953314783 0.07283023324774807 0.48439919945338694 -0.0920511352806126 0.3242858342718391 
