-0.08775456248845948 -0.3147599103201365 -0.2372535747373853 0.34249415617122536 0.42239373788865453 0.2468004561724465 -0.3966533965662029 0.17608190764490905 0.4210017191499099 
-0.2981518831745543 0.005694159268932464 -0.442009512497615 -0.17603437067229966 0.4747674256942611 -0.04972759047891895 -0.0964839824834185 -0.15637665129387845 -0.15118607592693112 
-0.3022434405917923 0.14980383707329314 -0.47203531540408605 0.39887751952828 0.040571423536159945 -0.4052807319787688 0.2884785391200124 0.14177212934844963 -0.23759932826906194 
-0.07341252841599522 0.09476822154583153 -0.37655727318844134 -0.017686082846270934 -0.2396148074804757 0.3626986688400047 0.26892578937879774 -0.26306420455398616 -0.4444634779156025 
-0.18227754714997746 -0.4164052246580172 0.23708852747852194 0.006285750073456331 -0.2238359724554918 0.21316737669590835 -0.27540180789678237 -0.13230931791656964 0.3546245991394077 
0.44514659653071975 -0.24953809991432263 -0.29140043939805804 0.09130268965469401 0.4658133429555259 -0.0026687636415907434 0.267545884699382 0.3429085959387228 -0.4254170779280353 
0.47727510065728584 -0.07168511153851298 -0.39301662592429654 -0.39851620010939737 0.050042962925129664 0.329006371890726 -0.38818420885936045 -0.02628821607117049 -0.2724426788299801 
0.2717385658368282 -0.3852158790958736 0.23365842080769517 0.15712168654178638 -0.09029178509527536 -0.14516847315413128 0.3235076796805558 0.008838840825520444 -0.34585790424480023 
-0.48408261723150814 -0.3795601370238758 -0.2680087602237746 0.3657458852479125 -0.12433070711659988 -0.4683219667311329 0.2906438794371512 0.17357625276898392 -0.46290664590997554 
0.4400560000836531 0.04048706429039406 -0.30116731055360824 -0.22891657220541084 -0.07151595153523171 -0.13305486789855747 -0.44811461613250136 0.03360236689840801 -0.4943678764527175 
0.06883424590148368 -0.2820733256493091 -0.3362083700878462 -0.4946529438976143 0.242360764428867 -0.1500473691948654 -0.3821021140828331 0.43876442420465567 -0.40299101016742045 
-0.4526469378777306 -0.15121133590027813 -0.159228033508783 -0.2821244843987658 0.41420737326414103 -0.39803877787395026 -0.42857393036313507 -0.22173548526950537 0.06345457578725944 
0.4663323703208009 -0.3918813029146152 -0.39813319971093963 0.26142619599565897 0.4917291175354145 -0.40426310192448744 -0.2243972201125689 0.09180066234046291 0.06488329254758574 
-0.19024693983860586 0.22221740454213257 0.35885844838930436 -0.47813421023342084 -0.268871680183704 0.2559733297179487 0.44698733936364543 -0.33272076465584954 0.1321083158591152 
0.1652957188406894 -0.49329215882407174 0.46916025389700855 0.4284342757286178 -0.2070195908424356 0.14705838156850015 0.2034258058641213 0.06618865927065098 0.4175849767605666 
-0.21999876932975326 0.2328304729113989 -0.11956007426012216 0.4788795520780744 0.38457941676613216 0.4227845093676964 -0.3119543840361828 0.3357427032100504 -0.26312413610538876 
-0.07998445090169692 -0.14158101606082785 0.296645072057406 0.08639614686233665 -0.35006077496988985 0.24375918831959642 -0.3791285690901445 -0.1496836830530015 0.42473705324794 
-0.35580896209707 0.05288956074154294 0.1441078983020705 -0.0034772431937202253 -0.06654560820583155 -0.27721770114409805 -0.12962760749608748 -0.26138912464581276 0.07723029787843538 
-0.07758331842470134 -0.3527123494928338 -0.10721563191988237 -0.46111531179124754 0.3500323604683093 0.07388923117301816 0.48159085013859104 -0.01364326655184589 -0.0948114495960013 
-0.2985200372024739 0.052079704290602935 -0.2108861880053695 0.011517371628476325 -0.39121908996322263 0.39102531013139474 -0.4744590833490564 -0.2535111508381873 -0.33699191009912477 
0.2315643773415469 -0.3911734050236638 -0.23459941916614158 0.38987865644204156 -0.2426919941080653 0.18335413268009293 0.12106306100634634 -0.12737877774642736 0.40237237011798443 
-0.3561991555860765 -0.3988404177550453 0.2533851068390609 0.044404240629600356 0.48559453324188817 0.13201696566465349 0.2200134615725261 0.19256055726786825 -0.2919291871679275 
0.130531880513989 0.3269658057800897 0.18353415799660822 -0.33937915845941335 0.4252546864927297 0.1212455945605796 -0.2838994174716146 0.047313934377337996 -0.48685922631562284 
-0.1774910199997225 0.278293531124885 -0.21307501252947803 0.47023756957467966 -0.25889910475419287 0.15119938130499155 -0.43700797066702846 -0.2074175510803734 -0.291414733021236 
-0.2905057624525297 0.19247448907722897 -0.19215488069160502 -0.45759367570911214 -0.31877047827274274 0.39177794372746333 0.06875596440598553 -0.0303618278676534 -0.12199506055991227 
0.12535642825488835 0.31611909944057914 0.49435028871777087 -0.3384492502528307 0.48479929505281494 0.18221709414387433 0.4089368967867343 0.07387362483207194 -0.03474636442369694 
-0.20532761092359242 -0.47817175157258296 0.12550375504178957 0.08123023887462433 -0.16366270080951628 0.2023225420457574 0.2100130433123627 0.49528485026632085 0.4185435759667877 
0.02784728080576293 -0.007142359856538993 0.22076275598663953 0.3330491522458595 -0.3402209598690984 0.4087304609117539 0.0037398501945236085 -0.1377215778869081 -0.4289787302246958 
-0.4060077190771817 -0.3105116772622013 0.34795945679311824 -0.09813999542394747 -0.3206170609495369 0.23524078890687783 0.14501993650096734 0.030187301592221272 0.37309675537398745 
0.043721814361702305 0.42061126102524216 0.40800294770736556 0.17543924185724302 0.46086115925525917 0.4973877355176798 -0.16182477567891207 -0.1163349190187043 -0.39370168232798197 
0.08567610462664532 -0.3562383380876243 -0.23077023698638355 0.18673338967654762 -0.19907168589411262 0.11676105014463345 0.4395706834860369 -0.42012563232236155 -0.17914235351210295 
0.22398859310787356 -0.06733425220719047 0.27067658953775386 0.4009174521006823 -0.20516414803320548 0.03500066596925899 -0.3282350375160732 0.23728791456424458 0.3189980550647261 
0.16220894067664282 0.4663755166540987 0.34329568589880366 0.04182112403917004 0.39653112970576576 -0.12515267285851306 0.18819758672664288 0.2607415691067839 0.4363730161763437 
-0.3353579475714922 0.3365186287004036 -0.4016379132942367 0.28062502548723167 0.2990628776663393 -0.27835856794277525 -0.4439731590562729 0.44403799029576285 0.3512904439839579 
-0.010897221100374832 -0.16367007265213607 0.37983343669233394 0.19804854215745626 0.05306004576643708 -0.23618872082461773 -0.4281411563969102 0.05115754658307414 0.12364868182076161 
-0.36983546041965787 0.45098185475818775 -0.41457114701736564 -0.01654050852848521 -0.05639842532205852 -0.11095039449638666 -0.22220059233720146 0.21812218123380478 0.37158876023178833 
-0.4713775250091411 0.08529973599065699 0.43898964873739144 -0.3680095534247074 -0.3821757128581851 -0.24160464127669268 0.2751752309653781 -0.2902746393140342 0.337033902005885 
-0.08856435831127285 0.05770282746565436 -0.44563817186326726 -0.17222430354149587 -0.04660927456900443 -0.3297122742548194 -0.15135169379292945 0.2640495386057409 0.1197509070902174 
-7.261133831019118E-4 -0.47120418562888877 0.34247356008418506 0.14040983626476933 -0.22048896070702417 0.484399174747816 -0.4900043176932717 -0.471453133488153 0.4034628302562172 
0.2692045030976411 0.09656303774842956 -0.41802999951879083 0.4375951683705065 -0.2864997436865798 0.2750208044879032 -0.048924198808987795 0.1731015728926083 0.04473010341749195 
0.43164510604050954 -0.45347178231576946 -0.47271971743792207 0.494995440447347 0.09809728224367975 -0.36504686575633283 0.007385631035184748 0.40243642101466004 0.06921983014583732 
0.2023915654462881 0.25053403461580603 0.49805018194388184 -0.2890233220668865 0.05294880437129079 -0.13874748510663837 0.4103252059689375 -0.2510260219582734 -0.3459773080093783 
-0.1174839206902124 0.4171418684202318 0.020379739649955764 0.4396895750146256 0.2566274653852042 0.12770821173915603 -0.22930611598168715 0.1402713678321713 0.05905074589325443 
0.08687167868755274 0.08170279130118752 -0.28119706330876015 0.12131846684329006 0.2599667266710086 -0.07191454440759848 -0.3359361562383729 -0.10161072518593539 -0.021570677391180126 
0.17752123103270823 -0.28496557373017395 0.08134115823053845 0.2047293298300774 -0.4272183132123011 -0.42691923209543814 -0.49195698173198854 -0.09025815175950835 0.36417187374511295 
-0.20413083752068206 0.3824553422873549 -0.05350044944201615 -0.20318015247932397 -0.13904476212323902 -0.322531603116887 0.05133775048369127 0.09969489369113704 0.3371890563272898 
-0.1333059493013251 -0.4932356152820333 -0.028131116571125547 0.20852197173569498 -0.19261450363790011 -0.44004218708898557 -0.18358284494823462 -0.3425030199865412 -0.32033335136458485 
-0.09338501805064625 0.13348865198852067 0.03464925570563526 0.3765109250329127 0.4219434923115949 -0.44854235077031757 0.3152390475389498 -0.36558299618585743 -0.15108914822199637 
-0.05129788214587405 0.0761843916060404 0.496486674569395 0.33843474700711407 -0.0015631806935206827 -0.08624377645808179 0.4076181810777284 -0.4229811939553616 0.25516185759545407 
0.26654429451012784 0.3557858507011511 -0.26559217209125974 -0.40632956175176893 -0.1916032958671663 -0.006115245303979555 -0.3828422454698571 0.4101919297093102 -0.06751758195132007 
-0.3966230359793067 0.2235849706205909 -0.4998701265400777 0.360320085094344 0.09398399822362768 0.36138083201007165 -0.06201339835743469 -0.4214369456110314 -0.027072598162314332 
0.1112467087253769 -0.3975504243633088 -0.3684752760338822 0.3627274389946208 -0.3017741381412665 0.21324699715444806 -0.2211254933211887 -0.3016718935354632 -0.2330216483229497 
-0.12373682997304913 -0.33437053215821966 -0.30767643229533603 0.1480655971821877 0.16953696949000407 -0.05448776686028922 -0.47868000107323727 -0.05061821297962754 -0.2548505276569022 
-0.25105892855804735 -0.04302650436581268 0.21018897556852378 0.2706395691665603 -0.006636695863104003 0.3420038233050834 0.4147839193942219 0.2884696062691915 0.29633846983992784 
-0.10550971709210899 -0.12135564095182083 0.23319513617361143 0.1707233086631197 -0.1869853861956534 0.39197276447752993 0.4133764926472485 0.25650522295341527 0.05072366328896183 
-0.46612349055727165 0.23890233323390153 -0.4247228217760982 0.428141737049927 -0.24500715438920895 0.3542778351374727 0.18104130362946547 -0.03742893973335004 -0.33281184106381 
-0.3754363061814978 0.12497475908726807 -0.09382375930208575 -0.023969200506676835 0.11303419280903015 0.3519855985900723 0.005356329362942502 0.14505738215489972 0.2882562490550187 
0.0033329957664457455 -0.07923362109664778 0.19042254811658577 -0.29682707081943716 -0.3877197431873387 -0.4196425880103761 -0.029657498692073014 0.29990929150946677 -0.1513046742694335 
0.4770626210497493 -0.04418661708201577 0.3113996952222763 -0.2062918124422647 -0.43173586538421493 -0.25259493242758957 0.45456980272804637 0.20698008115661348 0.48593367738579496 
-0.4624979275536918 -0.260311577896691 -0.11316500091992121 0.22434753974274702 0.3081829110461094 -0.24336256884399898 0.017448728685661274 0.3365343040801193 -0.19799969772966874 
-0.25876871996945705 0.34748653867476187 -0.058878263422700194 0.20624391421025667 0.07334958457269436 0.15102549712748548 -0.48199337749429494 0.05083877448855467 0.11352966091895045 
0.1842932431379567 -0.4457201856375824 0.035851987134948304 0.44579866522112244 0.270699484846912 -0.40890414317417656 0.3766509849989812 -0.33809250032139526 -0.27816711502309666 
0.11768488821273548 -0.21692325871423757 -0.20423809998771703 -0.466459523598983 0.0604620235274238 0.37356622195373745 0.39672832713457595 0.18390240935897584 0.32319750003898284 
-0.33402247194944024 0.016625816334364774 -0.09614001515635873 -0.051531560279052924 0.2839429004149804 -0.4224028765043202 0.49145064829986007 -0.008879160710567602 0.17089373372592642 
-0.3133142065045643 0.09704823517626959 0.12122877011700905 -0.08652666294735067 0.4678282089261111 -0.08029722155584851 0.3070447006187539 0.24187207903860108 -0.10689729692331273 
0.42361898534134856 -0.3323065130504984 -0.10330852521872902 -0.08753932027981948 -0.4909919369307786 -0.26913017052315424 -0.16973752033478084 -0.09520270080708382 0.05299290768767406 
-0.11744284271824557 0.1449147431327681 0.10310224665457834 0.37394178191856364 -0.24620649432718966 0.2615135660030028 -0.3174360676469561 0.46655110692895685 -0.3462322178574053 
-0.4413489498275862 0.14288311067825477 0.30519312046346947 -0.07096209585206359 0.12619924729137866 0.4646848663155436 0.1194898477024845 0.3054194901702365 0.33650256114146226 
0.2748008442730473 0.3087695422196325 -0.14789756680985944 -0.3476926636192377 -0.08367396597590282 -0.41899222282365445 0.19680968355096884 0.4625971478748899 -0.11326233222401372 
-0.022950234105182155 0.016321060332511905 -0.23417825309163642 -0.41900385468229717 -0.32764294891173806 -0.3715579344095581 0.20457912692487235 -0.343568635332109 -0.16378431527031678 
-0.28049376404965687 0.2966293462324774 -0.3776502335662817 0.3722893133883661 -0.14424332994373523 -0.29580997112259955 0.44968106865699564 0.06459531255498496 0.4474604769533559 
0.03678278962059667 0.09461596362309366 -0.49057199507580407 0.26136819496984365 -0.007528737338177716 -0.16493097499881604 0.22644738449989565 0.4101367512009263 -0.39184943939615324 
0.22993376419563127 -0.4889017282847894 -0.013406008045830253 0.011619394988970577 0.3284799388771851 -0.0842808619188734 0.15622919442359717 0.34648546103668887 0.48087546852098007 
-0.2718544466256736 -0.4269473363617987 0.47552564794734165 -0.2693012475300133 0.4543086700173802 0.4419751140141669 -0.34105723167618796 0.3064393568758462 0.1052741594766804 
0.41511486609370696 -0.34896943413901416 0.17136844123907724 0.03936259728670144 -0.22005019597893904 -0.4379205550858063 -0.0602072721944199 0.2164372646104087 0.07398736566276198 
0.39192547679031475 -0.27741129171232515 -0.015858963830554185 0.34363519276250143 0.3573654610620536 -0.3739532402634439 -0.06519077987228705 -0.24578840302552218 0.007731573119616253 
-0.3045627209497348 -0.05301975218518129 0.1535436611296659 -0.3487613616935753 0.0683443634755041 0.2568718293978418 0.4933581216864442 -0.20071169633229102 -0.017305362028296578 
0.2928851652393829 -0.2793216564300057 0.17673412682312917 0.07054227146305037 0.05014550693200137 -0.1343019217127288 0.34318183471029995 0.061053708227522874 -0.017717812451609416 
-0.42688892154451885 0.1237199315514641 -0.38523144623063255 -0.2559031584780509 0.25063289583584103 -0.14295469039661912 -0.4839042889605184 -0.36853593859243494 0.34145929747536996 
-0.06523039230003436 -0.1378629921351332 0.23375343160822537 -0.0333363474537004 0.22776182085842056 0.20331313194128153 -0.3607421609467828 0.32904302820866793 -0.22629666063212095 
-0.18510064861648612 -0.4844421666052602 -0.17831887887360032 -0.4653984364116347 0.4084616489466798 -0.4755527067159335 -0.2574966036265546 0.12382890186631601 -0.3716832531319141 
-0.17500881554813807 -0.11964197666074317 0.14932415123043297 -0.3794783704000373 -0.13151912441980074 0.008663809358919528 0.22291332659495222 -0.18946803230543918 0.29549844018228344 
0.499424379233937 -0.2547222512707743 -0.21944907479886733 -0.4920033947568849 -0.14658499362839095 0.2919170894332148 -0.20127703324484214 0.40824573373773443 -0.06839241472635305 
-0.20247416727720624 0.11970993426422549 -0.12830474862622454 0.06840529836259202 -0.23547858946618683 -0.35018028410923696 -0.247758046776984 0.049018218565653804 0.40603310725530595 
-0.050259701577339944 -0.39390733340861683 0.1413172501223786 -0.025519416664891215 -0.16593481058903237 -0.13564510968676202 -0.01323710405209777 -0.47605819075794864 0.019178567918488043 
-0.11531710491987102 0.1755120904575278 0.007829972834245691 0.3697018307012315 0.16875401686781966 -0.24243461369787 -0.07703052227498608 0.2985856857993835 0.045043189538113704 
-0.2251770536266724 -0.3230185108211757 -0.2129352894684734 0.2853106534490788 0.1381774166071602 0.4779596968162242 0.30807430596307417 0.448412149833751 -0.18072174576810807 
-0.17626266691876513 -0.33963720197764213 0.22648672951219506 0.37836012423301213 -0.3973832253915768 0.35041414597254306 -0.2937278150009156 0.3075367492838007 0.4082534689361451 
-0.3045706631843197 0.2522439199039146 -0.4667823667575909 -0.0815441245991787 0.26299779956363434 -0.3315321831608724 -0.30818505304162136 0.09098415113647951 -0.3882772302416486 
0.40250372413743474 0.4696638785636824 0.4889996494758745 -0.4480528572868332 -0.1826094276987541 0.38108868867409396 0.26463856458761503 0.306859465415958 -0.023309734369749036 
-0.15219588145125473 0.2012527213126688 0.021642497418869144 -0.03723766693902497 0.33834968790591446 -0.25681901312848443 0.04195932464620833 0.479886772253179 -0.371987911583219 
0.12648531144083297 0.262955171346978 0.38154789691887625 -0.05230119426670521 -0.43509448929121086 -0.36391439749388665 -0.19486289440459925 -0.09551577235325959 -0.05764289304858916 
-0.3865351256028612 -0.20247182011943055 -0.4229434032751398 -0.383382945454645 -0.09193958139707803 -0.32857646873825486 0.1160524032058704 -0.2515872323726771 0.45294344245373885 
-0.15493452338378533 -0.487726855043896 0.03594915601932214 -0.1460632378281902 -0.4131479545470108 -0.06496419083127358 -0.14301978003724947 -0.05261430862952543 -0.08840839532544265 
0.18841787257719578 -0.40114950779839664 0.2984086810571249 -0.14342351260170716 0.3849140681109212 0.391503148385814 -0.39513096737703934 -0.4966492996749057 -0.10596912865936037 
-0.4507288645440739 0.00844048323193114 0.4049925219225541 -0.012397896926646723 -0.22566140991527917 0.25652285994069846 -0.4710725160471049 0.37411680458432905 -0.42192047231313046 
-0.49260323330747813 0.4317331911043758 -0.008891499992639051 0.43605142273136177 0.32588912228637135 0.14509253191163884 0.0076628332221894135 -0.09175808057093315 0.07795381579000449 
0.17099666482201503 -0.02164180973313079 0.328236346028729 0.49995521915365737 0.0594955590239139 0.48546169519434157 -0.3067048999159905 -0.30792575310915005 0.2737378816924245 
0.4079611954097161 0.07189925813484366 0.16514050689165538 0.4347383156895679 0.16402114605981788 0.18614394969075643 -0.14367425309768578 -0.41774464159873026 -0.11229169887287349 
-0.17657127525288685 0.22151772339046882 -0.2116421420780048 -0.47865877454010874 0.3852148099003365 -0.3891745626226609 0.31670403191458474 0.23157493317694655 0.1901891960306451 
0.13855043357152885 -0.46674806416582115 0.39034022185892125 0.11499616728724626 0.17009078969122293 -0.05693426705508364 -0.3989852496598848 -0.2222331147587211 0.36562791477590995 
0.053077370653085154 -0.1042889389389019 -0.2520021372653318 -0.055921279137781776 0.2421084904387455 0.28132402611031115 0.20090000147976206 0.46067865154944343 0.4571529646185526 
0.26998892385476536 0.025159701628621023 -0.07230619704107277 0.3488656768621693 -0.10614212034916437 -0.35987608484829514 -0.44985643165475864 0.4093979852086238 -0.025388367981814874 
-0.3182585241902086 -0.3029529854990235 -0.2178333514629507 0.0948800759291808 0.2761633583516764 -0.016409375872148302 -0.32416259703098527 -0.19824601198196257 -0.16427524207180166 
-0.4992538320384836 -0.2662502656575838 0.061827239496507036 0.18410209718504167 0.2962515323212058 0.28520563219382855 -0.11728278724625274 0.3457584866000202 0.1844994343274472 
0.1364890407688203 0.3177688069417064 -0.4806381868325459 -0.15723780716831992 0.44717929063353123 -0.2213451619577177 -0.40432100641562374 -0.06268695332814678 0.28126627681770944 
-0.30515578931221043 0.07752142792772698 -0.2846119906296375 -0.3772291905663149 0.07941628015290414 0.4126361710044312 0.09756437272654817 0.002018910271328611 0.487458194477177 
-0.4399922037592858 -0.18998474587724745 0.39141390866935877 0.18628938403128903 0.07585678000789975 -0.4927679729949195 -0.30150425293348604 0.09601574576305294 0.12768945610133864 
0.1531898690568242 0.009272166181677921 0.20442303786262983 -0.37692373638480703 0.15256363876939427 -0.28374861314109234 -0.2880221491728333 0.07440418950304517 -0.14651514153290235 
-0.19669796964243502 0.12071131897649157 -0.08832988269565056 0.07946305814920651 -0.1465895248523873 -0.15498070292908162 -0.29754777580714986 0.2904774310776522 -0.20439853269377128 
-0.30707975160871137 0.14151642595015035 -0.17812201821425644 0.0137335850264243 -0.2569302791504655 -0.26791422208780424 0.404617500787142 0.20257548131474057 -0.27416148185639133 
-0.2033795655979509 -0.1685306145718748 0.27551529875436764 0.006019207252555003 -0.17297342576989028 0.20126826479449256 -0.2965501892050286 -0.3397666642445236 0.21253270816424752 
-0.35315618809073357 -0.10415377464586628 -0.05613014373272296 0.0680423369516806 -0.16779936044830834 -0.3773360135498408 -0.3496072425646367 0.2265918930235833 -0.20936995650938406 
0.019769934213072604 0.48011409273715255 0.4566137059438333 -0.13217761495893576 0.420675016620477 -0.44396432328222146 -0.38197651147247214 -0.3673188153491407 0.1138662652238559 
-0.34887838116047576 -0.21927732178103332 -0.3765765033422337 0.13770310260271235 -0.4756293163249462 0.2949258304224741 -0.29231656156125374 0.39379213700049964 0.0023156747359888152 
0.4247939202608856 -0.34728123774988695 -0.31504970127386267 0.08808517747299471 0.4351744957889391 0.225453012247103 -0.23468900666810943 0.4319201261401612 -0.04417989241234355 
-0.22803088424745632 0.12782369134303317 -0.04495407494772985 0.03827646754488878 -0.23779788424677617 0.0483424638939266 0.28305876716244627 -0.43229735501360167 0.22796281162370302 
0.3556942424839503 -0.0845078567665919 -0.4047948248037342 0.37105556883908863 -0.4964368217832624 -0.26501227612275935 -0.28416102443129754 -0.126862373158648 -0.21727761195157413 
-0.45749735279544335 -0.16675215463652626 -0.39990101031281866 -0.0689099220399022 -0.20575745186215055 -0.47601229457817773 0.4611254946461977 -0.02571803903566494 -0.38848177535373507 
-0.2571037582900052 0.15624017772290433 -0.1392223939222489 0.43648102864556837 -0.20455727034741433 0.42600079913809397 0.3435133727244062 0.4147002047577374 0.34381210114202576 
0.20316454984065402 -0.3963401428465584 -0.3001969221697799 -0.28945213772934686 -0.24148661526058135 0.3125375268755263 0.39590691043003934 -0.10310142312669279 -0.4683337777671882 
0.1840689110271767 -0.2196710474834057 -0.45741709016108656 -0.15741216999595864 -0.41713847547076066 -0.21793097011406926 -0.4804911612381618 0.09063564841277882 0.4219608288752853 
0.4308169955707234 -0.02594740551990704 0.3653700472372695 0.40950765782080467 0.13674497763361793 0.41082325327135993 -0.3830146016992715 -0.31501963750055184 0.2131021639510271 
-0.15459033895185725 -0.33589760767326116 0.02339663962650862 0.01163792925461149 0.14442600289165797 0.352795145425398 0.07979568462490683 0.4051366421169663 0.4182431344692237 
0.12310883053737198 -0.40348336747817737 0.1218553540038203 -0.26488705264982304 0.08795711183446586 0.10223433252405911 -0.3865863055384722 0.4849633377323347 0.484170947789601 
0.39440901783952054 -0.27930748632476565 0.43696159389957745 0.016603209130189645 0.01575175472203616 0.3915561823800542 -0.09298534111385148 0.1835766437466223 0.010502490162088929 
0.09972117639441702 0.4796944500225071 0.1455952816850452 0.4777636158475643 0.41585078788302976 0.4136473869494549 0.07912219937232912 -0.17317367875000245 0.38996476792200274 
0.20036713992827637 0.24335951909068576 0.18337307802235447 0.018509257606626472 -0.2567200596320969 0.18034923491072685 0.09563447559770921 0.08994112717303315 0.2774125358309697 
-0.4326536976660681 -0.4539756743889708 0.1294380891082343 0.4594825769564459 0.24529797365479322 0.28647153337770603 -0.0036457997049642588 0.024071979909877528 -0.14160305436611653 
-0.315386262010653 -0.07270237687651082 0.023614035620044604 0.35705756004578615 -0.406788291916359 0.4632160113730335 -0.05175493599138237 0.34029824825657384 0.23658973128357474 
-0.2493679692727503 -0.04385773415273375 -0.15660474274710334 -0.2543976457828553 0.1651798939271002 0.035789080226733994 -0.28719359980235404 -0.2334273933164609 0.06985125593258312 
0.16868035999320363 0.15274539943411758 -0.48015693393511716 -0.20913341795902918 0.4642993486898208 0.37642135721514713 -0.20997434274978954 -0.42915360478036857 -0.20123080547636407 
-0.4501605604595128 -0.40726831904599303 0.3419640186274523 -0.2955980992695907 0.37719290872795475 -0.3184910025197829 -0.3489804776256461 0.12943788778628296 -0.2557416223534882 
-0.36609157040637297 -0.0361174383744689 0.21558959710579417 -0.19016020006890977 -0.012953176344237649 -0.12149071633317676 0.4255732601061035 -0.18481112658397658 -0.21927052016477966 
0.483746467986662 0.1936327348019442 -0.33253699501643585 -0.08985999117340482 0.21539374113565168 -0.23087023115105942 0.04566406691595504 -0.10969889099097418 0.081503045672494 
0.07659595965715271 0.37613460947755584 -0.009045252096911427 0.05565123021467677 0.2252108136778197 -0.4704293278423891 0.21320581822456552 -0.23006913238842108 -0.23350796083432834 
-0.4973567127141366 0.24821879162862814 0.37866098513996727 -0.07894692908928092 -0.3352966249715049 0.3834515120336307 -0.3906720017469387 -0.22639557554630552 0.3736779268539734 
0.3033565735062297 -0.43097548555988485 -0.13005512113601192 -0.1048522352818515 -0.13082483139741607 -0.1673382466752339 -0.25949074735451994 -0.4052696899226992 0.2563941351482407 
-0.29651103414218694 -0.37789021080215146 0.31627329968763584 0.2786320716382512 0.3069611147970387 0.052828353533532324 -0.2930015192136649 0.3331654894001682 0.3557539025899388 
0.07458693944750572 0.005617142405360265 0.16600194725786932 0.006733031087107211 0.4937446642792688 0.47057166872733847 -0.4266485913361231 0.21994243962150284 0.02213910098598415 
0.19294071407613544 0.23154336762000371 0.4251839107698381 0.1493108337471304 -0.487821675895052 0.07888206170436196 0.10351846751448446 0.2812198117330539 -0.3672605316899331 
0.06062735472497116 0.09902762178604252 0.021582725672368963 0.32577835954232415 -0.40776540187595167 0.0904306069531089 0.46903094704526316 -0.20751227249240978 -0.20381826753380317 
-0.3273389712572802 0.056608743826497276 -0.13571919565209 0.42415709633824206 -0.07473525193354014 -0.23029822697700641 -0.280100241089947 0.38907740621019915 0.17748849205510764 
-0.4556935425873604 0.21066836282521606 3.4981777349174514E-4 -0.08081407041130972 0.26962081331781207 -0.2975120866373525 0.32098772310586154 0.4521767266033717 0.09725768082276554 
0.06680976113972847 -0.4533644517990647 -0.07154886379375669 -0.3060480612455151 0.08269957743378475 -0.0557477362359623 -0.12037923434902831 -0.33454683438592114 0.0482415458427089 
-0.31785027694276957 0.20627411932963258 -0.37363433932636037 -0.15808599219312236 -0.16672377404127103 -0.1335971327182084 0.2940183643103501 0.02320010680727591 -0.059918158006338595 
0.17882346946190852 -0.45598299994346136 -0.1834198347107261 -0.208003241558537 -0.25947477913822103 -0.41904862826860023 -0.015814285663593775 0.48549954750885627 0.44613536577632373 
0.24980127841639732 -0.34022303246840646 0.411947487476498 -0.0068021339009111115 0.04190422778503855 0.1903393953523086 -0.45021367098667797 -0.4412780445961577 -0.46608099864796426 
-0.08852287004372428 0.32545224401119255 0.040462987682279405 -0.1609608878922345 -0.4310860011574448 0.3512242048294898 0.3706569445051989 0.1467808603733317 -0.20920405306663503 
-0.4515202965242552 -0.06956296467654 -0.41900973568875755 -0.3858790465247438 -0.4787470232251695 0.019919331276410213 0.4152846124901296 -0.42649389925404546 -0.4423103891494864 
-0.32804850309018896 0.1509633464853618 0.2716334491604733 0.3059365679161239 -0.16322312958697383 0.08449460240375295 -0.3319001570672627 -0.0037974660368775837 0.11037415456998567 
-0.22999694063681841 -0.45297198514326387 0.062168492627857064 -0.2690098231697191 0.21675544092361587 -0.24632013348192172 0.15262360158672306 -0.4736084007952498 -0.24753936805900023 
-0.17355511087626996 -0.18185285909380822 -0.14138102379195616 0.2302709397242072 -0.4070400768555815 -0.392147808346638 0.3835343788029565 -0.3393078326778055 0.1477492376764047 
-0.08234754331510341 -0.3807883737754296 0.4091797490097181 0.38365663027729247 -0.30579160876772626 -0.099773825509608 -0.18398081109338116 -0.0895260353811389 0.017654967776165376 
0.2841591254753063 0.4671587013440376 -0.23844630613887596 -0.3385924695146282 0.3721381337634414 0.37298273477262844 -0.23717456599421116 -0.04121118576205385 -0.19300484137615903 
-0.0034147141383528146 -0.18148043308701167 -0.30608565014275757 0.42062964309639683 0.41392202399856304 -0.3459663692792294 0.2782196508343123 -0.3835772236169247 -0.11470940860673562 
-0.25123983568672514 0.17420748431371935 -0.40694335297739115 -0.22909075606356288 0.2903275483280049 0.3844387500155352 0.44284984746956324 0.03293349452125405 -0.013412427675943417 
-0.16351384083752718 -0.009270928450203608 -0.46792859977172585 0.48281759365708654 -0.33648515581393557 0.4792136799634201 -0.05097190579966704 -0.05101381317041942 -0.2946502559832104 
-0.1497016676501609 0.43933072642377524 0.12556580322797395 0.036334504695851644 0.42687665864411084 0.06465489328710061 -0.25374262470811926 -0.0360179629157672 0.2543562546153707 
-0.3654053528561789 -0.2078746740003432 -0.2636372323134223 0.22737388433037975 -0.1601125470575574 0.47402411876766937 0.14637076987916697 0.3970267352007847 0.46142694811068985 
0.1888303475292642 0.327454752074155 -0.4692058820977484 -0.0010343315491488925 -0.050123263569912924 0.2980944355088365 0.08033125787313478 0.2792309458238156 -0.046881993117326215 
0.23125012136009648 0.20157514169323454 0.4752468485283238 0.007940828566504798 2.0686357675692157E-4 0.3671095848399605 0.4969761537397749 -0.46483713701482643 0.2836810078932529 
0.41249519110794386 -0.10203427568885537 -0.2853509454139832 0.40075162250136365 -0.4337229889489985 0.2834997369242277 0.1511060056456185 0.09012521402160611 0.12764118917366585 
-0.2971649307138906 0.11899769574330321 -0.3515633351569003 -0.023800950044585045 -0.3385861875497549 0.046159494602505124 0.1987354503166523 0.025135414529340205 0.19851767637488638 
0.40056919442940797 0.37300102076640473 0.06196533209223243 -0.05834995602705806 -0.44413256048555516 0.3614763284525152 0.16040168573776592 0.17100120206972202 -0.47139776186569937 
0.10680476734306887 -0.007656601068845803 -0.2943273153876055 -0.29619475384093674 0.40239987637290264 -0.07924768755509826 -0.14209271306514182 -0.2046095914315872 -0.20782677799335159 
-0.2878058788126462 -0.2076087441955592 0.3239979915855209 0.46269130077862786 0.07207714214122385 0.3747656800599025 -0.16270940103043097 -0.2309732109699173 -0.02387025559764311 
-0.003195722978335147 -0.05366067317518808 -0.35798412367248167 -0.05158405440156899 -0.07471476873506 0.006622704370242483 -0.11267219778302195 0.019195791825765474 0.4374050775619691 
-0.0667079140301271 0.30569844071027297 0.08519522386730105 0.37765254569885043 0.20774154198239347 -0.36112460220207065 -0.20964182243281737 -0.20061873823077025 -0.39384806682556683 
-0.42273349834603857 -0.15308908912201202 0.038889829354492145 -0.4394375754815619 0.4529799320856984 -0.07542309838586292 -0.08936131247991552 0.34915515932741314 -0.214111363817599 
-0.1499618039104066 -0.29069701908746004 -0.495178365821756 -0.44945216368041296 -0.12075292381166358 0.3576814771872846 -0.07028782398135869 -0.111761161992181 0.23194941223907994 
0.3490513168766045 0.20835294444922192 0.0011085499126947118 -0.08921075636808529 0.09837927109094724 -0.4769526508338847 0.13431867964754907 0.06662175652874391 -0.06112988792870877 
0.39266159391160127 -0.12268544880773014 -0.1828303764627064 0.2786529073720141 0.17952735321993119 0.49676807180004057 0.4779156189389615 0.36697718600363505 -0.06092322276042905 
-0.3485543574408949 -0.37786807106264075 -0.2898902393490054 -0.2770417214688269 -0.36680401261497086 0.25120501033394327 0.4241949630287273 -0.11123594986020469 0.22844915735669657 
-0.37307826055314075 -0.2843398903291866 0.31813348653637163 0.4010627150931101 -0.005858651665050951 0.2393188866426822 -0.3001211450209852 0.2600467759895414 -0.49471511509278987 
0.30014568433045374 0.1959131680521411 0.1946443616490513 0.14733172855025134 -0.26323615318823923 -0.12485763732343125 -0.36556035906696505 0.36752099878897027 -0.14698833454932914 
0.2741168915254478 -0.3763888249153331 0.3957129614880386 -0.051480357778171615 0.32312102387806085 0.28614289775859647 -0.030626506261505648 -0.15994657076050423 -0.33748973210252553 
0.3027511160307469 0.28140283801767463 0.2624467563773537 0.06649083872149264 -0.279519266581704 0.49153711107244435 0.19126916823777296 0.29016730949917247 -0.22763063729522914 
0.06880944922008814 -0.06105631449903692 0.1605678946742779 -0.10272655130545671 -0.43443536811720185 0.34184977757000146 0.1434893488661504 -0.1811044285153265 0.16278023955954768 
0.4780172387237902 -0.0646138256981198 0.3682476137073709 0.4719534321694544 0.1333372202371076 -0.14683794236191516 -0.2847702051877714 -0.3694281796167296 -0.3312133463631388 
-0.0753960783238311 -0.18729937268196684 -0.31380620996196007 0.031982529308421714 -0.3816683674040211 0.15035851323786764 -0.3715782318042964 0.4034533723768513 0.09452003867081149 
0.3659508708824859 0.19855969443524357 0.3713348321128398 -0.2937184823608988 -0.13222818998962915 -0.21649620020762128 -0.412232850046901 0.2364814943779936 0.38510493365566156 
0.28342354936922254 -0.42390751276878247 0.01589085541479951 0.28221316737499025 -0.16795253325621284 -0.26997992078110933 -0.3640369226672472 -0.45332732438299106 -0.35612376910743904 
-0.4257520943455074 0.44315589584199244 -0.40570696035668996 0.06440364955547062 0.04059974808628941 0.3816007643518615 0.42056199989898446 0.10743331710062032 -0.14544329267467204 
0.0370556670002401 0.17249731711995564 0.37783710575348495 0.12413259929745635 -0.07253995687587433 -0.0850158621581314 0.2986092240942443 -0.1236368057902959 0.18404314307577974 
0.2221221861267456 -0.012172670130314533 -0.40375092656981204 -0.22817979841128755 0.23680070045840262 -0.03585983498279388 -0.21118714182852227 0.3094431477812004 0.01066652156113912 
0.09865892742193194 0.2070013148779759 0.36575616710753545 0.26184412634606646 -0.1233627446645732 -0.3335166688983692 -0.16596176460927592 0.16921296705228328 0.0840828577212065 
0.3029652524503107 -0.3852012628950455 0.45974231044391656 0.4924511508549301 -0.2815348860265847 0.37412378035718674 -0.16067100438629056 -0.02117033435564275 -0.2899422476228519 
-0.41304510406047046 -0.23222094887761768 -0.2104708085317244 0.17792318680131414 0.423313644312556 -0.3149805737690555 0.33175599014923574 0.3691005287033907 0.2903690522305039 
0.05832119686049042 -0.03895331700440552 -0.17082908186859047 0.0043774651535656295 0.03926124969883327 -0.27859422485525587 0.3061618590345916 -0.36609319055263 0.0943441821529788 
-0.1094068216487395 0.3792873834916598 0.029391033871848937 -0.2953476192921308 0.48476707561179044 -0.2302927830749748 -0.06605787366306437 0.11758660293376988 -0.41530472135638763 
0.1313093400663231 0.3564808708853794 0.17770531615419816 0.46000602614869734 -0.38340949783131517 -0.41937031883808207 0.4638659458413612 -0.01154296849440295 -0.33397074240432867 
-0.21855571873391666 0.3163171602104027 -0.20604082968913162 0.2789167046128693 -0.2730570240494804 -0.1499143477739764 -0.13990058998915333 0.48943048140187895 0.452526112379143 
-0.28005289210956275 0.11516514422355117 -0.1061926525212098 0.11376006178623932 0.22746577278539715 -0.36982023679145604 -0.1472091395129942 0.44663366469220933 0.3420326613813094 
-0.3767825432701155 0.4281000897012467 0.39427774171233476 0.3455276992021793 0.4212728482914605 0.20248616247311713 0.49527056948810744 0.10417602105216472 -0.10478105022886408 
-0.1199862933880701 -0.4289642327982559 0.421364833789724 -0.34610553790960974 -0.033475682242183225 0.09847138971306202 -0.46836848436856304 0.46011988242699364 -0.11019040248959577 
0.4088319667232684 -0.44127013021623884 -0.08555099376211817 -0.36515804378373096 -0.4849820858437851 -0.3203741810634738 0.44172046818197885 0.34148101709558587 -0.06319008078763078 
-0.18852961317613826 0.01098226446481354 0.34039442038401535 0.3672182827942747 -0.12995836861784804 -0.17888097346512155 -0.21249835131165595 0.4030001333291269 0.035843844044792905 
0.39252061461400534 0.3980703533732117 -0.15146942340125635 0.007996715212875039 0.1193875694444857 -0.22133578297085454 0.2945960994425513 -0.07375689837332 0.3577777973722178 
-0.4915375447614714 -0.22768825113076108 0.49784890953187033 -0.4487447538789323 0.43104091504355846 0.2872464657964372 -0.12113600719162387 -0.2709892302214614 -0.4164747845273076 
-0.05002668467648208 0.028158812905769492 -0.049418287473991906 -0.1879034415736235 0.23664468344421263 -0.4221541537550413 -0.0831943313470418 0.4011513122054595 -0.3631749251115033 
-0.25485875609460706 0.01840103535355897 -0.02201422694940036 -0.42430302347280113 0.44841660737362177 -0.44842490837183135 -0.4543024620599321 0.03388801765254912 -0.41586336162903115 
-0.30568213841897796 -0.2559343568579068 -0.2694494140192376 0.37157346611946507 0.10754829462309512 0.34149180083992237 0.08395781858324569 -0.2213661858633753 -0.29796333547302833 
-0.47934510574183464 0.4187627185596815 0.3048304682420957 0.19503507385693664 -0.263647677830118 0.050199872305144555 -0.1836248944594453 -0.4301941950455829 -0.20392923666059914 
-0.05710782838105111 -0.2964358556855877 0.44674501319861415 0.3421502287276178 -0.38444239718207907 0.3620754847201648 -0.323442878699028 0.09897520356769707 -0.15720564388602132 
-0.112511314211448 0.1739429618079481 0.08944690673856737 0.4912546830744803 -0.08371346954243186 0.12452273541886305 -0.4779387291739631 -0.48009864701969107 -0.25320833511253227 
0.21822240051172437 0.20323729369821264 -0.22732693033730467 0.22993666040905414 0.48911016788645456 0.1391110191179774 -0.30323204367523016 0.4324617011172457 -0.32532246048077273 
0.4568303628765019 -0.469112519940166 -0.2559209239202269 -0.25318312442058144 -0.1025435106501309 -0.1748348625774685 -0.07466077239917801 0.4122557686674947 -0.0891018963719924 
0.3781381059446064 -0.425621796922091 -0.0680342250501984 -0.1821255591690497 -0.19399794568464646 -0.37157830702701533 -0.43292860034157565 -0.40527582973374265 -0.004477623699586597 
-0.19013363341777612 0.3230426029307977 -0.4160532846318654 -0.36564190684048303 0.3769543296855783 0.43446212031230824 -0.16331644520010613 -0.13881266717327045 0.1455016559206016 
0.20941676087186678 -0.1470830049306534 -0.16709413504691684 -0.48916203397617397 0.4355693908725681 0.2009842849257466 -0.3326963227386418 0.11805830841154141 -0.4607733948192848 
-0.12992455114854862 -0.21299348286890918 -0.09611512887834184 0.08422407572639834 0.2377029123584038 0.16410283706365625 0.46488082713654966 -7.894008912201489E-4 0.2187025130543716 
0.3447589020565248 0.09445395381476807 0.1299183245092529 -0.49685572119869326 0.41925823572133836 0.3750332298506056 0.32726547562124664 -0.2123970788221724 0.2952833732998006 
-0.08800325579645996 0.30264531633284764 -0.44244235498607876 -0.2691078933196269 -0.3476255276647041 -0.09148731577278435 0.2882613548021644 -0.41147824081482076 0.24404514348844264 
0.33538784385171094 -0.10276023286244595 -0.3175110000923176 0.06009131674192336 -0.04434554202444385 -0.09634905753158995 0.4098348134880787 -0.16182762159938724 0.19003706033531287 
0.028056521446632177 0.07799731263557375 0.36622027682505276 -0.17559938297012756 -0.09927422258664731 0.47267808926466837 0.2834584065605462 -0.33747726846074766 0.13741422048155771 
-0.25459999925180377 -0.1403108567960042 0.26474742267638196 0.28862883739697387 0.1426378560726781 -0.4340092304966372 -0.20706400483243126 0.07171191625614992 0.44703580980953395 
-0.6592221027721306 -0.3411101857550365 
-0.44872309758386736 0.2561079991142271 
-0.19240886541035943 -0.24357372480653794 
-0.4531942963680814 0.384952293951933 
-0.9524211412720998 -0.4534518732696592 
-0.8506689970552166 -0.25311069550723186 
-0.3957397352999085 0.16065321226945473 
-0.03855201537779629 0.03957176045900157 

