-0.33379142207055434 -0.281389645434312 -0.47177254949583536 0.327670409583393 -0.42065051964755085 -0.3338962778014254 0.12843484063402444 0.0295617075975656 0.3674826753383553 
0.11863549055857125 -0.48873814869762566 -0.3781084222950323 -0.3993009307443297 -0.319510493799366 0.44162096932944084 -0.4597297741643297 0.37147467560530834 -0.26484390682218495 
-0.3101412454870841 -0.20617627000894534 -0.16915813934828072 -0.22052826111303026 0.4510128758185975 -0.2772021304779636 0.14000130003308642 -0.09315080387391672 0.09096295237078167 
-0.07184388821266763 -0.21349834914163401 -0.13642068674521446 0.12807523748413763 -0.208218485150666 -0.14037803716572506 0.3805052607451327 0.0825732719243818 0.48733718489678823 
-0.06865031852347947 0.41694061723296627 0.4557507736312769 0.019536014574832894 -0.3526450400359703 -0.45547703002797635 -0.3627257666047029 -0.37648527177940005 -0.0033805682433253326 
-0.05423507099543878 -0.01879301558097679 -0.1937964131561445 0.49888619814025736 0.40538488550401774 -0.359981739224141 0.41802740644112923 0.22585466256203013 0.2320702092974457 
7.240980248016671E-4 0.4059700945217838 -0.34494788868150494 0.26414544640439974 -0.2715603765234127 0.31797866006181696 -0.15542778795336942 -0.015310931238733061 0.49000518319974506 
0.20387959175269965 0.31237731292813675 0.29996222486262725 0.40398124685732195 0.2894245040009601 0.30562033163637226 -0.28041670843507904 0.14319019275990053 -0.31222192884681055 
-0.14655086967380804 -0.48229782188863257 0.40211592063137 0.4567062594175144 0.11101433810269046 -0.04850068826914311 0.13385454499332383 -0.49008193596912575 0.022909547423483168 
-0.23334643365533458 -0.4400570985845287 0.24745969420719482 0.2610302734592501 0.02899468806432748 0.4612740159788926 0.282754959980972 -0.27515387175523853 -0.21262479141542345 
-0.33055867334380507 0.3128314403848248 -0.3686615695721751 0.19486786243517418 -0.004763025520094444 0.0034666013929026684 0.367363184985125 0.49371427533172974 0.05466141385382828 
-0.257565575438475 -0.17104258714805154 -0.2959783131454794 -0.41731488598989197 0.25172714588011547 -0.06988576566700122 -0.05297634335219392 -0.13886471300253456 0.34357318718327734 
0.32781040254001137 0.08079251981622271 -0.17053577217472915 -0.4447332701865926 0.1805772961947023 -0.2703897092300892 0.29578783043765045 0.004270506364486559 -0.06533531810400584 
-0.15222427247726034 0.42046596537112935 -0.4322520963808324 -0.2851460182666833 -0.325554217522532 0.3056296430782798 0.4096265223580403 -0.11376429616009787 0.30817907009030643 
0.09144191477513008 -0.0465098142416952 -0.25122617200067 0.15817048024478053 0.4335128283902482 -0.3689583332632168 0.12823697444292792 0.21373526283848898 -0.38422849129366243 
0.12357422013735242 -0.16491495786739074 0.414422140234205 -0.1607690146766163 0.35783458487732367 -0.422843101781623 0.4002046935701038 0.41946453939740425 0.21785626546931924 
-0.0674870887524982 -0.42547930365962483 -0.2757552161803305 -0.20921369633297415 0.415544127164865 -0.2775000936784534 -0.31232006338485074 -0.022575103783448403 -0.49753281745835365 
0.39254010787822924 -0.3516858005683462 0.46714198948729635 -0.2784177121686625 -0.12853723456571187 0.07604194455093582 0.40203057657794883 -0.4408205165242186 -0.13820126292995005 
0.47631882800194925 -0.4633985633646893 -0.016264499159446943 -0.09567417152880442 0.39003474792036485 0.3370198157894462 -0.15094759305990457 0.17979948869459428 -0.05645265254285747 
0.25782947477509677 0.30124608123064156 -0.42911106131401655 -0.15424292187575273 0.384304886575072 -0.4149989742193946 -0.23134926062957373 0.0777374955179505 -0.2649820652309808 
0.3212654391706058 -0.2325575312880942 -0.22468203848092005 -0.21809952025863533 0.4115684839528465 0.3079996092114966 -0.033852183356540166 0.16402974308239182 0.21339953215647478 
-0.2995316173598127 -0.10984523933062096 0.14655841831348937 -0.47340328075099636 -0.012491314716531865 -0.39405763925322945 0.10765711938839106 0.23245023842126722 -0.40784963811021235 
0.4655547972899643 0.2240318563599042 0.13523358488615944 0.4359074143227052 -0.17383037574721694 -0.4304754257741329 -0.32986646672110587 0.009724303600030293 0.05966198342203055 
0.041500123156817836 -0.3379422845255704 0.03364938590513422 -0.4803829871070011 -0.11383163903774285 0.24655629262057588 0.15070032518897958 -0.36975064532967006 0.10668540687129091 
0.39710224819046913 -0.43379300080162475 -0.3271779949506365 -0.2931767348212835 0.24223232961242025 -0.33401228953103135 0.16253922261794174 -0.45180743492590836 -0.4984412627754593 
0.42503442901054767 -0.06747868260623635 -0.41955177073252203 -0.07858054844016504 -0.14704618079654763 0.1713516837837623 0.34160342762451334 -0.45105742650769776 -0.1867696678849139 
-0.30318066640840435 -0.08047786505719223 0.04755849316470784 0.30044844765065193 -0.3091368201125496 0.015856648270265894 0.02750089750221929 -0.3370684253565811 -0.030643088448499056 
0.36014059325506065 -0.4584043562455491 0.31782466942874665 -0.38474392224504195 0.4844445375598725 0.4796446675470467 0.22146911605103925 0.46476215036464996 -0.21205449560654377 
-0.41603071452083595 -0.27001248241179154 -0.4964593418444211 -0.10404205913873454 0.20418569974693002 -0.4866826471994351 -0.2963361326627758 -0.45058181528698693 -0.28895722818527914 
-0.12949809769551568 0.21183063836583516 -0.35148942826772844 -0.302839665338007 0.13486815412486475 0.08554955252398966 -0.38193225868512226 -0.2932359272046098 -0.14520943371692252 
-0.033646285391315756 -0.03742597910112899 0.2570205246502184 0.08906090046442572 0.17774870762880568 -0.26495462014322246 0.3403338876771511 0.4654539267756497 -0.2595219669034713 
-0.34324539478223737 0.4299740935460351 -0.3831003250143452 -0.29117714760777613 -0.20628335370220252 0.2506631589058931 0.23174259884861292 0.049036142881734524 0.021043284329699374 
0.2212550149894853 0.23288900073067598 0.004643664125563385 -0.012277912911465405 -0.4715984938647262 -0.46478606528722644 -0.4767724595911802 -0.06792979573910218 0.2481052151122244 
0.42141914714544415 -0.14455969745637798 0.49205812734515564 -0.20368231446821972 -0.1763958886370245 -0.12061894650178728 -0.3951053439052682 0.2602490066805465 -0.29886748970455257 
0.0520971247850871 -0.3032908939961746 -0.1611867123620393 0.2649465425427602 0.14485834601909464 -0.3741379388749231 -0.2963586003686308 0.014302157571044805 0.07998329725822073 
0.26236194711906846 0.08135105470285453 0.42396831864634543 0.2543798431352926 0.16105901648267595 0.2532716111682074 -0.35174615997396674 -0.2914046770636295 -0.48226548193876184 
0.47057893389304184 -0.2072043333602238 0.3800541423148982 0.4848977816778943 0.49080320661758503 0.1458626898113622 0.46529372997055873 -0.031951002685535745 -0.4440687154537595 
0.2579996642269724 -0.3916076186490681 0.22336144121691004 0.1528314864077558 -0.08784411650415203 0.23141539472911676 -0.0658184515005863 -0.1765117558778353 -0.16398627066624938 
-0.17241122985523893 -0.04355910723328993 -0.37445975672581966 0.47405255579103134 0.44904251416362007 -0.40798047353531397 -0.41712515762407276 0.2589536348478033 -0.06165163738118151 
0.07429502268580868 -0.38846159180391904 -0.39972792689132375 -0.32329042604877967 -0.06844256988520692 -0.0420193774604628 0.24287200927197006 -0.24845655312631632 0.03166522584663678 
0.14465820997962187 -0.2615578771685927 0.4823295433794672 0.4052628501702853 -0.21771833548941644 -0.47952224714618197 0.1859799652322015 0.395075683720586 0.3784961195006774 
0.4764376606697587 -0.08837937892802661 0.2852437382866836 0.4495455974702989 -0.029647662700554522 -0.37044511219971776 0.32735041609062276 -0.17552256388706733 -0.015017775859803018 
0.020314680564631926 -0.0012518064262839745 0.020701400072548726 0.42469382841646053 -0.42291410096700555 0.4039784682083922 -0.03477359436752947 -0.3514575615294486 0.20842865787434917 
-0.03847212312532167 0.1376547916927764 -0.012380048406464561 -0.09190503086389246 -0.09414129675385485 0.4190224815354281 0.34154749863889666 0.34488023123568046 -0.3214032221613581 
-0.45516911378142066 -0.053938416646127085 0.4178264321842151 -0.01704510124126768 0.08112440271304167 0.0569644315005825 -0.07927097230324753 0.1319157671424942 0.2692249789261728 
-0.39472230168265887 0.4647814631605608 0.3333930565902562 -0.08225683119276206 -0.15573930925854707 -0.28067553911930376 -0.2754647674097608 -0.24025704834009964 -0.3689766887291933 
-0.1519501932323014 0.29253166219352733 0.3384451766891594 0.2637850897776276 -0.25835836423034564 0.30072591107157987 -0.46338746806250275 -0.26959863827496433 0.2777201063217247 
0.4765364228173046 0.3227667704671353 -0.1854015013199819 0.3750864620704871 0.011630207656627367 0.1516464367128506 -0.2465700311010176 0.051650035756499846 0.37499057070675423 
-0.27317846435828896 0.042785541211948774 0.044051315161693694 0.045964568294175945 -0.48986095379910577 -0.45264366021403546 -0.19812218598140152 -0.46292774667847303 0.44568141843089415 
0.28727845728773616 -0.16949769577571105 0.4953042660678145 -0.14482259247161766 0.14574842296641521 0.4239556864812154 0.2458297465396 0.35731309774077713 0.2702243147865301 
-0.19712032717933792 -0.12651770748501634 -0.034851793835397826 0.12439564297577654 -0.44751265246146343 -0.17491357736678415 0.22385078766224276 -0.01107283928763425 0.04159233937009821 
0.05963290184996306 0.3652216762591217 0.20605002395906147 0.19615009017447993 -0.02649396237828927 -0.024013332999085812 -0.38360402474023503 -0.400612038776044 -0.31558829923842513 
-0.3964061133250434 0.4460388958596181 0.3954830233679639 -0.22964981216882174 0.05626016587511995 0.3675297878078355 -0.1151202094404985 0.22892304769342653 -0.1067314100889103 
-0.41921966458856974 0.016722776427960273 0.2474586716291155 -0.2529723141313548 -0.4620285781007638 0.20751138542042946 0.3558863935071548 -0.329840324178044 0.37123281085396964 
0.04496775544900533 -0.3280155204958739 -0.3411065452181812 0.17266072903805696 0.47224068999222824 0.24257255840449587 -0.13170397917514431 0.023310115583710322 -0.010047859987571295 
-0.06558576958478635 -0.19461676597126276 0.07111906893562414 0.2622245548910027 -0.06495872846516226 -0.037090679982511365 0.017292843594480578 0.2677113335244856 -0.31359440868377353 
-0.06035818930782566 0.08649562036679825 -0.20221509391989412 -0.006788785966761357 0.08218662584135117 -0.07173227711123575 -0.3285806673896662 0.12297284795727481 0.07893589542643042 
-0.07459248876622637 -0.4900618527167462 -0.05370604102920595 -0.2615312902955903 0.06962606716270514 0.2946800493300068 -0.4464481714074465 0.39274318685631526 -0.09439553624134522 
0.21676847551725464 0.3281227434885313 -0.020324618397077443 0.041652520385896286 -0.4794465981873879 0.1564755647632292 -0.1197907241834173 0.3784893697071142 0.14092701498798976 
0.31190763796006926 0.011739085321504805 -0.482764637970712 -0.06040259013721683 -0.4386083252820112 -0.48724660405082876 -0.22647378572927546 0.25653733721406957 0.21394821881757242 
-0.4071717306702465 -0.15327028107435048 0.3102078040396089 0.15415308460790522 -0.2323955816689124 0.4715663239260133 -0.29621069012529466 0.3858349448077917 -0.24985875254249912 
0.31400476525140575 -0.07546383130476864 0.24871302086415348 -0.2719517766898446 -0.03587559094810244 0.25950201360957315 0.26467067858884574 -0.37994763015802135 0.12570635347182757 
-0.006732028988855943 -0.4794443271716039 0.17616775036391896 0.005635488382257137 0.1019370657701828 -0.3991567073357858 0.4623913448888308 0.4657661502878201 -0.08745831721610353 
0.34619377941933693 0.35385695601647393 -0.2842758711776009 0.3581438577603292 0.1328810027302746 0.14963710805716535 0.1971886086675778 -0.47370970515582855 -0.056735662260415265 
0.31789006258489905 -0.1614829793490523 0.17211773949133435 0.22892131527978743 -0.31819233319355356 0.043147125672830855 -0.2527136063919605 0.4557536799557469 0.06482700741509562 
-0.3839697156169911 0.2820523074123712 0.2643250462731488 -0.4721732859816077 0.3294203222821831 0.15017221140306602 0.3788832579169247 -0.14846315954284095 -0.01733713540772941 
0.34496738843511954 -0.24503338190522073 -0.155851165887549 -0.3797998250991267 0.39975564870472036 -0.03181268521069447 0.38711986808137977 0.03782696738363389 0.496993570739242 
-0.48426806485572416 -0.128575972887208 -0.1706972664062133 -0.3721462530190115 -0.472686462697136 -0.17799004429112997 0.003746978770420073 -0.11240517837613317 0.3637548441140206 
0.05998317371971362 -0.36118689542301674 0.12196473694050947 -0.28092158821974955 -0.289961609345056 0.12545823042968463 0.17601039356885317 0.13592381457899905 -0.2750745129816342 
0.30719557356559923 -0.060949970876572834 0.2943079528607849 0.3692402930761519 0.22003656580194275 0.22819704458096302 0.040189778895295736 0.2815892982062085 0.1989005698651335 
0.3077071747727297 -0.11700452406442852 0.31718508817780566 -0.16790990463942146 -0.49744677152586636 -0.38979344903381574 0.3621873784342976 -0.38250074905357445 -0.06798467961253818 
-0.2576926123195453 -0.29338800968000633 0.20254466771195034 -0.1372939349078629 -0.21716503596204528 0.36438807708859233 -0.22562282357666164 -0.4396657639503536 -0.39403147585819853 
-0.06284801017281993 -0.4922463369594998 -0.19435738053705065 -0.1319579646743142 0.23262342645231282 -0.024981530428358045 0.4323381652548165 0.029558018212412884 -0.1310823566833258 
0.075964104946458 0.3434667543785337 0.43072640938981543 -0.477094305758783 0.3549114063168901 0.4675658073059956 -0.12375284110267981 0.3137414952493922 -0.4618303400624544 
0.027062630903942342 0.354001380613135 0.05193340729295637 -0.2528930584115062 0.30876774705625 -0.16248978324380725 -0.270155009688257 0.12038240886356155 -0.1500537967341692 
-0.39653343956545306 -0.3187319030656195 -0.48653879017466883 -0.4166676773153125 0.13333988418662446 0.29571859257334887 -0.46564592868603794 0.02058595398763874 0.46199967595372515 
0.03736330339801164 0.4215934573760355 -0.003928418432847747 -0.21350173231787584 -0.21100534934553072 0.17377830649699733 -0.1585258662348521 0.25459955811243795 0.21822659062265803 
-0.10040950426663764 0.1166481286619746 0.11533468584830575 -0.05390574616094068 -0.42699478879522734 0.18322978920257427 -0.16718823118623016 -0.2125035261121614 0.25048906629055423 
-0.025075504879714994 0.3397017542034858 0.22842917878307756 0.3352992136997023 0.29201465663838655 0.3382677687228085 -0.39328526405449615 -0.34143283169380056 -0.17248396729307447 
0.444500764678026 0.17094025371036048 -0.012328180597149685 -0.08145663835679451 0.014869410386161741 0.3065761905609188 0.0694757780184081 -0.29117129902885075 -0.3046121964142764 
-0.26124651438516355 0.46932010174582217 0.00696915888116556 0.08914944234703237 0.4479364510825786 0.2762421819581542 -0.3701369864765396 0.4511716532344915 0.3677350314922402 
0.21070261013353875 0.43192637624561137 -0.011660347568977047 -0.32664058722426315 -0.206823863664231 -0.46193473551137487 0.1674349284002119 -0.3852736483304834 0.010283566027815216 
-0.4779892988970358 0.4156777903648159 0.3999854610248308 0.3497100233963738 0.4015073834475945 -0.26409046991609264 -0.40675914277692393 0.1659769371426899 0.35797901644801355 
0.05248444341748315 -0.14549822113674238 0.08620441778390842 0.030676741104044503 -0.44586215457562917 -0.379596796710427 -0.4316787466891566 0.08394936601092473 -0.09345877870659036 
-0.499004107404342 -0.21624974383871054 -0.4988430216832076 -0.030049261066503075 -0.2490876162018213 -0.28758319383388053 -0.2801170576162684 -0.423698538780513 0.16247386622406113 
-0.2900012376439678 0.29048115838205246 -0.004706258425285714 0.1238102637157592 -0.16434370263283715 0.2136289677792499 -0.049535257599664595 0.38682417168434036 -0.08694947755545468 
0.49243871008756257 0.4339326244127908 0.29783626474967206 -0.3617199514840369 -0.27918630161149405 0.11244630902550323 -0.14199130224160328 0.04543480989037019 -0.27788293345822657 
-0.18243037820561792 0.0011498778524987596 0.2937872919817367 0.3508551446559357 0.46927287726691547 -0.09673788906696379 0.05021063710595852 -0.4250405550516121 -0.20509845705834207 
-0.02879791644812757 -0.2937652771608391 -0.1326156862446476 0.37443582859297364 0.397080546783217 0.2912204174864248 -0.24687993278978326 -0.13184897053220246 -0.18946304143105108 
0.2214533021401699 0.08135451443187547 -0.23576656379906824 -0.3872186109569825 -0.04047201004365231 0.22239793125650964 -0.37839776505040934 0.03430463170506659 0.24921499091722754 
-0.07487992561479606 -0.4228672679868206 -0.1775851458283202 -0.16192828128529724 0.013030410625986533 -0.1633279723962573 -0.2647330058799884 -0.4966197513249079 0.44576516844381475 
-0.0243170185859779 -0.3041909284771447 -0.24343575114435 -0.4723718576229844 0.13804832747824802 -0.45792269537030617 -0.18294207638507354 0.20596478570830856 -0.35948852996986236 
-0.2004704219099186 0.3186703085530891 0.46953196676710296 0.06542629922581955 -0.20338500171089757 -0.2601915496958471 -0.1693416225487112 -0.34406684005063326 -0.25346535773486534 
-0.26650679283586676 -0.2451261667414445 -0.28462583166706934 0.12615681653660404 0.37392182557371456 -0.312182017016003 -0.24329464073473006 -0.2026923440427434 -0.16659806597052362 
0.021622309632612025 0.34785959793829513 -0.1638341571630666 0.1568014944229814 -0.05840839375490925 -0.04454144743982169 -0.03675205754533095 -0.3897701126945876 -0.40110568180373685 
-0.39803210507455833 -0.200520877485313 -0.453514405637782 0.4661035881677218 -0.17966505400389832 -0.08689920530671635 -0.14812386822289647 0.049814220151789046 0.2153434965132679 
-0.23232413950240038 -0.18266366020443525 0.3581927401297206 -0.07763441594642218 0.23320875441569477 -0.2886589132942149 -0.3487985227675313 0.3918857005554294 0.28040662979225617 
0.42292952386567295 0.037369797278529626 0.2221176437418937 -0.15763555230353976 0.290227296790343 0.42336828734597 0.21223021743231574 -0.40153434853325554 -0.3668254308143445 
0.17127547112575314 0.4151428303759833 -0.3879527221105967 -0.43126310327669026 -0.4266918672437706 -0.26845259011107814 0.33638666091928593 0.40269720173704227 -0.08507991349174104 
-0.4942414671025003 0.49282410520842335 0.26419693651177634 0.4645568834144934 -0.3408111044400838 -0.2796558097606471 -0.32248488769582295 0.20198622387173337 0.12869247657085248 
-0.30230385305767415 0.45014367885436346 0.4770074610255536 -0.235286688520013 -0.3528588683824019 -0.40296122341870866 0.07647568724974929 0.38812259808692895 -0.25682725839478115 
0.01799726671275148 0.36995926687559255 0.4048229525736712 -0.029935923665023068 0.2984279547848865 0.30298191342044467 0.2336430820709714 0.39885344361318464 0.3133581182380698 
0.011683907998895848 -0.1842578644231878 -0.31261248964577537 0.28033543841062936 -0.25613087973786863 -0.35731202144647833 -0.15370033451651877 -0.4710440818005771 -0.41121194036860276 
0.06556882902049721 -0.04069181031928215 -0.4669306974251274 0.24163934704283252 0.12894355646774147 -0.40202283721637233 -0.313717205957147 -0.34134483010833383 -0.18886948751167176 
0.1290909925827185 -0.10779504409147611 -0.005230980058804624 0.3462806860721537 -0.022949488228597992 0.2879419406087885 -0.34175314791211386 0.2538758877342656 0.17420741537583584 
0.3226778962660847 -0.33470442286440993 -0.1922615573849883 0.20881085260136556 -0.027257381465396024 -0.2674545156730841 -0.060666647282167085 0.2632479716088032 0.09038891870300159 
-0.29356369915109903 -0.010909634299624438 0.42451839821622916 -0.24442682965004903 -0.004080832702211157 0.2946676003736014 0.3443898327187592 0.0283526169289241 -0.35148028067753356 
0.3365243357041039 0.12844042300512992 -0.3159170579614151 -0.4103098051727063 0.048865737459482306 -0.05879924607370801 0.3544207086231751 0.3315115249409999 -0.05203246104725845 
-0.07113343337673694 -0.0057953129808813175 0.14918859786192074 -0.06991604997538337 -0.418439085988922 -0.2523887432119729 0.3224158557696859 -0.0524122860184878 -0.41611766158171104 
0.0965485414841073 -0.45642846350578903 0.2846860437861676 -0.46451656293310506 -0.3599248985407496 0.005833387536382184 -0.17699811018592604 -0.3373178860344229 -0.024301366040169192 
0.0016902571499833874 -0.48749482347155315 -0.21238476767258052 -0.06826926958827717 0.08595734409044575 0.2447238607343114 0.3732030232477689 -0.16555590397098574 -0.01271437947752696 
0.46286007356077774 0.42019919583306997 -0.4154010744686937 0.48828873181008003 0.1373818543619827 0.3568608804196888 0.06497515709924473 0.4367934032797999 0.18585664846675454 
-0.16772085074001353 -0.1961317280702516 -0.10064777363531296 0.022237183017077555 -0.4988305719657845 -0.12092414080867919 0.22304083361721272 -0.316493210432122 0.470928641637793 
-0.23727699196515273 0.4326935479175458 -0.09946434444032826 0.07102391901027427 0.17934476753429274 -0.04188462258398562 -0.4448048923256418 2.849818266550397E-4 0.0779641472704441 
0.1594400139456198 0.1972226067453573 -0.2905690574820895 -0.4965254948637269 0.49868725743235653 -0.31797494463122566 0.08416960512853422 0.4934554762183523 0.4917053069274917 
-0.4654468202779949 0.1084648241576106 0.12362186709738376 -0.23293324046929043 0.3445759808051845 0.20807625366186278 0.4784254269320126 -0.3428803978161551 0.3551284430364554 
0.4012326034663801 -0.3671006795178211 -0.24872240768163834 0.4186016396502861 0.2163080068193146 -0.30234387717982125 -0.24723334808496622 -0.3361104485284009 -0.4243714326717454 
-0.3989805407466047 -0.20257222112115525 -0.45679777266188226 0.49004438066757383 -0.4394089795464823 0.11680857583939186 0.4086002266086419 0.4606593811968571 0.13112354045933372 
-0.44234094361200016 0.4060005819247736 -0.057879908597676555 0.3063921114363015 0.006080185444817809 0.2683496397751416 0.08612150451283473 0.39982523159246885 0.20695604624373987 
-0.4601458496719554 0.25429632173774375 0.3319781439489774 -0.18206640029213184 -0.13039384046187097 0.4664117906627563 -0.487498894906476 -0.20790321110858656 0.2756337482180673 
0.032805913980389345 -0.27992492602704633 0.3446146142144496 -0.3006460057511642 0.10925263748733915 0.25585879385177057 -0.17397463791655465 -0.25439939051365335 -0.1920461721443646 
0.17430985562610013 -0.2015477851643127 0.23484339296401646 -0.19988706113712718 -0.4201855743678248 0.4909283481185077 0.08191262889936335 0.053553951560433743 -0.18162082449892847 
-0.4038579056039632 0.05948592116032769 0.4631061214073232 -0.10928978697274894 0.06329595075528693 0.20479146522748737 -0.3480163735376879 -0.43367616934698006 0.14040582425753578 
-0.015574041145510087 0.14914647958208094 0.4879037051055286 0.42424947519203526 -0.15511864369865813 0.4806371005782276 0.02094063080028674 0.08730675532409904 0.4453198257869858 
0.45214498148212934 -0.27424016187517863 -0.23158412505057568 -0.30566875376888547 0.04555909988985274 0.10736248713173835 -0.16249615409566043 -0.3061464006743665 -0.09597392103943947 
-0.26692283517766635 -0.12536879429224124 -0.1688688865061354 0.3380399039922596 -0.10116155837553631 0.239724707003653 -0.4464690820119185 0.1493462249936377 -0.22802077171356894 
-0.44824631751451105 -0.18876589242509867 0.33995301827503366 0.34174438122188666 -0.2552607363502726 -0.24073784338547266 -0.049703913582251236 -0.431697204801753 0.12286806845136977 
0.07299553933047698 -0.14638310381199393 -0.16314366766295807 0.4981150173484098 0.15028600531938718 0.322866983581096 0.1955135344683372 0.06116230782404242 -0.4515400472217428 
-0.41803833777039423 -0.11608325524506113 0.1100353157246704 0.23595496491308776 0.35496334387578965 0.344181236036165 0.14075773627061505 -0.37397232633989885 -0.36521755432778635 
0.24652596587257014 0.09046206893101738 -0.09608433573716257 -0.4927579044260374 0.059044939790791506 -0.28422570465191965 -0.1409680641762544 -0.11313983609619038 0.34438927709758294 
0.18792353656713423 0.29021565384458115 0.44746036425048086 0.275699942720684 -0.009088295580465644 0.06475795841617937 -0.13626844833518947 -0.17004856742614938 0.12020928779476925 
0.08086755860325157 -0.28088717710104194 -0.26106253596704987 0.3968281283477453 -0.2915648729106285 0.08088902919022967 -0.44355065227355506 0.43525286153410236 -0.23559791208866976 
-0.20486029215363544 0.1347685265679771 0.4335973763544215 -0.28326645954757257 0.012192168283153393 0.39441490014598624 0.49048384944600487 -0.39505892368452555 0.3174869335293232 
-0.4818369943868628 -0.40447400101562514 0.11529635064231858 0.11327192302437106 -0.39634178536660725 -0.21106973613745295 0.35532167288161176 -0.42670040609113546 0.36853547049676605 
0.24061144522279876 0.13483880906997414 -0.4242914279691308 -0.2822363741069963 0.16035284631494318 -0.02019676719213004 -0.4914701261951976 -0.14499138639612008 -0.48207733094340255 
-0.3196544569285752 -0.2622350661512025 0.1481287130468366 -0.4743077094200032 -0.09411220185225477 -0.17025914090782213 0.14348601885471046 -0.28381573442839847 0.3078972650934334 
0.3274560780650989 -0.035421780521652346 0.2331106410134658 -0.4252142414342207 -0.005112663903843684 -0.17243500276770274 -0.3531544219693321 0.10365804526252886 -0.03626337566316462 
-0.4404160102140686 0.20390824987334155 0.3100576311222122 0.14385498717144163 -0.1846787213468818 -0.07508424083304555 0.10955450542907164 -0.40841299161540723 0.1531219550435664 
0.3765974873462369 -0.22603651704634387 0.2695389759450435 0.2539962952175824 0.26084636969839614 0.19017828160210415 -0.2232201406969384 0.34519769302961567 0.18741432720955709 
-0.46894895239503265 0.18024356017645926 0.32461868867216837 0.12674244514360933 0.48544259877655327 0.03610787468575649 0.173071646775252 0.07554932221761201 0.48851390241716675 
0.05418347984494842 -0.011408872702677098 0.41018351708770495 -0.15647519574256163 -0.37114560992896406 0.38021528222435796 0.2513790250891208 0.2328509141887799 -0.3631311149221703 
0.01827364036981083 -0.08106430865841074 -0.12137442317721825 0.48528779823838797 -0.14597048577447136 0.21597897430349466 -0.4676418359467447 0.3821547377939951 -0.10640512421140791 
-0.1501638277143148 -0.45192363274276803 0.19796114152201094 0.43935654008699854 -0.22980003631497892 -0.47501537415494444 0.08773589288302552 0.39672233255072864 -0.4148686865100879 
0.3933262718858348 0.2515982487374937 -0.4151835975354625 -0.49841165009611244 0.3610830100627571 -0.1741305292030645 -0.013176884772573394 0.42954947214214756 -0.16066057474661344 
-0.08265261028866311 -0.4710004823293148 -0.012568128995992578 0.3205867124256263 0.22010524308719548 0.28694601625755534 0.15139026146707002 0.1969344041514457 0.4871840052736336 
-0.01645369508914407 0.20221225907780882 -0.3258556538127667 0.36880585883089434 0.26505658496746143 0.44091080066477173 0.26259675149018014 -0.2257565664504123 -0.47985446748570837 
-0.1322542299793391 -0.19225697182943158 -0.03376231436724497 -0.05874369049061878 -0.3507092124809612 -0.3397041634543553 0.054865272366572904 0.11848203237765653 -0.2657069449538705 
0.3803517263248707 0.42201369826609536 -0.29678300306743444 0.42145752219591226 0.31983743575114787 -0.12186970883816706 -0.4178344001450708 0.03091942983951179 -0.4658841835831091 
0.02966976233415164 -0.4381381275398071 0.08605170155404307 -0.26371686119540827 0.4186712416348809 -0.22032787480784566 -0.4266131308267067 0.4266342376131841 0.4851554703433767 
-0.07067558386904293 -0.08418404559693515 -0.09503199848665 0.2985389350151142 -0.08267206817489603 0.26785914794042764 -0.3951496873902307 0.3060206615032902 -0.24878365388030177 
-0.378313204529534 0.07664742348869646 0.053904674418384535 0.30136916485053533 -0.0012990427598196241 -0.009912340681347054 -0.04792094168402272 0.07523583395118827 -0.3061285604780397 
-0.27269509692065397 -0.3276195674852225 0.2961068399106438 0.1386527368474043 0.4937624311309077 -0.3016696773668338 0.3881474726801486 0.45319081649751325 0.3871514017869636 
-0.12326208486459045 0.43522922443804524 0.1696621942610187 -0.4666971417196124 -0.43907862435188716 0.30316485228361256 -0.07403016577274868 0.22334814191655472 0.08080771477597837 
-0.10672724990324578 0.1526537077701764 -0.03219218838449045 -0.17307112690390758 0.42976744960322477 -0.09424361394839798 -0.4790163632401806 0.1933400895056483 -0.22570751983402093 
0.034517082922790876 0.22297524954447245 -0.01125658063959678 -0.4920172905646665 -0.18484990224417097 0.4568363076778048 -0.30439179383944226 -0.0752363787251552 0.030596762977358916 
-0.3751680211112989 0.13383724039432854 0.13916468883033883 0.23102233349505374 -0.18954583461622598 -0.33146449000960265 0.22774527459821692 -0.4290372533440845 0.21179591078485305 
0.09069645794950942 -0.3046993447107845 0.18640831355889242 -0.4929174403846631 -0.30487193291206915 -0.4146625087613547 -0.45125545525294675 -0.4553980184001474 -0.1183009780805021 
0.23887664584022483 -0.3876468010720693 0.13697127333108383 -0.18600655508764363 0.046463281390015876 -0.1411906679807038 0.28362344899051406 0.28371970405926594 -0.4646665999645264 
-0.4670072652991585 -0.15440769910310215 -0.05027265768516964 -0.21299366346587467 0.46506558874085624 -0.4468810194364222 -0.45275638032862664 0.49014393462065764 -0.12284989382130751 
0.23929956404544162 0.4959489904846687 -0.1006639378882973 0.4846735745305789 0.3619376103461692 -0.4252310719890734 -0.4074561474573186 0.019730277688084996 0.20096167410599675 
-0.023233262609777428 0.19825111950334795 0.027443563757655776 -0.3997876842013667 0.10928064738661314 0.19794578070836155 0.41619271542102787 -0.23990077474384897 -0.037544708381638814 
-0.4996274244269885 -0.2212963304973511 0.381573687082725 -0.2664235333220607 -0.26893078457657926 -0.05661579604255529 0.41205757083031846 -0.3348747292232439 0.08401814918212769 
-0.4360822393856876 -0.2495852532090873 -0.2687743973731348 0.14181673034072395 -0.18998742420816916 -0.4692533506070259 -0.1098329853493617 0.2865883921567065 0.38333544043578605 
0.02373850360848362 0.10994260535350842 0.19592826543122022 0.1500429517712507 -0.23052117993783172 0.2692493902346109 0.4464966889962666 -0.34504520709967723 0.287118977739245 
0.3381566324628861 0.4324443996524757 -0.337702427463488 -0.40556380816518267 -0.049344965258874884 -0.35332631816108395 -0.34592042600251827 -0.18569247256433385 -0.4044420324675039 
-0.1299901584594758 -0.09045960580938817 0.34529857776268835 0.17273333740090968 -0.03332221109537248 0.3877516213651744 0.43001531132180526 -0.41159722726571324 -0.2059512368937615 
0.14032789336474383 0.4675632830590921 0.3962523453866409 0.2004428476141068 0.39234030156952593 0.0854032464632889 0.23035733729075425 0.20684263756724064 -0.25309279724810596 
-0.1889119259479598 -0.07856929158937287 0.24669431963730293 0.19256971567387593 0.16581075135810186 -0.2603367041935466 -0.2274575329331211 -0.2775571490850369 0.13938863392142853 
0.1654313018132123 -0.37093488857929713 0.41026525169088257 0.3002546710553612 -0.04659534650843 0.33914617266999614 -0.2691465117902384 0.24422145725523003 0.026097247811900703 
-0.1470576047066079 -0.2388994155013373 -0.3077708405142304 -0.0903416469108399 0.369472548499278 -0.3474605967567601 0.3099838842430318 0.0077120566842940885 -0.4439234035402658 
0.42762648084693566 0.24133840049865973 -0.0016907571255541098 -0.13683681439874074 -0.280717169894511 0.4224620551785452 0.03456489812748542 -0.3400161062742525 -0.45313751231763844 
-0.024707183970543056 0.23131087506396975 -0.39825673178312615 -0.398398514282578 0.3664584041330371 0.1281022551804244 -0.02082657838122559 -0.1992670566245749 -0.43819945396507753 
0.43317337398260525 -0.2012269868759231 0.061837285378612106 0.10682976304395597 0.37344723172222005 -0.004769664516993899 0.34762845713328594 -0.08011492041199741 0.40245966176519776 
0.48712031945129886 0.03626090682519334 -0.40253268489891203 -0.14893204780259128 -0.24721375241457655 -0.4166259645893774 0.20016029277842573 0.3450710052693492 0.22538654119028967 
0.2594739199143006 -0.18725028545632239 0.4593758998980594 0.0844079350443957 0.46988541038482323 -0.34640550448281127 0.13010377547314778 -0.04448381922488809 -0.20561058698472223 
0.1460007533118809 -0.1959641365782553 -0.37856404572462987 0.419794384229104 0.15829433310914187 0.1690577795373318 0.09362203597623164 0.08107248304684234 -0.43051771183104537 
-0.42023150590255975 0.29780399571066596 -0.024675233398352647 0.4238399435261391 -0.03082174202863941 0.18605679964214072 0.367721930022366 0.200454561246191 0.12042679382109323 
0.3038706060372265 -0.23029993073836952 0.14270281974198984 -0.33828774273982776 -0.28723742251776674 -0.3629258122336638 0.16783420294390883 0.04312770745627614 -0.3027056126191743 
-0.49063588945285896 -0.39172281053418845 0.05586088179523396 -0.13007053501559607 0.3915110626321534 -0.07601804671703949 0.16222029570386054 0.12798369718355318 -0.03470409030731003 
-0.4309434222981414 0.01920850054511203 0.4139944772977351 -0.0898479488859899 0.39615093453245 0.09887146143044956 0.3841525467989414 0.21170010567770214 0.33848661034158445 
0.23541040485858966 -0.10098798957335708 -0.158786975750157 -0.3778733009051629 0.2620506532054391 -0.28348643391063244 -0.39964595038430195 0.4300252846317584 -0.3600802083301192 
-0.11057285008140672 0.24291216146681316 -0.23540945142420444 0.12669470530096294 0.14763942657628892 0.20889287243077304 0.2369421149016815 0.08453585907161221 -0.019716882849534656 
0.436204541786696 -0.3512627041340639 -0.015165888755279355 0.2235241194191654 -0.24868610710207806 -0.4736127919700308 0.03155361285364111 -0.29310598706651925 0.2826264911094716 
0.21767846697286186 -0.40453793845670194 -0.08562509292107656 0.18898134741885375 -0.23273843472476274 0.3282972678309276 -0.32398590361228774 -0.2494687947487917 -0.449837386380432 
0.40892723719217294 -0.3783331707704466 -0.469586902817516 -0.43857992526691014 0.3628179841195591 -0.4994650549293935 -0.1170033643041809 0.3351436960947486 0.29163199506382187 
0.49849032100337476 -0.44186995178740784 -0.3022619038370241 0.1515375018091828 0.36974166725530666 -0.46931299872540777 -0.052271262015552766 -0.07318330907903892 -0.45977610881121656 
0.470850021908217 -0.4014268304974623 0.15961886867635844 0.3371595793984363 0.46294914370107443 -0.4789636842323597 0.3172120816201408 0.15256238121311605 -0.3206929425515628 
0.17815294997869313 -0.09515464499949089 -0.3419778155829959 -0.27957488747305115 -0.341503131161647 0.06534017227311617 0.15393275998002542 0.2439773099724052 0.38242068506623983 
-0.3542109891026941 -0.24160769660165626 0.32246187707152163 -0.3188738976357447 0.3572456361957287 0.4193281765596756 -0.3070067662885644 -0.07013056693923114 -0.29495000251593617 
-0.3320329899017631 -0.30740005422877037 -0.44569719617953785 -0.17456149131215182 -0.3774081988819403 0.2085266849927978 0.022896345967257314 0.22834794612630993 -0.0014018760064166136 
0.41542160423726915 -0.11141755753396554 -0.283170514738013 -0.2158184290354802 0.4199227311495579 0.0492081792182254 0.43024664844345706 -0.19944087268839672 0.1880404109067274 
-0.3409225818835111 0.041439292773934544 -0.4185527545560992 0.2918651057299262 -0.4571906714289158 -0.3727067655348073 -0.12140996916606062 0.07951302665376381 -0.46206438094754454 
-0.37233693080774466 -0.3715492252062903 -0.15414532864263808 -0.07589634644389232 -0.390646672118967 0.3997511358540292 0.4614545180573244 -0.01555156891072662 0.2598713918233517 
0.18236149845142036 -0.2967178787924678 -0.2113586792305695 0.14992295579504222 -0.12488253704472518 0.2231388439912877 0.48731913494134693 0.3241287332667395 -0.01654282951828423 
-0.31162381640416836 -0.23595812577155917 -0.293800903191063 -0.15265568929935902 0.1343651064399789 -0.3963764731899543 -0.36218897782985504 0.18576242446635494 -0.020691521314827988 
0.20462490764500052 -0.39031049671545437 -0.1338638604156952 0.469371312457855 -0.3110065763425096 0.38890333392822696 -0.4146445703427045 -0.4542634623230921 0.24327941917399232 
0.29814343573968216 -0.416350927027367 0.2550768763768084 0.46355465712700983 0.36075890410679634 -0.3966256865171409 -0.13893408257222983 -0.029896769056793615 0.38958454872543336 
0.05185908372523884 -0.2430652625380363 -0.19184920873268407 -0.13189896637127996 -0.26924523469075945 0.12771277929464397 -0.24265636412154734 -0.35077315656739916 -0.44607343199467053 
0.06567477660482979 0.43538356452415283 0.08004866872144634 0.3917295695327042 -0.4963516505622012 1.70750987460222E-4 0.1500553659595506 -0.4484111689222885 -0.10178049588776972 
0.3300016264325969 -0.3440526039743034 0.4331216840704428 0.06850626430595974 -0.20718577447361353 0.17785269314908447 -0.41938838871324136 -0.02394657349160667 0.10316859182550231 
-0.13021335668416223 -0.3035378735844956 -0.4824658336202363 0.3095955059188179 -0.31854768876812223 0.1763309956493564 -0.4056727940303472 -0.34485823307556696 -0.3510152855272285 
0.37996366492557343 -0.1783291853326906 -0.08961413373317162 0.319000487977643 0.16131683090338644 0.24497798305624208 -0.20910724360690813 0.20332268012785615 0.1473818233801688 
0.34202985896150884 0.24002236907107366 0.40100757222821115 -0.12281093459684889 0.40714705831701625 -0.31679876133564033 0.16980853655185613 0.1907943082347584 0.13707180312326894 
-0.1587876997243829 0.2809701203480125 0.19261808844939743 -0.131823823228285 0.32775308136805403 0.4492525126464053 -0.2956698792628112 0.45074489661827843 0.05045777386788386 
-0.005654866356561761 0.36954045029127813 0.18846360339602197 0.384774151225746 0.16033551130668666 0.4758796943029301 -0.38012324475708914 0.19653153443718108 0.19665754551624293 
0.1196211113442952 0.17346153908783557 0.051731072196130046 0.38695102112042745 -0.4461828967523018 -0.11090228896265919 0.371035436855342 -0.2984778246527554 0.43299362621330506 
0.46609558095227044 -0.1383700788411638 -0.35539747807518185 0.1957659142419509 -0.12842300058261347 0.2905723707126108 0.16936168275625252 0.011309329108243782 -0.37711196284587656 
-0.4485554007920802 0.24163708526490346 -0.44356038517288754 -0.35614673218908377 0.020063607861227073 -0.2523985662393231 0.3871268442852661 0.28706606094564513 0.39520563687491783 
-0.038903097297592226 -0.1784120108076528 -0.2869593446086375 -0.4232579051693346 -0.2868774184892493 0.06167317436547037 0.3219357957201622 -0.35371904471412885 -0.261030564432034 
-0.2549191848640092 0.3446914588076043 -0.3156465923033297 0.41775501073129784 0.2430077423179683 0.01780399488828932 -0.016620189041221978 0.2646180755679136 -0.2038400977668282 
-0.010403105726917827 0.1970954946650676 0.08759072584165939 0.01662033448566702 -0.26427183313375346 0.10481108116742988 -0.32082610192010386 0.37389085258431554 -0.2021929471302084 
-0.03717161993988882 0.2768994734447433 0.03049449180387498 -0.39862329847756073 -0.1344727557620352 -0.2023296248032873 -0.20415410055781458 0.45815137316550714 0.14508514124286043 
0.02742769324687122 0.026667467953454538 0.11228000602007526 -0.3985147659441691 -0.469298198283994 0.01804878040906177 -0.14845919004373265 0.2734154588092168 0.03386195480003629 
-0.19868201877633418 -0.22824600535673256 -0.4641446780161804 0.43138708506837686 0.2932132016673913 0.25633301578189205 -0.45840714957256 0.3662381305904394 0.4254131097944245 
0.11277723621587732 0.41160967485543776 -0.4565802656620782 0.22430585738608422 0.09404176618062843 0.12321703022580155 -0.44992223166127976 -0.19205456944675414 -0.2748969186511918 
-0.2549787420434585 -0.024014218675842525 -0.07953431257433452 0.45367192297895365 -0.47575759276734897 0.055032711870075524 -0.06620816688701348 0.148887618639585 0.3446048285170462 
-0.1186695684535699 0.21230994260368286 -0.11703904948420651 0.2419642914394209 0.4928191577482003 0.35822508679391385 -0.25188474855349274 -0.00996903570288099 -0.23924505282822717 
0.7701579468913449 0.18480867397795742 
2.38785704472494 0.07522271112130252 
-0.17329678079208669 -0.07289721838588237 
1.8413684449352268 0.2748249993515641 
0.48522289789619183 0.20717609358037203 
1.8382113877684807 0.13295527779684124 
-0.15287528957345448 0.3033633670891748 
2.147796590657825 -0.01642832842701325 

