-0.05865252152654987 -0.016106405481603137 -0.2785228288169721 0.16560340290666886 0.37455500724714696 0.42852406841040014 -0.18851077976362507 -0.09441517768812435 0.3308791712601544 -0.2590398729364085 0.3920858180005087 
-0.11672866931672543 0.35505706075157994 -0.25041917549788006 0.10113591032658598 -0.3229363511942198 -0.46752792331353676 0.3218440616527225 0.48545786347444175 0.4010463090038948 0.028198177591132634 0.35482164024993024 
-0.28608837506350215 -0.4666988628312285 0.4799764678331102 0.4955285894903054 0.1928396021113773 -0.4969778691824529 -0.4029163651454003 -0.4376088736931164 -0.2843998485997645 -0.3647825720969411 -0.27181622972178276 
0.3081424370812347 -0.4828034686330597 0.1738535213300466 0.4786388326859905 -0.010369227140376358 -0.24948939433510398 -0.11738154174695381 -0.3186147308184033 0.19146996777886172 0.4524097744007436 0.1570495985517225 
0.15536720964505124 0.4881576018727284 0.026002276566160942 -0.3274068186632163 -0.278350250255064 -0.176768799034555 -0.3704254630339312 0.34023245514373324 -0.1102819116966911 -0.06577149970406804 -0.3667480833065977 
-0.2553585084417458 0.4751018272798866 -0.24133696941185068 0.4811816477925098 0.2993925018453477 0.1643457472343124 -0.4810787653020163 -0.1199548877895924 0.06956452824782411 -0.2955180182166811 0.10293318181879796 
0.22396398060311917 -0.4158285136670501 -0.03845930854351154 0.4326638667719296 -0.4386271538175017 -0.010851547941801432 -0.4337305204429387 -0.2560823116283443 0.2111884867492868 -0.4237952988667363 0.24511461865296502 
0.08864344351570297 0.3436142842791352 0.06367283707199256 0.22064965125679925 -0.08512642919152325 0.45517521192179733 0.0025534509037488107 0.25802025439245635 0.2796252866520391 -0.3119124394955405 0.3342750488197367 
0.03260659714874503 0.10653777403657771 0.3708248380345819 0.43625921074627627 0.4989873227075641 -0.08728571591717749 -0.010250832858229475 -0.04279815197802195 -0.14757735260227822 -0.4018165889701806 0.04093555004490279 
0.36605049371297205 0.4914557581993615 0.21658923227039928 -0.14317626598503375 0.41697947849558625 0.11386581952862695 0.1271651234868979 -0.4459091492371262 -0.3327662078848882 -0.2919123728097074 -0.4342583304061328 
-0.2928548932732452 -0.22446663272078493 -0.2616535406761127 0.4664841072679278 0.2158993245797326 -0.44419997942411427 0.264139020556447 0.31625021231997186 0.10699021840401968 -0.3357111332186147 0.08332452336570706 
-0.07009528981873314 -0.31563215349210516 0.35777735605134253 0.24297276736304985 0.297621944995331 -0.47181319382882414 -0.023715810642120805 0.4232483542095957 0.0741533213249187 0.3301891257034999 -0.32413801528328456 
-0.23300616456874235 -0.14476813055096494 0.4492762657162258 0.46532673315391393 -0.2986933626340249 0.11773119878414029 0.37272529593131365 -0.2146419839791116 0.17728803699210205 -0.4121082667556534 -0.023486954652359615 
-0.2907757300072481 -0.45972543756029516 -0.15412784394473045 -0.40753165471484776 0.341457500111502 -0.06475407209258877 0.17507953234119045 0.410481716444579 0.1441219035735697 -0.24926454707876577 0.02117668694217234 
-0.32924105883850285 -0.2701077514822904 0.10945254096529555 -0.06163905824706706 0.4341127417189662 0.12697635071663083 -0.17504094165742867 -0.4305465581552561 0.4575448525814001 -0.357011583355173 -0.43887543394145645 
0.03153378269462548 -0.15212130340987207 0.23319861038077772 0.15471800425977567 0.06029964263644627 -0.28203989882474545 -0.28684481711056486 0.19137629575634874 0.40402705567769326 0.027951898035277534 0.2464964465314169 
-0.03867669679747576 0.251951386303217 0.1585061248819173 0.285838624490212 -0.1364048928378918 -0.06791456801859252 -0.46689558609440596 -0.45205227276772975 0.1761604742065196 -0.2800647319214594 -0.21638362375059883 
-0.3360275994054649 -0.1357915532317776 0.36227077020902565 -0.46386767650740446 -0.13866400611499563 -0.23999262476503502 -0.160947524587307 -0.11661463628286006 0.40595606698464726 0.015122902936124727 -0.03818829317887107 
0.005585090575841556 -0.4382204809431539 0.19941496082875154 -0.3617731792361468 0.20324355031646602 -0.49080732980366804 -0.19888309197062526 0.020332730891849615 -0.18641881787081305 0.004685025654621033 0.16843235986422267 
0.2977475292729663 0.09635918522452769 -0.4387835619766908 0.12546852654597362 -0.4025062750747067 0.19549153152410215 -0.41794263686177313 -0.40604259619822447 0.3084385249815338 -0.29045134602836065 0.19044223649204006 
-0.44290094083554865 0.16107164274816765 0.23727191235205558 0.46319651469765166 -0.38700609655338225 -0.4377148714882366 -0.4965238231318675 0.3985678412681495 0.1825141798202049 0.010015075347925673 0.3162254417248622 
0.22681283620578152 0.16009687166016184 -0.1059504850125188 -0.3420755809010406 -0.3933398354120664 0.4258237753108912 -0.3729965274700183 -0.3290234600546822 -0.1584077638527691 0.17328707199976578 -0.15659377490514859 
0.16291708792127546 0.49695694016157643 0.4501213477305872 0.35504179361505106 -0.4735625314505296 -0.2977578846209452 -0.34328400613224874 -0.34287101879624315 -0.3535251356535828 -0.017585030111359146 0.0035048570366755794 
0.04262216878565617 0.4495490045808518 -0.32195033583513166 0.08836252238870068 -0.199140055013307 0.2397859310060143 -0.1139638855425088 -0.176980322215345 -0.44801638002566846 -0.13842390257346415 0.3809835216027456 
-0.08895729093023053 0.49999281001706064 0.030572212615655903 0.16200254145114668 -0.04019460912735917 0.2750013111438627 -0.11726001588104074 0.11037019372274892 0.0950137251984976 0.07920082853080757 -0.09456734220892538 
-0.2593479371460661 -0.3612727890093762 0.05123629489570358 -0.06503190627888655 0.18117639183665168 0.010453262471827762 0.12014123288852796 -0.1680550158959282 0.32932530654943726 -0.48422629643897064 0.1326772625098115 
-0.2214572824898604 -0.4070714243430016 0.09809572358113394 -0.2931329161332543 -0.11869323935226728 -0.24888448354878834 0.4465017483278364 0.08970537611075269 -0.09156999345506345 0.2463010937360629 0.07630638529058176 
0.2784778647544597 -0.4577025488361691 -0.3464473859019531 0.12881026181976662 -0.19718654090468068 0.4860702658822319 0.1644037214541081 -0.3271251605192792 -0.14145975173555325 0.1273423888595171 -0.3307476314906854 
0.23332356878957827 -0.06538896670155692 0.23241103997150103 0.42580045849408854 0.11980882763940504 -0.31919009925001385 0.3214601942074832 0.3605623890885702 -0.11533392358399241 -0.4733540648597364 -0.042036019155074045 
-0.23370950220909315 -0.10059008416702664 0.48078608601262707 0.1748745696037961 -0.4697642041784751 -0.3930907468709004 -0.38442563569041444 -0.34433292441083496 0.05648234127327301 0.47991204368339924 -0.02737029777633626 
0.09007204923281387 -0.26983597921376323 0.09647217096469973 0.013210149380646574 0.33233314275873993 0.1121931143251107 0.02896452104421221 0.2809766856082958 -0.39591330983255535 0.05019991559660253 0.4357569634861366 
-0.35501525135769574 0.004466062459100528 -0.4552966088171134 0.3432402302294175 0.3471774218657161 0.01679317129545299 -0.4808974780605484 -0.3891996088763574 0.09134906110920582 -0.4657740447670209 -0.3921004987605812 
0.48245073414808737 -0.42050619159853775 0.1659893382541362 -0.3003654766358689 0.446222769111994 0.22664851383998574 0.231324498806614 0.24933418726408585 -0.1539505718215406 0.266785077731852 -0.09995045079463216 
0.3098439515517206 0.3207554871298197 0.10000240367450719 0.3966317095881602 -0.1777629732835524 -0.31909619716513316 -0.4747864591509019 0.048930209810618464 -0.04743891673362144 0.27662838327164263 0.45271893716345013 
0.23327534072196554 0.1655056585265542 0.2582181711281726 -0.20249821440998172 -0.05569154264282117 0.28514203416073525 0.38609831321481014 -0.483222762625094 -0.19898573915606588 0.008709457486951289 0.20798836725728542 
0.17427213861964752 -0.21036453564841717 0.21149003779189635 0.48840000584902465 -0.011092633529490636 -0.06033299740544351 -0.09086351743717935 -0.2507308925692402 0.05700021664531163 0.43088550779597035 -0.07161395732015707 
-0.339599505923433 0.3247998190002812 0.33737670347379733 0.17791521460539617 -0.1954641750701397 -0.06788684059436878 0.3287821627046774 -0.09184065990668899 0.034238532425888146 -0.2520243385314135 0.16949375475429207 
-0.4977578592569104 0.23642194588357512 0.27576440730291985 -0.21671731587959175 0.1497300118571271 -0.17476992588017448 -0.3821514280452979 -0.01614265621586153 0.22074676799069448 -0.30488714092658553 -0.14118415280855812 
-0.2888979222516923 0.28005417163640467 -0.3166789968257181 0.051509918087495055 -0.24174278715368547 0.45902481787729665 -0.18532217809003992 -0.028441280196582763 -0.4729422180937428 0.33800312588990555 -0.2686313215436382 
-0.05623155246732525 0.3058568422577529 -0.41762859929990315 -0.25337866842951495 0.33770468601994497 -0.06998333792461198 0.32270806124732065 -0.09646680529483942 -0.22002462088517127 0.45435923931407063 -0.32725511604812874 
0.2689346446460632 -0.2628219941155234 -0.3557749902188614 -0.16159872725593438 0.44705977588316936 -0.11383349401438947 -0.3253032580713404 -0.013006828427110428 -0.041070601029416065 -0.3927596606752789 0.41680334394639584 
0.4177850702817689 -0.299266414158899 0.011052538544543355 0.08502593661575086 -0.39662664555582494 0.16813387941905888 0.14147926404164302 -0.1778131668930838 0.3559600706520416 -0.4867118742050581 0.3843886354221341 
0.005809092215578571 -0.28660391630552307 -0.2124661708064295 -0.3438082114365628 -0.3257070198316224 0.13694339409351897 -0.0849515038525478 -0.3537452846897867 0.49176306745022347 0.26602584330467893 0.04143851974760748 
0.24369424649578508 0.09719726143538387 -0.21519105789366055 -0.09390928549533628 0.29177766931254745 -0.48354257101561027 -0.07873141465928057 -0.20174633950783416 -0.01791039590288257 -0.44490127332977547 -0.2785199554739476 
0.4741985238817886 -0.4741733878847778 -0.2646574928883043 -0.4798224011750535 0.13644231591978062 0.22102354485844466 0.39235605074603475 -0.03679342937526431 0.2058986966845725 -0.3277873134693833 0.002988999080863697 
-0.47169070835618154 0.15395498660677276 -0.2870393611120382 -0.3156241128100351 -0.26224299169185183 0.10385623120760501 -0.46807568615469386 0.0703201824585149 0.1596598086559371 0.2594102675990331 -0.39048825528684505 
0.45013442396293946 -0.14564250558200742 0.47391070700593996 0.33492956098790494 0.1376181473772784 0.13811390462800543 0.43330712888292244 -0.4076561306557742 -0.47288662662657743 0.40840836726333796 -0.004965020185298319 
0.18007646479312667 0.18908507281301856 0.30343725593301574 0.19755032830415598 -0.3417960156111485 -0.34056799572307095 -0.3469899767753991 0.33549744512012625 0.10762281301471466 0.2847410525974363 -0.48115654172509337 
0.2815699345810251 0.3275875546755185 -0.4000440060267202 0.11932893912677778 -0.07149079248109325 0.1989266470466171 0.23543951866159107 -0.41283290446032783 0.2233164037195997 0.29658368695737913 0.2771648197120512 
0.31783541125732917 -0.2293626075801265 0.3478285613219657 0.3367816554578894 0.13267380666219508 0.39341240254410303 -0.19857247150599833 0.3275584150641514 -0.397555970812398 0.35626573605919953 -0.4017428536943839 
0.08771087540783018 -0.34446100362089227 0.18074254697861725 0.21529156231264046 -0.4556151367759613 0.029588263909834378 0.1113838915488401 0.19258891082013407 0.06956889088408147 0.21602624341682353 0.3277625393659571 
-0.3531530867658652 0.04347003876502953 0.2942604045154691 -0.06001349502699016 -0.27470618544585546 0.41139428121082666 0.4553964484880145 -0.3461914926185793 -0.4398741579215134 0.19693053032795527 0.07504811116810983 
-0.2536365380004971 0.04639754532725349 -0.4827549023584632 -0.0894204420433603 -0.3453115464896531 -0.31478310768748485 -0.36444873014432233 0.37019864723349205 0.04656248568053023 -0.1907077543448349 -0.0186733195304144 
-0.17036065324874472 -0.28316364312313036 -0.2606762899075571 -0.12939132813750098 -0.3432575915029079 0.032305329447686715 -0.19257361639505133 -0.13329428285919454 -0.05493676205225695 -0.06568927536591163 -0.2722810948937352 
0.33592111813290937 -0.045293403735091387 -0.2993611571667305 0.4944053160218864 -0.22660774058421596 -0.08809215623313615 -0.23308144061386027 -0.15587582566556746 -0.09909240121071095 0.12845064482745894 -0.08739783862685846 
0.33203382771372203 0.3715703037679051 0.3678318850328073 0.027746010861166126 0.24004800397963977 0.1554358757364297 0.007154212829620921 0.49419127587161993 -0.13916828961399674 0.32575892873641543 -0.17795258029269756 
-0.06162285230775455 0.18261198541972512 0.017241568018358744 0.15648969920365285 -0.2570978345716428 -0.3624461041176622 -0.21431542893122046 -0.16977907421324467 0.24008185675495597 0.3703974106117687 0.46269916001688427 
0.3835095344144751 -0.04686616863591764 0.4342459616540937 -0.13035381149755387 0.1623552362321995 -0.40074576113658544 0.4268428475252698 0.4317263990825666 0.30678057275299675 -0.17626760590657342 0.34336690299297634 
-0.18384593761636148 -0.07931632994614879 -0.20461715645040923 -0.1592755272088069 0.207603165483923 -0.4262040518147201 -0.13904232796191107 -0.3164903751274366 -0.27037584066335096 -0.18539224789917197 0.42983374664928387 
-0.12674999629420025 -0.17751372618501005 -0.4423037647944158 0.14015321836405104 -0.14974878070441866 0.09590861891673497 0.049709411192403796 0.14372795498059843 0.2012977311045695 0.28940114718601884 -0.3846692087088528 
0.03940136129596583 -0.4933363774459597 0.49344399588745014 -0.46213054107670715 -0.4168056867983423 0.3163318752247425 -0.2885080202003788 0.23869078713061742 -0.19155579855931137 -0.2419836914829252 0.17579851695950832 
0.38552293330553233 -0.3997208934392519 -0.051474703314793646 -0.4306887676204083 -0.318254952906848 0.08615216402713854 0.20520205193786278 0.4513993473326606 -0.1329168680688032 0.4277936165820212 0.03562117958303035 
-0.2630697674830813 -0.10529012916602931 -0.2701789777584436 0.021417082618345296 0.03622149195613111 0.3405652242923174 -0.18361894563205772 0.006064502768535318 0.02765140402524313 -0.15221558701120308 -0.4304211817980059 
0.44662701460040555 -0.19478078490961492 -0.18755902263040136 0.37208380818664977 0.3959350429580707 0.3201043071522097 -0.4236176775336046 -0.04881608187393538 0.3443494167368143 -0.3817186278822231 0.10875546177456208 
-0.4173074731170393 0.06921268849348405 -0.43449424703134987 -0.4701084464322335 0.18049541216895304 -0.2847151367039843 0.14649206617607113 -0.14046260078342077 0.27115822165034487 -0.4390934235605436 0.2268660024186876 
0.055993013188305074 0.23289711783745948 0.31232698077677434 -0.12552240112070767 -0.24646582495838298 0.46434852772299495 0.3125794055223946 -0.049078023545623406 0.10256966575883808 0.34095652411694144 -0.24851643944524615 
-0.29537884994836106 -0.22969727787125782 -0.0845705648148164 -0.18020235961006925 -0.4764213541776404 0.46923711035913784 0.3235996744466093 -0.2367607390123705 -0.16107368779889308 0.34668773947546017 -0.23184607897032095 
-0.038960243093157154 0.40964017512666584 0.19052716970343886 -0.22991633904383257 0.4788914992142288 -0.13568903318737435 -0.31528168980309335 0.10133838188047684 0.027592759678707668 0.42761160975552404 -0.11724463612947589 
0.4420474673289333 -0.10360910181009308 0.217112427021674 -0.3420458785003544 0.34180838146800563 0.2239690395627152 0.3603528516596677 0.13660384573081097 -0.4930770853391846 -0.07978277390801913 0.45258528159411515 
0.023312895247474263 -0.21590509715529138 -0.34162562394834073 -0.44763417567128594 0.28745084230635554 0.4659865296366671 -0.38017773930734655 -0.004826770148332993 -0.10459023770658704 -0.2948376413411624 0.09275853389234678 
-0.20550383682883733 0.14547802255401565 -0.10966609687111684 -0.3988291637917847 0.2953360220937823 -0.3095597884529794 -0.18755051758086538 -0.02802055491104749 0.04683077122884827 -0.4824132163463748 0.3280575895077552 
-0.3640887853506848 -0.43128712288825977 -0.0033621687610455586 0.013504555233916471 -0.4983872837747938 -0.19942760983311825 -0.3968448778394209 -0.004090071496063774 -0.05729375965323835 -0.45659636709324414 0.07833778044791695 
-0.25450384198753984 -0.20606294262483071 0.1296725339204925 -0.404334193566798 0.1187318622642739 -0.23474381129035327 -0.10885142247518387 -0.029322277558028742 0.3528804789291119 0.35162757370215936 -0.26699619172006417 
0.07223750924371697 0.02992934550819948 0.14154495415477186 0.2681887451112688 0.37196703123949804 0.2515068355245955 0.40868753836732663 -0.48214674563247706 0.003090175776733095 0.3962780563474817 0.008840495714746321 
0.14158755704264936 -0.20924425782854705 -0.13255773011841232 -0.10184971762636674 -0.47448243207541685 0.46297538440381636 0.1803382962491782 0.03898098409806172 -0.17320505496173966 -0.34536542805973947 -0.41120326531199314 
0.06608254267305724 0.24978169080138413 0.3766036236385739 0.20376071964936637 -0.15152214071884418 0.4122356780245947 0.3377970244715851 0.21882988508727264 0.001419987741360429 -0.35093797855140896 -0.11990083929557005 
0.4247646103341325 0.4779669965366121 0.4967027390824753 0.3143949304060586 -0.33137893881578906 -0.3988332537640207 0.4029951969109087 0.13051413454687977 0.29306971017385264 0.28553925703273053 -0.0846629355319316 
-0.10528118349318527 -0.1224166803563318 -0.25951005148597717 0.21425423701386903 -0.3545670563968274 -0.2044370775535309 -0.3515182226291903 -0.12002492036648871 0.2512341771584281 0.20010307689876616 -0.33275958627806157 
0.2063727424740881 -0.49530186352188577 0.055981051797990955 0.11796099852389519 0.20964503876450713 -0.3084950824267628 -0.25341362113194354 -0.10956900857726704 -0.28164123373939887 -0.003710684576803347 -0.39810889575840136 
-0.07882106989563731 -0.4230062556783426 0.3850352420463259 0.41719327774211756 0.0822035340101156 0.0468794150160492 -0.4616140894095422 -0.3377510558348712 -0.04446610370674642 -0.053575622568594716 0.001061353732690895 
-0.3834586320082437 -0.23718396877280923 -0.06320241620151146 -0.04035459798649732 0.10881801801283886 -0.33068326963249384 -0.3702726938139983 -0.03567596187780775 -0.11234014960035066 -0.21181907970802616 -0.1291580519921789 
0.46972818256321625 -0.09527091682774425 0.4734740143352908 -0.3650153302464071 0.2858534147294296 -0.04652468217138306 -0.0905140237125166 0.4591914443942644 -0.0978999199629439 0.17346231645588162 -0.42103060232918355 
0.23453012107010396 0.17579720484562178 -0.0958895100326681 -0.0755711366260885 0.4797556853878242 0.061144111609063634 0.2515331355893333 0.40427433088849507 -0.07225490029127946 -0.10467623738327003 -0.4817227229688267 
0.18959683343701184 0.3699323225793515 0.25561252605238527 0.33816266851143384 -0.052480535985329424 0.224472652620197 -0.44536910308006306 -0.04295475680316507 -0.486477310016892 0.2206226918334382 0.3504503865864784 
-0.3947854161225579 -0.23216212566655636 -0.07516966919801604 -0.18590796322347336 0.3182669168036205 -0.3000518760847458 -0.4267128343543356 -0.08097797456772649 -0.11932087928660973 0.47043150012466983 -0.1787969023669842 
-0.30442918007265973 -0.2100590936586687 0.26082597858520407 -0.4291788794586403 0.32777163037804846 0.26898579964471947 -0.16010803287759612 -0.0018022305184266507 -0.039064588560306035 0.39079444062102797 0.06859245389817248 
0.2630329972824553 -0.16465101103451762 0.3214258995163405 0.016306998147352814 0.1563401403898983 -0.23519633077516222 -0.46363370040084484 -0.032759394300629574 0.11750583106616552 0.038232030578256415 -0.3800337660186248 
0.35868385341193154 -0.36470403873431534 -0.4614493205983228 -0.08112844691436616 -0.3882736188127047 0.036623066380403135 0.24487712498744063 -0.11226487438880983 -0.1097793582258042 0.06239711164864237 0.31260962192364516 
0.439129200466279 0.055238345417081613 0.4315403689757946 -0.3895716768493802 -0.010537954951246875 0.46995741982582284 -0.19774572395671308 -0.06590259255194075 0.1788340318126026 -0.146137444294268 0.15388442098255284 
0.11401714701951049 0.4351521480340512 0.08533759871545088 -0.36676281278533174 -0.11320376787063402 -0.3485458314121941 -0.2918264174596603 0.335959972047818 -0.2893161615184626 0.2502768723497948 -0.0897886404742918 
0.3266038899992262 -0.3294776055419395 -0.1799648948668776 -0.08871688855061932 0.44024661680946364 0.23995142832096328 0.3257618945713743 0.022812319811561954 0.054060095478063674 -0.05308648662389748 -0.37980811949333104 
0.12287731070270358 0.0689660872942387 -0.07691603999186569 -0.38894619016503196 -0.0717616152914834 -0.2004699879903984 -0.09133454546228703 -0.023429567173034682 0.23877422793693936 0.33450182112888693 -0.4689400017655636 
-0.23645347096603542 0.2799684350002236 0.20091984962877496 -0.42074973959143414 -0.4489404950770418 0.37553239312137965 -0.15854817487988704 -0.44470723554789504 0.1176488535151452 0.4449458228069365 0.4976552129463824 
1.462495112281026E-4 -0.2889657944032267 0.23964204742323802 -0.41890402330615406 -0.036872052619902895 0.0867744079493038 -0.19324005269523858 -0.4902261899762541 -0.487388397138397 0.45591255804813147 0.40083001892515 
0.2890590882234746 0.37015089581361826 0.36153522008439987 -0.048542604772801035 -0.17564570252447909 -0.4089673747440269 0.2903064154381316 0.239009761611375 0.06695131632176154 -0.2886661680834207 -0.4825798495923411 
0.13051358328280072 -0.3849368711399296 -0.06512205270066673 0.2820477249640483 -0.41559251828199284 0.3187664886174685 -0.2569451853136827 -0.10476065133399048 -0.3545036500124664 -0.22939992985195057 -0.22370997280203708 
-0.20662839762076346 0.32039599452352874 0.30282020576288204 -0.0419804984482105 -0.13238379895840735 0.048952635211350515 0.25782415247106505 -0.3896550276622307 -0.376462734614986 0.4685671686197881 -0.1499911947166641 
-0.254882971987359 -0.1451921966293005 0.30604967258581905 -0.10465931131184236 -0.19498778896529534 -0.44883148120338856 -0.4744255259201354 0.04917009879117917 -0.12375887966441923 -0.29686464285235004 0.31150172131359855 
-0.03666863015887356 -0.20215501767527577 -0.4854056443776742 0.07127678213554745 -0.04967229321723121 -0.3478920972235031 0.28930565036183575 0.40631371037255204 0.32540795627773655 -0.1635668183698311 -0.08152853618448874 
-0.08228525348362492 -0.4134002539212577 0.28910144728952225 0.463904818743767 -0.21112693247555647 -0.011728576948362157 0.46964952271945937 -0.19503017876326578 0.3184508619088966 -0.1344465219406885 0.37917847503741653 
-0.3026540705520454 -0.035079065242346386 0.2749572010379032 0.24672047184059764 -0.12219759882407477 0.007804522237523703 0.1307867994147025 -0.4951366603791397 0.041551202768857376 -0.3690660691848452 0.03744847023056541 
0.33115317521568544 -0.3826197321705984 0.08951352440292115 0.44451829532119425 0.34136463428580577 0.27065051077527447 -0.36455197248437177 -0.4155619352953296 -0.013450469696850487 -0.024625297520215694 0.04435282608924318 
-0.10803344950163629 -0.17215545442410407 0.3139770951192814 -0.08714472416413 0.25002072964239264 0.14133874867475382 0.38696708098013566 0.37624239815693583 0.45830050511321485 0.23987249685477352 0.3446420609487053 
-0.4657948205696335 -0.220903225806533 0.4894595236611867 0.08906801663047459 -0.333625250735586 0.27894182665828526 0.24509374967987718 0.13696862643213759 0.26954162291954153 -0.044731698224061534 -0.1659765737152168 
-0.017212892553817638 0.05489398558707492 0.31400037696424554 0.2741450801472488 -0.4439325759448376 0.3063066534336544 0.14700956077638394 -0.36900981185224435 -0.4715657121836031 0.41965728875076114 -0.25237553181959194 
-0.2111521966918195 0.29283440689150264 0.01834240272346077 -0.30210775292168035 -0.060113423249121056 0.41133425021177716 -0.22838991374773143 -0.3369531546773735 0.27971021062316004 0.20765206741189512 -0.06997745481783413 
0.3366473982354973 0.23860011050687036 -0.03326487679574952 -0.3636935692166383 -0.2058923652634147 0.07477023744632705 -0.10392424699760416 0.2700442140113303 0.03284491188447525 -0.19072156769568016 -0.39790747871916177 
0.44110548275128225 0.4040357399683471 0.2918096431949354 0.3397859422171188 -0.24058807266254822 -0.026028081568760908 -0.34763379271539974 -0.294989512009703 0.177575575159311 -0.4077303512813273 -0.4840288604047759 
-0.24391199483321058 -0.47185538212476374 -0.4103085049083277 0.1358102370277421 -0.2248797681621647 -0.14136293938582833 -0.4199008452752755 0.034809503790033114 0.009240498332629299 0.3052370720751221 -0.20093739885663775 
-0.16353559005945584 -0.23182159256535928 -0.4600248858499667 -0.22409097469910733 -0.28719192555333795 0.19689331604127847 0.27640702881326396 -0.0934971220692633 0.2807255749236759 -0.10933449395864969 -0.07474604759377868 
-0.3291939188705475 -0.16260813118401407 0.27491699475943165 0.25415908709934665 -0.17772475436491963 -0.45856840696740786 0.33316626447439224 -0.17533666262541137 -0.13458928841778817 -0.48153158659248074 -0.1660955895124926 
0.05469687402611212 -0.4667202906165743 -0.10194704031717738 -0.3191870529130253 -0.013670913976023047 -0.22140571528672426 0.4735277721006047 0.3906259940476733 0.22621460008422745 -6.83580160029118E-5 0.017208872134845676 
-0.010927059592926947 0.07011847636946356 -0.16105645774068633 0.28033282710351315 -0.19228010918993932 -0.4769009269132315 -0.0950923198092809 0.36053964889916856 -0.2368382985912958 -0.21662807888346602 0.20973340153455133 
0.4292312295254064 -0.2951017879957647 -0.22942606887370476 -0.07045943116030673 -0.22303403398510724 0.3293625809552275 0.4480921794274867 0.3481891129958432 -0.2428799175764701 -0.025049397005921348 0.014316681521055807 
0.4836441568153812 0.4863668093918052 0.33653458574270323 -0.4808776040161754 -0.05018057366695294 0.09509476564000652 -0.23217347846769243 0.09958040303084426 0.0645498866399754 -0.0882929969499543 0.37608936931404824 
-0.17715593347141678 0.07860167660714978 0.21181307704930707 -0.44392273489172596 0.07435086966240012 -0.32886407051036437 0.066645772863136 -0.041281298263465604 -0.4640737436847433 -0.4661997429731457 0.384605943068576 
0.14493923726281532 0.0610707968826848 -0.05136986393228393 0.4556574366064189 0.33615365635930716 0.17365758042920265 -0.24580049835521467 0.1803660444152434 -0.25966056017026273 0.49146203561514656 -0.010031635079406187 
-0.3063043573362091 -0.09376302068969389 0.10739149009722282 -0.18946741387494603 0.27824536409493894 0.4381047033294404 -0.15102277142720444 -0.030510931946417852 0.30243222584303475 0.18958935115804143 0.3806371264598436 
0.2868872835988244 0.41619321967097966 -0.2523443500751481 0.3134122534920988 0.03474568798195721 0.39010212500437613 -0.38384862852394086 -0.1566739599471677 0.10187010180323652 -0.2066342206521362 0.01346699802272222 
-0.04778975488479931 0.1322177684263237 0.17198537879850817 -0.39011762938368033 -0.12621344681526536 -0.429690026203545 -0.489561517640988 -0.1524251174445177 0.35298903457453923 -0.30729745114581464 -0.4614423185283901 
-0.29010309659673506 0.20795692027373758 0.25628276767387537 -0.1201475399512616 -0.06358689449947397 -0.15817703060928368 0.35216768430662637 0.12834062679231117 -0.2836792631400451 -0.35463148056174043 0.418237780127681 
-0.3119735846084085 -0.1647408826680169 -0.3181898295732677 0.13384685326138657 -0.38751721321799504 0.09914722393095088 -0.3485697174413622 0.09700757613232558 -0.2584350842219818 -0.38642891483169817 -0.10354308828424252 
-0.23264082935728037 0.14810331209700212 0.15837546553139603 0.12554561945605358 0.14748240665336176 0.2794946536670413 0.46449736240076955 -0.387590036561284 0.07063384835435282 0.2074285674445805 -0.3262886459473552 
-0.14540687463754487 -0.23526966430580665 0.08355971189128464 -0.35816035148893555 0.06606850201246839 -0.42957880819071126 0.2397537943552267 0.03211302731376087 0.4213023347781971 0.3053445544473292 0.36860727645633173 
0.3377508036856768 -0.33139343087410256 -0.21282858791432724 -0.12673942453655596 0.07146161002240059 -0.4129441965594234 0.4547988723036862 -0.2149052930401183 0.3644489869149058 -0.2260626366902806 -0.13993779937856576 
-0.3862783320636686 0.12863891329543153 0.4186485207296642 0.04159275072780999 0.1157496980453282 -0.24677088056282726 0.04415081526390374 0.4379566578356334 0.24712397275172449 0.030292887346415887 -0.32146374539042544 
0.04896733913913909 0.49841436005884276 -0.3659472165771894 -0.4430445004394773 0.012072425731676661 0.4032416619505217 0.01457253514321255 0.24810391338796356 -0.3750267246898479 0.2571046617519419 0.008998280464390107 
0.04965607317559395 0.11614374253019977 -0.01281019411810802 -0.17788688060426994 -0.39651494299468437 0.14167197019184452 -0.32668352701944536 0.2828514903811642 -0.055802132837554974 0.06985721723271854 0.4359905449177287 
0.44455325891837494 -0.38653593318009416 -0.3957485846511434 0.2796094788792137 -0.33588060353427796 0.04780936743474473 0.1913429453062997 0.007182572338139792 0.2688649627940656 0.17899199484129025 -0.03916217686723178 
-0.49249995300080396 -0.20025307486898436 0.07377424822463219 -0.3454981546532645 -0.44349469023733257 -0.3942221815952547 0.4838474747183369 0.11378411542413713 -0.2283053905381205 0.2568188841294635 0.3768639251520901 
0.4169509645703482 -0.4883108844762688 -0.15942114885815706 -0.12402614300431547 -0.3167829893439469 0.32269441064814075 -0.2854720621250628 -0.45203780538655636 -0.10563262777841498 -6.173534133326886E-4 -0.3054311081179968 
-0.3509760863082605 -0.17637650601821242 0.4498033538384182 -0.020310095149564833 -0.2375872151359002 0.30701253030756037 0.33224870696228015 0.33545718610837305 0.24364332686615842 -0.3557419298779796 -0.13343032933560894 
0.18908765090837865 0.026621452558634018 -0.12578211259342154 0.3132597255680156 0.3249749690040574 -0.36197590983690775 0.03415212764660858 0.36069303502819294 -0.18807500989379888 -0.28255627420517815 0.2826132198833422 
0.06422433804470817 -0.35801022234906643 -0.052740701231538956 -0.05749341674162023 0.04042829983552554 0.3156715465092014 0.05888945803814494 0.10387895054562069 0.33557602922049434 0.2694013811226298 -0.4989695655842097 
0.41524909758101225 -0.24048294648450375 -0.39141998904492425 0.4306755249413661 0.0878034996885031 -0.49554465201825326 0.08310066002060157 -0.08084163989143978 -0.061462946629773696 -0.44732186257935536 -0.3778428738082935 
-0.34684189589281367 -0.4935727363605381 -0.28188331150447354 0.03127280052985215 -0.04545063783840453 -0.11001238999790952 0.16368862655378336 -0.3531306946085978 -0.3568247038861282 -0.024945955217646976 -0.11030876850020732 
-0.1576740070178031 0.1230675212846728 0.14841604750940818 -0.001913607636620962 0.2843646719385824 0.08533190683147507 0.42591163993228554 -0.49666311685632425 -0.25027326076670164 0.38986448954055386 0.16286370656940918 
0.08252539987680918 0.1294921200202972 0.013257216403762317 0.1602423886877481 0.4358067678411487 -0.02797669098134037 0.4316982007697777 0.03169661105384147 -0.1371848217118139 -0.4546006894235536 0.44536720474618363 
0.15460524707089018 0.251467537303499 -0.0636616174604222 0.2447713752475872 0.39255629561152394 -0.07732443488397922 0.14499026919431224 0.46966243891461035 0.04717059786428168 -0.3222016406900611 0.48361205436579524 
0.1176214877263515 0.17394384293806808 -0.04476188910664636 -0.15797574536488912 0.4220927718202071 0.47978892337079093 0.2184023624718162 -0.45612320530060524 0.2385932607945358 -0.49078156286400443 -0.43067482254960177 
-0.4148629958385671 0.05302030351432507 -0.2783854554456744 0.11056149740731447 0.019845192909390463 0.45742465980158675 0.3637918177995666 -0.23746178639012638 0.13806539105392668 -0.17368837214108646 -0.24993397832534525 
0.08436598708507437 -0.13290783866205536 -0.029521662101126167 -0.3237002301358066 0.14318648722423144 -0.4806427513133934 -0.2544092512488899 0.2149040254932819 -0.36955017405747526 -0.39088767256988444 -0.05085112585329499 
0.0645317730844337 0.23308704956979642 -0.035152983430470464 0.3521840388947951 -0.03879173328698948 -0.2666365367155472 -0.22446552154741783 0.38097799910671626 0.39690035596237017 0.4332679486345048 -0.47382100001887517 
-0.21071197820925747 0.03703449389384561 0.277614989006571 0.0017737794026685405 -0.3569918267786034 -0.21976866985556465 0.48460516184045543 -0.33134101944469174 0.07689190873169727 0.3615329910456807 -0.4165890503009706 
-0.2215966472983668 -0.42309345896330774 -0.2353443024001518 -0.49457489172423375 0.48171596199508315 -0.008014470087020276 0.4793097565037683 -0.22087183467130633 0.08852623084618916 0.08538979793280677 -0.1836146471775435 
-0.06189636433995638 0.36525481062950227 0.19858428597114364 0.07681154841826154 -0.03245224348847364 0.421429143952349 -0.48051804483376237 0.35915290298257496 -0.013307112367458629 0.3051814483258233 -0.4778978758602631 
0.18651616472834331 0.39288255140821415 -0.09920070507340728 0.3761355473387462 -0.06490236858693521 0.37760713285183267 0.10138145433127821 -0.4873958719182121 0.2547090758970022 0.06562938772818339 -0.4842147361765121 
0.07574811163410966 0.28587824773120885 -0.4746008373382541 0.16143368140222703 -0.3085305500834138 0.4986278155298749 -0.4477228265986578 -0.3068163960933096 -0.16089531589597295 0.4047941296056664 0.4356579439316176 
-0.2766600709403705 0.12599644917186203 0.22875532911060337 -0.1130978009490502 -0.3009681388094758 -0.06672190981003467 -0.13930402485846016 -0.07294051599709761 -0.3794480261451987 0.22648070012370536 0.06204326129302962 
-0.18831794988530992 -0.39211001023899816 -0.1939822177871039 -0.05553263027283806 0.004601408085674219 -0.04742265033832316 -0.08970240930569784 0.20184701528202809 -0.19664099174967853 -0.17190939591916155 -0.12184117034564312 
0.4388582831731853 0.46605316878416136 0.2744446637894832 -0.47247953505753104 0.21035318476368892 -0.4073154493566985 0.42123998842325916 0.013582075731108478 0.062451993537001926 0.07365260416168218 0.16831037092327072 
0.19260574174441958 -0.050718860237413566 0.1338760529195946 -0.2957492259742711 -0.06374304567188815 -0.11145349438286356 -0.12691948184503377 0.31048776833446223 0.41667602875497334 -0.3853604319474768 0.2311168646968078 
-0.12781245899326832 0.11389788393454991 0.2897316997403222 0.49174417111158253 0.39717956067416005 0.1849327909065055 0.041319716245581506 0.2791312285553106 -0.3697932898778544 -0.12223408108786882 0.20894373331131966 
0.4984013021063931 -0.45780462381043663 -0.12627037021124576 -0.2966939944739997 -0.17513504930783763 0.07287197395375822 -0.2018535817217899 -0.19222256844071428 0.15615553355785194 0.009935292103591342 -0.348162661713986 
0.08528580340661496 -0.09269646009133325 0.29912632713266596 -0.4149655802164608 -0.20716147477311864 0.15085469784368122 0.39692089255909635 0.26043231580604853 0.3514392425412143 0.38245856673217915 -0.4987977344349329 
0.03355871043518799 -0.029083401704205092 0.12692328661403252 -0.3748452544955926 0.31633908379416287 0.487190547595585 -0.3094461673368807 -0.48424897200132344 -0.2163240838340058 -0.16624007450796452 0.11266013781856998 
0.3605898293721709 -0.4669412225605897 0.3397020070797607 -0.22755739946328457 0.07547248715017596 -0.08633410762627436 0.22323388967911928 0.16703280701474477 -0.2800098240921626 -0.49588572869001557 0.23289180527508346 
0.09228676818527337 0.24952670529295784 -0.3630403886285528 0.37764370439708683 -0.1700003439826906 0.37946364160157386 -0.05675641614322324 0.08275712683007752 -0.026470234618278354 -0.18899151414590443 -0.3781692683852752 
-0.08999693539975095 0.20839118741272944 0.4479485285653645 -0.4740273865970789 0.1887836523011971 -0.2948060257061629 -0.48023378840871955 -0.29651756037206767 -0.4809701393664675 -0.2206185580682981 -0.2810650848449837 
-0.2729014549155011 0.12722276035489744 0.12553423736306646 -0.44115394497050253 0.008060250306391348 0.48365009421258365 0.2435813820842111 0.16370218621083488 0.2986152272293887 0.4220175027530295 -0.3599214565900085 
-0.38715703651311095 -0.2418774125153884 0.2417914518224672 0.009784594762592747 -0.2206461756176391 0.2826114617586609 -0.08084093728122255 -0.11891301350622496 0.3264398694480293 0.2790998677002623 -0.39575240765626785 
0.1433976012954843 0.1549309598615155 -0.2963259639112764 0.040254233813916795 0.46546076633046907 0.1314156866984505 -0.023726023900631832 0.4043945223642945 -0.13941489979244648 0.36888568783547837 0.33532603133668804 
0.34108596520074086 -0.4418681296878917 -0.31959577901852276 0.3018085668397176 -0.3654596232437691 -0.09983799351521105 0.08119549452145647 0.18503231626354688 0.05094756257349564 0.19796507927159757 0.3756845779429525 
-0.018637751698669325 0.3696894489847088 0.3552632011961103 -0.06659993813501319 -0.4076969923732089 -0.48146775954461574 -0.40679659357810494 -0.2687153765697945 0.01981534623129444 0.02950239222517803 -0.2031775098073646 
-0.38015830509361626 0.0844264263974508 -0.2598410942813768 -0.156511738562787 -0.4433212877898042 0.25564177614059147 -0.22076673560730686 -0.2291081876047707 0.24339070895220039 0.3843626508881507 0.39611583077070867 
-0.20451446893887837 0.20036081549009055 0.48345709805983883 0.120424883674076 0.0018319803248363353 -0.18106337432445907 0.21532895037800404 0.07090314841844125 -0.010851064735494131 0.3415745389766892 0.4142741136082112 
-0.02785628844082677 -0.116593596831846 0.0379271485814463 -0.20339155384990093 -0.41684453822558476 -0.09834827632161036 0.06848097559343957 -0.007002586241409148 -0.20646427748866647 0.08980873975702097 -0.3427645981172599 
0.17511297805359405 -0.39897401449473946 -0.053981787114392166 0.23104584733855682 -0.15731239604613245 -0.4515159921132139 0.38865596900698307 0.12563729146384728 -0.21276805181073066 -0.03118661487352492 -0.0685137632530779 
0.3069272156791143 -0.14487294545831342 -0.4368499573703799 -0.012021988542077922 0.31117967314365036 -0.10450236445718342 0.4206123059600394 -0.0573682504247599 0.26864479028152566 0.19721816395288938 -0.42282080901130714 
-7.647371976564621E-4 0.4427213135747641 -0.20540095626264676 -0.39323050393286896 -0.15571309979730696 0.1903123315401225 0.2527452300823042 -0.4606478362836688 -0.15160498341798578 -0.3710730062858325 -0.0687250827095246 
-0.3910741334283804 -0.13071713109170402 -0.41778574133936386 0.26903153569532 -0.05153639350782002 -0.28290157248881087 -0.43200310333523295 0.332617399951471 0.36942665445697886 -0.003951311606602115 -0.3084922871088742 
-0.27197748764909613 -0.20979125027889978 0.34594895535421655 0.3114117266803762 -0.012682262086194274 -0.28911972287854104 0.07309708000232429 0.2573314782298056 -0.28867343368724685 0.3708597837362101 -0.21804633485572356 
0.19497555957265544 0.07438498738844379 -0.12835267893216462 -0.10257097443567875 0.45860268882734856 -0.22125533809275955 -0.4014869539818364 -0.09785143045979561 0.3004370128735281 0.1838692410918249 -0.2669588146648473 
-0.29611219941960265 0.042782941479954095 0.1298198509190709 -0.48731178492481797 -0.2045606481447504 0.06097041561665084 -0.07587974882232662 0.16402121855175233 -0.22750593752869763 -0.12610514581053023 0.06793807445130906 
0.11306072425480329 0.3346886779064626 -0.12620189001616122 -0.43988665685393125 0.15915975845829167 0.11079323370030159 0.3880703539107253 0.03651159720404917 -0.21189113419665273 -0.47891875104595283 -0.16676499411352308 
-0.422626926424137 -0.30433545392060324 0.41824618489111665 -0.3050880792731173 -0.25322393467774273 -0.10554340272161467 0.4327980944520131 -0.052563114193731164 0.316026578367937 0.48523730499446394 -0.21030529637614825 
0.31294812372702807 0.1667327340315754 0.2876934982784696 -0.13996895918737073 0.45213348410780707 0.06951734001686138 0.04655024845889799 -0.13506707460737077 -0.22253536142609576 0.39076680405855224 -0.14454714765749122 
-0.041631137643407645 0.08462768168512247 0.2925110747292974 -0.22587868772311792 0.3814160112420777 -0.3910080595250218 -0.3405266390999756 0.3535295329510443 -0.49741385249103987 0.4313420860238558 -0.18747543523575083 
-0.07063038459335536 0.3371371070053658 0.38073104880925734 0.04922214651075962 0.09581840771149097 -0.4271334869273663 -0.28780572951401395 0.18980896545014958 -0.2703674801059729 0.22070423373937387 -0.12680144562404716 
-0.3990077821101733 0.2988550067148237 -0.24450928464830124 -0.3849182433657582 -0.37998116306301377 -0.03907494549216306 0.015648017619824928 -0.44562804465988515 -0.09199200219371206 0.13173948952073866 0.1900218199476339 
0.04375821456880702 0.024197871344902144 -0.2097764718417936 -0.06400839658183466 -0.12638301267324603 0.43170771999061464 -0.22777511065103107 0.04501785234082367 -0.10761798275248868 0.22061300495173597 -0.2969458056710107 
0.10011414411075359 0.1076776533636098 0.06557573677951767 0.019751615157519775 0.25430368129845393 0.21001836299179544 0.32296772961874276 -0.25783163207767756 -0.4000611841386239 -0.25298921931489005 -0.2836300923925681 
0.26620852708382925 -0.404166734973617 0.3683762586118352 -0.24047387826639477 0.4730852208248333 -0.327523033005513 -0.3392541526494143 -0.07772500756003875 -0.12479732231167029 0.44517330430090774 0.09606167421066081 
-0.4423211724469278 0.3522835011314278 -0.06924062744807002 -0.47144831037755164 -0.22248605345464034 0.27061841445602497 -0.214360053411917 0.492628005638464 -0.21151791635992245 0.42382343958904223 -0.13881399811513317 
0.2776910342230696 -0.3170523690825796 0.28524733249853074 0.3071194587266398 0.38570520781099304 0.31570118264103164 -0.4798199788589307 0.04432541243469856 -0.48645552613334897 -0.30780526211169823 -0.4297297428000677 
-0.32439579329164236 -0.3555113023896752 0.24388958975800712 0.393069071399356 -0.19380478559239178 0.18188480783308325 0.472802975235884 0.11637261908903695 0.3054752997161929 0.3128695013406244 -0.2899650064983579 
0.4500470602530011 0.25705462263896495 -0.04881693949372501 0.1520027048271564 0.1872742144168592 0.21656299108485555 -0.32451342590617405 -0.08669664548154932 0.022666333211172396 -0.07525943729604379 0.053227688239822046 
-0.4334256452262867 0.21645488508527155 -0.19198378430411822 -0.38001700303415487 -0.47258745844783256 0.3419665162269764 0.43957841462591785 -0.429662196815245 -0.3136390423969514 0.46785731257133334 -0.36898760627520455 
-0.09125320678625892 -0.10983353812937391 -0.35291618794981605 -0.022101205816499436 0.4074520809044294 0.23095679814560077 -0.48865212910263556 0.49233890260414825 0.22341795753572913 -0.3853188216397515 0.10275904561455196 
0.421191462618723 0.4373742176642006 -0.25089629009424497 -0.18628266321169484 0.47087735457061175 0.09544290895104168 -0.4831658782146795 0.45152599024302953 0.43792768279066563 -0.442543492636602 -0.31967394422918416 
-0.0039978587038945745 -0.320978134406925 0.08595741756915198 0.00346770414961739 -0.42363887725076743 -0.054917626652825624 -0.3539973203312754 0.16833580516628843 -0.44209218052834265 -0.14893716697046944 -0.17172047880083563 
0.315878568317425 0.3995760486458315 -0.343612837107509 -0.34332894477346654 -0.35426120433445385 0.12011569254129872 0.09056702783009152 -0.20370652536169376 0.2731238021832606 -0.20626630661582646 -0.3256543862332053 
0.33915965870200937 0.4595736433162858 0.48525417839808294 0.35878591351469546 -0.08799384926722487 0.40967521098630755 0.43036997022235857 0.3330420675928579 0.3244541294558675 0.057214218328494715 0.0683158319200674 
-0.46387738223677366 0.3555569136981347 -0.348046986688227 -0.2576983593335175 -0.2512251467854216 -0.4370799666463041 -0.49783266334915366 0.4973014140682669 0.13868950609951392 0.19096248065006383 -0.0717298338661092 
0.4253018918177517 -0.21445408732037963 0.3535204676726176 0.3392966362343137 0.4348723371456872 0.02198732739932474 -0.3291221113098035 0.356718647189873 0.15492490536372527 0.39243722081247623 0.45244065945794676 
0.07900396813494859 -0.07820732658862706 -0.34626302081644733 0.33365470351824744 -0.09447118191684944 0.44426059236910354 -0.4800940130250424 -5.997220688390703E-4 -0.18010043817273758 -0.20705815653711257 -0.21210428075650944 
0.25597804140058 -0.3295668110453772 -0.1815993580555525 0.0720292604295848 0.24993524325825 -0.22050769766926426 -0.033320537846197595 -0.3781117319376355 0.07436322009144114 0.16356581987896457 -0.268602606775626 
-0.3982702732627903 0.3519298044338287 -0.24756898655755744 -0.34165656389212573 -0.2309151106496682 -0.36120624790194433 0.25842874687993955 -0.09850340322277296 -0.2939863630206947 -0.3453195027732803 -0.23417137142929778 
-0.18133729135990373 -0.37144292057836203 0.4117815629410275 -0.31454372715900736 -0.009574760398358584 0.32825220275084055 0.2887730008115532 0.45119983798893726 0.3478655896841112 -0.015857635864730213 -0.023869247079531752 
0.222708980591651 -0.19748409038606785 0.4245375998798513 0.005053392273380641 -0.09745610716102393 -0.11373459818769738 -0.08515050277052916 0.2646865077456212 -0.02377187781850998 0.4294488961334676 -0.2988548999158611 
-0.4890254282593097 0.04010362408955759 0.232104238387016 0.3486352085941681 0.3753497836344023 0.3945820851600015 0.016392988179899093 0.38013227235553215 -0.2074001583784394 -0.25066797849685385 -0.3125636660387706 
-0.1584162856447099 0.0846395883074661 -0.08786410465207506 0.07532666627830553 0.2001066913257582 0.1605440923233724 0.3145975723778486 -0.117167762152102 0.414520457689992 0.4230837442535379 0.3655751216422525 
-0.478679313160974 0.10919338497700004 0.008134525776752 -0.08284040664116932 -0.11831495489286892 -0.4709089536223936 -0.07428034978318443 -0.4217844329764374 -0.14243681888646342 0.3572331981808661 -0.4799283998878341 
0.21694483704241307 -0.38510007197550944 -0.4646631663464057 0.420985979437247 -0.2433704325844923 0.1849088563890091 -0.05575664341708586 -0.1801279998500317 0.2876566737224685 -0.05325184472565592 0.1727982499323476 
0.4712868827485508 -0.40587921824598583 -0.03826663073115566 -0.36782854052948233 0.2943742797994191 0.424747958638945 -0.07733294209160035 -0.042822526472853895 -0.17149025317650557 0.2255780937503411 -0.31012605538824356 
-0.023025672297749766 0.08358903318153654 -0.404211032965472 -2.1313140696699318E-4 -0.46540899595926033 -0.48222214039553923 0.4282402926387193 -0.04756208652627014 0.08805264476393104 -0.025825602966502603 -0.4472383957631919 
0.31096596029076096 0.33544425554607926 0.4127190853628815 -0.2870973325172207 0.47925998285510407 0.07207280957892781 0.18481827182286936 -0.12418886848905941 0.26311565667863035 0.10995868107660378 0.41553204298659874 
0.20009662353794355 0.16578976903607523 0.3682074234255982 -0.21819137707706693 0.46798662235074173 0.02059580522275062 0.1773831357636737 -0.39486919201765114 0.42577386502592585 0.22119078728248287 0.4318252409935991 
-0.2869270263941016 0.2705014719095953 -0.3255376328418742 0.47092044462597415 -0.03335053957092682 0.47102602185051423 -0.12856800987908668 0.4736622836034271 -0.3010316009487951 0.21804521149201705 0.14834838665636585 
-0.28959924431139006 -0.434412180255783 0.06037137636948786 0.29315336733995434 0.21150502657730563 0.46810325978558465 -0.29632225035842563 0.14175942206708236 0.28473245817219817 0.2798795320365304 -0.47686042479757285 
-0.29591329263278654 -0.15858285728105448 0.07647179748756106 0.07283747801052531 -0.3384351016269067 -0.32383758220696435 0.4531636646430136 -0.2375141593717649 -0.21418731699835336 -0.3144592041533194 0.2981833009596381 
-0.08400567370603262 -0.05753366291462547 -0.4916236091289655 0.08254130889965083 -0.37343426208451813 -0.13536433337538623 0.22350413770085853 0.3260663617038274 0.17947912245747866 -0.19277587611644298 -0.4495288467803371 
0.4040982488860261 0.3264019162818449 -0.4736424652732453 0.4644657264985066 0.2704301280694428 0.36402049900323086 -0.2325764756412526 0.2588292874709741 -0.010525093379179284 -0.20502606802018086 -0.40926843859969997 
-0.11963460049246456 0.19841789650485048 0.32339052451166844 0.3976489610138876 -0.3190623855353945 -0.27785448517786254 0.14415046092694947 -0.37862218290389904 
0.147848193688738 -0.430316994862069 0.5914590479982617 0.013871024114462328 -0.0289190061054548 0.12044155322681212 -0.5876665688138282 0.3969410754374444 
0.08671663134716572 -0.2569007501043859 0.7301768830862357 -0.007857530923463849 0.2778146228257049 -0.6100759960271487 -0.07860314561224391 0.019272920061421894 
-0.010875679155092513 0.4443531540419636 -0.3628571850312385 -0.29970331906689307 -0.5840824118608674 0.24950071870293847 0.2827944542096505 -0.41558126609504953 
-0.9425403889043389 -0.6131845547373554 0.27057032257561797 0.8820807903551156 0.6236089079626537 -0.8246359502902275 -0.8244560755007871 -0.4078085955327524 
-1.6039390919603693 -1.6506172108936725 1.913221083493987 1.7339871018456086 1.8613550273814132 -1.3640531097790598 -1.8063035019882978 -0.47988757998472487 
1.0796947997876223 0.6787575450838366 -0.7029223292641558 -0.30541254300385745 -0.23050000470503865 0.44192796913650445 0.5498489450544475 0.23750207850524774 
1.1396714864349424 0.935301883089344 -1.4245295993865565 -1.033245685584555 -0.9920657905166774 1.206620653740419 0.8020005366301372 0.18549981946284688 
0.7791334188605079 0.7060454374614891 -0.681117943238699 -1.594470315759506 -1.283965312131381 0.7745017413037169 1.4361926760156207 0.49879600571446336 
-0.28513177522534344 -0.054369520082923624 -0.04725297225219027 0.35005095206486925 -0.08431085401509328 -0.5910916663228468 -0.22813433755275314 0.4948563216743035 
0.6979960595930983 -0.45297811687081146 0.2560638997799938 
0.8576793634537824 -0.2683908557204862 0.2809014165397452 
-0.18706797525563715 0.4989909964306815 0.21193382574740827 
-0.6526757722821109 0.44364956256595106 -0.17594278643479166 
-0.3297658340820982 0.0967766236727356 -0.4003936674658084 
0.2768350806361499 -0.6968264897287575 0.28363074740583416 
0.44226495021182854 -1.070038593336635 0.2523824883934169 
2.611436035657889 0.3637583920075891 
-0.01126652437524096 0.47312681040737725 

