0.08799212186233685 -0.2165718605854544 -0.4839379565428401 0.05021058962031022 0.17786910933473554 -0.40264816538935466 0.35457396385796924 0.24522442252172671 0.44574894561580347 0.40517346734830717 0.22983284604606846 0.4784818964244173 0.25280233491814286 
0.04674660594844715 0.1710607226937011 -0.3551295377358322 0.10904513754971923 -0.14726664159722835 0.1400922399143547 0.4641615359496225 0.11165457511768284 0.4446084768833083 0.22962869040707956 -0.4848466103586415 0.12356639462467323 0.3838083227670348 
-0.1672548560956476 -0.3398877985586112 0.09594828497541852 0.2506216433017565 0.07445330450298815 -0.15315409891845466 -0.21712926006973698 -0.07029170880837654 -0.09352695686735069 0.3626605990910502 -0.2775262988142324 0.1066708320574753 -0.3420317488449389 
0.2326125833663547 -0.23384646663764908 0.23889301307385935 -0.49214680696503754 -0.3961165073764221 -0.3742283455499712 -0.44610140777686225 0.298378253320154 -0.36123005330016456 -0.12138755747444518 -0.05022743857853196 0.3450541670458267 -0.349306776491352 
-0.3792051393145498 0.024725873081206662 0.4145767681487258 -0.03920123831274647 0.49206881227917065 -0.15332540780544823 -0.15973536197725657 0.22712862134426215 0.10840346826800806 0.4887422327426584 -0.1763753562521856 -0.19598477986744156 0.033501726058404735 
-0.19711573580672992 0.3310110504533481 0.02625777403042373 0.29635149157954643 0.38137202500787704 -0.36405394270051483 0.18080707075971025 0.11915069820021351 0.16466298270360835 0.4805208723895682 0.3280990714710226 -0.04157989079587676 -0.30577745671977175 
0.033398045361755835 0.06584070587440316 0.18184372998988263 -0.41984729991697367 0.3072874492257771 -0.21003377498837206 -0.29564572922030297 0.3560207448180397 0.4653697471892 6.459982718840518E-4 -0.3107935623103544 -0.47292850308589096 0.4939927682853067 
-0.27435589896556245 -0.016741342094774292 0.28304443727795103 0.04806776875778074 0.18898463343940775 0.3004090374195385 0.0431070502481431 -0.11405564250199884 0.4398013316884031 0.2931094952633764 -0.27204556092334875 0.2021437659793749 -0.22559153931245945 
-0.4408930377929855 0.41291398823822434 0.3391826792872358 0.43404586317294547 0.31903832441414215 -0.19406620331035807 -0.186179486770491 0.2414139733373063 -0.029768245485515044 -0.18437844858069807 0.32841508648689466 -0.44897000685085175 -0.02695618826352897 
0.32704051825998026 0.4546729803568592 0.13159925533287042 -0.44171186377881944 0.18675783560624837 -0.025067261340368296 0.37301084163000364 -0.4422116935297681 0.3136797054699648 0.44522012550449375 -0.4837702795264065 0.25481386211559676 -0.20150335821340903 
0.4046666722967782 0.4412727249672145 -0.4728650255335377 -0.16789819618096236 -0.20251578251594715 -0.08338138344329882 -0.2873417783779878 0.3121334687493116 -0.4034607033886458 0.1128175933529626 -0.43391817128254917 0.0168328458102861 0.32167362600084226 
-0.3862711484076006 0.39473584697141106 0.30669663657344826 0.1312675009539639 0.12072963637569978 -0.037250824821403294 0.4169431166161748 0.4321453644798138 -0.4615977887597692 0.034911655287393484 -0.4624000052384787 -0.4992262724805808 0.15462068643494642 
0.4950763553693409 0.04306037749621039 0.4378036441653749 0.18362223405585631 -0.18132645445549866 0.4292434192083525 -0.1116388418790305 0.027562308487318665 0.3048843415180166 -0.2559658564076027 0.3520908658060311 0.23021716387434832 -0.11875109116245508 
-0.4445328281893117 -0.42019060894827676 0.2459109302572876 0.4819601923977831 -0.20784316899978017 -0.49227308728396746 -0.17259110425811086 -0.029178807060256107 0.11176663238200424 0.41554661524910785 0.048432340969144505 0.33081985856326523 -0.19415143968634785 
-0.48864656770465076 -0.2803854492112011 0.3745028254574302 -0.3668265009703603 -0.05594508144772603 0.23113178607380713 -0.45719473682132394 0.38871134958554576 0.3232390368553709 -0.3390933811924707 0.45472080361434974 0.46170982509761016 0.1866645361026159 
0.3241957997624255 -0.25382760698379625 0.1138593572420249 0.4972018649624971 -0.19146195684177403 0.3936710091041532 -0.28267922723459105 0.17389368312789388 -0.0625478855008682 0.15682607994628273 -0.26756881643627717 -0.1340943795884718 0.03693861144858934 
-0.006502227889051193 -0.22380691529450447 -0.33651008027883944 0.3407540203328898 0.30235815534446386 -0.2648095185094449 0.2066854033811526 0.36358869133451055 -0.37014539862452567 -0.4896353900025996 -0.2996704497060523 -0.40430489656114255 0.04204509732075945 
-0.35387858564591435 -0.32694040755552733 -0.07182337726585131 -0.2934973136368493 -0.20746815155176146 -0.0716689574321826 -0.19493913669091256 0.3554612646003116 -0.3230752878947164 0.027084024931638195 0.21644617088037332 0.20860315546679964 0.019961467915752595 
-0.18546105356800735 0.2964234882202662 -0.37763576815796984 -0.3786789500937622 -0.04229530293537154 0.47014009073391905 0.20235946533228621 -0.33858808313193045 0.19553448379568572 -0.19371418098825888 0.36650832767462993 0.11806771672046812 0.020265238811830844 
0.4744461401269512 0.37866601699858016 0.08097179458144954 -0.19367100080980415 -0.018819018032789403 -0.31395740033592967 -0.3384049480987613 -0.017674577864639218 0.1643517933250641 -0.011580350388020633 0.14272073613175995 -0.29810340128841095 -0.2378662419137706 
-0.1568504913424974 -0.010831509247357873 -0.3890530200694865 -0.25868610448013607 -0.23285034707942853 0.35011945222921304 -0.26849782549039036 0.468890042879036 -0.2644193860293683 -0.2765169974633347 0.18660292727506522 0.24164953229189956 -0.3033769240314528 
-0.4759650283752572 0.47598109025957336 -0.34967931996230994 0.22274554441301608 0.3995958438573911 0.278866744244202 -0.25194575720261625 -0.29891860212046406 0.2733073759602712 0.3081268663839236 0.017405762346704323 -0.47098975905326834 0.2551037924973586 
-0.4309625445533988 -0.3143458736100482 -0.3742353398542557 -0.23823569424076085 0.486342864788717 0.025205809846033267 0.19686120555717823 0.4124714477389071 -0.24514284819804089 -0.10600234894406746 0.09537953609399719 -0.474410480020931 0.4417145279485587 
-0.07977393982936898 0.3125914813611327 0.3324165610798533 -0.17752310714205943 0.41639379533076537 0.10016750400069141 0.3449515419527778 -0.3313417608395216 0.319579930902153 -0.022835013227881173 -0.33274123269051326 0.22082754261742665 0.1980026226476833 
0.40722933875643874 0.42379903921985507 -0.120697080783989 -0.36164179076801883 0.24491526402432673 -0.10686204447428327 -0.276448485573063 0.13408452490552292 0.1447622450146 0.38172878380910913 0.33176122352409965 -0.06839002338291889 0.0027349594013436063 
0.35000849359716324 0.013651925743040527 0.15981440557013393 0.15686570516345832 -0.18816731598859493 0.4924455385126688 -0.0326584519436095 -0.48758762885758566 -0.43168435749142875 0.2760151457782116 0.32306700184334813 -0.023427344371126146 0.40843008438228456 
0.4425862150361922 -0.403060156548821 -0.4112290125082797 0.011260232532311898 0.33296321449120225 0.03157980247849468 -0.4852382257254738 -0.08140852516489583 -0.3108926357230254 -0.2605737006862744 -0.36373120955235005 -0.38844193567578145 0.10799237669370898 
-0.08410052979622273 -0.18739250014283226 0.42136015574196917 0.2900168864576679 -0.45405253738372864 0.016713046511874663 -0.2683997962559306 0.4528536211425388 -4.8164800762817706E-4 0.4552239164812809 -0.31142235027418863 0.45446697427415705 -0.4390910810630224 
0.4707472035330098 0.42592031312399836 -0.37686780890463045 0.11760709789926771 0.494158609920502 -0.36878045137807913 0.027641232375111846 -0.05384180249405335 -0.4342340199768763 0.13487547835779035 -0.06251861749539689 -0.22425025926428566 -0.023606991270184396 
0.08514781726027698 -0.479375307949756 0.08462352137487295 0.3929148413587815 0.18844651807214974 0.4056677825919224 -0.10991252663186801 0.4275052350594948 0.44018583276505674 -0.4045869810842425 0.12981427628138087 -0.014169640973181186 -0.25093568379071607 
0.36058363005649996 0.10027739395596191 -0.11334816346623955 -0.1335775880093365 0.16521711080264567 0.3175895076380706 0.1837774014573711 0.0723682164359557 0.3793826077438608 -0.40332764094223095 0.34102464017197176 0.14165117284588036 -0.4797806238142578 
0.10660080350506873 -0.08816036974738539 0.21480272913570297 0.028895650548599106 -0.3468715988154154 -0.3425611312526774 0.33385132566329856 0.13893788290859854 0.4638156420081062 0.1008194366182582 -0.43304089651055944 0.22048263979369898 0.30684573897109446 
0.3587089766276944 -0.1573838117884403 0.09535470479499808 -0.1384722973780499 -0.28049643916175737 -0.15843257319472404 0.2094763507928178 -0.12335030501737088 -0.1575318258697156 -0.4465641442163084 0.22196466335276077 -0.19773987707633334 -0.3580491798276686 
0.3950461239777183 -0.47562496107165364 0.2611180187151383 -0.10991170139966233 0.10873991017714102 0.43890074000658397 -0.0620318668196852 0.3224578676420832 0.01151479490859586 0.3609398297859272 0.2079603561114005 -0.4366442893270418 -0.4503931551320559 
-0.09070759178036358 0.09994716213425636 -0.4991404066505949 -0.4718234450352964 0.22635290379747297 -0.003943361177867755 -0.16343996960948048 -0.167953857651297 -0.06898696571921792 -0.19414701208828467 0.41082014294724145 -0.06902359509963607 -0.13140659165683022 
0.2215603207997624 -0.43834830289154514 -0.028240773552609566 -0.2750271282113662 0.06023961763583774 0.213770948839759 -0.20055839094459282 -0.22381364984297425 -0.3705272339330413 -0.38587552504204803 -0.1787140218947071 -0.4698865217656548 -0.48497819505398754 
-0.3688480203004174 0.22961055610269 -0.21651818923161614 0.18209525914005598 0.317279446591877 -0.2665574915601078 -0.33473967541649774 0.3062679411587683 -0.0023875078792672255 -0.3860438666902769 -0.4333801802196531 -0.19423563174523384 0.49252663933419416 
-0.38504332359468174 0.46798923999450837 0.13372981949007423 0.20782743784075575 -0.09278988905973118 0.06533762522050346 -0.49272229343097407 -0.2666197174331759 0.12420781228597544 0.27066358923369305 0.3995154625597759 0.279585877405922 0.2569945454087371 
0.11577562708747746 -0.19858457339040847 -0.24919558583108992 0.016976545740108206 -0.17620213782255756 0.4723112518276732 -0.49419234942946844 0.1281666456591759 -0.17056212858691633 -0.3590355292145069 -0.11243529181743284 -0.10588891212980056 -0.17309571761106302 
0.39355972054532695 0.418144438237366 0.29978316353575085 -0.4965362043532934 0.29065144222618156 0.14924287644163425 -0.14498356026832782 0.47697864315101923 -0.40800105660070685 0.0348217270006449 0.36359080477057193 0.09736710032994067 -0.16360972314812716 
0.34957000062524235 -0.18912757772862743 0.19478134464342378 0.4229702793106461 0.11537740131659446 -0.39705139040294535 -0.43860180800104887 0.2712513185414005 0.2177348718012363 0.46148715656949857 -0.06092970486869054 -0.4010998453026706 0.394953973551886 
0.38108891137338163 -0.4483135328366342 0.349557643028957 -0.4346762092211879 0.1896917925189009 -0.2310583128937692 -0.17263734888522575 0.02079999067053706 0.4176226359597375 0.3173186662323185 -0.34948474525322615 -0.13945213091749586 0.37718330107993936 
-0.43556521774473667 0.22312866653771402 -0.33636273726891586 -0.4178041740946348 -0.20549070843502748 -0.457216975403136 -0.19258582789182566 -0.10427904311853375 0.06555734949877245 0.31060845145153526 0.026550085253969402 0.08420298082576261 0.1930198028038843 
-0.008610940075897688 -0.22250292045073428 -0.22241666624330214 -0.3601125049082312 -0.31690689724842047 -0.27594733895330426 0.18746404587200316 -0.390017468485529 0.3983992331127356 0.19196580977319966 0.3191916411502268 0.43890864078804737 -0.36479804182023234 
-0.24600902449692053 -0.17122924856879107 0.45628558870468694 -0.08125534306385407 0.20152474400650122 0.1218058887088056 -0.1467664693769133 0.3349414966487032 0.03493539801938017 -0.23079090129274304 -0.2693250021791834 -0.05738599555468771 0.2619224597556278 
-0.17680001733636375 0.4268736572364549 0.3517826499297234 -0.2682796843022993 0.1571637911782937 0.426730587563808 -0.3141830823665889 0.4526858336506049 -0.47577776613378064 -0.35928955722488565 -0.3928378763955269 0.3417869602207285 -0.3680888988936635 
-0.3921286369680038 0.07952505086251249 -0.3632643031668519 0.1641471650186559 0.22532408101063495 0.06381438688731056 -0.23501443729514293 0.34670647028443347 -0.06445281989271867 0.40079658350787983 -0.19146021532181257 0.34872519381800426 -0.0866630058901029 
-0.2796593778778823 -0.17050645869185732 -0.4597272991026875 -0.3142274019471961 0.3352909638726662 0.2284598737524054 0.38483634032590897 -0.20857283750821975 -0.27257957815710854 -0.00349464278876499 -0.46440430121733534 -0.46084080865320076 0.41357956236632476 
0.190948661534189 -0.47434591920231606 -0.33783154742722543 -0.30792676799315344 0.21635073629715595 0.2949330959777666 -0.3203972156834596 0.01245886933965401 -0.47574668094848793 -0.31977415354064354 0.07585387883684391 0.48637491950747425 0.15869740623812745 
-0.09005692008295996 -0.01321838607443071 0.3626724743633407 0.16928142842433824 0.09137608830117805 -0.05754222980751378 0.12703649982918863 0.28949436831248654 -0.34416153440739117 0.35762190662986615 0.2544478588458946 0.4352858554884528 -0.26416140735937554 
-0.11610639593323391 -0.45774930647634926 -0.4826875726454045 0.48847349450564226 0.4418867777986122 0.3822544250423493 -0.2199753207307552 0.45052378225887424 -0.26327666336176747 0.2922129971921118 0.38173766388466 0.11326853828157946 0.3270451705831905 
-0.4798110054846967 0.2120524975143505 0.038827769820175995 -0.13452526811182253 -0.44027686118045783 0.006474549469617563 0.00487976609392704 -0.042423398830949144 -0.030605031868325305 -0.3372006432864515 -0.13911106436900333 0.19672283824711378 -0.02272650861381953 
0.28981472463813907 0.006519467859787853 0.3238683453376975 -0.031078567189193218 -0.07390659025201929 -0.3383012855080265 0.13409176533863887 0.10703042636097582 0.0551277306189728 0.3878336825698786 -0.29413887615393397 0.011428444360205403 0.012783869972056494 
-0.35902746493708315 -0.23566663591702053 -0.3598848562503444 0.13403009420528167 0.4902429801783873 -0.49340047333021975 0.2551447790651208 0.018120104099791035 0.018687186711952575 0.014638493275807685 -0.3684100620498484 -0.39511135276772613 0.3386531879764614 
0.4608434645855508 0.47348440571999906 -0.15045650024583823 -0.399808883937402 -0.3286622335227345 0.33755629452708236 -0.34068524435774394 -0.1515583508956474 0.25389701479907845 0.23372778450350207 0.4125480171064595 0.09479360783489088 0.42014748467852936 
0.4707710826318312 -0.18069442940758917 -0.49337405431295456 -0.1641892967754367 0.24617450515543915 0.10226596360667017 0.19173928513914373 0.31811732820588756 -0.05881291828227464 0.47768825387310787 -0.3438793630045113 -0.03388644713072042 0.07517321439511926 
-0.3015649125036216 -0.3525260193240106 0.3574359380127563 0.3978240551227912 -0.015476106410920898 -0.2380110027276774 -0.22576869399223243 -0.3465646028064704 0.011403223631424542 -0.1118914444376804 0.031250654345800655 0.13837663152133073 -0.2478729301781506 
0.28859537067944707 0.3707467398171683 0.2910389692894304 -0.12317315192387246 -0.11901339452192317 0.06165760999081349 0.20296525897086226 0.10135740624613954 0.06656480763135608 -0.20534131567607028 0.12052807419841904 0.34671966323759573 0.279262384984339 
-0.2999813080463214 -0.2815635894007187 -0.17816068671220353 0.27845587564306795 -0.1682043004136884 0.1695154816893072 0.1745075625513578 0.09339535909423602 0.25976108449433 -0.19038143257089502 -0.33123376355577705 0.4420534505176056 0.4895409390065333 
-0.4978066225201643 -0.058253702347487724 0.3934674223744943 -0.20818374245367566 -0.35606025239827344 0.26894560790428224 0.020186956318764326 0.16302408864176454 0.1211594254138112 0.42415775745937245 -0.20377090219840044 0.06285424009980656 0.4258132192572477 
0.15874082253923028 -0.4640188792755585 -0.22206296393232616 -0.4290362496893435 0.04464154718225333 -0.2592188792711747 0.24646954339158722 0.40719763571939604 -0.07343367535705825 0.32244488556961903 0.4451292108178 0.43478352158378275 -0.48908212645807325 
-0.19320265979149498 -0.012524927330989422 0.2307375671394225 -0.31740773194598526 0.28530492077608405 0.4121390040832996 0.16563122540303143 -0.014542045176186735 -0.42080450051201157 -0.2505399280036338 0.17189094291996532 0.32831487329092235 0.307990253195908 
0.3468175002689816 -0.05649726819711287 0.3853583271308856 -0.18683789640485782 -0.39423134306263796 0.0964494759303256 0.34864874316712013 0.17767373585945279 0.23820060771521456 0.4998717735029323 -0.3401847121869055 -0.09656274217099836 -0.11594522158326714 
0.19985857538356 0.09919744678179288 0.1612771150240816 0.4497861862600667 0.10093660756611844 0.14285563136945434 -0.08823371143153902 0.3245703588590194 -0.1552573817788413 -0.18864158271368714 -0.3896544528257847 -0.2896279273132488 0.13102572253048295 
0.3289799709546638 -0.3435760517417772 -0.3376576380487951 0.06304218273326312 -0.21208113179713728 0.2236982414125258 0.07761129625693008 -0.03243198803740022 -0.3306250278502477 -0.3822821851807814 -0.20660457463146575 -0.4608306994752954 -0.48820162118547406 
-0.15323909197044905 0.15944116768591443 0.08903462724568112 0.2363505909629514 -0.3366233499101835 -0.06482398102411968 0.14058698037753303 -0.3594051540472841 -0.06351312504396078 0.12854173654818835 -0.39274210670228693 0.35365881408363586 -0.15226944148697108 
0.44133466098643337 0.3122193804952801 0.10958995189014631 0.07077266464401821 0.3149805761407759 -0.3344658054412589 -0.4596502078101422 -0.2114113116757078 0.18102219184298218 -0.09890127378256552 -0.18412974293065087 0.13127451310128346 0.41219978567365323 
0.39391655021881333 0.365821961189865 0.37572110038819484 -0.3571435330597912 0.2276553869422766 -0.3937797016570628 0.03853198870375052 -0.418498583693918 0.36310361466234375 0.06372231786961036 -0.18514926679675836 0.17371578832823054 0.47005715719248675 
-0.45855608678566906 0.16830500624585376 -0.009812155802582212 -0.27166903633856476 0.002352781724969999 0.26106202216780316 0.01251511614084655 -0.3219958667900693 -0.34022994100356485 -0.1719694943878579 -0.4314869338767279 -0.4953289329822028 0.3592394576511886 
-0.4544679207254012 0.029121536350914523 -0.01761447941331895 -0.2880006302712741 0.42230493406806346 0.020601299264548456 -0.3348516032183342 -0.4024794400950843 -0.2505088075074636 0.32856515225618466 -0.18279569016673658 -0.4089524515931161 0.18629891331179693 
0.3744891959963589 0.003075453349170809 -0.408190478561291 -0.3706818140751912 0.13070157082421285 0.22017641616150274 0.4285421875427172 -0.38398974736313474 -0.39355229489294485 -0.04998359556428322 -0.4988106306016665 0.14667758626658578 -0.41451772204045023 
-0.4715895933525224 -0.41887108555716257 -0.02573836280667574 0.12474010634121502 -0.2092155752993713 -0.26300520597481525 -0.39239554297383517 0.43398933459214883 0.03557389696189517 -0.020856717139521974 -0.4986508845556421 0.1479722571474006 -0.03312114267407751 
-0.3769620454987379 0.1644431233266045 -0.32460973703290463 0.4269530910106817 -0.43969529771031257 0.2092478414659451 0.26319134755652984 0.40976869510638225 -0.4040654541634321 -0.3154536583443023 -0.3500302288985617 0.058811731937617684 -0.23891144911519224 
0.38828099502075164 -0.3011104924545168 0.09542842039742128 0.043185984071844596 0.23964084680866538 0.19839425184345094 0.39845546844523505 0.28843271112040547 0.20515862562655707 0.09806842125075488 0.2615325301145518 0.12667442016103814 -0.28023437077424873 
-0.1926344370609292 0.1914080911503181 -0.35556512465976 0.021292038076564324 -0.17347875976729366 -0.0212848944940921 0.18922647705930618 0.3256893741579999 -0.0981798189969606 0.17210588879938826 0.12669689756334201 0.3102905922917727 0.10148795760581297 
0.017300447417841647 -0.40809794469749283 -0.05628705352317975 -0.30617011437779884 0.3845162437843862 0.27697218851849725 0.30354672122727633 0.47584069169765164 0.20091127833606803 0.0796645858917282 -0.34323646117487006 0.24836062528202907 0.42908688814728424 
7.727655513357634E-4 -0.2571844594762297 0.46295492929331505 -0.3116395798363294 0.023088829899630348 -0.1043134468097986 -0.3239547480427418 0.20243179795281252 -0.16940809777874255 0.36869559123360407 0.33742303556696596 -0.12476729021123756 0.1337625216557795 
-0.015358620889414643 -0.3868731866894022 -0.05383962181396962 0.05539886257252391 0.02391639640866805 0.3967663117252165 -0.14343712486139792 -0.49896190351122527 0.08450751857684358 0.39872855872697954 -0.32874413610013875 -0.31093834255383257 -0.4996604259548669 
0.2193019596181114 -0.3579840077880745 0.04779080733292229 -0.211792771710951 -0.39039327027087534 0.2744091501850672 -0.49964544631379426 -0.4914204626503883 -0.29667917543953504 -0.4350235232457068 -0.2471605958779578 -0.12814916124185993 -0.13745741842546944 
-0.08728524100125334 -0.42279392755886136 0.3991501448421535 -0.0772672847964122 -0.4230477763823677 0.2376857026298973 -0.044388833216752244 0.04452978853604539 0.4531344923221551 0.14784406585318144 -0.4859567357945819 0.08433501523795994 0.3686997208089039 
-0.4347708205730725 0.07823309883569463 0.38091355300626106 0.06313578515773743 -0.3685059669806914 0.2976460221773698 0.12186125910701617 -0.4905231667745391 0.3481129866680063 0.43908473953004434 0.0016374889715075058 0.2589102258797875 0.14128678022882124 
-0.45409754147232273 -0.28803438251940117 0.045829016026801006 -0.4856424691685176 -0.1883437451330362 -0.08424502002471079 -0.02242069039731498 -0.08796797405423273 0.42262605094135985 -0.25270031100323875 0.2513157643989904 0.32793789736551293 0.382412811878857 
-0.44563952138008356 0.4897928548282229 0.3755137500671254 0.12186964096314823 -0.44816200149410523 0.4685829479027527 -0.4880386526816596 0.018907677307808846 0.2920978873104302 0.2191270968819129 -0.14403611952550166 0.305258296503524 0.3736079650265105 
0.23518785851324064 -0.42789869053045027 0.22106182479273084 -0.39259832644591375 -0.21531194023686562 0.10837046658751637 -0.3068077703442237 -0.06001882076909526 0.1345827770046779 -0.33205633064413853 0.25951640376789353 -0.2083728929891424 -0.16667308555479066 
0.1722765380559248 0.4388253425779427 0.1106818058241027 0.06366353661060087 -0.3700977370037589 0.25496409917477036 0.3672259496110556 0.4778733797356868 0.26372592495842595 0.16372597629658603 -0.08633133993833308 -0.14171074630866398 -0.03064079465347691 
0.2023657873434409 -0.3748760960208588 0.40779332984053507 -0.3219876505960414 -0.21587397621785587 0.49904690042963495 0.46817956277841166 -0.02031329948199101 0.1939586587065123 -0.05854422849978225 -0.011322836068575426 -0.07411207665754571 -0.49333529351867744 
-0.2038341058172466 0.122595533178121 0.2758063288686894 0.34496220525122334 -0.2161850394555973 -0.08303520361400418 -0.4241125853651836 -0.37746683179431606 -0.09094066067469686 0.17821037353593672 0.36994236114399903 0.1758880422070157 -0.43282678577081746 
0.24631383045087596 -0.4745754720521268 -0.021073702679384687 -0.46461618024892626 -0.409423414168269 0.1312250128193705 0.4553601332375904 -0.23037269000634186 -0.1479829950346634 -0.3266837280485958 0.2567077746716341 -0.05598768328896242 0.2005953250302155 
0.22680007706278493 -0.24264851450771985 -0.0318717498125024 -0.3501247689738036 0.2163919499556355 0.4331949593578892 0.29643862235728025 0.2773946184059738 -0.10789874074848071 0.23674347400382512 -0.29565005818233836 0.13593243489173246 0.042842748608757586 
0.058969378821820295 0.34714908167419367 0.009022401933176494 -0.37205880302412875 0.3771144056797655 0.340853175228362 0.06347842714765484 -0.055031560558883696 0.2276196663328306 -0.19188213068419258 -0.11763914360400218 -0.3279222954691007 -0.28533692740739625 
0.3177012218544858 0.32372621559858505 -0.37602282467378656 0.36732263037754864 -0.08741791390076736 0.1436680825662109 0.34291130778534573 -0.2078259685241769 0.4696834494198111 0.3465696466319661 -0.2905052449158656 0.23316897865956887 -0.03674720028329048 
-0.21884645405008374 -0.39702959273689653 -0.15306948440689394 0.31430292454295927 -0.412171827502545 0.26643979278295826 -0.2708598513689513 -0.09988154402273719 -0.2790065130879269 0.43984024708510316 -0.013518649190610521 0.4706846618927315 -0.0806156017192734 
-0.4880794534344237 0.4386419253434447 0.17299683729451987 0.1781923318000167 -0.08780797984359823 -0.14383180818696484 -0.3804397411122258 -0.011378846139323162 -0.2851896572536261 -0.007498291678303848 0.45399168925789324 0.3536967851623688 -0.04143170530307039 
0.05231923425091256 -0.3355142386532628 -0.13643596479840403 -0.4993428213581501 -0.3466647203875053 -0.024989487621353557 -0.08083144327185943 0.3165810552477727 -0.21498437813187288 0.004448297918194344 -0.4698642942161164 0.03458411950466167 -0.2548105048733065 
-0.4745004570095027 -0.019178140649951603 0.15017861030667434 -0.4556630646178129 0.07801858946680851 0.057928416614938416 -0.1951632191696735 -0.19263294309970436 0.39555239804453535 0.46373227977735587 0.232637518163601 -0.22600806997071987 -0.41079540442647033 
-0.49909924004768824 -0.020366047387476716 -0.39866020415534 -0.2004517039805993 0.108023106308198 -0.2170640008431063 -0.19375927775206248 0.07516359059082522 -0.15059511578724094 -0.44002242514016177 0.3496563022353959 -0.4345234552466637 -0.48166488831032894 
0.30316478475517294 -0.43798528090237554 -0.27407197173172415 -0.40004922620485495 -0.19892129045423423 -0.16424916730051442 0.12510312646267352 -0.042013342373390605 0.01463192383958356 -0.2298592632533013 -0.3836980714040078 -0.2408866182934165 -0.3749447212794468 
0.24355893606933487 0.09013594409349657 -0.17077042462505354 -0.259682346946259 -0.2904249422651112 -0.23991599730204471 0.3479891218622173 -0.0024420021101366762 -0.13415316137800215 -0.05045519485979855 0.031007800539291863 0.33133560572680365 -0.27144568707100925 
-0.3532264285800989 -0.2763919620607561 0.49098101199632227 0.06016012792982728 -0.32680758349494676 -0.3643754332720902 -0.014943317696129665 0.0445688559205476 0.17091572441185043 0.28370759686204594 -0.49308702979506935 0.08129852997163345 0.25693271240161797 
-0.42427548221346045 0.05255161091996996 -0.4209346853814656 0.11424188710861327 0.3712747739763196 -0.11951472220359483 -0.33077730128978566 0.494332677117463 0.28299714676127397 0.18300881162448335 -0.1692156769380586 -0.40923806306543464 0.44526226623035436 
-0.16072647786025118 -0.4787004330838175 -0.48982605261390166 0.47000748172768003 -0.09721653376760497 0.04163978292914827 0.11496441611563557 -0.16611467094200016 -0.4605917328442667 0.027791961377111374 -0.15910945755193062 0.4965606129008926 -0.02326577895529891 
0.1590458291323389 0.20328070675332022 -0.36309447223310887 -0.34844825776618604 -0.10050046953917269 0.09709876068201362 0.012006107823735013 0.1495037596904949 0.34859788622675003 -0.3310301875987899 -0.40669261496359266 -0.2806036407561593 -0.4335434841914829 
0.49337565794081517 -0.18511135172272175 0.11439942746390053 0.06101390806661866 0.020579619249428305 -0.019225508999583973 0.2633415314510208 0.47659299144338185 -0.21955768216297356 0.12135103256843904 -0.192469758734078 -0.09275784981528246 -0.37585883060124636 
-0.1366289201289782 -0.1479950559576667 -0.3267342944324627 0.36490817265049547 -0.3163040561057464 0.3748565335796016 -0.15435833581510916 -0.4607479198998494 0.25383552781966023 -0.3857754957963079 0.2805648726614074 -0.3482674372493715 0.4505126805914925 
0.409808348521721 0.43514182637157883 0.1892053955723203 0.006891738818853521 -0.0857926038724589 -0.22469704569923632 -0.10544013973854927 -0.29022507140371256 0.30912899486163115 0.15828712715864302 0.2753200276247335 -0.4900149107721916 0.16248216341637034 
0.17459203707598037 0.08908444171944196 -0.09368377359214886 -0.15540007379549492 0.0680734962285805 -0.4043708314436889 0.48784872646181543 -0.014689554572484553 -0.4820844296428276 -0.3053984998238145 -0.4249112069009704 0.29830328617437785 0.2624822633245676 
-0.3219172344980151 0.48730681057224556 0.2252142974753102 0.27260121385082003 0.21890036147541403 0.08161267514157122 -0.2409218229644412 -0.059381798990224666 0.3884206855664655 -0.14127924515257562 0.4952756245784038 -0.45839930074742175 -0.04834372719524749 
0.11102072612665925 0.4278271609511305 0.04435786103510653 -0.07712792767841758 0.30048482329318016 0.25986366611889666 0.2024830461599395 0.38147685886516236 0.09710627829104701 0.02932894055841484 -0.260585639922848 -0.1541618734964494 0.2829772975655399 
-0.33555287184367055 0.3565475506395136 0.08175975765076982 0.032779444612431874 -0.32178614528001137 0.23972492334506557 0.082713610320855 -0.08162664485246862 -0.4128531364897223 -0.2830375082681825 0.10051750452221497 0.35333821748041605 -0.20324194582625732 
-0.2709325911266204 0.02800406233994468 0.09272626622333657 -0.36531423659018947 -0.18516401826107975 0.13932588599355877 -0.166038989488155 -0.06784720822510903 0.3838121880546863 0.1788945215483293 -0.07327744814714443 0.0553915298555685 0.15212538986557755 
0.05655215229085131 -0.3071735555615781 -0.4290948385599985 -0.24928464063995404 -0.0455737814289513 -0.11848196872510741 -0.2080906871323155 -0.3197089129436367 0.480019257948335 0.3412668373708755 0.2980263256051837 -0.016340098230952393 -0.38956263208376773 
0.07606051270072933 0.14627969550078757 0.23360138118368867 -0.4357376518629693 0.47236178896344505 -0.10133632293278749 -0.30674927749435876 0.41042448197281767 -0.36769441396027736 -0.2199609817501058 -0.20400569152716852 0.1775338015527127 0.42937784939638435 
0.24983296756914442 0.41316992993018187 0.4624801841739533 0.11473172640410667 0.02199751827784635 -0.26959703594565054 0.05371304010744005 0.045460506238053755 0.09990699056023633 -0.06280125933077385 -0.11753588658749303 0.3805609805701219 -0.2936476280543504 
0.3494505367188997 -0.3057225464954464 0.3959851134036547 0.08351660462256238 0.030811986755068688 0.1935628747704632 0.40709151229787643 0.013791108625787807 0.45642093355271673 0.05549047757795067 0.15497267489720923 -0.4304790840378614 0.2712517734175902 
0.12239535297715032 -0.08745190757745225 0.038242178806065064 -0.2645881922707185 0.3059633309377411 0.49697663816726034 0.1897021754889524 0.019986230948666472 0.20181987264930257 -0.16314301901731731 0.05192871815875677 0.11957585278369043 0.18974642645135475 
-0.26415262282730034 0.14584243985170497 -0.21854003656422993 -0.15940093275752 -0.0012485115361194898 -0.3086182086062794 -0.48364321823551104 -0.21989303044721686 0.14178024431771397 -0.35716253000472387 0.45204207072978986 -0.2299209921779215 0.49561405992659036 
-0.4629307753745252 -0.481373914442525 -0.34085135184968185 -0.37194641922038507 0.04550471544104451 0.21307820488267126 0.028038773958417806 -0.33753827211015086 -0.19070332484865704 -0.0193730186743446 -0.19157003662162742 0.24886295926931445 -0.39325876216231603 
0.071953111114605 -0.11013342173011509 -0.3435192446120481 0.1530366524899015 -0.41236821307910665 -0.2542625438589665 -0.3003422865279163 -0.13531180898543116 0.3050692726307608 0.40721893239242524 -0.016483228820503015 -0.2656578231702661 -0.2017811881635354 
-0.3068302844087394 0.26138646779261376 0.0565575844255386 0.30664865323967894 0.4643188243383263 -0.46707311837252974 0.12100116871733446 -0.2119247237724582 -0.18831113592236493 -0.11994279243804651 0.1467782228866391 -0.4027367609502994 -0.48795058262567004 
-0.06280031874979897 -0.32991239206634304 0.27423219210663163 -0.21270445373639701 0.32301890880414796 0.3171164824403633 -0.003998991882898428 0.38999942664653187 0.32274974331940065 0.39506623339098434 0.348637740592727 0.30398358795989655 -0.39662957581765357 
0.0164286289854938 0.21017320068566459 -0.10338372609982815 -0.23170745024197925 -0.4648935728811573 -0.3000247642166086 0.1886309260697817 0.11390295131820538 -0.08229935502112318 0.34646949653961134 0.017623541600222503 0.03720631505427152 0.29926201691773335 
-0.14736803674062293 0.26298256540588494 0.161982771031577 0.38003181636281025 0.09746714347298491 -0.027141284957829415 0.40028680500556746 -0.49182712828259656 0.30172521475899317 0.1878822010311494 -0.15322012611084845 0.26321866342256717 -0.39259964717523954 
0.4916877859129639 -0.3846984620464833 0.10594498696552868 -0.3269084537384944 -0.1650913432365564 0.470249155158462 0.19259492383535393 0.27109616254496494 -0.02284758468112591 0.37974953637894626 -0.23513531178563374 0.28714585668826453 -0.029426750494846332 
-0.07672968935401692 -0.37821565702142335 -0.030016879006010577 0.4690066991268259 -0.17676713994411286 0.05560391100157258 -0.2444837972978653 0.28823453551108413 -0.26164741547549186 0.29102225543019833 0.4990788801816657 -0.43420107183786194 -0.14415371020081358 
-0.09442783715899605 0.48936080525289194 0.07288658550890159 -0.24968911839185193 -0.07129777155867922 0.18886314850583596 -0.2838446660448367 0.43899116203667443 0.31807195405634014 0.2482733943171591 0.03397693931164303 -0.44368095499715243 0.29380408658990165 
-0.024057930654751702 -0.460578496847584 0.09501998401087186 -0.42508654026445925 0.10868329532648213 0.091410722112649 0.2167472213726942 -0.0931404786594856 0.4264103936101188 0.08581814581086888 0.22211773298361936 0.3951451324837496 0.4806562174676031 
0.14989703584954073 -0.11181132483433698 0.0671115823673194 0.4658176392650627 0.1962670869555243 0.030826178675970928 -0.2274439046921175 0.05200227400840196 0.1467937129468292 0.3300832944140353 0.0035241873099305376 -0.18035549092980974 0.3720441293660366 
0.16861766130795441 0.46460689274948297 -0.21140255929727703 -0.09139282087687295 0.4763431271013936 0.2572980436768906 0.4181957968079687 -0.18558542498389374 0.34892435899673824 0.3554446903694001 0.36982449813981944 -0.39869704622099367 -0.4866131147623721 
-0.356450783576011 0.26981607559339094 -0.455591850011031 -0.4489706050785802 0.16565910582010324 -0.3119600602368855 -0.19041617477588568 0.15598923992159153 0.3898063698436872 -0.4436655642120456 -0.23711078284975173 -0.39277410003063873 0.23143514158879863 
0.2909730627873638 -0.4697087632898257 0.06235137514626665 0.2989832972724935 -0.045355754259975845 -0.1389213734792768 0.24365059733912542 0.32575921638264516 -0.10403671584533392 -0.38491328063719443 -0.4202010709001188 0.034482715098488104 0.43832482127027517 
-0.25831645788430324 -0.10880222105422177 -0.25566524221134357 0.3549422191333701 0.44756910914446424 0.2625137236626114 -0.12491235599679984 0.06321041833124108 0.3607913940278401 -0.1670798120504532 0.12886356924642262 -0.30093339804677277 -0.11001569801494393 
-0.14729470090639685 -0.4627034002108057 0.49081354651837406 -0.349315772535029 -0.4956770768772427 -0.24965109502498384 0.14190826570587456 -0.21531663383109345 -0.3333712187321829 -0.08724094171139984 0.2535083978412541 0.23372979868532184 0.012956708012689444 
0.22507714389505074 0.17010765578476705 -0.4545144946556803 -0.4231449238943118 -0.18153299307798865 0.015380710429517386 -0.4124945712285689 0.19371663316469212 -0.1140663539900324 0.10039680352100155 -0.3758980330841074 0.032199791895234364 0.10735933797562813 
0.3326506438931046 -0.42868887835259406 -0.23374712917461316 0.2817094662206837 -0.26810172845794544 -0.11322246925315127 -0.1932827954754287 -0.26300508148218615 -0.33242570689259565 0.47422817334753153 0.41089923942230744 -0.47294503647691055 -0.027393771522126742 
0.1863050247310457 0.4191651820367288 -0.35604918364854266 -0.340269173075176 -0.005120839457220083 -0.17047360708871662 0.47573671979221144 -0.4310441111301382 -0.3354298198352472 0.4143478082078198 -0.4783980285912739 -0.09139917357070071 -0.18695375686164661 
0.10772514720946647 -0.06014611194108488 0.317387528061266 -0.4292179127866591 -0.05225850509941243 -0.1510617668089408 -0.22865737702923816 -0.33669684514124554 -0.05527288631391969 0.42767018331728357 0.3868114643866888 -0.36945378677430696 0.3648112409379951 
-0.23192449185359854 -0.07032760313941222 0.07081809230499803 -0.4325320343357242 0.12271809025396796 -0.36911989331946626 0.2509358029850193 -0.2835772100040205 -0.3418831890733445 -0.2702452300901764 0.15948285404871698 0.3952003067404981 0.076830897440614 
0.018973511576171997 0.09671810955882565 0.40175756132687346 -0.49698023774832 -0.4509902802535627 0.19252514967513246 -0.22893803393635315 -0.16024030882579376 -0.435195756858176 -0.1771083153813452 0.38013603875738977 0.4011266327966124 -0.30625763717112464 
-0.24424004066913563 0.3270062050926964 -0.001969446572014255 0.3815485977231434 -0.00130906897681482 -0.3568438584046161 -0.18598669553450664 -0.41849837964331094 -0.2563637100061542 -0.20150015276042654 0.3456992088564905 -0.2575905871562132 -0.49178584601411124 
-0.11144705910787489 0.40231322611622733 0.21207438105073584 -0.44176432159210544 0.35539591177350593 -0.34034138881346454 0.27551778380427794 -0.037168485213489144 -0.41281443330854484 -0.45382719784491776 0.18102076522178734 0.18137855593120766 -0.23461337816739058 
0.30215599123136205 -0.32792096650967906 -0.08947112252158884 -0.11544199501130514 -0.10200562697784865 -0.2603424563156973 0.029994683680300338 -0.04355656502584937 0.12317581798467248 -0.4633303295649973 -0.12265598039374503 0.028279726888222778 -0.43487703478434436 
-0.3446046021094119 -0.24508578719708918 -0.20535011584713248 0.3853445766335879 0.25859155236397047 -0.4739486461517126 0.2628726624180715 -0.2298667395508437 -0.12366369256770193 0.3932351833806207 0.1438340489221378 -0.3159862223056561 0.033189327166350036 
0.4672514602343246 0.38333031992943634 0.08637279022620081 0.2540377273105575 -0.465575975754708 -0.47659377131945857 0.0851775704963389 0.412037584587329 -0.4919783570910794 0.3888359435190507 -0.4035821871229477 -0.1716508070788505 0.41030529189316634 
-0.06919117597687918 -0.04611912397055018 0.010903798035750256 0.3732837589367798 -0.07195461725754648 -0.42890202380042586 0.4282282312228828 0.06909668178950401 -0.3550160690353408 0.19577468805171272 0.25439346745089986 0.18504558527393766 0.4773411870764914 
-0.48325378470166125 -0.40755870200802635 0.04364572161096081 0.07726549763209123 -0.11552556487946042 0.2861836096770577 0.23467194905003785 0.443464247599595 -0.3116702571051283 0.06405635886023242 0.17402454479703278 -0.013898071827027958 0.4973779853893453 
0.4237509104324483 -0.16665806056070687 -0.36807101574189105 0.4161189020780687 0.3626331395136947 0.4946385653618972 -0.3779844412059713 0.23259917938217445 -0.21349927842593486 0.2758484337160373 -0.2273713529436242 -0.15645029848520997 0.18801744668265197 
0.346005757811784 -0.380794908157604 0.12967346513762223 -0.023796879112546132 0.20289606950794237 0.04403658797782195 -0.07606347258181034 -0.3403543178427342 0.12136251958140087 -0.29980246049657266 -0.033308233196202575 -0.06135746152210275 -0.10294603710196704 
-0.21258981626654694 -0.22630887203473316 -0.3547341006943402 0.30825239515145064 -0.49004445303915023 0.15651875129368975 0.38538686151828117 0.2975196843681821 -0.14759671150324782 -0.2702956727917082 -0.3170183788137808 -0.2647458168468527 0.14584663914257023 
0.11475185505068863 0.4045824096713754 -0.23114970695367898 0.2654938296661603 -0.291453577389436 0.2505246132687998 0.18400502761893545 0.19988049186590207 -0.1779227272134828 0.13968108782258049 -0.09118300659588974 0.16263229915426147 -0.28485720969362116 
0.3856629714176092 -0.2233242924106832 0.37962052563635873 -0.44632085641854 -0.3349939437131896 -0.06946042005424369 0.1775179693116926 -0.40141917642098335 -0.08834934890476664 -0.20094662394230223 0.024176079375975656 -0.0016416328228546773 0.4370616514308565 
0.40405692856091413 -0.27309131715755386 0.402704452985145 -0.22837517920768313 -0.13061126850483662 0.08168142508240561 0.24001684626750674 -0.04950539531994258 0.39248970753294044 -0.11562951297496005 -0.09084755932532373 0.22585717309294884 -0.38683653846703836 
0.3646676944302326 0.32416398249895495 0.47761218109191483 0.26795173823879437 -0.2161263305986192 0.22049695810479086 -0.08423456518076955 0.2539344428557011 0.1497344179000052 0.38210125923828875 0.020363637264964485 -0.2576339928315059 -0.2553589147318146 
0.4811383193222025 0.04859157474352738 -0.2195892619512788 0.4379263078621781 -0.4645586560613957 -0.14630853831884838 -0.10165818854550912 -0.44134482232940797 0.08361247586992482 0.2066524958264654 -0.4000800743932954 0.4422221128613353 0.053617818833212816 
0.289158476875054 0.25526919600106246 -0.36776996528175676 -0.042032876859128376 -0.4649300287605065 -0.16158036751636284 0.11854131608891239 0.4870420398430524 -0.4622431432537304 0.15578676952331483 -0.07694545035265377 -0.20813675969860934 0.311885678185299 
-0.30278911265243147 -0.19332463627123797 -0.25143687933110603 -0.19919410908304913 0.007779586577116526 -0.1358869491992667 0.2790576528367389 0.15446781310341517 -0.473490679617526 0.2975493377248106 0.36588732588699113 -0.03215597954041871 0.16706274330530024 
-0.2841103914895411 -0.25607656760897946 0.3661154477481121 -0.47396952237661616 -0.10677954681865542 0.37761336920837285 -0.4495780305536029 0.49590748574016386 0.03826234880205526 -0.2603360311772438 0.1767668489555897 0.23274567054784812 0.27601958551782024 
-0.40446044945685966 -0.26929706377019913 -0.11743412673162212 0.22349386914627145 0.4678772683782807 -0.11828189214792206 0.2059643830407467 0.25324228954511996 0.20589910137009826 -0.3462238600860481 0.2569499541827234 0.281724153232645 0.11712651406981722 
0.13225827896812292 -0.43010042550087313 -0.3062048345921382 -0.06781991816498611 0.3425900957088107 -0.11237769195994651 0.3203721172436337 0.46817330059939166 -0.11787285595733643 0.3238722811736844 0.22320416021955425 0.23218599791215722 -0.13558839084698193 
-0.004746363921580343 0.40885220695539704 0.3635296469706616 -0.2562978190382108 -0.41968859997184194 0.4933908913032031 0.2519932659855805 -0.37228293593743733 -0.032295946752921134 -0.2299878889112681 -0.11101489772772422 -0.24217936345105484 0.140705377588218 
0.09362340850080808 -0.4905378970332793 -0.06157804306128545 -0.2881159612261923 0.4896978686752189 0.3647653234463192 -0.16885679830490985 0.06966169551169754 0.41904723559519474 -0.47004332126785897 0.1943551409334695 -0.07244853214476166 0.18585272643472783 
0.49397804564469006 0.3449652695019588 0.17723040596517192 0.06320357769420037 -0.09306879414445601 0.3468839481728191 0.33820095706612485 0.3285560015775961 0.26600309965844526 -0.31061753880855114 -0.4303516836561091 -0.449059592039214 -0.48996226363735507 
-0.49140363703655254 0.16420171510525772 0.15240803035614825 0.4624823895723794 -0.2732838454148747 -0.3213403780653483 0.47812279154787196 -0.18658750305476868 -0.16405329474418617 0.3733401538256761 0.352667584438739 -0.1364337011346417 0.4381057073574428 
0.42956957860803724 0.37454897223475525 -0.43320357939571064 0.06577078082238397 0.4939236076290876 0.006547962090858395 -0.4979273458244883 0.2571733110323552 0.4581872600087692 -0.14352180035570572 0.28214653479516727 0.3345770543815173 0.025601259709952973 
0.4110781734893849 -0.4367854415113873 -0.15533216734921607 -0.4631862098350785 -0.1148234829360848 0.25839431853007455 0.15951988408216022 -0.26694132461678954 -0.22106496772624695 -0.22244672487718942 0.30799407926751743 -0.3805678518611906 0.19788698693852547 
0.11700729363011597 -0.29003885738814805 0.35774203353051504 -0.016347032459106736 0.4048324966197898 0.11953340262075707 0.1662549728932028 0.22763049210200248 0.07100995513157526 -0.2514735652934501 -0.46723152124928913 -0.2043826539640312 0.15635027677306745 
0.23766204187997653 -0.34221346794909624 0.07824326944037696 0.4001206711171006 -0.1294377413234794 -0.06382124769536379 0.30024784307428476 -0.34647533066914127 0.18437368060885795 0.45855494744521064 0.37105753012021625 -0.1453397379042658 -0.07909970062493854 
-0.032311795934986565 0.43977788291439335 0.27030956767106096 0.08341198254962046 0.4406712956247246 0.029631539142165098 -0.039110893730727514 -0.2831650158425365 0.48409291725623116 -0.12996327562932708 0.45711687094217146 -0.08718018666649918 0.027371489945506533 
0.3189349048561191 0.45042839885251706 0.4562208394342674 0.37848642979657876 -0.42636000368143234 -0.10609881960495238 0.47581118839518577 -0.4333026983562811 -0.29460378139220766 0.286422463938964 0.4395955483982241 0.03844417890851404 -0.07900465916284782 
0.07006348667544937 -0.15612781519062136 0.19547291080949913 0.35421817675496303 0.009097784332395387 -0.014764685415761147 -0.03166882483873379 0.12052919961020658 0.13882983573543684 0.27599708829529634 -0.3962670502255715 0.3303675114876734 0.37337528275747245 
-0.3339515756088719 0.11088959302709767 0.24954102135085499 0.1437613372760157 -0.13203386023284902 0.35975869060366295 -0.18035484673668745 -0.4988076829180834 0.2472136355762108 -0.3467376719920876 0.3070911717401136 -0.03494811664128794 0.4355709366095748 
-0.29412184705942557 -0.06375657770036536 0.021190051245448593 -0.04653078220366169 0.35260894664321296 -0.019671154003856772 -0.4167304239799795 0.38569389030894474 -0.01481331296257693 -0.06680385867677974 -0.08157697039347855 -0.055040630936069035 -0.3335299577968095 
0.06566603459655262 -0.4918016567148824 -0.4208520926217246 0.10934438191461437 -0.117871853358535 0.06674695167814415 0.13054375223523973 0.22303650433433664 -0.2637959267614526 0.4704358988769757 0.43918267285489354 -0.27239382452077454 0.13871035050592706 
-0.3334591881378416 -0.30252308734769473 0.41647969310961996 0.09681884991101275 -0.2765957655553748 -0.1904365425605946 0.007241158106387813 0.16022661576827923 0.060419810935198326 -0.013636582086621996 0.1624990033988738 -0.281689194717449 -0.44657092472181525 
0.31612922243593977 0.18549743080195003 0.4916586628519214 -0.35040465454327274 -0.4097048990863379 0.09924289196782488 0.09202641767775399 -0.15445575753475493 0.23573575729766205 0.3032684804587832 -0.013304648003112707 -0.11646191302839115 -0.19292316427298362 
-0.2312402436361375 0.1963568096568319 -0.19732240167461224 0.12649039296954812 -0.21938246981729836 -0.4199275062541238 -0.4543994310636832 -0.17655319721262264 -0.43586522475012124 -0.38347972077041603 0.16587443612103725 -0.27681544517636925 -0.2556840461397677 
0.17764952317846028 -0.19274450559308398 0.2601976952922811 0.4774691066948624 -0.09096531670852093 -0.46678526988889435 -0.14816986041483482 0.26755227999942965 0.4806291089049146 -0.226393899538468 -0.04289499044823597 -0.06614240866452192 0.15228596222277035 
-0.3749194832724366 0.3672062557164093 -0.06803228244622239 -0.18967370690295937 0.49282453162512196 0.12656880414979488 0.24652118555396096 -0.12540073777036742 -0.4065703335207994 0.36732257242678323 0.37217454249586 0.24989295789594623 -0.3478250021464808 
0.2548750035862899 0.4782505472580405 -0.1987814654136858 -0.2772679285064451 0.1887051685755945 -0.2870861186521301 -0.3305956290636508 0.4332773787719202 0.3799825493104788 -0.2556832315597769 0.11160128442413109 0.12022500749016829 -0.06358841887849143 
0.05900864183977195 0.4507134935686541 0.2492678932625939 -0.3752571164043922 0.2420057888608591 0.14843437057803488 0.243143181006088 -0.4473189438563395 0.44826822375973585 -0.02152009862407922 0.3365131293963346 0.11445748056987592 -0.4580675075170968 
-0.2302227465348996 0.3605805112394198 -0.3218737076933459 -0.07249881514925138 0.2137790527210366 0.4235332118868276 -0.34231968036447213 -0.07370916526172289 -0.2142608934042728 0.2976392541893924 -0.1906270445341729 -0.338208049074359 -0.08330149094794825 
-0.050208875231230854 -0.1808289173537767 -0.19080367737128734 0.1710955851948709 0.05952307887448893 -0.4929468425725193 0.23719806542940114 0.3343270885701488 -0.4429963538960544 0.26390548578686635 -0.4757230054246947 -0.00474798228861284 0.18323020249600463 
-0.34194077028548464 -0.432976073940021 0.42054357933994846 -0.17436931855189008 -0.49895095838392234 0.014669184766754273 0.26095897015499736 -0.0854970813428989 0.04596400770391473 0.06182764523748674 -0.09598937163182741 0.47919907128105443 0.4068003418405265 
0.21057433067922848 0.0931864498500582 -0.4423103372423768 -0.26648614087102995 -0.026683040318744244 -0.2292190829818942 -0.4708830039689559 0.1550104319527873 0.1295330116602853 -0.030436906573585443 -0.4038239991711883 0.011100590356301732 0.07229041610272435 
-0.02207903638560449 0.082635493480262 0.4344840777292951 -0.015427366288023325 -0.06621341671522019 0.431040663576435 -0.08488105128169177 0.07078051078225556 0.4645595667480804 -0.2133868101693075 0.08186950217064493 -0.1646152229977872 -0.016588578709918034 
-0.16440711476339698 -0.4298848385928964 0.4485545108489589 -0.22323338988399688 0.12974036433632008 -0.49095713773261307 -0.43231126700177147 0.0734205050958967 0.47344748938775505 -0.1413663759086533 -0.40587047672709164 -0.12733118227860174 0.07587888836532597 
-0.4461065891257888 0.23593707638786854 0.42698647939121526 0.07779363114579274 0.17266741073001968 0.4204579342696009 -0.07579148445405914 -0.24882593805938835 -0.3665840963516821 0.05452008925518059 0.09482946393485792 0.1395137645457215 0.25061899503824336 
-0.13456044584195126 0.18195166814508057 0.157594717258978 0.3280163825993829 -0.42737527378616114 -0.04542289168295899 0.2018089606036111 0.3536776671924695 -0.06258332767126251 0.21935153684958886 0.13555773889715994 -0.22406245397037672 -0.18209533770659525 
-0.4084666407534291 0.1089867499814634 0.28551947743659567 0.21580817109832717 0.1228742205745651 0.04829334785330275 -0.4932899177194655 0.44411774558130035 -0.24773781912418547 -0.1929321830855235 0.009236331737371484 -0.032960761616543044 0.44439209064270135 
-0.08939266361501719 -0.4074640986066772 0.16788685252311453 0.312392502203213 -0.45613205070870866 -0.13459966807903556 0.28592255229904606 -0.017748284100821188 -0.06530345136170423 0.24651015618966354 0.02974054984050667 -0.049949509495543776 -0.43378894254335143 
-0.3548304690463623 -0.0773525298371267 -0.29257782223371354 -0.28432615381682147 0.24658744298742608 0.26458989624545315 -0.03367432929875769 -0.33806995339334855 0.022341516173371434 -0.2944666293166913 0.401130438570361 -0.4705413030127059 -0.18580077007981122 
-0.18320262187183112 -0.05582310723880446 0.14431139259896786 0.09826102838828732 -0.28029656405718084 -0.17961046387073265 0.4656898579116472 -0.17357186595681628 -0.21500554604151856 0.1871844062675434 0.12663988567319895 0.06348766457025445 -0.3481650301999396 
0.45782618597663294 0.36831628180967657 0.49064587912765656 0.33180394744714803 0.12955464774915515 0.18449965267406943 0.23013040105076032 -0.03885721480766691 0.21221407830111683 -0.1934776159631344 -0.13947943722313794 -0.15637666047619903 0.1587834113136768 
-0.2465121149802353 -0.06124557384611906 -0.21324835479749138 -0.46388125682823167 -0.45135596957938307 -0.17769992778373944 0.37562545994833085 -0.4576158502646068 -0.1400027436518011 0.09376750346117158 -0.24838582138650633 -0.12293930418914778 0.2617317465758796 
0.4302774487544916 -0.332867363937026 0.4000874267178435 0.03272361354573117 0.33119101936718554 0.07313038147420803 0.478602742935775 0.40941684751460394 -0.2796552652061167 0.2625207175455285 -0.08708224660724195 0.49255487293705147 0.0727230925826361 
-0.3593749267539189 -0.14223193492605923 -0.42926288590561956 0.38054139395971787 -0.47719094297729436 0.21055422465611362 -0.03150240641795676 -0.030001003898545875 -0.030160424483765436 -0.4748051856888589 -0.34742165144630943 -0.09249634803750195 -0.43690732086047446 
-0.3716190574662829 -0.26270256487017407 0.4929558148033427 0.19459370617487404 -0.23556595645701672 -0.28161224232370974 0.12772091581765777 0.40097336614427714 0.27563384334279006 -0.2655904823096302 -0.3337926880856008 -0.49422562060520137 -0.4632031815513309 
0.4058155181838957 0.21250558178406131 -0.14885499403413882 0.10604972957744896 -0.16602460963721544 0.20733524949456894 -0.3021926263028699 -0.1718430815253028 0.15594101679207695 -0.4344174240897525 -0.04870961467155055 -0.06757585436370517 -0.3545375752850013 
-0.4289964093400793 -0.2672321046605044 0.004115432533217556 -0.2732604243638559 0.21220457247131497 -0.04555493554707579 0.07648421869497513 0.42462213868825516 -0.3471984767652988 0.4822869090927009 -0.010066724277000949 -0.28655370293703664 -0.4313004603407917 
0.17298489749184331 -0.4045174400504551 -0.05357651671202257 0.15672181449754752 0.05740885619154501 0.3416380892399331 0.04847311416697031 -0.27864340493779405 0.20939318542467977 0.27691866790845754 0.4376177092931396 -0.11981921310589894 0.38655747075549307 
-0.47528817454348493 -0.2964647138144543 -0.4064436639913699 0.35896403301066304 -0.15720589967763365 -0.08340935481997946 0.42048588048801805 -0.048234454567141594 -0.03323506355515593 0.06664359649537377 -0.36994760527962156 0.21959794868003568 0.05480746154879368 
-0.4618411529697187 0.05665729318829893 -0.15667456047940465 -0.2993962564059365 -0.28338142571866287 -0.12269023504688725 -0.2061541657220417 -0.338104341794634 -0.20903410879649864 -0.18949011940823424 -0.4569841251604506 -0.3359028177317337 -0.43221706943565885 
-0.4111933126783952 -0.3816419780599345 0.38152758166737866 -0.3548649306215621 -0.05909848409403118 0.09606184987017008 -0.026751000033113148 -0.3925116119014086 -0.26579383102170306 -0.2941059345703494 0.3561564690977135 -0.002165489126016884 0.37505424825354305 
-0.4180162535802444 -0.26511821180188244 -0.3008666136026408 0.04130333624771032 0.3350500400730305 -0.22376275687409486 0.014411312229048678 -0.16914550292380048 0.044491721718754484 0.21533914259421105 0.1733276253309235 0.4496549268527582 -0.027140755112418202 
-0.38878504479549225 0.21275070640293425 -0.3659616249297891 0.2905817656909987 0.4316121452146904 0.17985984659933574 0.10479717248966103 -0.1345772444348029 -0.360109195877088 0.3885165312004438 0.4841686679442222 0.21898986647268082 0.4812962325983281 
0.02312516670098408 0.2719582368264867 0.08172599757713284 0.22157168334341049 -0.2710705609347618 -0.3266905632286269 -0.41183995447323896 0.177785232105786 -0.046331944774198 -0.2018282795476617 0.04579755709499933 0.4994098254972099 -0.28726127213392316 
-0.4886953107298222 0.383882981099098 -0.19289195848209062 0.13849733914931794 0.001697017872598905 -0.15763338493929624 -0.02266139053610383 -0.35595545970675646 -0.0384326683446915 0.19676131663911645 0.07281498030072397 -0.21717059108721792 0.11765334355106016 
-0.1688249045597766 -0.3379894008168496 -0.08237385987354517 -0.25871541337759363 0.2696577396319537 -0.4546805262333511 -0.3740841643977887 -0.3212268251585567 0.35510086083995784 0.21114467683434768 0.3634330055409638 0.3899461114598102 0.1252823670491564 
0.18210176326684335 0.2836118208807482 0.4601816382364948 -0.42275176721494734 -0.2203123086676776 0.26789469358231877 0.060101232819322115 -0.06592455909152084 -0.2648196293005727 0.16034159212962773 -0.13289191403393452 -0.26783797172258994 -0.49480241836751904 
-0.08029429811357103 0.03425142038019424 0.03254166898418176 0.11225828613997657 -0.0968831112193359 -0.10556403531073988 0.3263212930752325 -0.17614616462219823 -0.2222581892333818 0.22178406576116605 0.2521926239403117 0.007949361009870648 -0.3797348336143843 
0.036997364873100014 0.07306927348910286 0.0585016537850338 -0.3912359502120687 0.13985436691757092 -0.030746844051245392 0.37149170422554245 0.33752325462340405 -0.22048156544082886 -0.4028645877443241 -0.029863906915431282 0.19256630256379959 0.13212088518944254 
0.03528822461396053 -0.47264589236340926 0.4141532224504174 -0.45487814015381656 0.19390615615314244 0.21423230754213674 0.4422232526888715 -0.17075844711410326 -0.0010935147542602275 0.015141828809226543 -0.10826367184409491 0.23129288636256096 0.17860027896315633 
-0.10667167916100528 0.037094587685568614 0.10503612325481337 0.2786967000259083 0.4652077947159172 -0.0016986022542399004 -0.28778522141681917 -0.38949452980951726 -0.3527335566118244 -0.08375836511304835 0.03222135643535584 0.1975533165607567 0.07637581515802172 
0.28044414271604956 -0.06361968207574842 0.42743204960724823 -0.02750033449408118 0.22991320295022244 -0.408374761283842 0.038547560036605866 -0.4878182422764299 0.08609320184604108 0.49838531842683664 0.27554031216389363 -0.2881307889289211 -0.4032438452770616 
-0.5552799051739034 -1.0308822695459463 0.7790685749192825 -0.4836678346771964 -0.723378947303998 0.5406165482997518 0.5912935108637385 -0.2355924626896736 
1.4462984980682443 1.992649623674696 -1.523553650908909 1.659851413587967 1.835055915947111 -1.9889642106038943 -1.2239894484075233 0.021124279353512465 
2.1620948295342335 2.2740036539150577 -2.532362952235938 2.6164772800902134 2.4510216169367802 -2.6234332182049394 -2.278360498413091 -0.04389329232765049 
5.261486024715611 5.353859589003034 -5.115995454413318 5.1340648262403645 5.252192928759949 -5.077244842834634 -5.516048059458493 0.41617215405297847 
2.2811461682254377 2.5894845760186116 -2.4100818773863035 2.29415974909627 2.33310445807517 -2.60192980330307 -2.2890835571874244 -0.24356507331445287 
0.2535289581088567 -0.2529559464346948 -0.2347004201932842 0.05695431774545898 -0.2532995742536522 0.2187171105746477 -0.1114135201551342 -0.2673511351218404 
-5.108388385805142 -4.660486967069437 5.093182560684457 -5.110582187809543 -4.914782892618673 5.0568627830900095 4.882961408720748 -0.3671311813922954 
-0.38905106153342245 -0.2040685735848522 0.5363136791942703 -0.6022167556644099 -0.19583626718555572 0.5269767175170162 0.34396413667974524 0.49608705546679754 
-0.7203187380830849 -0.8577833257892742 0.7144062660277949 -0.5727123148023553 -0.6706119380660783 0.48422417269162416 0.6388341927085291 -0.48449875795870934 
-0.055672749154304486 0.09580345154331596 0.018721227608970558 -0.3396257915283351 -0.189074715181217 0.41811659467563483 0.2229237499765571 -0.025930213789251533 
0.7883517361214661 0.5194524511207536 -0.830219080138761 0.4600617999199809 0.5378678815872371 -0.3235050645886901 -0.798249352217061 0.310011224659245 
0.4464800859654461 0.20671943354876396 -0.29990194958420074 0.324417869808287 0.4015023821707695 -0.3947661696270113 -0.41651779054449223 0.15990362835339533 
-1.6914528439865815 1.691203123140965 -1.6281832357475845 -1.3999327511177597 1.3783690309369778 0.1771510962767211 
-1.1947594474378693 1.7113006477572252 -1.6947215404154385 -1.2642982378721515 1.8299786462390295 0.25239220985333377 
3.009172890086065 -2.8517424450701547 2.52073459028663 2.27692193110419 -2.371098650663397 0.17610200483722882 
-2.0074798420340456 1.66874227292809 -1.7398624727318062 -1.8026976209040702 1.9999389436671131 0.17797452707674055 
-1.885297997006542 1.5135093028083897 -1.7196108423383896 -2.2906125492205796 1.3555638233164393 0.49681530028945986 
2.4221204766578794 -2.743594801757665 2.9261186271065616 2.668574227955401 -2.756649930892655 0.0989399153341044 
1.9073625809696186 -1.936307435130683 1.8874606448917808 2.4215708815511445 -2.4305494472362414 -0.0587472382245825 
1.2700373405713101 -0.38365469595139134 
1.8274122070300205 -0.015871335958233534 
1.5412740853253988 0.29993994601903573 
0.9694950241600212 0.18999557481049778 
2.120109510080417 0.24290742862660075 

