-0.14555193794987398 0.4564458951656706 0.14764813793418197 0.36830692855872227 0.05935735331262926 -0.40985032233493424 -6.403677360690141E-4 -0.272199360584661 -0.3612279943434672 -0.2201704170329707 -0.07190274253692985 
-0.30912712294957134 0.25657160411348245 0.05044018716244947 -0.33150462683921045 -0.2548099214307996 -0.081977832368066 -0.30363606931902665 -0.18558250391380005 -0.20738268769483692 0.14543463313901905 0.09879827724478374 
0.3431680121892525 -0.13916808809130476 -0.38386487014723636 -0.3960575991521259 0.17063445719433612 0.24477064469348264 0.3064785349429029 0.006935885676760956 0.03548630566554667 -0.4157116690938635 -0.36026101005635125 
0.3671660041564606 0.48028354155555786 0.20569541493054144 -0.12893836882080179 -0.4075262894630187 -0.051676095202256356 -0.09261950794646168 -0.04073755763950604 0.47295345897917584 0.04728507585307573 0.2535135398835918 
0.4731136862234725 -0.38054505660903337 -0.1558060603126088 0.3548638500154392 -0.34114511737824227 0.06755994422387135 -0.3490176914473374 0.06205644290827372 -0.34398002693561525 0.1447207211588617 0.13586432246310176 
0.47412945458839884 -0.009726292320815566 -0.43358913517207776 -0.24700192178145253 -0.32595597669018606 -0.1051990470844617 -0.3734463491886737 0.4213698820013976 -0.3571626160072332 -0.2841047426345502 -0.22184336428637075 
0.10356661877300122 0.3753990043958322 -0.3562565583470073 -0.1380043693580345 0.4360779530548773 0.32338843114297544 0.27600550285475645 -0.26564485059985044 -0.15500317909147543 0.4246027562779062 0.06963992967066346 
0.06924632970038225 -0.3555367583296376 0.14314062520389192 -0.434473214487192 -0.33381220847020987 0.4599228851566446 0.14099881251362967 0.3807917866979752 -0.31845163713031677 -0.05575146243697726 0.42927641450683507 
0.3553367940285841 -0.18038460616757546 0.16199906580184087 0.10595054182476116 -0.08806691477277862 -0.3310343799699287 0.2055672815936539 0.07722717508917942 -0.35666392424623616 0.05038042837012224 -0.42330576002106735 
0.48075884380591105 0.37523093055718804 0.4544608240452578 -0.38219549313895596 -0.11843909181594425 0.4704205011102198 0.3902616314200742 -0.1901568572965241 -0.3047534540737963 -0.06248115516401831 -0.2593212165360914 
0.06677210940253575 -0.2917602165265102 -0.013485566900955814 0.025987263980356445 0.25160987551363545 0.01091551229939125 0.033919234670647946 -0.18615862258004545 0.014874929761819478 0.13715333927742301 -0.19817848003956828 
0.38221345802693774 -0.28647952268098464 -0.2874173427628829 0.07801124381736257 0.14116056726062665 -0.39307622721958313 0.4538339145355722 -0.0915511295315391 0.24997353513150466 -0.2537794250831553 -0.06759865655261554 
0.47870026638894103 0.3281758374644945 -0.025748369194946052 0.11926054843766531 -0.29243907358693133 0.15200497753651132 0.2356142833728132 0.36017417162841325 -0.37605446614784266 -0.24757794509543463 -0.04021051646345808 
0.09665731906198072 -0.0727804557380991 0.386359960648767 -0.37495927609575774 0.34386367857284195 -0.2584984479372816 0.4398343799867208 -0.26324235086027803 -0.3358072780438214 0.46606629508053043 0.4397059109811321 
0.36114450082623906 0.13420677916910562 -0.20316969920071715 2.959132447428736E-4 0.04362923120344586 -0.4075138431221019 0.4480032190322417 -0.2882778748364927 0.41109619972471456 0.2773397748887507 -0.1616602142201411 
-0.31126499850514944 0.008021807533502456 -0.18417243516443627 0.023028527823612643 -0.25800098908976865 -0.05118089314411689 0.40933963748664737 0.4501056842586143 -0.0918221799242267 -0.21782650441447127 -0.023982814832871235 
-0.30061684385903376 0.38084584400404364 -0.44212113986336654 -0.0434118553663001 0.22223214357300958 -0.27883698628374975 0.4626597565876531 0.4677305583757835 0.24216473740030997 -0.40458636056337216 -0.45130849098092507 
0.4958649114851448 0.3990078553411013 0.18592419882049838 0.017007274325586574 -0.13568374144958095 0.4235650762191874 -0.14746097668468616 0.23770710339557843 -0.22192406784306262 0.11501394896666284 -0.4162530616498169 
0.1898609800672636 -0.14706842205257853 0.1598874023604171 0.26971577073117947 0.28622426647587484 -0.330476689965131 -0.120660254804417 -0.14609383654321217 -0.3886395521589575 0.057923058965719476 -0.17950040968514502 
-0.02440030496754897 0.44649268551801724 -0.48537706755005305 0.2180625930062252 -0.19740947361695171 -0.41961769476072863 0.38135781879797936 -0.2561201695611727 0.3714540081838634 0.3127591169157975 -0.3260238662768731 
-0.3648518341466658 -0.09778027415742929 0.2453042506618779 -0.2603879521001917 0.2459106750430513 0.23494021925768804 -0.075086153024992 0.2417014986159044 0.30192750760339815 -0.25243885216472994 0.15494756804095156 
0.3249228883301809 -0.3444220770030494 -0.14233789948097908 0.32239313782591206 0.19593336427991348 0.13530688380608724 0.4850522132850349 0.40235403543477843 -0.22919018766537047 0.16323055681782273 -0.34213214479373266 
0.3959946370572148 0.48639288216939713 0.17486675099141868 -0.2182656790281614 -0.16594654456937585 -0.14972788299365392 -0.4834420053569092 -0.04028248271948731 -0.3647387269316793 -0.18706182434204355 0.4190063094192026 
0.15020506771734732 0.047478337044077557 -0.41433165007707007 -0.15055927050593276 -0.11947854514780354 -0.38090945233005635 0.09899977519840719 -0.4697105025149988 -0.30400540295665957 0.1491816664816069 -0.10081578546129333 
0.17883101311023009 -0.4826437002463775 0.3472249937990126 -0.08619251321245813 0.07014909437483208 -0.39622732369439173 0.4965141995965915 0.18279506080299457 0.3548192767828312 -0.12553540035118516 -0.2397196999039909 
0.34731512144378474 0.1731048860303973 -0.07120746021284274 -0.10458258542884091 0.41662918940927607 0.4990430731267076 0.22284432888473982 0.04596730979493424 0.09172902539270011 -0.17934777425905968 -0.4900223120285454 
-0.023011390191844394 -0.28536150017125184 0.21659441748362784 -0.1665652592600837 -0.42083602900905503 -0.2664528409566914 0.12497727969963934 0.07105819456960416 -0.2745260199082289 0.4264822858501135 0.116582007422243 
0.27530455571340506 -0.40650605507523974 -0.48998562612247265 0.28265525158773763 -0.17383759395161968 0.3803463720679884 0.17453076093314912 0.4265044001936482 -0.2797511730508332 -0.06793260944466784 0.03390071729207478 
0.1084875561493539 0.15627057778243125 0.18512363405976462 0.4548945268798503 -0.26440954475572864 -0.05479918728509281 0.4750409375336839 -0.2594915184296167 0.3096347350090697 0.17293647313861082 -0.2944159398975671 
-0.3186140502675059 0.15226345692122212 -0.026135004135277584 0.09165261171857186 0.060814745067471976 -0.08979928038320739 0.23568347706632953 -0.3099651195328581 -0.19868076990287253 0.4108848593933673 -0.45102244214707843 
0.21438815165216873 -0.4253447217524843 0.4864251377144413 -0.26051908477424257 -0.30570958968347406 -0.13794517367198023 -0.28706578951570094 -0.12339939630946861 0.38293487501719314 -0.3521438322237078 0.1226398270024962 
-0.26129235568216935 -0.05598424339363939 0.15719490601287622 0.3377811293852355 0.33385615483921716 0.35557943663613845 0.3072196497064311 0.24814566380509673 0.22400826937176854 0.1570927172291392 -0.16866412092487792 
0.30820617061550126 0.08150654171025307 -0.3642943257130731 0.3572698865594598 -0.23483388371911496 0.11844904620347052 0.2986636011499687 0.07228432285460651 -0.35417388607749745 -0.22721288409427476 -0.48895124276422797 
-0.007334440677823517 0.1280336225277009 0.30937907066966086 0.4915097450917545 0.2696425238463891 0.0015805944452303988 -0.2001023170983951 -0.04663796507274687 0.4101850613154132 0.28376529998587185 0.28240343295154 
-0.4455792092038018 -0.2313300758927842 -0.30356427540808606 -0.2304411192163217 -0.02384735572980956 0.1741905763568511 -0.36581615938095535 0.17387449728635396 -0.10878932859686774 0.09832662995412278 0.4574615399994738 
0.14903970457029414 0.29814223570642173 0.3394777147950393 0.42974031434414084 0.30830723287200235 -0.2969628765166462 -0.1975945874741949 0.38443900298178135 0.2740626177997548 0.41010901806210176 -0.41458362856190567 
0.25519454892486604 -0.46287455073290995 -0.2533195875028361 0.2526582162701585 -0.06784682023246313 0.1599921007390206 0.3927675047203667 -0.1347104986940305 -0.48268990062700134 -0.05485544346226012 0.11143803605970859 
0.07282362728037173 -0.05647139939374246 -0.19228657293115614 0.08334200465279118 0.3247358125058999 0.09471924410389099 -0.2588023635816544 -0.2627088401594476 0.052461429301689066 0.01876332218563581 -0.0543925933567071 
0.4384902482990618 0.49320275178494655 -0.4398851802752697 0.3993106161009353 -0.35300059108244897 -0.3204994124274918 -0.24438249972691406 0.39902768501310526 0.19123334829448702 0.002316013027243935 -0.3650750200974935 
0.36683311485348935 0.11478011958974133 -0.3295931893263231 -0.3539866876002944 -0.4713132827095572 0.14954832857257538 0.3350717728865198 -0.21337289840563445 -0.0940688202350245 0.24422830939086648 0.12687597839559028 
-0.335898088160403 0.4293567015706812 -0.26572034718970083 0.35975790617323444 0.1288569613401983 -0.1151520779761005 -0.32186640303187675 0.19795978696262573 -0.1690459633640593 -0.16970841796177305 -0.39597434953285116 
-0.3474895477578668 0.03446978487975627 -0.41466143939921984 0.4128503370183312 0.37652965375535963 0.29103042431334114 -0.11122333225768333 0.46465635334198363 -0.13758828834057057 0.12170913633194769 -0.15731394389530162 
-0.060122730998664276 -0.1910146255688665 -0.3144117835564162 0.31821183560875776 0.4111190506807143 -0.3769640759795536 -0.4763602042868069 0.08470352130936365 0.18730286286645836 0.24711455223167222 -0.1418203994381293 
-0.45786532259094803 0.3991874871629574 -0.23565095224203436 -0.3989986713600294 0.08612973267988078 -0.01622733203761406 -0.4789908193803877 0.17739905986518723 -0.184410045866367 -0.30518865292317643 -0.1711312507256949 
-0.49136186808601956 -0.49517618236305116 0.01763482601457167 -0.3380542507900681 0.012035455838127818 -0.4947487369947583 0.3987220011640439 0.14599099557750128 0.27566244276822327 -0.4838342377353575 -0.48607992330771976 
0.054134680443433614 0.1437849789617044 -0.030298369243541123 0.3939507645638243 -0.031610813608732524 0.30950646055086994 0.11206852362586439 0.10181252840805988 0.24424593635485037 0.1526815726300771 -0.2687210988454828 
0.3139162011311768 0.42439257009638975 0.4840199717676703 -0.11899169056476966 -0.40473258888693553 0.28761661033330566 0.06040072386969897 -0.11910758566942703 0.37873638728199355 0.29024967830755566 0.22176954530339033 
0.33547908492496104 -0.3405681174346692 -0.23995311125771956 -0.23340684106941134 -0.09278296783892404 0.19742251417841505 -0.16381658831543022 0.2306957110947696 0.10327780259831454 -0.4144743959766629 -0.18590922900847262 
0.06340462791686752 0.3916708805985467 -0.11638983391014435 0.250143727848787 -0.19471574386928758 -0.4509737119537376 -0.3531632380388259 -0.09125255135965715 0.2633376534245997 0.2605831090685595 0.08248439297291743 
0.39316458635546137 -0.14759213521231185 -0.3576637746321172 -0.24150983019873162 0.09146003759844246 -0.2743877456314807 -0.46404226764356293 -0.2434451072461885 -0.10976914427632045 0.05199460245450671 0.13902358515210367 
0.41364367015337344 -0.038672458347889904 -0.1838188153104422 -0.22375998843735456 -0.1720624221812881 -0.1894380507667136 -0.18732086582168483 0.39177842447120703 0.11876886805873954 -0.307563474684972 0.08655619893585198 
-0.3515085679001829 0.02479864002998411 0.44121803605150456 -0.06740681526343706 0.35669672221869697 -0.1993273235015004 -0.2537813948005444 -0.29339827367524385 0.3233797129586463 -0.4703824249617703 -0.09206456206353908 
0.1254513926371027 -0.3879200219237362 -0.09208418357611037 0.15174011124729614 0.4364520554966058 -0.36561004263034813 0.27692525785634525 -0.3529029046667751 -0.1779111963191472 0.4559095290150894 0.17928455140166444 
0.48283013877542647 -0.32729181940024377 0.1926631928235336 -0.0018266707001377558 -0.017255249637523007 -0.09239368694861849 0.39840105084590727 0.30197180658291134 -0.08904679888620204 0.3540708356007386 -0.10113123924559309 
0.3613913056347331 0.3125386187587006 0.3042802643129364 -0.3839539428379698 -0.06787584674570557 -0.037267318561056806 -0.23843421449732882 -0.45648350162516105 -0.19671272384394545 -0.343428660180952 -0.43960758257627 
0.183546570994916 -0.19958928817761423 -0.13896835624131754 0.49851752138615546 0.43711512081290305 -0.09855092957452471 -0.4270580459319676 -0.1448633791941245 0.15004883530274749 -0.12472985098368583 -0.42150325283475 
0.1854279122435355 0.2615832005255939 0.3843014544169717 -0.30600347366415814 0.07975834742472088 -0.22391717379253417 -0.19350758924474953 -0.017527975521690498 -0.3450841810402808 -0.4156814215558856 0.1264760361330639 
0.38714148433039397 -0.09491653282812262 0.4976134872547958 0.12179088217822431 -0.29981164864853493 -0.318126082063367 -0.2736669863926927 -0.2727499118583314 0.2941359551247995 -0.004407666451697212 0.4336100090284487 
-0.1009782570573382 -0.41686484910309907 -0.4660007312942658 -0.07414223582228674 -0.48028966570369325 -0.24723071860093704 -0.21980439090419857 -0.49646044331922035 -0.11329351503938079 -0.10047950482211898 -0.12214661126208903 
-0.011173264766825453 0.10829821356367164 0.35483024572684785 0.43986794482620406 0.47119131522566704 0.29551380188555754 -0.36627424625702754 -0.174391414137967 -0.13235662948379745 -0.21760733922930808 0.14427376006304093 
0.02229591574484735 0.4812375904320201 -0.26664260878665924 -0.4783388482826014 0.15763649776599764 -0.14036269486415753 0.4035867160294192 0.20949189890023112 -0.15630385854689932 -0.09506202327528734 0.0067654983306911776 
-0.2990715006159058 0.006095149407278955 0.36661744069198887 -0.3856856322696751 -0.3264051530146779 -0.41203956648918416 -0.4386074970830973 -0.2388211001630235 0.10469725460419421 -0.46532918691704905 0.40692722884888877 
0.46548354598156416 0.3366085730091699 -0.23671655594196805 -0.36924910778179454 0.18283328213243288 -0.021799797638730745 0.39963088512864564 0.3214088918830107 -0.1892281572518555 0.4734951950412346 0.4264298138390019 
-0.17421692006712075 0.23488216870631562 0.14675512884587594 0.027344131051642573 0.36468231407795215 0.06524110653655668 -0.4580976500667616 0.3347965101947099 -0.3617817629487994 0.1504172089348489 -0.08578162051603555 
-0.006575717900449307 0.12314532504098452 0.1759270035910655 -0.19645219186469798 -0.06357308641730652 -0.27374216197104195 0.15504128891847235 -0.2792229118923545 0.03865372995055183 -0.048898630415774025 -0.09793991167200988 
0.1131455641921636 -0.14186717252192393 -0.2403305676376244 -0.35834870048000345 -0.06101414508685288 -0.49315721156339465 -0.1335790947345663 -0.2474257261915035 0.3787797561216616 -0.19811936506150274 0.2888671723434568 
0.27008671503716053 0.43695432512833865 0.23978175327332274 -0.40285742561452986 0.17855937163609936 0.4476325917890215 0.009597799038589927 0.45438537662344813 -0.2857000689478859 -0.21240806967760872 0.2144412063561678 
-0.2795792178899251 -0.13168644517350458 0.42097234490648605 -0.2934438832787968 -0.3968484529521378 0.029704984277893032 0.2528159537073086 0.45757701328573075 0.08522564555661372 0.24265228637605452 -0.3476918871381125 
0.18348788601812138 0.12796482781811847 -0.1366393001980396 -0.07837060256926631 0.02289670492869067 -0.03979844936733612 0.4981296937364602 -0.06738277235765044 0.42759109071367063 0.09658624248685266 -0.02035547653156944 
-0.36902556676984444 0.06594277525580095 -0.401909293849801 -0.20417098612178686 -0.3834484722310214 0.4625802019882188 0.48684721193201497 -0.17592655012250036 -0.45173175027595003 0.30184977252802814 0.15812795435397764 
0.4433779475894578 -0.30647085008146735 -0.19206154475419746 0.094182085319781 0.09792795356641137 -0.4554728701358607 0.38113106624946447 0.17781295171641487 0.16784540613181353 0.0576175936625114 -0.28247182068885746 
0.42799152247751915 -0.4336644202803599 -0.26301474855065776 -0.03134843653888031 0.035466016390444666 -0.1728240566149114 0.4801146658455927 0.10771522246479848 0.16324249693974457 -0.4275297117628639 -0.1698857397075645 
-0.4390569906971501 0.09497400204181139 0.1578178723148187 0.03873336350766199 0.3351637172255961 -0.03628851758317897 -0.019476470494519837 0.13395002698361103 0.327017437612373 0.47413224858313896 0.40620169417063345 
0.007297115606844429 0.23445765303217225 -0.25672311747801835 -0.479896191197533 0.3886328827111101 -0.4921643327410492 -0.3720108740065907 -0.05827533211395797 0.4598513753925644 0.0757052379624501 -0.3183329048569219 
-0.2452794387822309 -0.22593276900694204 0.159586775059134 0.1885991099864882 0.19889803632893033 0.0930980805435857 0.3522825111923086 -0.43892973615595077 0.14700881834872104 -0.26639264022809683 0.27593482257396285 
-0.2474090272324434 -0.45368673413541594 0.021059054876445216 -0.44112770090903075 0.24001229394703127 -0.05664917606999742 0.4906750750540998 -0.42561089708885413 -0.4420430692164633 -0.06991690682578888 -0.45412522811831246 
0.3699548648956531 0.3309089696132659 -0.14944912150941736 0.38721591349121554 0.48195425188683416 0.24146945936624287 0.3894141902761954 0.15864441233227866 -0.12109358808174286 0.3976988762335958 -0.27278034784690985 
0.4228999946693567 0.10521633320832191 0.1181317428342149 -0.2080327657575256 0.27421392679425194 -0.19213815761933162 0.23996283778683636 -0.23747580648508937 -0.376026437302063 0.220021160075904 -0.3259320739404191 
0.3866609466881127 0.4538179235252552 -0.15150213522376144 0.07993674484016611 -0.13503998471279532 0.12066779195474231 -0.4340986571551695 0.2142597246617749 0.02157613539562364 0.11948186162305163 -0.4561072152011888 
-0.28117652460075826 0.23380126856430916 0.062071077941671104 -0.019592159142146848 -0.1434645817265756 0.12461617649224088 0.014090779691578792 0.3716191397920512 -0.0211895956974264 0.3358854385537837 -0.25262931969705116 
0.15850284336542697 0.3132175530722343 -0.2054199037984369 -0.08896928048834774 -0.06177436157966176 -0.0028011335304621854 -0.23961118049127905 -0.39762947244394076 0.07216966078651577 0.15183548978289285 -0.3996957191941607 
0.3273092165449475 0.44526433454597525 0.18905154070534003 -0.325751133583543 -0.11980909097383774 0.33539636927067995 0.4763093245085006 -0.06447033325568496 0.24406100930776797 -0.16298040612847864 -0.05523579867130757 
-0.1491100878467 0.21505678157785502 0.049689150584713015 0.22001101312174343 0.027149955196167475 0.08834527238800738 0.29009493879419257 0.37896809489816263 0.4949081166914132 0.408080453887946 -0.08472835439858695 
0.4921094575433108 -0.05550248319106599 0.480140517691233 -0.04498606484963086 -0.30283103538013634 0.3353724127389528 0.07394538330368217 -0.35687338640895605 -0.33139472712093 0.20732326852844263 0.49844364005265185 
0.10999177999185761 -0.0034705956044652764 -0.289602737754466 0.027396944887646213 -0.0469638663633154 0.1694620011940785 -0.1598735196140082 0.47037916984449946 0.13703315057491883 -0.43279975528128223 -0.3843563769243249 
-0.4615533232742356 -0.3072233670765583 0.11323946854320266 -0.02950907914134282 -0.4627750669558671 -0.01948661651435779 0.010607704532145656 -0.06059547112183972 -0.16480396753700355 -0.13637514843714604 0.29063617769629635 
0.3190838723531808 -0.49873945352918536 -0.0016016123795143944 -0.2588976832721521 0.3569311971662331 0.4831861674948893 -0.4126688595388297 0.14834629161667656 0.17897359841487182 -0.2926550289917881 0.36626038229730273 
-0.31262419739045344 -0.39334373019776325 -0.4798202623744966 0.29971638815734847 -0.2753618775174109 -0.2680777811049311 -0.03687076985436688 0.44424497597438606 0.2600524766935556 0.1209702424626431 0.4752811248611828 
-0.29395145154364044 -0.27194017712856555 -0.2006902241557288 -0.24818938648742783 -0.23285368822560182 -0.09813897810837291 0.23420727749515657 -0.3486986998813234 0.2833553404551281 0.20067888842264392 0.3753459620767473 
0.2413347484110655 -0.43225363101457437 -0.2132068506032665 0.4404968367234441 0.2992734767467624 0.3648292045454019 0.4572616528867114 -0.4597743397478218 -0.15604844645337246 -0.006425397156356039 0.4846554228994855 
0.42413726155595 -0.4359739149851546 0.09148075071475503 0.24179876647808296 -0.39911536223972477 0.3300315697209789 0.42724428744131127 -0.3425798271396959 -0.1648524195078428 0.3297188712903949 -0.23380294159850046 
0.2927833376283123 -0.44298855160362016 -0.24995140026905316 -0.4294782037813578 0.10378226475278951 0.03265372353681706 0.3442488532243685 0.39536096736716153 -0.24135229329456254 0.23997216178546876 -0.331364616795251 
0.2022850135199259 -0.28167261376691755 0.26876558007770035 0.2514320166228715 0.45318763688591135 0.154765017705929 -0.2776962743265883 0.46461797784972025 -0.22947286597581773 0.18171869910704574 0.0356008934728782 
0.40986725435620475 0.15393472878144 -0.19657779531432307 -0.15456747011115912 -0.29906434520091807 0.22856214038826805 0.4483075135994845 -0.4518874593382054 -0.37261154466471036 -0.23285776915964884 -0.051829746537440324 
-0.03672573233287757 -0.18164790870948155 -0.22441177663669365 0.3475747488408427 -0.41462490681140984 0.19001153447926467 -0.23894153760292458 -0.016041756401642737 0.24937149177643614 -0.3431355328015123 0.41176530806248146 
-0.13419084254943636 0.16298726010600406 -0.18571782985678464 -0.19059171393004304 0.4944572472593851 0.16522490898338904 -0.44128355018129484 0.46796306239978347 -0.07557151046331867 -0.2407537790929768 0.4019305854444115 
-0.05334016352447857 0.037980567611872074 -0.06252518225125081 0.056921531865695596 -0.4796645454798063 -0.27864980761097824 0.06775018818228296 -0.2742600777330224 0.406946140077862 -0.1265938078142187 0.14158890405407987 
0.40320280393940344 0.3498783469996062 -0.04818252899170539 0.49908554342651645 0.4255340600956322 -0.0682023982759743 0.0675082195345802 -0.2602874307181384 0.43925549976188116 -0.1428738724202494 0.4750873430013538 
-0.09574555389219774 -0.05680851938751397 -0.4181580370096629 -0.3248970665410177 0.17033825091904142 -0.434761433196596 0.09214388656815431 0.24338655023781242 0.24249972880948323 0.27559100785579216 0.3376276408353145 
-0.06658369452609236 0.3374496790385999 -0.1905985111596804 -0.19002889658449607 -0.4404580168499673 0.1661828369974767 -0.3256037143550413 0.024726939925406644 -0.337921184146476 -0.40320244831918517 0.25275253110759477 
0.21167338985334905 -0.02030836346613163 -0.25462882826256794 -0.32841548340308535 0.3482752482948821 0.31015399395400356 0.08696283285913498 0.31267489535868953 -0.21884171064258873 0.427482223740957 -0.19520860887342228 
0.05962631698755727 0.07210264265087418 0.3416069183261451 0.002863835937376269 -0.3606032456699574 0.3779115238572476 0.33616010141929176 -0.40419554492998877 -0.29477734863237326 -0.3723862030819255 -0.0993811685516619 
-0.3406365027311701 -0.37077848863823015 -0.0041901113767924825 -0.11503873338557946 -0.2239410084819865 0.32550515729435314 -0.3124271337967599 -0.05184564453882201 0.4426329059864469 -0.19157527594156465 -0.15183292550727423 
-0.35379286945793476 -0.08052082142392603 -0.3943940939553906 0.4899493813350363 0.3111871880627256 -0.0030725722205362516 -0.4082763571392748 -0.31083132947904757 0.20951195750438 0.029243221415309772 0.286503393958652 
-0.053018598523711824 0.3359909363090755 0.24443176421711565 0.16922582576362688 -0.4681475004421083 -0.4004915577073571 -0.22359101652658808 0.1020504004982512 -0.17538788357364588 0.08690104943561194 0.08583005448680214 
-0.47423710818934794 0.17279071120040734 -0.4465023799775959 0.4368425901034829 -0.3059097531020284 -0.47254362292130736 0.2819541284640068 -0.12074269104670943 -0.15348402854274712 0.18362968776371535 -0.024570738631081057 
-0.25089320487110256 -0.11543218580027648 0.2744532040903065 0.4068111027015606 0.045288467670833055 -0.18716124002922074 0.279644195171305 0.13261916321572675 0.16596487630748402 -0.06645864463955586 -0.29963943303638296 
-0.3016298737851526 0.39562132110072135 -0.4578154096009063 0.22546190146313205 0.41160948023362287 0.22215648508471242 -0.3379986366345171 0.1682486847631327 -0.06052411445006001 0.03310945950628408 0.17604382715596334 
-0.31188541693768157 -0.3004216341581457 -0.008898120259142384 -0.4315970303781953 0.3281481779203652 0.25613122393524046 -0.0791983105564733 0.36979770618270325 -0.30242786595038074 -0.2922948201725063 -0.14680951697591582 
0.3178179035955865 -0.29299083411283544 0.3586174379630669 0.4676439124560646 0.1883949599870932 -0.37508405554494695 -0.19710249127691792 0.04831026042965003 0.23261227190148404 0.36512772204731503 -0.08207043823204774 
-0.2715000881568683 0.16175743547542865 -0.16169251285552622 0.1642862636690744 -0.26472605782644165 -0.3364434173110846 -0.0958041373970524 0.018932927642582698 0.06614731828079512 -0.4961790688799822 0.44690867185989824 
0.33089515401524294 -0.46920133302275735 0.37027399786115733 0.36213126477877555 -0.11835306187028038 0.37290476058090494 -0.25088238215981984 -0.20708994813947046 0.45689049591376896 -0.24930508575057608 0.2899334401382756 
-0.22015698227942293 0.29206277811528725 0.19954671823706782 0.3108061583803494 -0.3981767743435488 -0.15918177214711882 -0.17407874937234258 0.32309330653168744 0.47508981749777046 0.4339009498069091 0.38916226830668865 
-0.28594420729421444 -0.048806264651229725 -0.45476639190396384 -0.38383901156629174 0.015602512098924715 0.30858638059528287 0.06271490463765506 0.06361372918831021 -0.4913091903266933 0.46789042408857395 0.17313045852491538 
-0.40642279995111286 0.26546483161323486 0.4775150162957795 0.2137474074879241 0.060251967537996 0.11500132232025584 0.4141277702353158 0.11757585453432984 0.1194020144001301 0.4335729277404592 -0.37840202412473667 
-0.11505481544109242 0.166543931299736 0.10662705760175661 -0.42762238478758974 -0.14904322469998088 0.286016766222826 0.48721814511653505 0.2768871539346621 0.38653898947945653 -0.24973063864186662 -0.31558016794968635 
0.08932594582388631 0.07024462151801436 0.0471791254568491 0.05528257067677167 -0.037572666514881004 0.29859431860483243 -0.36705758384829557 0.3451916402546492 -0.3109684719905135 -0.2353157286012525 -0.3909466472412917 
-0.4759806870296249 0.4349492744381208 0.22794012615600334 0.30411463276382966 -7.461139292006536E-4 -0.08455749271252033 -0.4776865446452959 0.30470009905891393 -0.4476723576275973 -0.1032513491463336 -0.19411925219377812 
-0.17578433336515598 0.040654676011781854 0.3144269905516116 -0.3582807680764898 0.42468190259805205 -0.36457128604137423 0.1919075910830249 -0.3819018774067733 0.01358761501411343 0.12401990589453471 -0.28452582104312274 
-0.13456275149229358 -0.2735592358822332 -0.40415125407652197 0.27601440147619183 0.008149976249220425 -0.2246303282306077 -0.3480953048880119 0.023222103813442696 -0.19859949758212891 -0.4048963369325045 0.13061526354785924 
0.49453829484582 -0.05402944336193616 -0.3501109993713051 0.22656133919322452 0.1789683191565613 0.3488436508787942 0.07837289469205833 -0.20642684506289644 0.455015158843147 0.40278008358074313 -0.05178577570531373 
-0.4299700300588606 0.20231965506587946 -0.3049309584070149 0.2681569045964316 0.04172663282361855 -0.47179958197210314 -0.07619102523267585 0.06252782628875897 -0.3335418540353773 0.47313751206184473 -0.3005191373015017 
-0.24840180482099805 0.22451317065167076 0.2633457027905115 0.3402434943241902 -0.19902644250900192 0.13055597267660501 -0.33606531110609883 -0.2687063045259275 0.10415434560808112 -0.35508402337459755 0.25275501383023935 
-0.1882013154308979 -0.1553647589092536 0.05609237107796239 -0.017119768501231314 0.27732150355011786 -0.35261140692689474 0.07132099198116681 0.230777222007308 -0.3586749885439613 -0.32569685012963967 -0.1516606746333805 
-0.36243162260012385 -0.11374656116390813 -0.05587373714553734 0.329024775999592 0.4423905997232884 -0.44714500597570983 -0.4353156430125509 -0.20562989132854292 -0.32029207313594854 0.2658228481000905 -0.24636721286178676 
-0.1497004156065731 -0.4334639775177983 0.3744960024846018 0.49371288400089763 0.3751176836510134 -0.3591117433524288 -0.4007245046672566 0.41947041223293 0.3119218620255453 -0.2706450981350754 0.31757553250974446 
0.0646165762971912 -0.4269002831591613 -0.3804217594075521 0.39754331677601407 -0.0873110160623608 -0.2609299382876076 0.39248818309564093 0.29344505840592205 -0.21160370130565842 -0.3202838274785037 -0.2704855655339127 
0.4535300888274447 0.0030077542558945014 -0.29550111821482006 0.15159269940089337 -0.04065104100309258 0.32437406100496735 0.35602618576138756 0.06963448383139015 -0.28508487546522954 0.2806439493822521 -0.498104963048012 
-0.2697691934419505 0.43476458164441467 -0.4735337301671423 -0.04909013996856881 -0.3742876268892481 0.14188120752808708 0.0014447068800532703 0.4223218711999187 -0.2957098811750397 -0.12038021822559486 0.392838351306121 
0.33052186040912745 -0.2361485626218679 -0.1338267558170524 -0.02202164705521914 -0.4873416033329624 -0.2579108868145692 0.37579399588225637 0.266596844163702 -0.27705744047225644 0.22599167308625934 0.21789364169589565 
-0.010758469185650932 0.44493913590067224 0.39532501332034864 -0.19669044953506043 -0.11482453133131199 0.33193331671551274 -0.21241267858279178 0.43644067679897436 0.43163823317697847 0.3755013125567016 -0.27397978057200834 
-0.34738111512647596 0.12607127821577002 -0.2762980917490998 -0.012388776789488243 0.1319964066871001 0.1838870037688557 -0.07715473123249406 0.30462364314929413 -0.035605721224553966 -0.4534129361698491 0.2405845476177978 
-0.4089579541830858 -0.186030157007542 -0.09148722920583585 -0.3568855171301438 0.3644228188408224 -0.1617735150738222 0.06523642389907147 -0.05444937455458854 -0.3060093948395515 0.05280224585361326 0.2625792420835569 
-0.36789834568372015 0.14742363473897768 0.20163797132064398 0.3824678108942797 -0.14856357824781363 -0.36837826646577176 0.09154025146291311 -0.2596816381234389 0.1326866110629944 -0.2731467204133047 -0.2191824018928865 
-0.011636636070418316 0.43881413624537124 0.09902768544464124 -0.026416511025801448 0.12031297521082374 0.2766129607433596 -0.15855683369022922 0.464482664301915 -0.1450306469981354 -0.2835976522654635 0.14520946497411036 
-0.49698742848224575 -0.26011107586779547 0.33950906955658633 -0.4733520724970175 -0.4977254836116486 0.16091415551843802 0.3279242707623897 -0.049677523240960864 -0.3960958604437431 0.0693729228743023 0.13806008901497857 
-0.4220435379978208 0.2290944212479633 -0.3540299529333014 0.459320106775716 -0.45365771944391853 -0.10496125552889712 0.3088723840673572 0.448237024261378 0.13145174570069063 0.2567852473070057 0.4432150474039326 
-0.4497805965456283 -0.10869266421890911 -0.4535917866400262 -0.019766613337079186 -0.4265107711760393 -0.10322463646551194 0.32456587241312473 0.48645127498661345 0.06358018890773742 -0.04270559576482025 -0.2660715308004662 
-0.2631666027815056 0.441806535586893 -0.17234700849328521 0.2496241081942583 -0.15946429916027882 -0.1825993323033127 -0.25771674846691595 0.25876426108960304 -0.13613572787314798 -0.13944277742051814 0.26513735937071836 
-0.3307252907625413 -0.4477200586500435 -0.3675899259728732 0.36606674013135854 0.14767189049141038 0.19176257711734268 -0.19199186487896536 -0.16127557634669465 -0.48391154199466035 -0.13042508627185034 0.2996445957330268 
-0.3396374404091733 0.30076627641756093 0.3954430719888562 -0.10956678492187222 -0.3395002638772332 0.41739872246448895 -0.07360287961539214 0.12181498674674807 -0.08671723107280471 -0.49688139805148646 -0.09800843011270222 
0.3437165576058242 -0.4025294935846033 0.4605917381138711 0.24135234870979838 -0.46762816617135206 -0.32168223823729136 0.3665907285710116 -0.1205264817238415 0.20835647709753746 -0.3427599317464317 0.015586825123048764 
-0.3725868572778217 -0.4538252102200425 -0.19200967005614833 0.018312777175453987 0.02951469717753996 -0.44322336434014487 -0.22781898462110595 -0.44408727478698196 0.3605066749911755 0.04567220829750107 0.12233665240481528 
-0.3977900942545416 0.15630998695144904 -0.09814947042749356 -0.48273714018323566 -0.33021350004251315 -0.2953913474091868 0.1564971425169568 0.37236999670044 -0.0900152950716544 -0.26528327214940806 0.16554564782010728 
-0.45330908181995444 -0.29739896642363917 0.1409999972506919 0.21638613495264925 0.40868372902035477 -0.29203854241336824 -0.049911383832098144 -0.16340649870168045 -0.21548755000841247 -0.27777254476060564 -0.10065774616521084 
0.09132700674973349 -0.28465040852861956 -0.4238015921522218 -0.06749313962029424 0.1960917548246709 -0.3456536858509356 -0.2514610960686172 -0.3617717040485675 -0.15715803780194837 -0.280732209714151 0.326274323005188 
0.15806432603492804 -0.2600552574869409 -0.11660767602600719 0.438561511312597 0.37286409656039465 3.121642694589033E-4 -0.4648751239053479 0.3141557098545349 0.2398591469240765 0.17704871040089631 -0.3341231573600676 
-0.3313407732084862 -0.002461636651534871 -0.05775004443313381 0.056115833262798454 0.21455070804809395 -0.4186457162129529 -0.36787228328937205 0.22109043434326425 -0.2948413491838141 5.358737946690173E-4 0.14042532003105312 
-0.4494134096057084 0.07315628282148046 -0.3852411997116605 -0.06787310128696722 0.031174194967937274 -0.09518022210501353 0.21915092971688144 0.2707522904069216 0.17475316783843375 -0.29679553599601605 -0.4029124613156071 
0.10506902912345684 0.2938108979825461 0.13655955296055267 -0.2675428687005459 0.4448421575855628 0.061653711557267954 -0.25728570908019277 0.18655516607731204 0.47028058671064843 0.3749769758241007 0.3658337626080519 
0.23948992764650634 0.06612923897787304 -0.10351022925270381 -0.06114435032434795 0.27196099800820983 -0.05110610265129967 0.2969120313003958 0.09308417227217447 -0.4795023404272404 0.06447577146344818 0.138512912112994 
0.47583095463680536 -0.22227928815453124 0.4735312945202814 -0.45353828699917464 -0.4123433828615066 -0.17108185972756618 -0.48683808296150966 0.2996130058335167 0.412681374677228 0.41720145357869454 -0.37392233076285 
-0.26104955191812385 0.10859663747862924 0.311736169203118 -0.11783257564528549 -0.06023559722001248 -0.45257648124710304 -0.38298376559317326 -0.11755233614006388 -0.0772597685044073 -0.44627110480391885 -0.19412098262544508 
0.4316509417235689 0.2894863603765059 0.2739229014042941 0.0849341430829228 0.09325375312331396 -0.4403684298535243 0.22842635877513506 -0.39169459396087836 0.4995333832167276 -0.3405262197999277 0.24791055722270672 
-0.25593751352908434 0.07928139979332716 0.46626316102471865 -0.3245242756122906 0.06744484561059039 -0.31290850010064053 0.04755466686663257 -0.07145109118060344 0.00595727251815481 0.4706776698240187 0.25166621553672885 
-0.24255455966984185 0.09364319208408112 0.19646808017887396 -0.39686954674517483 0.31195327968404485 -0.39468208286897044 0.16875942738490413 0.03612979301399977 0.4329621841467026 -0.06372907729466037 -0.17599529966234906 
-0.1407445101440754 0.4230751341197875 0.4689230138405812 0.059347427571211364 0.4865335995136645 -0.08169760942048876 -0.1748499149802003 0.3633036652992905 -0.10748798533508175 0.3823533983883448 0.3414627124692744 
-0.14346747597402187 0.4533041157028991 0.17570510438519116 0.3239564135989834 0.42192506814747177 -0.17916331466562674 0.1135401762205599 0.1409246276422209 0.20578021242837907 -0.25584939320194977 -0.0801880708567343 
0.493252903850825 -0.0943744735094304 0.29945507196241705 0.009106937154366723 0.26618903942086414 0.4252799580453719 -0.1802628459778589 -0.4163589311972806 0.21081091252837814 -0.32595560246875166 -0.07491968110364344 
0.11963760261420953 0.32948989712048504 -0.48555485167857204 0.4464470593859513 -0.06449889356768623 0.24687490298013837 0.12174429070450166 -0.2914677974400911 -0.3163854439601258 0.03639770896450201 0.30847046888071983 
-0.4086044677116716 0.2882508091156003 -0.05797225332795264 -0.31148829790489985 0.025932830938469986 0.06400421804558798 0.18598074668053943 -0.09214759764449687 0.09484750892982541 0.4923118179009687 -0.41468815779235624 
-0.44717595439446745 -0.2913647510167032 0.40804790744354325 0.013800744548786548 -0.23822044844248325 -0.09480377753732161 0.15383952082044006 -0.15973676095209288 0.012389657594041426 0.18204127752541543 -0.4033352740297492 
0.35039917183033187 0.03429867267065245 -0.08834079649213344 -0.23054066703400866 -0.18348554815964457 0.3056666252707456 -0.1865352617985757 0.2998723887155543 0.3179306380656046 0.13216294861836608 -0.34015226125580056 
-0.2810262215053334 -0.36537767445550384 -0.12173300678029142 -0.12080383898599567 0.20463246242122946 -0.46240058668693707 -0.47673135094559915 0.48536622133101615 0.30744726327513827 -0.41822268473397506 0.3481523845994602 
-0.189074269473667 -0.2684738800864872 0.07055546635606535 0.22458632715068538 -0.14940266108694722 0.29807446203819354 0.2060503547223581 -0.3264725650723619 -0.3683198871721999 -0.19333337303267395 -0.43509370647928947 
-0.4115070246975414 -0.08017013175480914 -0.3727613649508965 -0.053166360001011936 0.27733717185980433 -0.25857020738965 -0.49474490545036576 0.3315005313506477 0.26641131227622517 -0.3421153726951288 0.24316613344047777 
0.14913125665009053 0.13227468671403775 0.4625231361875545 -0.3668146076352625 0.32114002066241454 0.47866233334795283 -0.012604519410243875 0.2595833560694979 -0.44064340479893815 0.06020532800890854 0.005103206298713969 
-0.4368953253074518 0.22587609916046836 -0.030562324063277746 -0.21009864174964266 -0.13421756061012657 -0.34970815019293855 -0.2500863489922762 -0.23733604568797828 -0.10866428008354179 0.1770469167953368 0.27579776091789043 
-0.21409467206155697 -0.31549821325977767 0.3728667909944021 0.24707928648142552 0.097901525096448 -0.26793269623615035 -0.23728859051697704 0.18960194174600997 -0.4209424631622888 -0.4809720653939439 0.1824123978115031 
-0.07961183615129197 0.029017605650181744 -0.2847809911784709 0.33713673281967094 -0.45872268552443785 0.3996176976790936 -0.31907530910628235 0.4370459219180598 0.15768516994934723 0.47663029198496565 0.004386414677657546 
-0.1550049776223732 -0.3156680634779925 0.33235370523917707 0.3397961247298399 -0.4841564722673084 0.2960746264552454 -0.018550602096417346 -0.09872671268070798 -0.3670740530592278 0.3095189507890176 0.06403248180720211 
-0.4135106646259088 0.2544567905950753 -0.4601253104730739 0.05287204524827871 -0.14698334001695068 -0.028878728557444555 0.46755795160026137 0.4356594965580952 0.15114364681400172 -0.45417069117846287 -0.129667863323631 
-0.44134505483268194 -0.071188553560253 0.25758748618266314 -0.07068043992961481 0.3346228114478327 -0.032508060437201225 0.2036695551479175 0.20100339857476057 -0.18418041004293362 0.08224039695414687 0.1277431139665296 
0.2623798508273657 -0.2881015512541192 0.024820922691238922 0.43633654381364684 0.2827087254491424 0.2929465936634458 -0.23428402915456892 -0.05799340471856618 0.2528503816540365 -0.240527089530729 0.19899622897771863 
-0.4712058964952799 0.11196501053040686 0.08401548295654093 -0.286559669229694 0.37403116198770636 -0.44860936067567736 -0.46686085435584823 0.003958756228038318 -0.41970958563410554 -0.15319596646324507 -0.43605395019766746 
-0.04071042183104989 0.07224302432188878 -0.3276913840509207 -0.4441775263377886 0.455098398419426 0.3954188600701196 0.4838821756462829 -0.11400221648782627 0.4060285169520851 -0.38266109828924233 -0.2753438124539611 
0.18659239457936494 0.4859114928626458 -0.12378364603337577 -0.19921207064143864 0.23118323292366505 -0.487737584953324 0.248399423358733 -0.4957747300809172 -0.20948312341951525 -0.39065176120449474 -0.48704426581194826 
0.3174533366552589 -0.030147937837297634 -0.08646843340919896 0.0802743173488728 -0.1746488223078172 -0.005485090103462764 -0.23474375776176315 -0.17871194853805727 0.28057571611257603 0.14560146447583922 0.04395541496783795 
-0.21510398892247817 0.2214292882430985 -0.43563591123874146 -0.45467344571722845 -0.1766086629436241 -0.0750440609645866 -0.058330324769002795 0.07483207672341396 -0.04082244568776361 0.3930513693269503 -0.31198093715220343 
0.23694836509696449 -0.07921810932809747 -0.484340660405444 0.03996870306108047 -0.26340021931389623 -0.3478485495598508 0.0326678285969465 -0.29960258139322393 0.3773787133652087 -0.24355555525841266 -0.07509419039055798 
0.032912223036403954 -0.15943367689435628 -0.22599487906811855 -0.09531795735329118 -0.4652110264927556 -0.24036673831221367 -0.08606250917954894 -0.2524050233067172 0.29819535433752165 -0.4331871033325433 0.35967004307358363 
0.3098830312320544 0.43604487223860133 0.08150465412258934 -0.44887025545348247 0.20937293444671545 -0.0033176964327328307 -0.16532168775913436 -0.09038000458043305 0.3131228503635167 -0.27929718194773967 -0.3208855755648311 
0.31622453404365913 0.3711467884952051 0.10355803738004565 0.3222303362982414 0.28053516044546545 0.3631447687617875 -0.38079555167846846 0.036404963790167 0.1437277529723172 0.38395321138489447 -0.3670994309357799 
-0.0488701873148244 -0.15151174353813102 0.18346866842258602 0.4853613737629905 0.011977628208798663 -0.22198402316622246 -0.20191294593471865 0.4658297023806659 -0.09670573067281896 -0.0826911999321448 0.06323974123372056 
-0.09177407234927482 -0.02531670664023955 0.12216109153923294 0.18039678066812892 0.4423889141508821 0.4857669840268143 -0.4052181127288018 -0.07305311486205646 -0.4884770865012724 0.2893715487669437 -0.24033274946165017 
-0.45634760566862376 -0.37268390776213556 0.4101979938698871 -0.3906623830935768 -0.18808307606156927 0.47579874772011 -0.155795049239962 0.24677694910282755 0.3418924196117804 -0.09013997352003367 0.30334298514175884 
-0.21011229906032125 -0.36750905751822427 0.0684441143750576 -0.4390556004084686 0.02300193520211946 0.03565631704021266 0.3477982723634043 -0.48501323566078836 0.18146500531198417 0.359789107184491 -0.28325373225412165 
0.07961190358400105 0.03753575301738321 0.4810081130523777 -0.08418690127088069 -0.4603030433937423 0.01932278197666093 -0.00403002693473653 0.4091275394353161 0.05893711610616703 0.43920360127792846 -0.3537419246657041 
-0.4316184658195782 -0.38118512195145726 0.03414952204702193 -0.028109211190014527 0.45972610377010126 -0.21600621841826761 -0.07239377949015802 0.4102881199577689 -0.2226641564924764 0.3390891910017889 -0.1889441594671618 
-0.15292514681412495 -0.07852488137835045 0.02243243907657888 -0.386886143540492 0.4463876834876198 -0.04574939474242723 0.2943590577409435 0.17498953864849398 0.44089229277067543 0.18283691382407363 0.3207154079096334 
0.48336649969164125 0.4455060072062509 0.41781280372268503 0.12669267737696055 -0.17476484268619608 -0.22613958882920682 -0.4666520654805151 0.181760604998649 -0.17606321609932085 0.18282720155886123 -0.18366906488876633 
-0.4866120711215405 -0.30834578001553525 0.44797009145307587 -0.26686871702589754 -0.18459968475623445 0.19081170568224703 0.18157423913054027 0.1655397125382423 -0.08375930050861402 -0.2646774992151415 0.3449439623798327 
-0.12846759026704324 0.4030609803723537 -0.21765054855400545 -0.022051688686192006 -0.08814368255391902 0.15948792696772163 0.16622052353076144 -0.22866657143001146 0.050034954118896025 0.06807070124271275 0.30836757617290433 
0.24110965972491427 -0.3187555531848163 0.15283086782114408 0.30063345625131976 0.42935995480100964 -0.3253875883964482 -0.006999846048321934 -0.29598120265337124 0.25210608655946853 -0.37615718841885815 0.32594537415152314 
-0.46908320693763883 -0.15759272010860415 0.39267218847171925 0.3754436221942886 0.2861105221020861 0.4956555753206784 -0.48548619337332966 -0.40911474995030095 0.13028398054982537 0.11407101581140588 -0.04025192851590531 
0.16364616659553588 0.19952470619699936 0.3686890696485763 0.01946889600609414 -0.10121522277956496 -0.13472771634216718 0.14967128673226537 -0.4289024238977214 -0.236616716714943 0.25139376796883606 0.259559849134093 
-0.21087305213909036 -0.2927330646795955 -0.3614568549022785 -0.2808647712600242 0.4433603872455021 0.15749907988537337 0.48068938685083096 -0.4981744427030621 0.2873617274079443 -0.07503658590031403 -0.3653268231896184 
-0.009844749206866954 -0.31856614304591657 0.1295097160653098 0.06087988725781057 -0.043490642135952884 -0.48270521009075185 0.1495526373698226 -0.30840779113843075 0.41052951257242376 -0.28427760867273466 -0.46732233255738187 
0.38331294055794984 0.22674616276885196 0.053789929851177254 0.2657221715584017 -0.12967541354340606 0.06859070606572515 -0.15508379317730248 -0.20403626864920754 0.4189794573045369 -0.24127937592503557 0.04280577841909072 
-0.28053831328085543 0.44568984988141724 -0.0893705301233968 -0.33054352545026877 0.1082625046174559 -0.29368479872180164 0.3328025873753734 0.07776232551551032 0.03509265649294924 -0.20938084058008755 0.4442187540681358 
0.4508425636117901 -0.02767202380217726 -0.4373038907276299 -0.30121321917286525 0.11307795095758433 0.3914412703626813 -0.12325627328580868 -0.19365473663581978 -0.3180621119600793 0.06979518087745262 0.36728385562304844 
0.35914266834064745 -0.17496686401752448 0.32356046902567204 0.36391153266136134 0.3252542294647829 0.4034304483523996 -0.371295629376713 0.012877682668505752 -0.24581925810540073 0.08011707461806694 -0.13359219280528312 
-0.4987117121601832 -0.04508606912950297 0.05160460953540147 -0.265066134135979 -0.1255712097291496 0.35304171048689525 0.42101336349818486 -0.2931151912176243 0.312699414747324 0.21100599490546823 -0.12742015859884281 
0.27894778250848007 -0.10812628463295482 0.40441458502117233 -0.2696187495499467 0.16064471994504337 -0.21113123802515277 0.48734787798231094 0.1881733579993773 0.4792650428522155 -0.3850573554960247 0.35089004958398595 
0.4825883894651829 0.04007430258984934 0.059210673136182224 -0.11834635924497683 0.04854230008198368 0.17405579912575986 0.30759917228156897 0.16085530467678955 0.2435516196343086 -0.27014362734482 -0.23416854404653054 
-0.09046045913716783 0.05676198751499184 0.32227152137256687 0.45976769452772037 0.08183676540720897 0.32884185721861203 0.036519090846330426 0.11239668805414038 -0.2643197455625861 0.4004965487392592 0.40571501997110804 
0.30400444994011744 -0.430803371159619 -0.21979062743131506 -0.371621714546014 0.3105203080218213 -0.19897753485678304 0.3759179847873655 -0.3265432635544663 0.18476895781226976 0.39408980527356763 0.07068580183378603 
0.13227916511432924 0.3963321443235849 -0.025038405329569247 -0.06096995798643523 0.4200033568125383 -0.12204848459844952 0.1845872946900381 0.1984189789083366 0.20354355957743975 -0.36012035560844213 -0.3886115641979314 
0.06955324161671872 -0.26137474752781265 0.20831348020480644 -0.09612769801024346 0.07939704931691538 0.13552894948523464 0.020020747053920873 0.13751140982064403 -0.017473014372264783 0.44124872093396095 -0.43750358951871726 
0.019415418122026518 0.3992177652201814 -0.17479440541102675 0.48746320610789073 0.054361082716039344 0.47278530350825776 0.08631952393519216 0.14525605168093592 0.36703501915659753 0.33405978832143624 0.16115804375931275 
-0.011392401197636404 0.4778830568408162 -0.07253753549406461 0.3060438517053442 0.07657803933000851 -0.03625084173567805 -0.19898845032103374 0.1504170605474573 0.47284946858384347 -0.4004744926038818 -0.208315538880527 
-0.1255870796393358 -0.32266910374999613 0.2733252591060604 0.14791451555561774 0.35052849351954873 0.35599744099256014 -0.3047725419573255 -0.47739709080624215 0.20741754724949413 -0.4588869618002588 -0.32156630066359204 
0.4428767584880319 0.42326510277109597 0.16246314204201295 -0.43828564440730367 0.31692742215232717 0.23685896338684065 0.23994986500553261 0.16331183859009846 -0.22638684628422623 -0.12361210580466353 0.31887940779155544 
-0.4909929991757275 0.14711278882063294 -0.1508380231695139 -0.23850292242554683 0.46084434868966284 0.2167685844405186 0.30986277174664967 0.32180296462254643 0.2880499855921246 -0.10864283119043594 0.3305969025994341 
0.02540676724232449 0.16796643769510056 0.38738030469217455 -0.2670608438695382 -0.24784216204031617 -0.4176338522382582 -0.4074324172413839 -0.4896836046612849 0.07651226138919098 -0.416703988201346 -0.2713644323993728 
-0.23150326966194767 -0.14092424909556855 -0.05735697722259525 0.13144894866107193 -0.4573865412296858 -0.19751201879873526 0.2709011208162869 -0.047918907466925065 -0.1889337622486168 -0.31421038594003414 0.29315785554518126 
-0.1511271254846407 -0.480193045601241 0.27364088410798637 -0.3958911420611738 0.2884402926311277 0.4549312159426778 -0.039763341412805686 0.38894702478153276 -0.09731741481518319 0.35716080155474583 0.052489247584276755 
0.007034532494150528 0.008018666875980992 0.004105552988956175 -0.02468857706488155 -0.02184279717646452 -0.006122051334493279 -0.358757054623818 
0.11095129835259081 0.04788817252599092 -0.2809848719333799 -0.11547830740633709 -0.15381177304990312 -0.335782342645063 -0.4511789143693954 
0.08588142109178748 -0.06516016304874041 0.01662790366785127 -0.04167232937370416 -0.029322653908169346 -0.031040807904838534 0.27174710546912095 
-0.01743521221828962 0.054266783106296304 -0.05738757149930931 -0.007018660384214654 0.06593059622218997 0.07777675417389163 0.13687062469359912 
-0.3105533095049306 0.23251753953256604 0.07842338512904479 0.14382009194769516 -0.2032641822014547 -0.1647635591466664 0.2980753423654743 
0.2657476202435117 -0.19121545406383214 0.01547159150768199 -0.08425695712369267 -0.016464779024120253 -0.06773629261805465 0.3151285152268083 
0.05258274791083892 0.01579839662807596 -0.060525054827436225 -0.056434569804432975 0.05201868472577988 0.024833590702484046 -0.43147668497908376 
-0.23300028802235162 -0.21023616570530654 0.24089335972771567 0.1754116043524332 -0.010099216776605005 0.25896821939510345 0.17313607928696584 
0.003563251685468602 -0.003305209850985022 -0.12023103776221265 -0.15071755934057088 0.315003003514198 0.23603023840595652 -0.2526723451892485 
-0.46449395971397034 0.1961600733971204 0.11052666476536913 -0.1444756511233653 -0.4307157990949375 -0.11666391363730631 -0.33090473101810547 
1.5180083339343902 -0.26327881697481303 
1.9808820046378643 -0.2508677853624488 
1.3086307246494344 0.08556576320049436 
2.141769327109385 -0.3346804906977302 
1.910508145533486 -0.2992598162789759 
2.200485946613688 -0.10524372486180045 

